protein_id,0,1,2,3,4,5,6,7,8,9,10,11,12,13,14,15,16,17,18,19,20,21,22,23,24,25,26,27,28,29,30,31
Q2M2I8,-6.323609,-10.338383,5.0263166,4.4243755,-1.7280283,-6.931613,12.366219,1.0330328,-4.704717,0.17664546,5.275401,0.25926653,2.2040293,-2.7616062,-1.1361455,-3.2731853,-1.6542028,4.089702,6.227403,2.8003445,-0.04584581,8.503738,9.9066105,-5.829586,2.3773208,-0.074531004,-1.2275904,3.8540428,1.9703641,-5.1173964,-4.712478,-3.4356604
Q59FK4,-5.9699535,-9.408806,5.918146,6.3548174,-1.9494236,-7.52335,10.567246,1.1456743,-1.9810282,1.6670227,4.8669386,0.4092047,0.9320542,-1.2230071,0.31118292,-4.260369,-1.7080836,4.4201746,4.6218157,0.43904376,3.9051852,6.6797376,10.671424,-2.4282663,3.1031873,-2.2841341,-2.6928558,3.5623338,1.1775103,-7.45391,-8.338745,-4.4481
A0A2K5TT62,-6.8128195,-7.9157677,5.2041206,4.098371,-0.8021877,-7.756585,11.774771,1.4547385,-3.5529904,1.6384463,4.659583,1.1787633,1.943024,0.094914764,-0.17962694,-3.0369692,-3.0403395,4.476234,5.80194,0.4015559,2.0005305,7.290998,10.705405,-5.2701883,3.583908,-1.568639,-4.019836,3.9313905,1.1943127,-7.090317,-6.011526,-4.9267817
Q04771,-5.8934298,-10.192886,4.891923,6.9264984,-2.4028184,-5.9713154,11.541166,0.60636157,-1.7660353,2.430886,5.850886,0.23867314,3.3821375,-2.7245333,-1.5202199,-4.507772,-0.3868276,4.7763643,4.3630075,2.7836816,3.8633084,8.184173,10.243566,-4.3646317,0.85899806,-1.2830703,-1.7429947,3.3646789,1.2628148,-5.2767487,-6.872451,-2.8546078
P36896,-3.1681972,-10.075128,6.5143623,7.0643497,-0.9678092,-6.3920546,9.920197,1.0784968,-3.326635,1.3554997,4.2247553,-2.022355,2.6754057,-1.1843911,-1.4877498,-1.9932915,-2.060972,4.826346,2.5659037,2.6669803,3.9074292,9.143329,10.812185,-4.1544666,2.2049935,-0.6168457,-2.9875104,4.4823465,-1.645314,-5.62645,-7.3916473,-5.825217
P27037,-5.500097,-10.413803,7.438207,7.5652514,-2.1270661,-6.7480583,10.549162,0.25182378,-3.795703,0.75731015,2.5228813,-0.1949392,1.5566099,-1.9790906,1.7600461,0.37279996,-1.8631693,1.5689217,3.042697,3.8394456,4.2475758,9.782353,8.598109,-5.4305553,2.3693342,-0.47129402,-4.241707,3.585619,-2.8436806,-5.918515,-4.827084,-6.142499
Q13705,-6.630496,-9.762157,4.5007315,6.208008,-0.3190803,-7.5185523,11.287803,-0.9441894,-2.7468061,2.0456762,3.7454424,-0.26093432,2.027775,-0.80978477,-0.38854724,-2.9743671,-2.1882708,4.0810227,4.770348,0.5140019,2.3639975,7.021363,11.398625,-3.9722142,3.5539727,-2.6137793,-3.3245673,3.8857229,0.5073878,-6.592783,-7.0886188,-4.9807973
P37023,-4.3782725,-9.159325,7.073197,7.6747794,-2.8111732,-5.8895464,12.406907,1.2375197,-3.8234806,-0.47696576,3.917658,-1.2805223,1.0605441,-0.24342252,1.5504247,-2.2633312,-0.9868689,2.9734364,4.081066,4.3338466,3.5225246,7.789338,9.848983,-4.592569,1.7747723,-1.4106967,-1.4719429,3.2528195,-1.6367862,-7.486589,-6.507079,-4.8788266
Q8NI60,-5.728462,-10.44003,5.4016943,5.744091,-1.8756628,-6.4734693,12.062437,1.9159445,-3.538792,1.2546225,5.6483393,-0.010744315,1.5951064,-2.5784595,-0.23986895,-3.2177222,-0.97204036,3.8329663,4.769707,4.494117,2.7608442,9.866287,8.883516,-4.489375,2.015866,-0.96431494,-2.0293446,3.0016017,1.5340574,-5.367717,-5.177203,-4.390701
Q96D53,-4.832936,-11.3052635,4.0479,5.768679,-1.4149518,-6.5213437,11.266719,0.28554857,-4.3849077,2.2686014,5.0611997,0.35668346,2.6002674,-1.1380882,-1.9143964,-2.8025444,-1.5054469,4.849352,3.990769,2.3702917,4.5486207,8.780515,9.098534,-4.965579,1.3621284,-1.2834294,-2.3373837,3.4175322,-0.12011906,-5.3554626,-7.7739015,-4.4319515
P31749,-5.292385,-9.561107,3.6061704,6.003657,0.55480844,-7.136981,11.730639,1.5370978,-5.31089,0.9628241,5.4188075,-1.0883112,0.8911263,1.4593807,0.23948164,1.1154515,-1.5345483,2.1230154,2.8868244,1.9802439,3.0190852,7.3114285,11.039921,-5.8007593,3.8259213,-0.70063865,-4.720281,4.7153444,-2.6730635,-6.6966577,-5.4512086,-5.596282
P31751,-3.6783116,-11.463226,3.6329067,6.1365714,-0.19289488,-6.230112,11.653948,1.0292852,-6.2769375,0.082399614,5.3390574,-1.0246745,1.3697591,-0.57660955,0.050450765,-1.5517057,-0.810148,4.389811,3.6427805,5.920947,2.671629,7.742081,9.84154,-4.6821413,1.8389025,-0.47062373,-2.2046893,3.548773,-0.6866145,-6.4245453,-5.9587135,-5.6133456
Q9Y243,-5.5639243,-9.36801,5.6463394,6.011043,-3.0342736,-6.1229916,11.563351,3.2009819,-3.3615248,0.7026504,7.236332,0.22073856,2.03994,-1.3569924,-0.7889777,-3.4859998,-1.2695886,4.3560534,3.7431986,2.9550436,3.3383014,8.137943,10.419315,-5.0981755,1.994608,0.7043026,-2.1948633,3.2012146,0.2246814,-6.331107,-6.1586695,-3.4819767
Q9UM73,-4.359846,-10.167815,5.9200206,7.798384,-0.3929228,-6.5169573,11.622801,-0.022604864,-2.6024885,1.5003188,4.027893,-1.2235774,4.680702,-3.798324,-1.863216,-2.2611516,0.36368328,2.632244,6.5278234,1.9704958,2.3580704,9.35992,10.149631,-4.600716,-0.15451787,-1.1851479,-2.1569464,7.0351524,0.31982872,-3.192237,-4.4695206,-2.635005
Q13131,-5.064173,-8.877437,4.6539254,5.767356,0.055286035,-7.3223186,12.488194,0.7511905,-2.2622457,1.3563173,8.677647,0.95316637,1.977784,-2.17947,-1.5224441,-3.8215458,-0.64233226,3.6187742,7.7524753,2.7678468,3.0200062,6.5429535,10.499877,-3.2618823,2.2085946,-0.65340656,0.042389706,4.610533,4.1381617,-3.8603282,-5.7398067,-1.2872269
P54646,-4.8826175,-9.454781,6.2118955,7.389026,-0.00028107624,-7.469816,11.777483,-0.6097598,-4.7692766,-0.5139332,4.751057,-1.711894,3.2982073,-2.5484068,-0.7430714,-1.2697088,-2.140133,1.2897301,4.976294,3.1437943,1.6980679,10.719247,8.453867,-5.020141,0.58418095,-1.1205435,-3.0817587,6.1803226,-2.1005945,-3.117551,-3.8536143,-4.684717
Q8NFD2,-4.810773,-10.025023,5.4201,8.700911,-1.0023239,-5.868152,12.009681,1.1808383,-2.7881389,0.08295214,4.7653275,-1.9055145,2.5968213,-1.1892006,-0.51277727,-2.3326352,-1.9112866,2.1246152,4.0365014,4.1472354,3.6251695,9.962798,10.123192,-4.768316,1.6864736,-0.8143718,-2.4920335,3.4478173,-1.2036258,-5.044647,-5.0667095,-4.2002993
O60285,-2.860101,-10.226068,4.8081036,5.684541,0.4537462,-7.275118,11.561765,-0.023411969,-3.387096,2.4583821,4.2508883,-1.591312,2.2122757,-1.3458145,-2.2303457,-2.3550234,-0.6147536,5.329296,3.5481486,4.7171364,2.5294938,7.803055,11.350699,-5.0485067,2.4262345,-2.225325,-1.2720457,3.9848692,1.5571975,-5.3570404,-7.212342,-4.376424
Q99683,-6.222181,-9.6636095,5.1419997,6.662799,-0.38426954,-7.336089,12.397622,0.5931546,-3.4445934,0.40298882,5.529251,-0.95514625,0.8118317,-0.5451125,0.9613748,-0.7291593,-1.4371066,2.7790744,4.0524445,3.372011,2.7847617,7.233415,10.582492,-5.147844,3.20516,-1.9516717,-2.4912236,4.1022096,-1.134156,-6.2663836,-6.3395457,-4.65654
O95382,-5.4025207,-10.685816,5.0341115,8.322844,-0.98321676,-6.1118603,11.227158,-0.9451377,-3.179491,1.3347507,3.805922,-2.0159137,3.9238765,-1.7050053,-0.3868853,-3.6993036,-1.2059249,3.1644611,4.399822,3.107637,3.6685348,10.0428,9.021496,-3.615383,0.672585,-1.6354315,-2.5506124,3.5425968,-1.4190131,-4.97071,-5.62072,-5.5264606
O14965,-6.1853275,-9.669401,5.5237107,6.2959456,-3.5148807,-4.9729686,13.403876,0.2796191,-4.340149,-0.16409355,4.985902,-1.3282875,2.1294384,-1.6824329,-0.37927034,-3.2233188,-0.7349129,3.2014499,4.5196075,4.2447147,0.3333145,8.96378,10.071679,-5.968001,2.333593,0.052329134,-0.20530556,2.2398703,0.12795104,-5.633034,-4.101831,-3.7348301
Q96GD4,-4.460826,-9.159456,6.0258064,5.6160107,0.6233857,-8.239241,11.025615,1.5241892,-3.2496116,1.6671412,4.4686475,0.17474055,2.7287707,-1.1000733,-0.85494983,-1.096397,-2.4043605,3.6274502,5.0949574,2.827868,3.4594367,8.306796,10.648402,-5.9508076,2.4225297,-0.7997373,-3.8851202,5.0755363,0.29631287,-5.4426484,-5.73755,-4.5523257
Q9UQB9,-2.8649063,-10.722229,5.9944835,7.663119,-2.0206914,-7.0860615,10.420183,1.6696812,-3.7687185,1.0524884,4.5961585,-2.4913573,1.8772006,-2.0459337,-1.5258629,-2.0872624,0.4376436,3.9986432,0.6911584,4.2723365,3.872667,9.1625395,9.808768,-4.477408,1.148977,-1.6352233,-1.9053657,4.4313245,-1.9170235,-5.3814154,-7.3514023,-4.6542873
P30530,-3.8241758,-9.273499,5.829934,7.109703,-0.16272086,-8.85794,10.899583,1.7676083,-2.8898463,1.7595297,5.0900474,-1.3540103,1.857783,-1.116382,-1.4676731,-1.9317613,0.087101,3.4422348,3.3643649,1.6632903,3.4602149,7.546084,11.734407,-4.084328,3.0497358,-1.8831111,-2.7654605,5.7954173,0.24335611,-5.6289663,-6.583491,-3.9786587
Q9NSY1,-5.69261,-10.80803,5.4707875,5.340906,-0.9521811,-7.595465,11.92192,-0.5683918,-4.579838,1.758791,4.31135,-0.25542787,2.4528468,-2.9101095,-0.10147047,-1.8550339,0.32332107,3.4654949,5.806295,2.0131836,1.3331714,7.637909,9.915465,-4.810374,1.33775,-1.5947603,-2.2966685,5.852481,0.41764733,-5.6208267,-5.8441277,-4.249533
Q05D26,-3.4985733,-8.026718,6.7623234,6.7778144,-1.4477229,-8.967986,11.433514,2.4160726,-5.228977,-1.3742911,6.1390147,-1.5122644,2.1675055,-0.5260014,-0.7158261,-2.9670115,-0.9610674,3.8239882,2.7983215,4.2958474,2.2746985,7.8103456,10.135332,-5.3583946,1.6117773,-0.7122366,-1.6938045,5.102082,-1.518647,-5.7770762,-5.660397,-4.48948
P36894,-6.2322745,-10.0274105,4.662853,7.117212,-1.7329923,-7.743666,12.087397,1.34598,-4.118591,-0.8588225,6.1100054,0.035956226,2.1756928,-2.0620813,-0.610291,-4.930758,-1.1642134,3.7166698,5.7639046,2.5925503,2.670491,8.559191,8.649858,-3.4841194,1.297097,-1.9465252,-1.0752826,4.1735277,0.8226397,-4.8540707,-5.844571,-3.4069517
O00238,-6.3066382,-8.972036,6.331055,8.922032,-2.0447,-6.162852,11.801375,1.5391046,-2.2885034,-1.5985914,5.798866,0.33153147,2.182967,-1.9806583,-0.635324,-0.80864966,-2.752853,3.187264,3.7346566,4.577788,3.7640424,8.963274,10.418117,-6.1475244,3.6524289,0.074261904,-1.6248398,3.4924657,-1.1547285,-3.2797952,-4.0041494,-3.0995193
Q13873,-4.9764276,-8.361959,6.993342,7.2895546,-0.94801956,-7.3256884,12.560052,1.5585653,-3.197253,-1.0206006,3.5150537,-0.084445775,2.123077,-1.4829379,0.6031382,-1.504706,-1.9324292,3.1239266,5.600533,4.6564107,2.167801,7.8405247,10.628807,-6.2079744,2.125663,-1.6855292,-2.2899218,4.8954988,-0.11813484,-5.7306533,-4.658705,-3.6983228
P51813,-6.2822948,-10.829552,5.7304645,6.6924887,-0.59172004,-5.6307745,9.959257,0.15076174,-2.663442,2.5711908,5.100176,-1.0468537,3.4236171,-2.7089798,0.56199557,-2.227779,-1.9471674,2.9005885,5.0314384,1.3089314,3.2753525,9.768399,9.874921,-2.9840922,1.4648241,0.3909081,-5.015756,4.585693,-1.0439694,-5.7145643,-5.3093762,-6.1759243
P15056,-6.4747043,-9.701527,6.4827538,7.3103476,-2.2253697,-5.484454,11.926097,0.54759073,-1.9462824,0.26030067,3.6948023,-0.50434804,2.8021803,-1.862664,0.5133546,-2.2782564,-2.9008892,2.8845816,4.789399,3.7243993,2.798149,8.752384,10.232509,-6.2960277,1.7635406,-0.39218274,-2.4111357,2.5828972,-0.96243626,-6.0238447,-5.551922,-3.9388373
Q13882,-4.6924872,-9.440995,5.111835,6.7064033,0.73684126,-7.6130276,12.19968,0.64527494,-4.610441,0.34082666,5.0342665,-1.4913957,2.9297905,-1.4836082,-0.98419297,-1.4020395,-1.3552872,2.755816,5.1252685,3.3882434,1.7774153,9.52903,10.0052595,-5.1286087,1.7274274,-1.4877682,-3.1373518,5.9822,-0.6238983,-4.231288,-4.257589,-4.745211
Q8TDC3,-3.9285338,-10.4774685,5.4528294,5.8541403,0.3328551,-6.4105883,11.9700365,-0.3933777,-5.290401,0.75312114,4.0221972,-0.84178925,3.138722,-2.0392618,-0.63438994,-1.4735461,-2.43382,2.7175906,5.8548546,4.1053085,1.7487118,9.719643,9.340442,-5.4928975,0.3062439,-0.6011596,-3.4646282,5.275974,-0.5714732,-5.0393825,-5.01891,-4.984796
Q8IWQ3,-7.1693735,-10.684867,4.5292554,5.8851366,-0.68663204,-7.135563,11.758364,0.77374226,-3.5262582,0.8703765,6.3093257,-0.34755695,2.7670784,-2.373714,-0.7142316,-2.7677534,-1.982891,2.874332,5.886645,1.337871,2.3080215,9.2692175,9.127336,-4.7374196,1.6280023,-0.67781836,-2.649891,4.5182333,-0.020518193,-4.518713,-5.5791593,-3.916756
Q5JY90,-6.219947,-10.156173,4.628399,7.4982963,-0.09486091,-5.097776,12.724521,0.116945595,-1.7966561,0.609686,5.257225,-1.999816,4.06124,-2.8289046,-0.9328321,-2.8555436,-1.4316343,2.9586132,6.260317,4.742346,1.7986234,10.10352,9.660842,-5.3441377,0.99160874,-0.89984363,-1.054543,3.6028802,0.56749624,-3.2326648,-3.7971296,-3.3030152
Q14012,-4.991253,-8.806467,6.4028397,7.197541,-1.5337499,-7.3954034,11.401019,2.2325788,-2.5426025,-0.6668225,6.687586,-1.2999792,2.6629834,-0.9913964,-1.1757535,-3.6249342,-2.6980443,3.828589,3.925971,3.7951498,3.1669593,8.411938,10.658647,-5.4968,2.3553917,0.33749443,-1.0019662,3.0150042,-0.34061578,-5.1426578,-6.0871363,-3.520257
Q8IU85,-6.291741,-7.894381,8.219287,6.7482333,-2.9432797,-6.460826,10.315981,1.3921257,-1.8643982,0.4193206,7.291407,0.68129784,2.2843823,-2.9723098,-0.6361226,-2.1199157,-3.3955364,4.2071743,3.0327208,1.9791992,3.504472,8.9689,10.362622,-4.557301,2.6768281,0.43096337,-3.4271405,4.637889,-1.148337,-4.4706583,-6.106963,-4.177429
Q96NX5,-4.182138,-8.135547,5.555746,7.2406917,-1.0767254,-7.932481,12.277358,3.4089978,-2.448937,0.89704925,5.7389255,0.43713143,0.5484289,-0.14794374,-0.5139684,-2.409064,-0.83732206,3.5700974,3.412062,4.2628875,5.0135016,7.8469057,10.469807,-4.6318984,2.9222517,-2.7945633,-2.6139605,3.8651283,1.123323,-6.178734,-6.465623,-3.2723985
Q9UQM7,-6.122723,-10.9290285,4.2370167,7.187672,-0.6585272,-5.884445,12.976248,1.4021703,-3.2224722,-0.12606476,5.5486264,-2.1848187,0.93875843,-1.2925766,0.7720021,-2.3518,-0.879701,2.0984297,5.316572,3.9820056,2.113095,8.771901,9.709423,-4.106577,2.2557867,-1.6688222,-1.231509,3.2084692,-0.019979788,-5.8611975,-5.5538826,-4.0654116
Q13554,-5.0252285,-9.623044,7.436844,8.210731,-1.5365925,-6.314714,10.675317,0.5185191,-2.639078,-0.92376894,4.4686375,-1.3107104,2.9074197,-2.594103,0.091721945,-2.4196892,-2.9836624,4.0345,3.8462126,5.0517864,3.4241936,9.831259,9.264911,-4.6255164,1.777726,-0.5748542,-1.8360777,3.5899816,-1.6304679,-4.2806935,-5.4659505,-5.282636
Q13557,-5.7896705,-9.927542,4.838591,6.244932,0.17765202,-7.723943,11.095507,1.834836,-4.1664844,0.946452,5.1496005,1.0304507,3.1688373,-1.8403873,-0.42501563,-0.3243037,-1.7270747,3.1891315,4.7133236,3.4274402,3.2508445,8.477726,10.176264,-6.537642,1.9672807,0.050419584,-4.7824974,5.399369,-0.6600972,-4.8519998,-4.064635,-4.298602
Q13555,-5.274841,-10.880095,4.795875,7.4293156,-1.1794297,-6.689652,11.495692,2.1422052,-4.5513124,-1.6656901,5.9841504,-0.9690606,0.65063924,-1.7220876,0.59842443,-3.3051796,-1.8627043,3.8149285,4.2491813,5.61969,3.1073518,9.4538145,8.297914,-3.0807793,2.5215268,-1.204147,-1.1892431,2.7238636,0.026100544,-5.1116943,-5.378668,-5.248917
Q16566,-5.028596,-9.947191,4.552281,4.3428354,-0.5228296,-7.612364,10.377412,1.2606747,-4.445293,1.6017054,8.1158085,0.03466282,2.5650086,-1.5099137,-2.3439481,-3.830406,-2.8992224,4.9338984,4.122015,2.109553,2.4582949,8.451596,10.272874,-4.3466425,2.493315,1.112688,-2.639285,3.550098,1.1823227,-5.053675,-6.5592246,-4.53479
Q8N5S9,-5.0096135,-9.5906,3.7538455,6.151777,-1.1667268,-6.845515,12.230005,3.2966342,-3.1140552,0.8765038,5.0266185,1.1898749,1.0837619,0.6452706,-0.8936548,-2.8469698,-1.7710589,5.021167,4.3319645,4.3382697,5.3856096,7.7503114,9.549533,-5.6452928,3.0762007,-2.1324434,-1.7093463,1.8802487,1.4301226,-6.2239585,-6.919617,-3.5505314
Q96RR4,-2.9749613,-10.29591,6.732065,7.399802,-0.5034715,-8.142614,9.926642,2.130021,-3.7757242,-0.12652346,5.3483715,-0.35188985,1.7320925,-2.2388313,-0.9772741,-2.0815396,-2.05587,3.732925,3.8698835,3.9461184,4.1348896,8.580235,10.296389,-3.8602884,2.229491,-0.06807629,-2.6212347,4.9404864,0.062425114,-5.0541015,-6.391223,-4.4094954
O14936,-4.352931,-9.615889,7.331548,7.3267426,-0.82704216,-8.318591,11.077354,0.696402,-4.1155787,-1.01666,4.575997,-1.5124274,1.8472033,-1.9579027,0.13434021,-1.8548871,-2.0337355,3.0952992,4.029963,4.325129,2.2328293,8.626446,10.100823,-4.829744,2.5490005,-0.67346823,-1.7666156,4.603652,-1.0641698,-5.175974,-5.453103,-5.0856647
A4VCI5,-5.966818,-9.843904,4.5359626,6.4962993,-2.4143023,-6.0652075,12.935539,1.6559865,-4.4725695,0.8082891,5.5521517,0.4048084,2.752246,-2.476725,-1.4472078,-2.4217038,-0.34462234,3.2481444,4.132098,3.648749,2.542007,10.240841,8.652306,-5.9712753,0.62418836,-1.5403931,-2.8191931,4.663986,-0.19425696,-4.2464633,-4.3793554,-3.199395
Q6P5Y5,-4.222668,-9.783865,5.313799,6.1595325,-1.3031212,-7.608487,11.831886,1.2428136,-4.503271,1.0662098,4.6718,0.5288786,2.3073928,-1.2262483,-1.195767,-2.701014,-0.9864076,4.6454663,4.1987047,4.2192492,3.350474,8.133452,10.167421,-5.54767,1.9815501,-1.2671646,-2.2588127,3.9961762,0.78530324,-5.7635527,-5.994802,-4.1556787
Q9BVE2,-5.338594,-9.821829,4.458495,7.6369724,-0.7270124,-7.126538,12.647241,0.9241452,-3.1756115,0.027744576,4.2329607,0.03047875,1.4187751,-0.3076964,-1.1047753,-2.0079162,-2.551506,3.148239,4.3184943,3.8543055,4.4579144,9.098156,9.272884,-5.613089,2.7857049,-2.8709853,-1.7318845,2.9484034,-0.09039234,-4.6624947,-6.34432,-3.5762393
Q9BWU1,-4.315179,-9.679077,5.5562825,5.4559736,-0.5372226,-7.2074704,10.734205,0.6781933,-2.9987218,1.8021855,3.9393995,-1.509463,4.3695474,-1.0576315,-1.4387623,-4.301992,-1.721317,5.230096,5.0535464,2.4226787,2.1835797,7.4013786,11.155634,-5.590174,0.88536066,-0.40955806,-2.029423,3.8072157,0.32686254,-6.605351,-7.0582075,-4.499818
P24941,-4.6894593,-9.734382,5.5177474,6.8558645,-0.51909506,-6.811617,12.023668,1.5199991,-4.4371915,-0.3635899,4.579816,-0.8428903,3.1358235,-2.0388584,0.0035363883,-2.2222462,-1.5414726,3.1119542,4.790035,5.4954944,2.303011,9.540879,8.997743,-5.814229,0.19870569,-1.018716,-3.0150576,4.6987295,-0.8997431,-5.096795,-4.3870125,-4.5188084
Q00526,-5.091568,-8.23854,7.294679,6.5068035,-3.7188246,-8.080943,11.906634,2.2159545,-5.0795937,-1.3204503,5.9065537,1.1565083,1.7290273,-2.3528988,-0.9534207,-3.4114258,-1.7415138,3.653217,3.4358215,3.7417746,2.3726244,9.207594,8.851588,-5.593648,1.5808194,-0.6927665,-2.0741773,4.5291104,-0.27238828,-4.959169,-4.9806013,-3.4432387
P11802,-3.850499,-10.826699,5.2376375,6.597633,-0.4141785,-7.367468,11.821872,0.5473097,-5.0759535,1.2378705,4.9085784,-0.75652575,1.1479603,-1.7161636,-1.1535729,-0.63914865,-0.6054396,2.7979329,3.904406,3.796659,2.8744874,9.470937,10.062296,-4.529445,3.1104379,-0.9891151,-2.5220852,4.7838197,0.2365362,-4.6628623,-5.0808077,-4.81339
Q00535,-2.6424975,-8.582702,5.784329,7.9318953,0.9506836,-7.7424273,11.926792,1.7918396,-3.1136162,-1.0579926,4.628404,-1.2262818,1.95473,-0.36787274,-1.3878193,-0.47880283,-1.7556335,3.7133193,4.091102,6.6277637,3.1483042,7.436866,11.728056,-6.447568,3.662682,-0.82642365,-0.7077925,4.1243887,0.4588928,-4.0811443,-4.5256863,-3.2726326
P50613,-4.198284,-11.348434,4.6147723,6.659605,-0.57901895,-7.568727,10.90542,1.5208505,-4.7861595,0.46267137,4.469929,-0.8731045,3.3289533,-2.6537914,-2.4646478,-1.8196803,-0.57151693,3.6411126,4.120017,3.6771266,1.6465231,9.135525,10.840176,-6.112527,2.3400037,0.76895314,-2.118237,4.6994104,0.485311,-4.060604,-3.9904256,-3.6586308
P49336,-4.263572,-10.472475,4.935007,6.7261233,-0.3048538,-7.1464677,11.401362,0.59104896,-3.202772,2.4268248,4.9341784,-0.50058484,2.7945158,-2.0986693,-2.3205838,-0.6282442,-0.19766885,3.5385685,3.8812304,1.8409493,3.8251808,8.515204,10.643772,-5.4124174,1.6755216,-1.6854538,-2.8805225,6.091596,-0.3922874,-4.138495,-6.6056576,-3.2679174
P50750,-5.769545,-9.72373,4.905529,6.50517,-0.5043345,-8.330727,10.23325,1.4689311,-5.1160765,-0.72523034,5.837491,1.2894925,2.9724247,-2.0284498,-0.40984625,-3.466124,-3.1148658,4.451219,4.525089,3.5323815,2.6438684,8.335318,9.656802,-4.4772325,1.8025271,0.0039640963,-4.321591,4.588257,-0.12135807,-5.3287373,-4.7825227,-5.1166005
Q00532,-3.3253846,-10.52192,6.344193,8.244859,-1.2770735,-5.9059043,10.403125,1.2743958,-2.8087366,1.0903604,6.453581,-2.0608246,2.8284428,-2.0764945,-2.0000236,-1.6924202,-1.3871721,3.4036431,2.6814182,3.8072097,4.439806,9.9195,10.751346,-4.1987476,2.2037032,1.0936091,-1.9230015,4.029897,-1.1647233,-3.9647675,-5.884275,-4.3317556
Q92772,-5.5934253,-9.588218,4.316621,6.8151083,-1.1102337,-8.101183,12.49918,2.4641676,-3.1229045,-0.83682597,4.914535,-0.7982855,3.2222452,-1.7142017,-1.5814906,-4.820493,-0.18712357,4.2604065,5.906756,3.8239205,1.9234321,7.931446,9.5464325,-5.7447248,1.2943972,-1.9593363,0.34008843,3.76632,1.6937743,-4.49998,-5.0644574,-2.1187413
Q8IVW4,-2.4654424,-10.185618,5.217192,8.095486,-0.43686974,-6.898661,9.627491,2.8881707,-2.8208458,0.23486635,3.901498,-1.9638239,2.9938252,0.104177155,-2.048946,-2.909376,-2.3766403,4.948628,2.2651424,4.303929,5.004694,8.502691,11.1895895,-5.1017346,2.5118341,-0.0008226745,-2.1644979,2.6807814,-0.98506624,-5.802738,-6.937151,-4.8048325
A0A6D2Y6E9,-2.9811566,-8.662636,7.111062,7.3151627,-1.421805,-7.309877,11.693898,0.8722639,-3.5753775,0.79273933,3.4411247,-0.16506092,1.4421545,-0.24729437,-0.87814415,-0.53621316,-1.7205359,3.514916,3.054988,4.004854,3.8705406,7.487796,11.808931,-6.150197,3.3447826,-1.0712047,-2.5261326,4.2143908,-0.58989745,-6.2560816,-6.337511,-4.1386466
O14757,-3.6238158,-8.622396,5.751419,7.1733294,-1.545058,-8.380687,12.257851,2.452482,-3.7040365,0.3693216,4.8276057,-0.3359789,2.511723,-0.94149214,-1.7400582,-4.1578584,0.52782637,3.657708,5.59907,1.9048569,2.9513369,7.3563414,10.910936,-4.3591466,1.617902,-1.8925896,-1.135478,5.572197,1.6110251,-5.73299,-5.849567,-2.4071486
O96017,-3.0661967,-9.81891,6.683457,7.44097,0.13944311,-9.072874,10.15996,2.2287498,-2.9905493,-0.6592579,4.913055,-0.7724504,-0.36719894,-2.0047958,-0.7117024,-1.085012,-1.7497634,4.2091966,2.7615,4.6955147,3.9111161,7.8781667,10.4789715,-3.4291532,4.3477116,-2.3819485,-1.4779246,4.7350974,0.70718044,-4.6303763,-7.046442,-4.4704957
O14578,-6.12307,-10.772633,4.2084913,6.8948383,0.5853196,-9.32208,11.255067,-0.33282667,-3.5679283,-0.41226786,6.38585,-1.1328181,2.2484229,-1.570539,-0.05644572,-3.2237544,-1.5819861,2.5485828,5.1785045,3.1178448,2.0917618,6.1220016,10.497958,-4.719712,2.0599802,-0.76213574,-0.99388677,3.8265057,0.079335734,-5.465227,-6.491841,-3.3293967
P49759,-6.070833,-10.959576,5.299093,5.496374,-0.5528828,-7.180692,11.4686365,1.2975949,-5.0333347,-0.22621933,6.6015334,-0.616141,1.1571941,-2.6109998,0.92673546,-1.5547552,-1.1862632,3.6695905,5.0788374,4.254774,1.8874596,8.8368635,8.652151,-3.9671218,2.3208325,-0.4571421,-2.1391368,4.557398,-0.21473883,-5.016356,-5.1155667,-5.510793
P49760,-5.5520926,-9.959869,4.931131,4.699162,-0.062803894,-6.665546,11.240947,0.10955369,-3.9847965,2.1818578,3.0249658,-0.3271368,3.3757212,-0.68236476,-0.76541305,-1.9952615,-3.291005,3.887818,5.181819,1.7768539,2.2081091,8.906658,10.102595,-6.3004537,1.771853,-0.86076957,-4.3600144,3.8135738,-0.5210593,-6.406021,-6.1072893,-5.576144
P49761,-4.224011,-10.259706,4.891574,5.9127946,-0.33349895,-6.3460846,11.243271,1.8334628,-3.973179,2.1611154,5.4829774,-1.037848,1.0282902,0.111257516,0.47478345,-0.85556114,-1.6885874,2.8680587,2.9506884,3.6377075,4.2842655,8.312911,10.304338,-4.7301455,2.1617556,-0.60953593,-4.3587155,3.4599771,-1.3115292,-7.4750266,-6.9917116,-5.673592
Q9HAZ1,-3.560105,-8.54096,5.688934,7.503607,-0.8812739,-7.2048173,12.134975,2.293328,-4.754439,-1.6667367,4.237007,-2.064825,2.0617063,-0.29090214,-0.680466,-3.4188173,-1.8109449,3.271902,4.313,3.3298464,1.4529566,8.384796,10.696245,-4.5270076,1.4247298,-1.8543092,-2.3985033,5.2277846,-0.99818,-6.3370204,-5.595253,-4.3459287
P07333,-6.5923824,-10.596003,5.3255744,5.8204193,-1.8671703,-7.0066643,12.124912,-0.5831949,-4.1983924,0.84893924,4.8947535,0.25037828,0.8672435,-2.049176,1.0423436,-2.9036267,-1.185341,3.843991,5.0033913,3.0024002,2.3180187,7.5894628,9.208258,-3.7871706,2.2440522,-2.3166256,-1.905966,3.5666132,0.35795638,-6.5428023,-6.9400434,-4.929387
P41240,-5.630405,-9.624939,6.5998836,7.428238,-0.48475963,-6.587303,11.698179,0.45553005,-2.6866508,-0.26860458,3.8892016,-0.73409766,1.8111159,-2.0339458,1.1205783,-1.6091993,-2.661174,3.2852118,5.04734,5.3828597,2.6542132,9.031596,9.962998,-4.802109,2.937564,-1.2580328,-2.3992064,3.336405,-0.07282925,-5.292614,-4.6823535,-5.2955084
P48729,-5.6695685,-8.480043,5.5485597,6.143569,-3.0376482,-6.6110115,12.928462,3.2837715,-4.247513,-0.54975307,6.5842595,1.1890826,1.996957,-2.473691,-0.5555831,-4.638315,-0.5359354,2.461315,6.5313745,2.5502675,1.3739765,8.574251,9.491837,-4.42159,0.7370133,-0.26905987,-2.2132814,4.835015,2.1611857,-5.698367,-3.8027842,-1.8470095
Q8N752,-4.694032,-9.561327,5.6491747,6.5415473,-0.75667477,-6.1529727,12.314369,-0.5278677,-3.6300695,2.0492349,4.0072417,-0.45236266,3.9555106,-1.5197772,-1.5180924,-1.3698701,-1.691046,2.9984667,5.020547,2.737369,2.901008,9.226653,10.394917,-6.518746,0.7567299,-0.8804775,-3.3256838,5.05135,-0.87041605,-4.8692803,-5.4198112,-3.906737
P48730,-4.1824217,-9.434688,6.4460897,6.267709,-0.15779382,-6.9894323,12.387203,-0.9680638,-3.036126,2.7570734,3.722845,-0.4648624,3.3334236,-3.1613173,-1.0359504,-1.9837263,-0.45335165,2.6877515,6.0219326,3.657734,2.4181018,9.808101,9.561605,-4.869099,0.52088857,-2.2801228,-2.8131123,5.739863,1.3071059,-4.2124066,-4.8391237,-3.8897552
P49674,-7.57869,-8.669316,6.074838,5.787809,-1.2707114,-7.425805,11.478761,1.5521321,-1.4117681,1.2108009,6.9735847,1.2101641,3.253057,-4.0308733,-1.5052193,-1.8836181,-2.0093796,2.8232253,5.556988,1.2248471,2.0305119,8.806062,10.134988,-6.0813036,1.8679687,-0.23469561,-3.1789107,5.6657786,0.9975569,-3.1472123,-4.4348946,-1.8062198
Q9HCP0,-7.123858,-10.058228,4.3827014,6.647505,-1.3069681,-6.941828,12.532747,1.1656405,-3.370237,-0.6382347,7.2182565,1.9170755,0.53715485,-1.5355889,0.43970048,-1.3249968,-1.7661325,3.4001653,5.639455,4.3944273,3.533111,6.6115,9.907465,-5.3074675,3.9580486,-0.35766274,-0.79549944,2.8035789,1.3393272,-4.69039,-5.1321983,-2.6133602
P78368,-7.4182673,-8.619468,3.5132773,4.7937894,-0.9212149,-6.607102,14.023728,0.60452217,-2.9959462,0.77045685,4.6766663,-0.05096713,1.771424,0.2387089,-0.43367627,-3.8694308,-2.389077,2.5450807,7.0768127,1.5871805,0.7731343,7.297899,10.259726,-6.208903,2.7201498,-2.1579618,-1.2745007,2.3014631,2.0483494,-6.4973125,-5.444822,-2.5597446
Q9Y6M4,-6.2572827,-8.635745,6.1619167,6.760239,-1.4490391,-6.9134417,11.702632,1.704391,-1.2884465,0.9496211,6.4228377,-1.0104486,3.8253446,-1.8559229,-1.2174662,-3.3685899,-1.9156809,2.257401,5.435882,1.9898771,1.9568782,8.076489,11.762077,-6.2153964,2.1095214,1.425678,-1.897037,3.5070324,0.68573475,-5.1613913,-4.480559,-2.2183065
P68400,-4.050281,-10.818561,5.0995326,6.9611797,-3.2424707,-6.226531,12.74015,0.9126926,-5.4829063,0.1397197,2.545368,1.3253177,0.9680321,-1.9442397,-1.067794,-2.7038643,-0.16319375,3.8203957,4.769464,3.9180229,3.073901,8.884179,8.946451,-4.893452,1.8220236,-2.4478407,-1.3643827,3.801501,1.2590986,-5.6629705,-5.6844897,-3.331969
P19784,-6.1213717,-9.967065,5.9968348,6.386874,-2.052607,-7.35306,11.71477,1.3316741,-5.3770914,-0.7056521,4.9106927,-0.5861235,1.191566,-1.3556137,1.6184767,-2.4601595,-0.87305254,2.4304514,5.2645,2.0204186,1.5961285,7.8890443,9.471381,-3.8098993,2.214901,-0.5531634,-2.8010347,4.7209272,-1.0683488,-7.001046,-5.0601325,-5.3070726
P42679,-5.6625133,-9.266444,6.211868,7.4117913,-1.5966955,-6.879861,11.158771,1.6064152,-1.8672985,-0.21669911,4.4746065,-0.9060777,3.6990669,-2.0236595,-1.3749051,-3.8804214,-2.7016022,4.7806535,4.3665833,3.2732127,3.1031775,9.051132,10.09526,-5.6796913,1.5163201,-1.2178646,-1.6272838,3.5826206,-0.40818563,-4.687765,-6.2534122,-3.7176468
P53355,-6.927541,-9.331241,5.49226,5.574336,-0.45123553,-7.923855,12.400951,1.6784871,-3.6412954,0.063557975,5.081331,0.51656836,0.9921308,-1.5139632,1.753519,-1.7257903,-1.5377551,2.7587929,6.131262,3.5526161,1.6480353,7.2234874,10.143913,-5.172497,3.0043745,-1.3992496,-3.0221646,4.2186584,0.91906214,-6.679913,-4.7094245,-4.3771048
Q9UIK4,-3.275411,-9.754623,4.103117,6.55287,1.2173463,-7.4720793,12.755221,0.34998354,-2.5852654,2.4043183,3.6935234,-0.36528826,1.3658646,-0.9612308,-1.1775072,-2.7529652,-0.18701361,3.128479,6.56363,3.2485297,3.5660436,7.437414,10.528462,-3.5250363,1.8019392,-4.151158,-1.7485774,4.9143267,3.13253,-5.6014714,-6.8842716,-2.8598316
O43293,-4.472996,-9.960044,6.0571136,4.644506,-1.4799933,-7.4928493,11.052753,1.9409794,-5.1660414,0.64395154,5.2560883,-0.83056843,1.7707796,-2.2580743,-0.88311255,-3.419136,-1.221355,4.569101,4.8394156,1.202616,1.4667301,8.862222,9.228621,-3.5812976,1.0433686,-1.5794332,-2.8313422,6.0158124,0.038037397,-6.1013947,-7.130522,-5.0605435
O15075,-5.9007945,-9.770251,5.7009373,7.321187,-2.3977127,-5.87778,13.092176,1.3829287,-3.2658777,0.4711455,5.5242352,0.6389875,1.2283508,-1.894415,-0.22162688,-1.3790212,-1.4949247,1.7040396,4.8769493,3.6182811,3.7989264,9.72033,9.055193,-5.4758954,1.9721386,-1.115893,-2.3234887,3.6644063,-0.011403052,-4.7740993,-4.9569044,-2.8930852
Q8N568,-4.8355927,-9.436683,6.7161827,7.8411326,-0.6664436,-8.304583,11.9723425,0.14923006,-4.1367354,-1.4077859,4.5448117,-0.247132,1.4159322,-1.8744473,0.11995849,-2.6180499,-2.3483431,2.440058,6.0987473,3.6115656,2.643453,8.764928,9.451216,-3.7568207,2.7784908,-1.610186,-1.3420668,4.650465,0.48590925,-4.536653,-4.968029,-4.2308745
Q9C098,-4.288723,-10.262385,5.266295,6.5725703,-2.4398918,-7.252993,11.93573,2.2763798,-4.3959846,-0.3023191,6.1876583,-0.22366324,0.88683015,-1.0402527,-0.5040408,-4.2829595,-1.0740308,3.7373846,4.1679125,4.1420984,3.4302435,7.8229585,9.532821,-4.1454086,1.7303559,-0.76550776,-0.7245339,2.70717,0.89008945,-6.606942,-7.0471106,-3.448493
Q08345,-5.6419325,-9.611896,4.9006424,5.2294087,-1.2693352,-7.0315213,11.894773,2.4598727,-4.0624533,1.436747,8.280299,0.64551145,1.6926252,-2.286181,-1.2277064,-2.1616337,-0.8500676,4.0781035,4.2466154,2.550139,3.247568,8.803007,9.404974,-4.478271,1.4706496,-0.9086745,-3.12452,5.504981,0.4442727,-4.735578,-6.245017,-3.549341
Q16832,-5.7234488,-11.329237,4.6008873,5.8729734,0.067027725,-6.8248315,11.772388,0.17581663,-3.65334,0.6828866,5.765724,-1.4991834,2.5694404,-1.8977772,-0.092841804,-3.45619,-2.3218553,2.9993398,6.20503,3.3496747,2.2313306,8.797533,9.234943,-4.379564,1.0073206,-0.5379025,-1.6310577,3.3447342,0.33089027,-5.5636134,-6.467947,-4.4682803
Q12852,-5.7362833,-10.131636,4.770421,7.5667043,-0.67059296,-6.9854136,12.579177,-0.026197746,-3.5590155,0.63663715,3.7889497,-0.30448848,1.8480436,-0.39639744,0.45949498,-1.3506945,-1.1829721,2.9291236,4.8855667,3.2297528,4.1064644,7.7875333,9.647777,-5.2518077,2.0274785,-2.8072655,-2.3255749,4.051687,-1.1520835,-5.8793216,-6.4922,-4.3346686
Q09013,-7.613253,-9.525944,2.813365,5.2213354,0.67960703,-6.5943723,12.560848,-0.2137589,-4.697791,0.6635093,4.5244427,-0.78964156,3.6046095,0.11520965,0.27454084,-1.1444402,-2.4836175,2.3693051,5.4588375,2.065129,0.65894246,7.466017,10.274801,-7.335055,1.536424,-0.76797426,-4.271905,4.201228,-1.9492545,-6.1458135,-4.298223,-4.685063
Q6DT37,-6.6561146,-10.642102,4.6686144,6.4377737,-0.07663817,-7.1838927,11.304952,0.19418599,-2.5921638,1.0039785,4.9161158,-0.2355035,3.1439989,-1.2753574,0.10970119,-2.5735767,-2.6598742,3.2025177,5.9597287,2.1289172,3.2721758,7.3563313,10.311125,-5.490938,1.6776963,-0.5364133,-2.682183,3.5164785,-0.35158026,-6.0022526,-6.6282625,-3.9859772
Q9UEE5,-4.180646,-8.595092,6.390574,7.4906735,-2.2145708,-6.146083,13.238252,2.5261078,-1.8557063,1.2190416,5.806908,-0.27435294,-0.7876389,-0.87148446,0.27553076,-1.143076,-0.5197756,1.5311408,3.2659566,4.676493,4.807186,8.653417,9.898853,-4.5060263,2.6776214,-2.6555276,-1.8565986,3.2511573,0.6854503,-6.1083784,-6.550089,-2.6238194
O94768,-2.5109558,-10.253017,5.544452,7.1766005,0.16205892,-7.5777783,10.395951,1.1363978,-4.2360697,1.6192636,4.123909,-0.78410566,0.87138,-0.13602458,-1.0128484,-0.37947282,-1.4838225,3.6917264,2.524652,3.9984949,4.6126623,8.253578,11.358994,-4.1708,4.2312093,-0.7303987,-3.3223631,3.915175,-0.17068979,-5.940011,-6.268008,-5.705076
Q13627,-6.6330566,-9.870231,6.563119,6.372379,-3.0673077,-7.159809,9.477641,1.8029304,-2.2547214,0.27730507,6.5739155,0.22012256,3.9393966,-3.446365,-1.7723371,-4.1299343,-2.7377698,5.4385962,2.9045298,2.6346579,3.2691288,9.093376,9.503927,-5.6422815,1.6691191,1.2056601,-1.9211255,3.0231621,-0.67397594,-4.134516,-6.1973376,-3.835845
Q9Y463,-2.4828827,-8.590362,4.5140805,6.343516,1.4921284,-8.498085,11.157304,3.1297688,-3.4746854,1.0824586,4.7076197,-0.60301596,1.8643746,0.27182454,-2.767589,-1.1097931,-1.5570478,4.295723,3.7018538,3.5123472,3.1046977,7.4789157,12.688328,-5.747257,4.220959,-1.1186475,-3.0895524,5.0503545,1.6282269,-5.1754475,-5.2877345,-3.612361
Q92630,-5.572543,-10.3338995,5.4650426,6.961373,-2.6874065,-5.2698255,12.710786,0.5730133,-2.049012,1.1378036,4.690963,-0.7214415,2.6527846,-1.9259936,-1.4892656,-3.7626212,-1.764612,3.5291061,5.0037227,3.0463688,3.673816,9.544279,9.116828,-5.496747,0.8247702,-1.6931534,-0.478892,2.5381856,0.3287733,-4.9273844,-7.169941,-2.6592562
P00533,-4.9545856,-8.713979,5.703847,6.4657545,-1.0515447,-8.590064,12.724051,0.79751194,-3.583478,0.17060068,5.0646796,0.6612884,2.3680775,-1.744851,-0.7976346,-4.7199,-1.181385,3.2296154,6.719076,3.2316484,2.6608157,7.9699235,9.263426,-4.4579587,1.0016621,-2.4986086,-1.1366107,4.4814525,2.2740223,-5.2450566,-5.739928,-2.6482787
Q9BQI3,-3.992963,-10.275259,6.057472,6.664429,0.49324912,-8.47925,9.371962,0.18934855,-4.2698565,0.09025523,2.6258836,-1.1192609,4.2842665,-1.7841346,-1.1818359,-1.8815897,-2.5448892,4.6306963,4.1223783,3.7464275,1.8569826,7.911261,11.307585,-6.19293,2.5429382,0.7171106,-3.0302625,4.485114,-0.8499606,-5.134847,-4.7358146,-5.6334686
P21709,-5.375892,-9.398405,4.860705,7.472317,1.3475758,-6.9534388,12.916369,-0.06230469,-2.5314965,0.60602397,2.196142,-0.3700539,2.4724445,-1.3743843,0.6151976,-2.2201278,-2.3816571,1.6346077,7.718578,3.8213997,2.6239781,9.223648,9.446546,-4.574193,1.4631788,-3.5019023,-3.3309388,4.562308,1.3110253,-5.195028,-4.3148775,-4.0516057
P29317,-5.355829,-11.563046,4.5550194,7.79285,-0.54818094,-7.5408545,11.336934,0.62104666,-4.416025,-1.265175,4.0853295,0.0020804983,2.7475345,-2.2834585,0.097241595,-2.922938,-0.9763416,4.342698,5.919963,5.1695213,3.3407094,7.951925,8.762733,-4.647797,1.5717204,-1.2335382,-0.6046896,3.7421753,0.22047442,-4.4736395,-5.2008405,-4.181251
P29320,-6.191764,-9.698122,5.1455865,5.297394,0.13723072,-8.150652,11.370631,-0.048146904,-4.9630327,-0.20416325,4.8703938,-0.9278107,1.6311544,-0.17388433,1.2145737,-2.127978,-2.7622797,3.4573095,5.13949,2.5565455,1.2379315,6.674062,10.494121,-4.8975263,3.0891972,-0.7140526,-2.8519015,3.838499,-0.9463989,-7.164597,-6.087959,-5.980563
P54764,-4.1012797,-10.507139,5.558301,8.0110855,0.24766338,-6.7409325,10.250755,0.9518289,-3.749977,0.037064753,2.212528,-1.0986984,4.292901,-1.4157587,-1.4929752,-1.6327181,-2.6405923,4.0474863,5.153956,2.9564319,3.2953126,9.782418,10.525355,-5.397202,2.3472507,-0.10449299,-3.330886,4.758452,-1.0558853,-4.266448,-4.327541,-5.394936
E9PUP9,-5.80679,-9.2004,5.2957306,4.6692147,-0.9806942,-8.0603,10.700408,2.4648454,-3.974598,1.4001697,6.4326134,1.463442,2.7129622,-1.3438017,-1.4924458,-2.9511187,-2.3497667,5.0602846,5.1600447,1.4014496,3.0249636,7.9786067,10.498094,-5.241853,2.9936686,0.4179338,-3.470386,4.449039,1.3009309,-5.503855,-5.6843877,-4.2708206
B3KS12,-4.2309294,-10.620265,4.2905374,7.2001204,0.031235812,-7.400024,12.226719,0.9282705,-3.6816392,0.5784771,5.003363,-2.2187989,2.518672,-1.1916505,-0.79004437,-2.4286797,0.13099603,3.5085468,3.8987308,5.4186134,2.6838233,8.020893,10.257212,-5.472677,1.3923085,-1.7119334,-0.89578754,3.7823777,-0.13879779,-5.2868023,-5.8514895,-3.8675172
Q15375,-7.056355,-8.862542,3.5927277,5.9179296,1.7921687,-6.086723,13.2372055,0.7431252,-2.3822503,1.4561877,5.2351823,-1.4412689,2.4777708,-0.29677963,0.7349112,-1.6365614,-2.6947718,1.2148979,6.9916706,2.5166655,1.4364182,8.878646,10.430825,-5.1382356,2.1030476,-1.8277388,-4.2955923,4.2028365,0.36695015,-5.80576,-4.0351205,-4.368637
P29322,-3.8368154,-8.950324,6.2072053,7.966606,-0.82264054,-7.1817994,11.413399,2.772414,-2.6734996,0.095054895,4.490524,-1.1312562,-0.14936508,0.101448804,1.9849426,-1.1750752,-0.37246647,3.2341387,2.7943718,5.819022,4.6161017,6.7517686,10.805088,-3.87397,3.408902,-2.0902414,-2.4423072,3.2024236,-0.53103095,-7.629954,-6.2871647,-5.1270666
P54762,-5.432584,-9.365108,7.0419803,8.50446,-2.5398242,-6.563225,11.886828,1.0391772,-2.9677281,-1.0655735,4.5749106,-1.1933342,2.7281816,-2.9554899,-0.5520594,-1.6741474,-0.7659474,2.8781,3.8416398,3.2403085,2.1306682,8.697034,10.422885,-5.593842,1.475544,-1.0404248,-1.610995,5.5229383,-1.7678587,-4.3395367,-5.0137954,-3.0900326
Q6NVW1,-5.4733205,-9.634065,5.4889307,7.0219145,0.20358321,-6.4267006,11.345757,0.026423376,-1.766222,1.6597346,6.6995096,0.5311245,2.765814,-2.0855784,-1.2495562,-1.4266838,-3.8602757,2.9169853,4.7014422,3.7615457,5.0453835,9.64114,9.477298,-5.1654043,1.6464461,-0.6654369,-3.3493905,3.7635624,-0.11070199,-3.5527942,-6.2909217,-3.6055298
P54753,-4.6020646,-10.155611,5.6840153,6.1007795,-0.6268414,-7.32854,12.15353,0.71145064,-2.5236259,2.2199502,3.7940953,-0.2504837,1.8046737,-2.0135417,-1.2281576,-2.9949694,-1.6695998,3.2742217,5.5089884,2.5246859,3.734925,9.648758,9.201619,-4.413491,1.4389193,-3.1924033,-2.3531797,4.2483845,1.5419703,-5.2728424,-7.244501,-3.736438
Q96L35,-4.8888826,-9.485708,4.6536775,6.8102694,-0.8757631,-7.746913,12.2458515,3.178023,-3.2583275,-0.1061914,5.4957027,0.1090839,0.050635226,0.2733689,-0.6682878,-2.041827,-1.2100075,4.011231,4.5514174,2.9552693,4.2944837,7.303383,10.501664,-4.5244083,4.30575,-2.234829,-1.1265254,3.474289,1.1653006,-5.862457,-6.763628,-3.4363189
O15197,-3.810876,-9.972816,4.2290425,6.4626994,0.81565547,-7.591885,12.25368,1.6565733,-5.026037,0.5907916,5.244814,-0.7181325,0.4981703,-0.010225261,0.46903294,-0.69241756,-1.2144878,2.6353498,3.61714,5.9647536,3.4106052,8.279733,9.914324,-4.928874,2.6353807,-1.7781482,-3.3737092,3.8279512,-0.11999364,-6.320806,-5.3176904,-5.2274923
P04626,-7.152812,-10.345811,4.913855,5.9848685,0.32507387,-7.5750628,11.012487,-1.670336,-2.060742,1.2331523,2.3085558,-0.27338532,4.6085205,-2.8793135,-0.60157424,-2.9647086,-1.6591406,4.551593,7.346989,1.4411278,0.57160413,6.4485707,11.353877,-5.8800735,2.2974167,-1.2980372,-1.6393874,4.5505776,1.3205507,-4.8946447,-5.148686,-3.6667843
P21860,-5.22459,-8.779343,6.4784975,5.8982444,-2.4060087,-7.8511086,12.0619955,2.0653543,-3.6716926,0.2697334,4.585195,-0.90041924,1.534232,-1.4797813,0.31688392,-4.8334827,-0.597412,3.6139054,4.997873,1.9556632,1.562545,7.7225347,9.979073,-3.8203106,1.2603544,-2.3464768,-2.015095,4.5282965,0.7168864,-7.51722,-6.7561555,-4.0917068
Q15303,-4.495315,-9.964256,6.431574,7.785737,-1.4629467,-7.076175,11.740718,1.0230148,-2.7586582,0.029093321,5.947052,-0.64838165,1.7694887,-3.1293886,-1.0256675,-2.3834372,-0.678141,3.9826028,4.0501404,4.8707657,3.0397835,8.620333,10.416264,-4.2863984,2.3200922,-1.2691005,-0.8138299,4.550962,0.8012573,-4.0821595,-5.7562766,-3.271243
L7RXH5,-6.2797112,-9.247698,4.6978374,6.15222,-0.43794763,-8.641079,10.136183,0.96986187,-3.3214924,0.6042751,6.068697,0.57297355,5.0873055,-2.3612022,-2.7180243,-3.4981291,-2.5707896,4.547791,4.302836,1.9968681,2.1480005,8.081546,10.778645,-6.6617055,1.7186931,0.8583652,-3.154483,4.606217,0.08556616,-3.7305193,-4.5668473,-3.2088566
P28482,-5.1222563,-10.1165495,5.110285,6.427172,-0.6396341,-7.246334,12.454667,0.36477357,-3.793933,2.075651,3.6147466,-1.5346677,1.9772336,-1.5260613,-0.4546967,-1.3663247,0.23005334,2.215745,4.2305307,3.1702147,1.2959633,8.65776,11.333776,-5.478869,2.9758902,-1.3588002,-2.9001415,4.3460007,0.5521106,-6.0573454,-4.3144827,-4.446538
Q16659,-4.321039,-10.694679,5.9288774,6.96236,-1.6888455,-6.870846,11.161946,1.3074841,-4.438242,1.2106085,4.8440094,-1.5112182,2.4764378,-1.3740165,-0.43434328,-1.0552977,-0.07236955,3.1044016,3.001525,3.006316,3.4364538,8.580418,10.289316,-5.4238567,1.5340728,-0.079397954,-2.8137717,4.790668,-2.111311,-6.0129113,-6.10147,-4.8607836
P31152,-6.818091,-10.031757,4.1309824,6.843398,1.1833798,-5.706104,12.405552,-1.4886426,-3.428736,0.50526583,4.992443,-2.9458175,3.141524,-0.49596226,1.7070171,-2.1359947,-2.6559534,1.7063555,5.8125973,4.382938,1.34036,8.823123,9.636359,-4.6658735,1.5096402,-0.7778485,-2.8401456,2.8412054,-1.6974124,-5.85361,-4.327118,-6.1155415
Q13164,-4.467658,-9.993605,6.13464,6.344904,-2.9027138,-5.8085423,12.419162,0.95457184,-4.2751465,0.5975821,5.5334473,-0.6478428,0.009053514,-0.5547568,0.18468547,-2.5057287,-2.1989205,2.8420873,3.1571453,3.8873348,3.907973,9.127195,8.918296,-4.3426123,1.9612674,-1.4006226,-1.7920442,2.3358138,-0.85743934,-6.871759,-7.743611,-4.68722
Q8TD08,-5.8030787,-11.267458,5.035307,7.1731133,-1.474447,-6.0930567,10.85581,1.1598805,-3.9366655,0.36846817,4.88514,-0.5740544,1.5918739,-1.3147348,1.1905137,-2.110057,-1.5179172,4.191966,3.6214309,4.879411,4.0777426,8.626595,9.2229595,-4.074848,2.6266162,-0.42997333,-2.5159578,2.347686,-1.0614781,-6.2939343,-5.8784595,-6.097724
O75460,-5.3805985,-9.300528,6.227341,6.1577682,-2.1064122,-8.057489,9.728708,2.0784028,-2.5996397,2.2319303,6.418471,-0.6139372,3.4679213,-2.951787,-2.303284,-3.0400536,0.21731198,4.734142,2.816299,-0.2859075,2.894014,7.9975953,11.079349,-4.2779694,1.7720349,-0.39906523,-3.2001169,6.3496156,-0.45547277,-4.8450885,-6.655021,-3.6081083
Q05397,-4.2062607,-10.109806,5.852008,6.4987154,-0.4467268,-8.504621,11.37019,0.1770235,-3.4117737,1.7678608,3.1872113,-0.34143943,2.749084,-1.9296701,-1.4236296,-2.0187893,0.031291112,4.075641,5.1614537,2.185719,2.6715539,7.266597,11.255776,-5.238103,2.5143106,-1.8697298,-1.7948995,5.4512835,1.1104771,-5.340636,-6.165032,-3.676307
P16591,-3.1766229,-9.794041,4.5643697,7.396787,-0.99478894,-6.2767777,12.553317,0.88288164,-5.822326,0.29187393,3.2182171,-0.7486746,2.5125966,-0.9649508,-1.3926715,-1.3427111,0.1360442,3.9645317,3.5699604,4.7749033,2.1668763,8.773018,10.575089,-5.5883718,1.5093693,-2.0040383,-2.9046268,5.477207,-0.68582964,-5.363517,-4.49333,-4.506489
P07332,-5.006857,-10.495867,4.3489637,5.512389,0.13671297,-6.9415956,12.156626,1.8400233,-5.096338,0.98668903,5.329883,-0.16334584,2.4179974,-1.9455056,-0.7751848,-0.43415397,-1.0726559,2.9516993,4.711461,3.8238604,2.7802918,9.832164,8.553035,-6.074486,0.64253354,-1.4342979,-3.90243,5.7969027,-0.91173136,-4.476929,-4.969677,-4.370178
P11362,-4.102802,-11.222524,3.7473907,6.412564,1.1166329,-5.8258896,11.349517,-0.43367463,-3.7313,1.427856,4.0605226,-2.3233657,1.4714407,0.72683,0.7037984,-2.4644983,-2.5814774,3.4152222,4.961533,4.416204,3.1085486,7.3504324,10.957737,-3.6852183,2.9390893,-0.71277916,-2.1763036,1.662924,0.10124929,-7.5962915,-7.0060515,-6.1826925
P21802,-6.182721,-9.720481,6.5979605,6.5189123,-1.7363794,-6.878242,11.687186,1.1372769,-3.5291348,0.48196256,6.339758,0.16945729,1.5206038,-2.582176,1.4895036,-1.7829239,-1.0116414,2.2621565,5.278425,3.057851,2.4662,7.6903048,10.128062,-4.199811,1.7460786,0.044378694,-3.157218,4.8646326,-0.27445197,-6.3442173,-5.2197933,-4.1500115
P22607,-6.4523726,-10.153719,4.4796286,7.185041,-1.8569483,-5.886151,13.042193,1.9025699,-1.7021035,1.5914851,6.2345014,-0.6714267,2.1043327,-2.7994134,-0.82523257,-3.0255644,1.1181483,2.8111398,5.57643,2.6477816,2.7182982,8.545121,10.156846,-4.322071,1.6388506,-1.8680521,-1.0160271,4.386997,1.7197139,-4.627117,-5.161144,-1.879349
P22455,-5.373883,-9.423741,6.9491873,6.7525363,-0.6947392,-6.0413666,12.579565,0.47733694,-2.2882185,0.440409,4.662597,-0.6941897,1.372533,-2.0132163,1.0396367,-1.4670421,-2.7599084,2.2082813,5.909142,4.8082623,2.7966056,9.228981,9.720852,-4.9635835,2.1674523,-1.225124,-2.1643033,3.4702585,0.37867206,-5.507104,-5.393833,-4.3019595
P09769,-3.920304,-10.633168,6.0489845,6.4404864,-0.065325744,-7.8249283,10.014827,0.5689121,-2.670482,2.4883735,5.40567,-0.5686788,2.9378915,-2.7935805,-1.5875424,-2.1004236,-1.1095352,4.078444,4.0326424,3.1354272,3.458425,8.170334,11.378219,-4.4344068,2.3179631,0.19463892,-2.8373752,4.694946,1.0090082,-4.9980817,-6.2821593,-4.2370954
P17948,-5.5087347,-9.828156,4.936853,7.2963204,-0.5210211,-7.041131,12.460701,0.78854007,-1.3172534,0.74620324,4.629569,-0.23037967,2.7257185,-2.5039544,-1.5982252,-3.286592,-0.53333527,4.4519715,6.314901,3.8107374,2.7591686,7.583531,10.873267,-5.090627,2.6021676,-2.272787,0.20415156,3.8795686,2.7482257,-3.9215562,-5.6230073,-1.9542419
P36888,-4.7103868,-7.9108953,6.764321,5.844796,-0.48146516,-8.166181,12.506907,-0.28983313,-3.91787,0.9500804,4.056914,-0.29785398,1.0090041,-0.46869603,1.0770724,-0.5039998,-0.9438203,3.7085752,3.7683651,4.452051,2.3294594,6.4030943,10.817789,-5.7863755,2.788866,-3.0096939,-2.6547704,4.9910665,-0.6859605,-6.7722936,-6.358524,-5.046218
P35916,-6.4989657,-9.407409,6.2436075,4.8379717,-0.47309732,-5.813224,12.404597,-1.3136648,-3.072834,0.71489453,5.2108684,-0.28976062,1.5830265,-1.8174803,0.95069826,-2.1285267,-4.0280275,3.5258272,6.4977098,3.5846424,1.0748305,7.9508066,10.1350975,-4.977171,2.5900748,-0.8162633,-2.0406563,3.079152,0.67156154,-6.019922,-6.2549715,-4.962175
P42685,-5.9184885,-9.157734,5.037163,6.0446024,-1.0222359,-5.7387924,13.102976,2.0272665,-2.517651,1.0397061,5.8122854,-1.4809864,1.9809577,-0.36248484,0.66357774,-3.300171,-1.7001524,2.8802555,5.286831,4.49825,2.6358817,8.778257,9.929916,-5.304375,1.6350623,-1.0462953,-2.016678,2.2784512,0.45210046,-6.8153696,-5.566588,-4.217994
P06241,-5.8521214,-10.141665,6.279082,6.167558,-1.2688361,-7.268946,10.701206,1.6117594,-3.0602252,-0.021141976,6.891193,-0.26813316,2.3198543,-2.7094202,-0.59068805,-2.1191032,-2.1832547,4.168725,4.511667,3.1559892,2.465467,7.8854313,10.647368,-5.1540713,2.6635747,0.93872654,-1.7982047,4.21463,-0.025806272,-4.8337083,-5.894444,-3.85579
O14976,-4.6726685,-11.645053,5.5724716,6.1086354,0.054060705,-5.623509,10.938486,-0.80657184,-3.522387,2.4734683,4.003667,-1.5825878,2.3402228,-3.164621,0.6325522,-1.3690097,-0.7529911,2.8480449,5.5786147,2.4641328,1.9760292,8.466305,10.339861,-3.1859658,0.7761928,-1.0230504,-3.765728,5.6234775,-0.2736446,-6.2606125,-6.451113,-5.402261
Q9P2K8,-5.512469,-10.72989,6.072218,6.8619075,-0.076407,-8.513559,9.726137,0.19855177,-3.0105665,0.3707996,4.8697186,-0.0833592,3.466671,-3.3862743,-0.726386,-3.2634888,-2.6248693,3.5684106,5.537916,2.4167078,2.5130234,8.217464,10.324779,-4.2551875,1.774062,0.20161572,-2.8714678,4.7543554,0.5323024,-4.705416,-5.64392,-4.2432175
Q15835,-5.766835,-10.717327,4.4451027,6.5215774,-1.1799694,-7.05333,11.437422,2.0580812,-2.8079495,0.1366689,2.7086375,-0.32677463,3.0908382,-2.0219085,-1.5862591,-4.438217,-1.7451191,5.2185397,5.668304,3.2158794,2.174688,8.978338,9.943373,-5.415531,2.4657195,-1.7939421,-1.1864884,2.8481927,1.9405138,-5.133955,-5.4431386,-3.7420025
P32298,-2.6459885,-8.636107,6.8152113,5.225305,0.9623342,-9.967946,11.268674,0.80204415,-4.774033,1.2015918,3.8422782,0.15948805,1.6144967,-2.356005,-1.0001359,-1.6249774,-0.33134377,3.7294083,5.672019,3.0028746,1.7945609,7.6491947,10.298542,-4.0975943,2.0215836,-2.8814406,-2.979078,7.5541825,1.9790859,-5.0585427,-5.6171207,-4.307274
Q8WTQ7,-4.45234,-8.0322695,6.936615,7.1494155,-1.3816465,-7.5274773,12.530986,1.0497816,-3.2490141,1.4485549,4.8410068,0.1482032,1.7457196,-1.6050675,-0.981768,-0.60461915,-0.20872457,2.367354,4.4120493,2.4378052,2.7675242,8.376938,11.507865,-5.30116,3.187399,-1.4265869,-3.0752861,6.0404487,0.48614982,-4.927446,-4.385362,-3.2927074
P49840,-5.3395643,-9.062144,5.371084,6.653254,-0.58082634,-6.4159026,11.560408,1.6367934,-2.7834885,0.028360358,3.6933804,-1.4925877,3.583643,-0.41860017,-1.1892436,-2.5996814,-3.4830933,3.6050181,4.3441443,3.870654,1.6271218,8.890433,11.610622,-7.1590853,2.9492986,0.5344618,-2.669027,2.4531064,-0.3248148,-5.7652764,-4.3504124,-4.387423
P49841,-5.4671144,-9.758944,6.4796057,6.5017223,-1.4333237,-6.5869412,12.094234,0.18943597,-4.4409666,0.39379886,5.889566,-0.42722023,3.1027157,-3.4447002,0.0869608,-1.2511352,-1.0841817,2.1169586,4.3835316,5.976152,2.2652905,10.706373,7.8748555,-6.0212708,0.35164225,0.13412297,-2.5561078,4.3893175,-1.0130216,-3.510739,-3.1403952,-4.44198
P08631,-5.46614,-11.120148,3.749591,7.1394167,1.2699047,-7.119564,12.072591,-1.2677715,-4.828418,-0.9356048,4.177309,-2.4056652,2.8274431,-1.2833844,0.023135316,-3.4708946,-2.2017944,2.7571185,6.964066,3.6847208,1.2748497,9.035128,8.720423,-3.4679396,1.5128939,-1.8778456,-0.95673454,3.9175436,-0.11511955,-4.4242826,-4.94291,-5.3183737
Q86Z02,-5.679118,-10.083506,5.8864727,4.0069633,-2.0681107,-7.524475,11.862439,0.23991752,-4.868638,0.23019627,4.9382763,-0.75430954,1.8211823,-2.567976,0.42113754,-4.7662835,-1.058119,5.1295567,5.18269,3.8869245,0.4167911,7.659752,8.444796,-4.537807,0.5875472,-1.9678717,-0.6147285,3.5668185,0.85729253,-6.683586,-7.1758733,-4.8759418
Q9H2X6,-4.2659073,-10.423682,5.5384874,7.099338,-0.1037842,-8.0661,11.402822,1.6482903,-3.6529286,1.143459,3.891252,-0.6131493,0.9086387,-1.2974228,0.11545724,-0.92456365,-0.41319183,3.1204145,4.0564227,3.5364583,3.92769,8.33416,10.183909,-4.2208943,2.9492674,-2.418601,-3.0331562,4.921722,0.060132913,-5.908103,-6.148739,-4.8810596
Q9H422,-6.416638,-11.268077,4.517055,7.2104206,0.57907134,-6.6622725,12.011732,-1.7381817,-3.7075157,0.064991415,4.2168264,0.06015116,2.8806643,-2.9669328,0.03858894,-1.457055,-2.1450458,3.2299368,6.8299384,4.2352414,2.2565532,8.648926,9.243647,-4.7648273,2.0078194,-1.5112493,-1.7725892,4.4176946,0.40223506,-3.5203793,-4.590342,-4.3031144
Q8NE63,-5.9907675,-9.344534,5.6767445,5.0448027,-1.6017778,-7.435526,12.331539,1.0687596,-4.6487684,0.56245476,4.1821613,0.49971867,1.3650049,-1.8661687,0.02217587,-2.2428987,-1.3922787,4.7700305,4.42144,3.6857843,1.3566554,8.365738,9.7522545,-5.5003,2.6617415,-2.3982148,-2.788405,4.4080725,0.6026872,-6.1025405,-5.5914307,-5.01187
Q92918,-4.925706,-11.447501,6.2245684,7.8299885,-1.8282214,-5.5103703,10.840619,-0.063793294,-3.3262649,0.22025925,4.7376323,-2.3031156,2.716166,-3.2413514,0.14144927,-2.6371238,-1.124598,3.5771337,3.567682,4.507404,2.673734,9.532647,9.355351,-3.8754146,0.70442915,-0.50259477,-1.6893734,3.835519,-1.7030102,-5.1131554,-6.231884,-5.1645327
P57058,-4.0664554,-9.848664,4.577741,6.0165014,-1.1852908,-7.654482,11.899383,2.7983353,-4.0820565,2.1922905,6.567332,0.19621609,0.35909122,-1.2892394,-1.0127904,-1.4871469,0.909585,3.5737712,2.780781,3.1510682,4.3128333,8.075361,9.862827,-4.05186,2.1148126,-2.477336,-3.0926414,5.2568297,0.6329831,-5.871203,-6.9064345,-3.6188595
Q9UPZ9,-4.1208844,-9.005023,5.756016,6.929702,-0.66757333,-7.8387504,12.200563,-0.02624355,-3.2021685,1.2020645,3.4425557,-0.4869371,2.0036066,-0.20629618,-1.5165508,-2.6192067,-2.1471512,3.2886457,4.576438,2.9040732,3.0905604,8.061491,11.300055,-5.4799695,3.3061166,-1.9080789,-1.8622912,3.4060683,0.9656887,-5.8027244,-6.223361,-3.8635511
P08069,-5.889178,-10.471672,4.7677436,7.010197,-0.7689491,-4.3439736,12.977277,-0.23827,-1.926789,2.0938833,4.6832123,-2.2958844,3.784564,-2.2116945,-1.4179633,-1.5890824,-1.6465646,1.7785772,5.09777,3.541074,2.2660446,10.869916,9.819861,-6.388902,0.8135798,-0.5883712,-2.130477,3.3473363,-0.6310586,-3.9123893,-4.5940933,-3.3432996
O15111,-6.7301435,-10.173728,4.6782026,5.8916607,0.8470544,-7.7869887,12.419471,-0.4257024,-3.4171164,0.82248217,4.124151,1.302533,1.4737811,-1.7934313,1.0393872,-1.7778876,-2.2610574,2.7296593,7.945348,3.4728818,2.5708916,7.8568354,9.364859,-4.4202375,3.2272675,-2.0617511,-2.4834027,3.861549,2.3342776,-5.1303797,-4.556728,-4.324067
O14920,-5.0409393,-11.47175,5.2374024,7.680051,-1.0171719,-7.4273214,9.970455,1.3443778,-5.3442435,-0.9949327,6.0382485,0.24721274,2.223628,-3.4375193,-0.49281332,-1.0888194,-0.95505995,3.634263,3.6629164,4.7331448,2.4949725,8.6998205,10.055478,-4.3116417,2.9789684,1.5434716,-2.7238224,4.8415217,-0.46813184,-3.8290968,-3.3927917,-4.7487855
Q14164,-4.833699,-11.905124,4.4974937,6.7937946,0.61109525,-6.0911713,11.517647,-2.38111,-4.191389,1.8511944,3.7075987,-2.1630921,3.9636555,-2.699092,-0.7966159,-0.6787017,-0.82955545,2.2051096,5.2007966,2.9514768,1.9891888,8.923359,9.590361,-5.4112287,-0.028150959,-0.97114754,-2.6098776,5.489669,-1.8572232,-4.246515,-5.742993,-4.5436974
P06213,-5.5427217,-8.005752,5.811692,4.12445,-1.1095794,-8.289149,12.282815,-0.07869993,-3.507733,2.7146351,3.4232755,1.1106563,1.1190531,0.074828446,-0.49629924,-1.7533449,-1.7769812,3.7978783,4.8161855,0.565883,2.2764091,6.2525983,11.182607,-5.9958735,3.463873,-2.8479424,-3.2898483,4.358996,1.1078981,-7.4144483,-7.3326616,-4.0699606
P14616,-7.6881475,-10.522817,5.1106753,5.69853,-1.3581705,-7.097447,12.26677,0.9158615,-2.8787744,1.0671053,5.2062573,0.7429418,2.0606506,-3.5488234,0.45236576,-3.085836,-1.271003,2.3672018,6.8054085,2.1996942,1.9558296,9.242283,8.456615,-4.5120654,1.284099,-1.6886988,-2.6887877,4.3178415,1.5090134,-4.976567,-4.91574,-3.3376021
P51617,-2.6255891,-8.869398,5.295992,6.124879,1.2515074,-8.606861,11.558528,3.457318,-2.7394886,1.6739249,5.097956,-1.1454927,1.0908368,-0.89291906,-0.9551818,-1.5043125,0.053988,4.287011,3.5122993,5.3653746,4.0231028,8.115588,10.432147,-4.6253633,2.2759924,-3.2760715,-2.6463728,5.272367,1.4647955,-5.520923,-6.4495025,-4.132919
Q9Y616,-5.693908,-10.198881,5.7640815,7.9374704,-0.34324598,-7.5778046,11.683654,0.5551077,-1.840095,0.7674698,3.5074084,-1.4287317,2.1225927,-1.4448094,0.49307558,-1.6788738,-0.795077,3.191808,4.5408907,3.9034808,3.4048915,7.689858,10.867544,-5.132562,3.0065072,-2.1021543,-1.6539762,3.6305294,-0.202461,-5.704284,-5.906134,-4.31036
Q9NWZ3,-4.225653,-9.993036,6.04402,7.551449,-1.8868243,-6.4740696,11.360337,0.77814984,-3.6843874,1.2965472,3.0862584,-0.9395906,2.7419655,-1.7089565,-1.1212986,-2.3997853,-1.0305148,4.0306973,3.0433235,3.631917,3.4768424,9.888742,9.992061,-4.9483495,1.7560965,-1.8040508,-3.0788105,4.1383066,-0.8525288,-5.4664683,-5.7491117,-5.1214514
Q08881,-3.1192086,-10.278775,5.9234543,6.5336366,0.18668185,-6.7140903,11.335157,-0.5029012,-3.2618976,2.6054916,3.998389,-0.50771475,2.8549695,-2.5405838,-2.293265,-0.24520293,-0.3475876,4.135462,4.8967404,2.6575458,2.852322,8.017618,11.870034,-5.082182,2.4732587,-1.0859668,-2.392955,6.3469677,0.8933432,-4.1405926,-5.9775357,-3.646127
P23458,-3.6833293,-10.093107,3.8226025,6.787753,2.6837738,-6.860374,11.532556,-0.857901,-3.437371,1.1475549,1.2673563,-1.929797,4.5411115,-0.008196754,-1.6589223,-1.2419693,-2.6001773,4.1203437,6.1175222,4.096664,2.3546908,8.385041,10.98273,-6.577725,2.0815349,-1.906151,-2.51534,4.2411475,-0.09466307,-4.531021,-4.8715925,-5.0800285
O60674,-6.197182,-10.801549,6.034888,6.0901217,-0.34315822,-8.103622,11.180088,-0.17887112,-4.818288,-0.70759255,3.8261516,-1.040597,2.250865,-2.8308015,1.3401668,-2.371618,-1.6258062,3.4319887,5.6594887,4.5919137,0.77851534,8.676226,8.964609,-4.614698,2.2892308,-0.8194765,-1.9426318,4.067745,-0.15142348,-5.345221,-4.2599106,-5.9903116
P52333,-7.0790787,-10.456154,4.722134,5.556784,0.5802054,-6.0683208,12.016169,-0.54427755,-2.6693454,1.4080676,5.39328,-1.3740071,4.6205764,-3.5902557,-0.8095035,-2.146019,-2.1884894,2.0586767,7.137348,2.5575805,0.6279984,10.085185,9.140041,-5.9571433,0.21070735,-0.032555137,-2.7891862,4.943298,0.09869695,-3.3303804,-3.73907,-3.590767
P45983,-3.8989587,-9.993684,6.4359493,7.366353,-0.845713,-6.614715,10.051362,0.28324333,-1.8526016,2.0179543,4.0493326,-1.1779848,4.035178,-2.546647,-2.2113178,-1.7398871,-1.1390512,5.2525096,3.0755424,3.6214516,3.4162455,8.201268,11.982627,-5.6958027,2.4502933,-0.010477224,-2.103524,4.3719916,-0.18059316,-4.387652,-6.0584455,-4.150091
P45984,-4.7117686,-9.354651,6.3304105,6.256048,-1.3690417,-8.290519,11.775346,1.5168917,-3.9305353,1.0583532,4.8343697,-0.17432046,2.2419188,-2.2524555,-1.3666382,-2.3265655,-0.7853725,3.9854882,3.7758048,3.4587884,2.7813196,9.423958,9.765243,-5.3885207,2.0535076,-1.8933474,-2.5845304,5.1037083,0.35650563,-4.788412,-5.5574646,-4.233692
P53779,-4.976643,-8.158383,5.7663193,6.02639,-0.4262601,-8.111681,12.492513,0.86827683,-1.9978744,0.78831947,3.8367043,-0.27260634,2.7844234,-1.4407783,-1.4878368,-2.9267802,-1.4169215,4.69664,4.771363,5.0375557,1.5017153,7.1078672,11.698253,-7.1253815,3.0444717,-2.0148377,-0.78295153,3.315617,2.2839513,-5.1494603,-5.132322,-2.7470975
P10721,-5.8614244,-9.848867,4.1598735,5.2328625,0.39309973,-7.4021716,12.389395,0.70276123,-3.0142736,1.864383,5.964301,0.64471847,2.0968318,-1.5285943,-0.46027756,-2.8270895,-1.5234796,4.253942,6.1840863,3.521258,3.0069203,7.462792,10.008866,-4.8538766,1.8388865,-2.1525903,-2.3363886,4.103409,2.0322154,-5.5634084,-6.504465,-3.6028328
O95835,-6.4320803,-9.03503,4.9475393,6.0744905,0.618256,-7.0821066,12.332775,0.53516805,-1.4773633,1.2227118,3.3053925,-0.62656045,4.6343102,-2.7348003,-1.5175865,-4.2404394,-2.39867,2.3420613,8.547991,2.2260954,1.0505986,10.187495,9.382192,-5.566619,1.159778,-1.4941127,-2.0599418,4.0686374,2.8444045,-3.4807925,-3.0756447,-2.7279954
Q9NRM7,-3.752062,-10.048786,7.106023,7.229396,-2.2210827,-6.90096,10.87886,1.5833423,-3.5742805,1.5499185,4.6285977,-2.016304,2.003341,-1.6584425,-0.39150983,-1.4789114,-0.0013330367,2.8426132,2.3434942,2.9711416,3.2562456,8.826335,10.95235,-4.7811985,2.0225735,-0.07057096,-2.8707356,4.5879416,-1.6143241,-6.4583774,-6.162178,-4.927697
P06239,-5.352267,-9.5421715,4.7754807,6.1861563,-1.6781209,-6.6332893,12.138972,2.390819,-2.481691,1.5186467,4.0195756,0.039279405,2.6695821,-1.0672169,-1.5370932,-3.363406,-0.84462655,4.567511,4.956258,2.2672753,2.6738856,7.6022034,11.5024395,-5.9397187,2.3912675,-1.4214374,-2.13775,3.6741438,1.5423818,-6.391489,-6.1415124,-2.8863866
P53667,-5.117568,-8.605498,6.774585,8.856078,0.32019266,-7.7300186,11.793051,0.26916602,-2.2833226,-2.1673229,4.691592,1.0541553,2.4665942,-2.9528117,0.5763794,-1.3711987,-3.3378227,1.8888471,6.531105,6.0774326,3.4910402,8.213557,9.244373,-5.3544145,1.4696627,-1.3184351,-1.9512453,4.831738,0.31464753,-3.145546,-3.786268,-2.5377183
P53671,-5.520195,-10.769154,4.5682325,5.391514,-0.12894757,-6.9881244,10.935596,1.6845443,-3.671173,2.7618876,5.4486256,0.8314327,2.3615696,-2.202077,-0.603437,-1.3955469,-0.6186529,4.486406,5.177058,1.9984581,3.7378228,8.38864,10.127443,-4.2500033,2.1253202,-1.0662026,-4.284604,5.5041986,0.8442958,-5.522193,-6.011818,-4.788673
Q15831,-5.562253,-10.026606,5.9043655,4.9799194,-0.809653,-9.35107,11.00536,0.7205948,-5.3623066,0.542808,5.9832873,1.3583279,0.6840566,-2.122061,0.50114566,-2.3747115,-1.3669921,3.8429432,5.198584,2.7642832,2.5829008,7.427967,9.1812525,-3.664092,3.002361,-1.1289833,-2.7250714,4.8540063,1.1982846,-5.896643,-6.0230193,-5.095371
O94804,-7.2049937,-9.589234,5.6160493,4.9895024,-0.7112015,-5.7645226,10.763431,1.4302852,-2.2958236,0.9901193,5.131267,0.43019828,3.646151,-1.6129355,0.011652365,-3.3100777,-4.565762,4.4589434,6.7797804,1.8565506,2.507166,8.937576,9.925212,-5.395325,2.2341785,0.9474907,-3.5524914,2.8069537,0.5095589,-5.7958007,-5.407281,-5.025327
P29376,-6.5300684,-10.443957,4.9263554,7.25946,-1.0622699,-6.55243,12.075968,0.7208404,-3.5698595,0.21057904,4.38736,-0.9668771,1.5045352,-0.773072,1.2233342,-1.2684679,-1.1735698,3.076798,4.263792,3.8077145,2.936196,7.892172,10.192759,-5.120594,3.117288,-1.3060732,-2.376142,3.1940727,-1.2166417,-6.329069,-5.4182367,-5.1673684
Q6NUK7,-3.7522762,-11.200845,5.9509997,6.4380326,-1.0371975,-7.599104,10.997135,0.33239692,-5.963343,-0.22098313,3.9045475,-1.0739644,2.8351555,-3.4445703,-0.9616757,-2.2808464,-0.49828607,3.5221918,4.503008,4.5413723,1.0867233,9.61183,9.14925,-4.813242,0.92291045,-0.29281026,-2.0919323,5.4190693,-0.21272229,-4.475229,-4.3616405,-4.933986
O43283,-5.534916,-10.006106,4.167945,6.3662033,0.020768892,-7.597605,11.615136,0.044378426,-4.492154,0.0803092,2.7258372,1.2663738,2.7506945,-1.2025689,-0.8420362,-2.291676,-1.9134227,5.6269827,5.8768306,3.6792383,2.07387,6.955944,10.969963,-5.5982256,3.4926836,-1.9107528,-2.3435433,4.1952114,1.4714564,-5.2935,-4.896302,-4.56477
P20794,-4.4666157,-10.823538,5.368727,6.2236857,-0.64834815,-6.5041075,10.895661,0.2949312,-3.4978426,1.9722455,5.2337666,-0.339338,1.274115,-1.1691464,-0.05952339,-1.7206885,-1.8969154,3.9558783,3.991967,3.126719,3.8862493,7.527052,10.916241,-3.9431727,2.7131746,-0.61198467,-3.0031774,3.5685534,0.05037732,-6.7493963,-7.554174,-5.1184063
Q13233,-6.747666,-10.015302,5.5784483,6.7938323,0.19026014,-6.720851,11.291403,-1.0723369,-3.290988,0.42708012,3.7259212,-0.1072399,4.1315312,-2.819444,-0.26015043,-1.3318261,-2.6359448,3.0806127,6.71858,2.305554,1.190257,8.5686455,10.686441,-5.6632414,2.327284,0.021586332,-3.2986658,5.196218,-0.2330743,-4.074428,-3.5364575,-4.513876
Q6ZN16,-6.6195245,-11.20866,4.682463,6.265992,-1.6321173,-6.7251153,11.933502,0.6259686,-3.0306363,2.0244746,5.365793,-0.059774682,0.7312828,-1.7004523,0.6752225,-2.0512116,-1.2144824,2.5847163,3.6740658,3.9320376,4.102006,9.103814,8.747337,-4.620052,2.5256453,-1.607288,-2.549804,1.9980532,0.16223939,-6.1172085,-6.4696693,-4.6701527
Q9Y2U5,-4.030398,-9.485779,4.00079,4.499789,0.9762674,-7.7294807,12.286967,2.8829532,-3.5554729,1.6477072,6.299276,-0.9028839,1.0253797,0.10396705,-0.9194464,-1.9838086,-1.300089,3.3964875,5.069259,3.3548656,2.383857,6.8723664,11.33257,-5.51586,2.5524201,-1.1379852,-2.433013,4.094582,1.74125,-6.868929,-6.7848077,-3.3898273
Q99759,-4.6308613,-10.097226,4.669845,4.3662424,-0.06811202,-8.6854925,12.878457,1.1468605,-4.6820283,0.6981598,4.4113727,0.29863647,0.6811116,-2.3825748,-0.5279988,-2.1303349,0.17428017,3.7945948,5.800397,4.6157403,0.77051944,7.0553885,9.650667,-5.6220922,2.0529563,-3.0022776,-0.9351392,4.9236608,2.8353834,-5.5644093,-5.7857895,-2.9519386
Q9Y6R4,-5.7684755,-11.066667,7.501249,5.0110335,-3.245463,-7.5219164,8.92048,1.7885994,-3.288295,2.4229052,5.7954664,0.33489868,1.1356893,-3.4071283,0.44013,-1.4053084,-0.46030313,4.484817,2.1988478,1.7076477,3.7592673,7.9371014,9.744048,-4.1216893,2.9615104,0.9408286,-3.196082,3.942941,-0.74101216,-6.522117,-7.3050475,-5.518483
Q12851,-6.2722273,-10.244195,5.637173,5.4442005,-1.5076753,-7.135367,11.146256,1.7444783,-4.0436416,1.2244844,5.615899,0.5623683,2.3337913,-2.0955486,0.3675643,-2.924819,-1.159381,4.3708544,5.6087227,2.3235898,2.7318692,8.276547,9.771063,-4.2175345,2.2184818,-0.14872943,-3.1357028,4.3287096,0.6724597,-6.233275,-5.496028,-5.0732126
Q8IVH8,-4.797809,-11.121368,5.6299663,6.210186,-0.30225474,-7.899675,10.500451,0.14808093,-4.288795,0.01923893,4.6171002,-0.502422,4.0445766,-3.315321,-1.4010408,-3.0243638,-1.5205653,4.939814,5.684609,3.627332,1.9248115,8.294294,9.730253,-5.286634,0.97453696,-0.054381076,-1.3622552,5.0869026,0.28333262,-4.083212,-5.6225305,-4.2094684
A0A6D2XP67,-4.7818675,-10.177021,6.1704865,7.243219,-1.444581,-7.1973786,11.99239,1.6292866,-4.257026,-0.77347845,5.2234335,-1.8471755,1.3286966,-1.8607496,-0.20886838,-2.8207886,-1.3020918,2.3720827,4.876711,2.905049,1.9914742,9.481765,9.600926,-3.7809138,2.093338,-1.0723382,-1.5829335,4.6186824,-0.37360895,-5.359725,-5.511818,-4.3807173
Q9Y4K4,-5.661335,-10.531239,4.8166366,5.2989044,-0.36089927,-6.518079,10.88317,1.6898847,-3.657488,2.7301018,5.5865607,0.1114317,1.0147823,-1.1167223,0.49072027,0.12195172,-1.3696624,3.8645873,2.9190729,3.4457178,4.4411697,8.84695,9.511401,-4.83084,2.9754426,-1.1183729,-4.6848545,3.9122136,-0.9427245,-6.125887,-6.3767977,-6.056528
P49137,-5.2225494,-10.271372,6.001418,5.493593,-1.9734831,-6.136452,11.658457,1.2647567,-4.286588,0.5599131,3.8042507,-0.8437186,2.0114079,-1.034646,0.24466868,-3.0026894,-2.391647,3.9533799,4.87444,3.1684709,2.0131881,8.744726,9.93971,-5.2908373,2.0491385,-0.2767458,-2.438421,2.862842,-0.2619709,-7.1934915,-6.2273374,-5.3847413
Q8IW41,-4.575503,-11.209386,4.4444966,7.8969445,0.19029656,-6.5203414,10.937867,0.66668856,-2.1849692,1.4727858,2.6886463,-1.4229282,3.6735241,-1.2268062,-1.9717438,-1.7092351,-1.9827983,3.8274772,4.2627854,3.1023593,4.3512535,9.363087,10.445932,-5.923475,2.0932088,-1.4662073,-2.374912,3.536425,-0.62929356,-4.4236884,-6.244659,-4.1370373
Q9P0L2,-5.124387,-9.233395,5.9018993,5.2952204,-0.16382973,-7.370324,12.616411,-0.70767754,-3.1368783,1.6604437,4.8492265,-0.547414,2.736591,-0.7666018,-0.096422486,-3.2313936,-2.648137,2.9475057,6.4792686,3.5864484,2.4365065,7.84817,10.128898,-5.7320004,1.4035214,-0.98922414,-1.6945623,3.0395803,1.0680392,-6.3338523,-6.4532967,-4.062913
Q7KZI7,-2.6398368,-11.407966,5.933999,6.2455506,0.26393008,-8.295767,8.9845705,1.4753639,-4.388356,0.7731826,5.406592,-2.1904101,2.941455,-2.5086467,-1.7130497,-1.922391,-1.2869459,4.6190443,2.4689307,4.652504,2.921277,8.659052,10.406568,-4.7876554,1.7858684,0.99956775,-2.1720226,4.5175214,-0.79635537,-4.7968497,-6.4049335,-5.4175367
P27448,-5.719511,-8.932934,4.725086,7.308642,-1.126811,-6.42951,13.506329,2.2774546,-2.3300676,0.74749196,4.912838,-1.0459828,1.9370899,-0.9079219,-1.0080092,-2.679201,-1.1585362,2.3098636,4.6153903,3.9495704,2.9450161,10.014,9.822999,-5.734199,2.180269,-2.4737375,-2.0886526,3.3282974,0.7232239,-4.916904,-4.645173,-3.025122
Q96L34,-4.1640944,-11.226508,6.478558,7.3586884,-1.2455823,-5.3513255,10.080617,-0.41112915,-3.4594169,0.98083675,2.7868242,-1.3917413,2.9055583,-2.4276576,-0.5661349,-0.9287144,-2.0625982,5.15692,3.1046157,4.508785,3.4069412,9.438948,10.186787,-4.873293,2.4947722,-0.40029457,-2.442462,3.6629875,-1.6437944,-4.8656783,-6.121408,-6.2810287
Q9Y2H9,-3.7085361,-10.406946,4.4104676,6.2249155,-1.0796745,-6.684054,12.660566,0.022685882,-5.4042497,2.160166,4.044951,0.11788959,0.38093656,-0.7440009,-0.6492727,-0.8900615,0.8330752,3.848852,3.9185922,3.1581225,3.0339468,7.4333067,10.736912,-3.9923341,2.9804974,-2.8799982,-2.5844707,5.104831,0.7614235,-6.419341,-6.4696302,-4.599452
Q02750,-4.9901996,-8.161945,7.102059,8.182135,-1.8286052,-7.0615435,11.045452,2.9906666,-3.106445,-1.8992357,5.6980424,-1.2198973,1.5971594,-1.1175253,0.9768878,-1.6856494,-2.11036,2.9021344,2.4875445,5.6606565,2.7887316,8.20142,10.633546,-5.446901,2.8949423,0.35805726,-2.5715544,3.4299052,-1.8503748,-5.8590875,-4.174261,-4.615231
P36507,-4.3752995,-10.679745,5.0936184,6.241289,-0.88558,-5.9375277,11.703558,0.84397876,-4.778124,0.32389975,4.9526086,-0.9417763,3.3657165,-2.255003,-2.1641443,-0.9298779,-1.998722,3.7980027,3.8617752,4.479739,2.075276,10.060568,9.76259,-6.924423,1.3676398,0.39149874,-2.2996802,4.4642925,-1.1015577,-3.6945982,-4.7105165,-4.094368
P46734,-3.5205364,-9.562924,6.021736,6.9971185,-1.0854145,-7.300534,12.277203,0.5442523,-4.1607985,0.57372063,5.1462245,-1.3405231,2.9689968,-2.822877,-1.8049202,-1.8721122,0.22504294,3.47562,3.4687114,5.5882306,2.034512,9.273279,9.849751,-5.9869623,0.73613715,-1.3724344,-1.2613205,5.287266,-0.100991756,-3.7710164,-4.768225,-3.3125691
P45985,-5.290357,-9.762952,5.482665,6.0487585,-1.1897304,-7.905543,11.889685,1.143864,-3.5869462,1.1091665,4.8034286,-0.5304986,1.2917874,-1.2463982,-0.09635877,-2.5488238,-0.22420177,4.378459,4.3708205,2.3216043,2.805069,7.0436063,10.419104,-4.3325214,2.4018748,-2.7483501,-1.913971,4.857661,0.2602331,-6.5102916,-7.381539,-4.3080006
Q13163,-5.6851344,-9.558656,4.494477,5.7460027,-0.2909176,-8.502177,12.460142,1.602887,-4.2699947,1.1586034,5.6949077,0.4709832,1.205643,-1.0724821,0.6336468,-2.5706244,-0.38660446,3.2567399,4.684332,4.920066,3.2513185,8.116836,8.941595,-4.8185806,2.0566082,-2.4045713,-2.7476282,3.706807,1.1690452,-6.0883045,-5.2415156,-4.518288
P52564,-5.174117,-8.476629,5.2151885,6.358012,-0.9199466,-6.4947443,13.431026,0.6549042,-3.197574,1.7379074,4.568232,-0.6644942,2.128332,-0.25480342,-0.95632356,-1.5940529,-1.2387819,3.484946,3.9598188,4.393367,2.8587258,9.070889,10.524274,-6.438721,2.719525,-2.3193858,-2.3775246,3.4556737,0.22582033,-5.398354,-5.138386,-4.174926
Q14680,-5.4346356,-10.5647135,5.2750654,5.7583723,-0.2604401,-7.9191356,11.261394,-0.34475762,-5.2550097,-0.4833216,7.8616543,-0.41948006,0.8829511,-1.6836791,0.30375966,-2.218845,-2.9701335,2.5741167,4.818187,3.1126518,2.7430778,7.981811,8.626508,-3.5414443,1.7282188,-0.2861878,-1.9856013,4.2737317,-0.92393947,-5.140506,-7.068653,-4.791898
Q12866,-7.1023326,-10.778981,6.17011,7.4867897,-2.5194452,-6.122917,10.925505,0.5446484,-2.4811466,0.01142798,4.798195,-1.5460647,3.3511243,-3.128942,0.46921727,-3.6821856,-1.2721944,3.0552442,5.0644236,1.8980095,1.5885077,8.3867,10.352761,-4.4036818,1.4386839,0.40450472,-1.8818012,3.7209876,-0.9705256,-5.8327456,-5.375586,-4.1588464
P08581,-4.6733127,-9.529992,6.022925,7.5091157,0.09682075,-8.322684,11.376039,1.7415648,-3.0756938,0.6302076,6.173622,-0.9487151,1.1055155,-0.9389585,-0.12188633,-0.810146,-1.738881,1.4215997,3.964547,3.2993674,3.786362,8.518551,10.959214,-4.6233253,3.5757997,-0.17354184,-3.1157794,4.3292217,-0.25815022,-5.341042,-5.1174903,-4.1699395
Q8N4C8,-6.00457,-9.450534,5.582281,6.784895,-1.8404453,-6.409707,12.099879,2.625825,-2.3331254,1.2371429,6.963966,-1.4176877,1.911753,-1.4659733,-0.4262988,-2.1953642,-0.9717527,2.299175,3.3719013,2.8978739,3.1414714,9.173175,10.408083,-5.29927,2.0009017,-0.25180796,-2.7421572,3.6785564,-0.7160577,-5.728472,-5.6347466,-3.5318089
O14733,-4.585138,-10.422859,4.5615635,6.8529162,-0.8613719,-6.5331597,11.389334,1.9661009,-4.578461,0.40858603,4.6929555,-1.1957339,2.6487672,-0.4010531,-1.5370914,-1.4685653,-1.5685533,3.833636,3.5804067,3.2501771,2.7463422,8.903065,11.118132,-5.974744,3.2019815,0.4910833,-2.6708503,3.6814573,-0.8635832,-5.4120817,-4.8352046,-4.7743597
Q9BUB5,-5.7317305,-11.146677,5.3048987,6.2237053,-1.4694618,-8.163722,10.260015,0.5303132,-6.0663424,0.072078906,5.0697684,0.22179383,2.9693735,-2.0739784,-0.046086125,-2.7391677,-1.3961861,3.5473218,4.686133,2.003779,2.6680348,8.581637,8.869406,-4.3740525,1.4517367,0.49984556,-3.360571,4.7994084,-1.3318019,-5.612115,-5.2383575,-5.6245484
Q9HBH9,-6.530598,-9.128943,4.6296186,6.2065587,-1.0020204,-5.7418284,13.399563,0.8131801,-3.0713787,0.6220668,5.0718045,-1.9132679,1.5825742,-0.31850055,0.32070416,-2.9228973,-1.9541644,2.800203,4.8961253,3.2253907,1.3136376,8.76835,10.395731,-5.066362,2.5016916,-2.0593505,-2.158298,2.9053628,-0.10606389,-6.528779,-5.5609536,-4.5507503
Q32MK0,-4.7684193,-9.685241,5.3108315,8.169349,-1.5201054,-7.9287796,10.913778,2.0872655,-4.3719034,-0.76051503,6.082464,-1.9238144,2.1819162,-0.49864256,-0.63434243,-2.9912863,-1.0572387,3.0753949,2.3567193,3.041819,3.3769822,8.471038,10.27089,-4.3163214,2.2305677,-0.4199898,-2.3721626,4.076251,-2.1514902,-5.741243,-5.8031564,-4.7825074
P80192,-4.6354012,-9.679055,4.3220096,5.1077533,0.36382166,-6.6897817,12.193593,0.71010447,-3.1130786,3.3648438,4.99014,-0.6427015,1.7540396,-0.124730125,-0.78187096,-1.3578011,-1.1060302,3.844978,4.2866597,2.8738866,3.318659,7.636995,11.226636,-5.307636,2.5753293,-1.9314275,-3.4271772,3.9667664,0.7373689,-6.7113533,-7.010518,-4.5964127
Q02779,-3.4074953,-8.5916395,5.517084,6.4819036,2.9136412,-5.103091,12.241665,-0.41568556,-0.27755383,3.4263582,4.242638,-2.9966424,2.661263,-0.23869501,0.054038413,-0.31656134,-2.1135015,2.7815511,5.9672785,4.3733273,3.301729,7.9801264,12.0673485,-4.547697,2.1205714,-2.1899946,-3.0342197,4.4328403,0.6365097,-5.6986084,-6.335344,-4.746756
Q16584,-5.964705,-11.105815,4.999093,7.187467,-1.5348481,-5.155816,9.876728,0.41760164,-2.3557997,1.4181752,4.770248,-0.3496148,3.5342216,-1.0357733,-0.73337066,-1.883948,-3.821105,4.123082,3.063394,3.064314,4.975936,8.859025,10.164954,-5.9520965,2.15863,1.3043177,-3.335204,1.6211696,-2.1390932,-5.6019926,-6.777512,-5.0838757
Q5VT25,-4.6741605,-10.396096,4.1784983,5.3145137,1.5349686,-8.020505,11.927471,1.2897351,-4.495179,1.8954805,6.575133,-1.4928677,2.0905669,-0.77327716,-0.455224,-1.0643111,-0.4655253,2.7445197,5.3608704,3.4139826,2.5730608,8.342161,10.269707,-4.791466,2.4106925,-0.4977784,-2.790788,5.001021,0.45980704,-5.28397,-5.1133432,-4.884012
Q9Y5S2,-3.9607747,-10.96856,5.4865847,7.9779468,-0.34470597,-6.820024,11.877394,-0.5488083,-4.229832,-0.25556684,5.35575,-3.3099773,1.962939,-2.5905147,0.079871275,-1.5888648,0.8392123,2.7872987,3.6871972,5.577199,1.5361218,8.147392,10.133198,-3.9077325,1.4374702,-1.2968571,-0.29259163,4.917933,-1.1173404,-4.570717,-5.2890267,-4.5160327
Q13043,-7.2569947,-9.358788,5.784477,4.2235765,-2.4517353,-6.918266,11.680191,1.6139748,-2.4662082,1.9391114,6.4490404,1.0612674,1.8733128,-2.3299894,-0.6501292,-3.9716744,-2.5988495,4.124363,5.1573696,1.7467278,2.5264823,8.849065,9.228126,-5.1560884,2.266735,-0.59139174,-2.4228263,2.6860957,1.7421796,-5.8277364,-6.5316606,-3.6538916
Q04912,-6.1816254,-8.4062395,5.5221534,7.1505938,-1.5964642,-4.9564066,13.002171,1.9895213,-1.4655449,0.86446273,5.548275,-1.7770755,4.208806,-1.4125577,-0.6321198,-3.5354033,-1.3306924,2.722803,5.641374,3.3182666,1.8527123,9.128766,10.962326,-6.2121487,0.6705272,-0.12872313,-2.1829028,3.6285818,-0.07252137,-5.4913216,-4.195489,-2.8157127
Q13188,-7.0018415,-9.667778,6.1661496,6.5730906,-1.1766683,-6.5127563,12.354723,0.99400866,-3.1635482,-0.36258754,5.3090973,-0.22358,1.90026,-2.0359268,1.4484555,-2.0553715,-2.4639375,2.3399181,6.21196,3.862848,2.2589204,9.018992,9.151012,-5.050361,2.1651556,-0.53586257,-2.4065366,3.5356073,-0.18789597,-5.478351,-4.4690557,-4.523519
Q9Y6E0,-3.1275623,-9.586735,5.5740705,7.1770744,0.28809142,-7.086685,12.722316,2.2495115,-4.6143527,-0.7171539,5.083707,-1.0029951,1.099088,-1.3920928,0.59937423,-1.5774295,-0.6626957,1.8933909,5.7269297,6.47693,2.6231587,8.888258,9.3799925,-4.450262,1.3505361,-1.2648494,-1.9892179,4.7266526,0.83624184,-5.3905854,-4.0313063,-3.9443645
Q9P289,-5.176362,-9.200197,6.1330776,7.160712,-3.6677318,-6.148321,12.191654,2.6256804,-3.469405,1.3269292,4.609161,0.14610173,1.0087603,-1.3427277,-0.7338654,-2.1715872,-0.30512324,3.1120865,2.5958257,2.459643,3.83898,9.643942,9.902478,-4.834269,2.5718732,-1.7182648,-3.208641,3.8864307,-0.39206994,-6.1573963,-5.702233,-3.9480293
P42345,-6.6225996,-8.130602,5.4171004,6.534149,-1.4817125,-8.306864,11.67607,2.5225782,-4.035719,-0.35865036,7.626588,0.6122381,1.6246268,-1.0223361,-0.08243008,-3.0587254,-1.3516221,3.8806677,4.3019433,1.9949712,2.9809804,7.8268003,9.935833,-3.9309459,2.94725,-1.1720245,-3.0570586,5.0803456,-0.1380823,-5.3577504,-5.1777153,-4.2602053
O15146,-3.8388586,-10.283624,6.2394896,7.757245,0.45128375,-7.612436,10.254949,0.44974625,-3.2975385,0.8048468,3.6926358,-2.9946828,2.2016757,-1.037171,1.359482,-2.586356,-0.9492791,3.1669998,3.8497603,4.454498,3.4036868,8.447102,10.02728,-2.8265576,1.8810079,-1.5117078,-2.8304713,3.963591,-1.2811893,-6.71384,-6.123416,-6.8273177
Q15746,-7.2289944,-11.571127,5.1110864,5.076053,-0.6530662,-6.7206483,11.901574,-1.4113497,-4.2391887,0.09495492,4.710044,-1.0344226,2.6909773,-3.89138,0.96146715,-2.8177755,-0.8297695,2.954549,7.6594477,3.1348512,-0.9039802,7.53361,9.548678,-4.631403,1.7296528,0.14054957,-0.53454816,4.0855684,1.2800896,-5.0685334,-4.2410975,-4.175332
Q9H1R3,-6.1368265,-10.700122,5.267177,6.1199656,0.09828772,-8.310316,11.568106,-0.25129962,-4.3324323,0.8406705,5.283221,-0.6128054,2.362734,-2.4309306,-0.3477611,-1.0352979,-1.4874012,2.5379584,4.840007,3.1778195,1.9941145,9.007192,9.600848,-5.468161,2.5253205,-0.7099085,-2.7230864,4.7939496,-0.3901574,-4.3188467,-4.733459,-4.7418437
Q86YV6,-3.7323377,-10.032803,6.4833097,6.539568,-1.7178557,-6.400075,11.457163,0.9079577,-1.8668386,2.1845996,1.066906,-0.048252244,3.3996603,-2.3510978,-1.8898298,-2.446466,-0.93091846,4.8380256,4.9108243,3.3947117,3.297832,8.511948,10.803628,-6.604015,1.5023644,-2.0856736,-1.7320092,3.9244986,1.3725269,-5.5233626,-6.5241494,-3.1274786
Q8NEV4,-6.9535227,-10.4559145,6.6494856,5.245392,-1.6380421,-8.214155,10.182568,0.5362799,-3.3788793,-0.2903821,5.5909214,0.7495017,3.0260909,-4.433401,-0.33340842,-4.2629147,-3.0091524,4.2713904,6.1158547,2.4932528,1.3925797,8.871258,8.560138,-4.521865,1.3962867,0.15355319,-1.8587266,4.100908,1.134979,-4.361246,-5.562971,-4.100361
Q8WXR4,-6.4784884,-8.733389,5.9454217,5.79737,-0.39719668,-8.571797,12.115169,0.37871182,-2.9647372,1.0271975,7.479407,-0.41221255,2.0419405,-2.5551026,0.16383928,-2.9178026,-0.9764894,2.2824874,5.572446,1.9833981,1.8073589,7.6033297,9.888114,-4.0839844,1.2856442,-1.620658,-2.5438068,5.747389,0.5285535,-5.172285,-5.9065223,-3.3234916
Q15208,-6.092083,-10.445356,5.3655663,7.19139,-0.6927907,-5.2909164,10.504281,-0.21873164,-0.93212575,1.6563927,4.6499634,-0.1566797,4.1266236,-2.4218304,-1.6495626,-2.245777,-3.6984377,4.940079,4.496708,3.2697573,4.0758553,8.939426,10.754486,-5.8650074,2.1913676,-0.0019060697,-2.4653409,2.7623303,-0.21976283,-4.048054,-6.4481487,-3.964403
Q9Y2H1,-5.964968,-10.56339,5.224227,3.7837057,-0.9525006,-8.700317,11.175242,0.03627884,-5.7735915,1.4809085,4.485476,-1.357626,2.5127115,-2.8663585,-0.42854762,-3.1664307,-0.16301596,2.9945793,5.024613,0.75265366,-0.6082263,8.559201,9.033759,-4.638723,0.9601111,-1.2320663,-2.9943964,5.781819,0.0009705797,-6.036919,-5.5010986,-5.160153
Q96PY6,-4.2355757,-10.588906,4.532541,7.2812614,-0.3445745,-7.9216967,11.614741,1.3382394,-4.118482,-0.07101519,5.275898,-0.7811397,2.0257766,-1.3043888,-1.4966213,-2.8381531,-1.0658478,4.294499,4.2059712,3.8762555,3.5252163,8.197264,9.969412,-4.5634866,2.029446,-1.94023,-1.293941,4.3981595,0.20914567,-4.819863,-6.6809397,-3.8357697
Q8NG66,-5.023957,-11.533796,3.5942068,4.2619634,1.144415,-8.58157,9.179642,0.78928745,-6.0761213,0.68447536,4.22625,-2.0187216,3.2265892,-0.69562846,-0.32411253,-3.1438136,-2.0865684,5.313535,3.9493408,2.643922,1.2285181,7.749923,9.504178,-4.5868325,2.0001967,0.007849694,-3.3223746,3.8072414,-1.1646831,-6.60776,-6.2984786,-7.405058
P51955,-4.484802,-10.095025,5.701859,7.085583,-0.94727725,-7.5373397,10.46887,2.875543,-3.3434143,-0.87394285,6.0838118,-0.82354605,2.3009489,-2.069357,-1.7478498,-2.670116,-2.443415,4.7365966,3.2196608,4.951936,3.444484,9.539395,9.6976595,-5.2342386,2.8368297,0.12682,-1.3419951,3.3214011,0.021223664,-3.8130682,-5.4056067,-4.1854806
P51956,-6.0110836,-9.694285,5.2847185,5.409611,0.48940215,-9.116379,10.94972,1.0233219,-5.359328,-0.37934822,4.410659,-0.7898201,2.0034275,-1.5164435,0.9861495,-1.633233,-1.6795233,3.2014034,4.6899667,3.096629,0.6005465,7.639779,10.041971,-5.111062,2.5987487,-1.055022,-3.916366,5.3557863,-0.82474506,-6.2730746,-4.498117,-5.9539313
Q05DF6,-4.315417,-10.053546,5.4790597,6.718165,-2.7307017,-6.765878,12.75994,1.983423,-4.777305,-0.81657374,3.626824,-0.38534573,1.5137715,-1.588703,-1.0858974,-4.1312833,-0.7889603,4.020799,5.071747,3.6725242,2.1011302,8.99047,9.143442,-4.830879,1.3954666,-2.3014152,-0.61819696,3.802651,0.9517327,-5.8185463,-6.0513277,-3.378189
Q6P3R8,-5.1166143,-10.482141,3.860581,5.422034,1.1546673,-7.9371123,12.328984,0.11875011,-5.2589245,0.61209786,5.9112673,-1.6479043,2.1591709,-0.95828,-1.0744827,-1.0007896,-1.4820081,2.589255,4.8623905,3.4725544,1.3103479,8.584161,9.932273,-5.816372,2.2859018,-0.9061025,-2.221023,4.8137517,-0.4288802,-4.5669103,-5.082424,-4.5315413
Q9HC98,-5.8025174,-9.822279,4.525741,6.5053563,-1.6748303,-5.9395485,13.253993,2.3433917,-3.7946148,-0.53369987,5.8396587,-0.48598003,2.1773317,-2.3790917,-0.15990305,-4.9079375,-0.1619306,2.7044022,7.8233485,3.2022831,1.0527903,8.830076,9.213931,-3.528028,0.9166937,-1.0113163,-0.73121184,4.1757936,2.5947473,-5.296949,-3.929778,-2.5257983
Q8TDX7,-4.8093224,-10.408391,6.0873346,7.3367114,-0.7060267,-7.2124643,11.325222,0.98890287,-4.7491655,0.15249011,4.6287494,-2.3910477,1.5757641,-1.595621,1.2335827,-0.39794913,-0.5602325,1.2266376,3.076825,4.31913,2.5049949,9.61398,9.129193,-4.69875,1.7049947,-0.58591163,-3.4730742,4.6729236,-2.6927245,-5.750413,-4.459289,-5.910822
Q8TD19,-6.5908384,-9.696166,5.9592576,6.245473,-2.7430067,-5.842868,13.034293,0.9793441,-3.2239363,0.642471,4.7635717,-0.62996066,0.0019431487,-1.2976096,1.3648429,-2.680789,-0.8932527,2.1680157,5.5462093,2.0712988,1.6816425,8.015402,10.243837,-3.7260406,3.34796,-1.5473391,-1.6491483,3.0599802,0.8793172,-7.255838,-5.76047,-4.13617
Q8IY84,-7.2520237,-9.606741,4.780648,7.40526,-0.8187586,-5.6820683,12.821183,1.7603652,-3.348068,-0.9794778,4.6445913,-0.4668898,0.80748963,-1.0318251,1.3418894,0.2929453,-2.3855658,1.1551015,4.945385,3.2419574,1.8467796,8.605073,10.346008,-5.870426,3.4793983,-0.96187335,-3.6198182,4.0582104,-1.424175,-5.5936227,-3.7019074,-4.0147104
Q9UBE8,-5.03941,-9.418209,5.7863503,7.1776013,-1.5863152,-7.551133,13.067435,1.4933155,-3.2529187,0.0580589,4.865275,-1.3150399,1.5306624,-1.7730832,-0.70028716,-1.408168,0.36262268,3.1273105,3.4506161,4.903526,2.5250382,8.505156,9.843633,-6.3139257,2.1126537,-2.6027064,-0.60061395,4.401175,-0.33281353,-4.636249,-5.4898605,-3.030054
O95747,-4.1190486,-10.8442135,5.5092473,7.0158844,-2.3762908,-7.3249555,11.582562,1.204255,-5.1618824,0.3773143,4.8933444,-1.3458301,0.9983337,-1.9570233,-0.7480553,-2.4485323,1.13582,4.2495217,2.9140894,3.290775,2.5973978,8.282768,9.840396,-3.5982654,2.3779707,-1.9016734,-1.0633343,4.8543215,-0.39790475,-5.6516776,-6.4604487,-4.6847916
Q16539,-4.5989885,-9.552597,6.26521,7.985669,-1.9184407,-6.32045,10.930873,2.813098,-1.4870621,-0.38883102,3.7624238,-0.985746,2.8806643,-1.8311495,-0.99389654,-4.165639,-2.298132,4.019396,4.5825696,3.6108015,2.9681184,8.335658,11.367681,-5.1005,2.077756,-0.27961558,-1.6749972,2.911857,0.78791016,-6.0417013,-5.8335423,-3.0961657
Q15759,-3.5445275,-10.574644,5.125985,7.004456,1.1557304,-6.717799,10.721057,-0.32234302,-3.45947,1.541,3.5745802,-1.092248,3.159612,-2.2006407,-1.007444,-2.5456483,-1.845298,4.7953525,5.2447743,4.370759,3.3070052,9.354998,9.91405,-3.3512464,1.5167961,-2.1272373,-2.9933038,4.915078,0.7181404,-4.5594597,-5.924685,-5.7043266
O15264,-4.008292,-10.46834,3.933307,6.129183,0.53250057,-7.395909,12.0678425,1.4291453,-3.1990538,1.3864976,5.9315042,-2.5151367,0.9572011,0.22595862,-0.8380432,-2.7909195,-0.96710205,3.025797,4.249754,3.4813175,2.7400515,7.205413,11.372013,-4.320488,2.9898944,-1.2688111,-1.0470173,2.871825,0.99746567,-6.730917,-7.3049245,-3.9559917
P53778,-4.9109063,-10.557108,5.8033733,7.2558527,-0.90627855,-6.104963,11.638672,0.51162046,-3.872135,-0.49054798,4.4548755,-1.5714391,2.9474201,-1.8758829,-0.5658723,-2.0435915,-2.4318151,3.3152847,4.88775,4.05427,2.3230839,9.366114,9.858189,-5.467816,1.550898,-0.16019915,-1.79129,3.9379647,-1.2004135,-4.802699,-5.3690987,-4.572792
Q13153,-5.9378953,-9.744963,4.7170625,5.346943,-0.24918586,-7.2573376,11.388253,1.8792174,-3.6882677,1.9877862,5.518126,-0.45267683,1.855132,-0.6978851,0.009118587,-0.97348726,-1.5810847,3.2666538,3.675142,1.939672,3.4786875,8.50947,9.715571,-5.3438373,1.938729,-1.5977347,-4.5860305,4.8195305,-1.3782821,-6.295064,-6.5721445,-5.15522
Q13177,-3.1838646,-10.295557,5.005274,6.314897,-0.31313354,-7.1608205,10.78145,2.151232,-4.3052897,0.5955827,4.866381,-1.3718415,3.0933635,-1.6352053,-2.2167757,-3.2267447,-1.2289369,5.68779,3.604358,4.642933,2.6763563,9.072632,10.462978,-4.915103,1.7537519,-0.7361135,-1.9899399,4.335644,0.4984732,-4.956813,-5.956883,-4.8391576
O75914,-5.0430403,-10.306202,6.454036,7.773581,-1.9910386,-5.807967,11.404695,0.5812776,-3.6294465,-0.7897853,5.1383104,-2.5783386,2.374353,-2.4573267,0.04585599,-2.31795,-1.9953294,2.8241239,2.7631319,5.1527452,2.234028,10.148624,9.047142,-4.977193,1.000438,-0.42372906,-1.7492023,3.3760178,-2.4512076,-4.866689,-5.483194,-5.034057
O96013,-5.845871,-10.24492,3.81772,5.773897,-1.010474,-5.708527,12.905581,1.1958729,-4.7025146,0.5591447,4.825093,-1.0191884,3.1263256,-1.3256707,-1.5356333,-2.1224854,-1.1786674,4.0767937,4.8181243,3.622145,1.3032789,9.598282,9.7437,-6.5035954,1.6633402,-1.0170423,-2.1234055,4.0572457,-0.28910825,-4.664122,-4.499962,-4.1614304
Q9NQU5,-3.5752277,-9.710418,6.1514997,5.8763876,-2.1144083,-7.0714607,11.285869,0.9344422,-4.7518897,2.285014,4.075278,-0.73579895,0.5268225,-1.0765344,-0.5549969,-0.86551297,0.5267641,4.398366,1.675762,3.0869176,2.789158,7.7349634,11.176065,-4.4601216,3.3714683,-1.8414413,-3.110978,4.745227,-0.47183228,-6.9764185,-6.769513,-5.522786
Q9P286,-5.4164557,-9.067699,4.697042,6.5224257,-0.31218016,-7.6206546,12.847283,0.9370089,-3.5430665,-0.17644867,5.1829414,1.2966417,1.6174359,-1.6102613,-0.6631762,-3.5083477,-1.77188,4.696474,6.4948096,4.364923,3.1029673,7.957793,9.300085,-4.260552,2.2457297,-3.3061447,-1.2918906,4.300807,2.4344642,-4.5779557,-5.760893,-3.2970705
Q9BRL4,-4.6604905,-10.726183,6.1966076,7.077864,-1.5902532,-7.5343575,9.098325,2.874804,-4.393643,0.018636985,7.733402,-1.0368314,2.7960505,-2.4934788,-1.1894875,-2.2783887,-1.2608641,3.2049785,3.4957452,1.1531789,3.9212625,9.349685,9.521701,-3.3081355,1.7915957,2.1887069,-3.086882,5.511907,-1.8164665,-4.3515344,-5.563288,-4.7536697
Q00537,-5.470173,-9.1513815,5.0795226,5.0768056,-0.88434315,-8.069752,12.643526,0.51951844,-4.1520514,0.90531886,6.426844,-0.18093142,2.7557402,-2.5559382,-0.868588,-4.53072,-0.047800884,4.0137453,6.1814365,3.8753676,0.8541722,7.8000546,9.599387,-4.6408315,0.9809079,-1.4481635,-0.86146533,4.575097,2.456866,-5.0402746,-4.982977,-3.1713946
Q07002,-4.5303617,-8.505101,6.238054,6.474059,-2.7010844,-7.5101533,11.989041,3.2533128,-3.5554464,-0.29941216,5.542283,-0.27591,1.6422434,-1.1808027,-0.7951183,-4.5243382,-1.3821462,4.3768053,3.3307571,4.7834964,3.0842068,8.977121,9.387675,-5.1006246,1.681698,-1.512316,-1.5253716,2.916522,0.73476875,-6.131189,-5.9821863,-3.7803652
P16234,-4.52962,-9.257894,6.6198354,7.41613,0.8400154,-6.532782,12.983283,-1.0403998,-3.3105168,0.36301968,4.376639,-1.0396339,1.7035328,-2.3486207,0.8565044,0.4562926,-1.4081925,1.4089081,6.2709064,5.434337,2.1171153,8.978983,9.989522,-4.914972,2.2006693,-1.7451824,-2.246702,5.538295,0.030659147,-3.9945555,-3.777147,-4.2879243
P09619,-5.9959736,-9.3967285,5.7411785,5.60793,-1.4061675,-7.776143,11.779471,1.3349453,-3.233729,1.4352828,5.5771847,0.11724734,1.3952498,-1.6914802,0.40422794,-2.4786541,-0.5602784,4.4400578,4.078448,3.1920815,2.6821456,7.106578,10.46483,-4.763891,2.4779096,-1.9786103,-2.5724041,4.3136363,0.52380455,-6.655932,-6.7067842,-4.439366
O15530,-4.112679,-8.335395,7.1208234,7.47139,-2.853732,-5.800164,12.788365,2.1347187,-2.2846634,0.77722293,4.6277647,-0.8743608,1.2965934,-0.6859064,-0.4978584,-2.5925665,-1.1874044,2.7785854,4.1359982,2.957968,3.8614254,8.788371,10.528328,-4.8890595,1.926647,-1.782678,-1.7601314,3.8064573,-0.121821925,-6.392083,-6.6563525,-3.190123
P62344,-4.700744,-10.911517,3.5914958,7.5759287,-1.0472525,-4.7923727,12.613534,1.503338,-4.2594976,-0.90088135,3.4109843,-1.82221,1.7684426,0.5875955,-0.42815322,-1.7759409,-2.751829,2.7930598,3.8340852,5.8627925,3.245386,9.638004,9.293856,-6.5056233,2.478511,-0.5757592,-1.2356192,0.8822605,-1.3109293,-5.6709833,-5.013609,-4.5798326
P61075,-4.657372,-8.732021,6.924321,6.2600365,-2.2370906,-6.7183948,12.622592,2.294434,-4.0076237,0.6971082,6.249017,-0.53483415,1.7013079,-2.240604,-0.6576078,-1.498354,-0.11459579,2.9402127,4.200617,3.545598,2.3187003,9.469964,9.910483,-5.2276363,1.808105,-0.73280215,-2.3267982,5.52105,-0.056862455,-4.9277267,-4.6818843,-3.6728148
Q96Q40,-5.108407,-11.291677,5.182486,6.5857577,-1.0421501,-7.555665,10.3510685,1.2453922,-4.360511,-0.4894296,5.469131,-1.030417,2.2134001,-2.6089997,-1.468127,-3.3723505,-1.4924086,5.381935,4.4682193,2.6189508,2.0582657,8.471562,10.176113,-3.5836518,3.0083928,-0.4350184,-1.0286804,4.427713,0.420623,-4.5149846,-6.262822,-4.8290224
O94921,-5.2755737,-9.864961,5.186329,7.9316645,-0.09964076,-6.9707756,11.974614,1.5133911,-4.5391216,-1.903024,4.4275928,-0.22381331,2.2591941,-1.2311723,0.059921205,-1.92363,-2.686562,2.8454494,6.2357616,4.7019396,2.6158144,9.422536,9.458169,-4.8301325,2.974637,-0.362436,-2.0827389,3.9500537,0.05051251,-4.210392,-3.174165,-4.6233363
Q16816,-3.6659858,-11.965374,4.163333,5.4581404,0.48541024,-6.067878,10.351484,-0.151305,-3.6520708,3.1469471,4.5790834,-1.4149773,3.5939386,-2.1177576,-2.6385074,-1.3230218,-1.3660461,5.092826,3.7489812,2.957209,3.500189,9.060498,10.266758,-5.353338,1.213243,-0.5383077,-2.675991,4.5150175,-0.34090957,-4.4566126,-7.4279885,-4.851185
P15735,-3.1970048,-9.999313,6.2317243,8.130425,-3.1680284,-5.2185683,11.922054,1.9101847,-4.619783,-0.35309184,3.9303336,-2.2875988,0.14752015,-0.067436665,0.37746084,-0.71885675,-0.061257046,2.2306716,1.4629086,5.4820085,2.8127055,8.417068,11.110418,-5.157994,3.7318442,0.43243653,-1.3590944,2.1536052,-1.6858568,-7.034724,-4.805212,-4.8886685
O00750,-7.1635714,-10.035854,5.510647,6.2778916,-2.143151,-6.4931517,12.482491,0.36687914,-2.653907,0.36618403,4.5947976,0.021702439,2.9534426,-2.9019494,0.041394074,-3.560466,-0.932652,4.3425126,5.882953,3.5505643,1.5432277,7.821949,9.8652115,-5.694015,1.4797989,-1.4917986,-0.9381898,3.5714304,0.8928529,-5.372541,-5.505022,-3.2559514
O75747,-5.7174535,-10.622501,6.3450007,6.581309,0.7319903,-8.3132305,9.725099,-1.2425505,-4.638271,-0.3845243,4.155954,-0.77764434,2.9775143,-2.5596125,1.111993,-1.4133475,-3.371982,3.038921,5.1742535,3.1824963,2.6162841,8.900692,8.309285,-4.06057,1.3757328,-0.7079789,-3.684783,5.171152,-2.2536497,-4.6324587,-5.5421023,-6.6862493
P42336,-5.1661186,-9.56618,5.041865,5.7694464,0.7347984,-8.883767,10.749909,1.8565992,-2.9667847,1.9096571,6.016129,0.1351622,1.4151602,-1.6439377,0.21037081,-2.644723,-0.06494132,4.6121626,5.4217343,2.0826025,3.480723,6.5907917,10.663743,-2.6481247,2.8578496,-2.4186294,-3.0998557,5.780983,1.8057046,-6.1201124,-6.720045,-4.6953654
P42338,-5.168448,-9.390391,6.2139482,6.79397,-2.7961133,-7.1677485,11.971797,1.8198829,-3.295988,-0.32591146,4.3692718,0.25290167,2.3401046,-2.3611948,-1.6226844,-4.2589602,-2.0796602,4.1772676,4.451242,3.1130056,2.43158,9.127911,9.759835,-5.452275,1.5110065,-1.6137718,-1.5542514,3.7532573,0.83855677,-5.253198,-6.180843,-2.958373
O00329,-7.2251787,-9.884497,5.8442473,4.6552725,-0.6461972,-5.3938184,11.277538,-0.12834735,-3.2404933,1.1309925,5.234999,0.42075813,3.7263947,-2.7213116,-0.20485239,-0.86477554,-4.144385,2.506898,6.75672,1.2829099,0.9274162,8.838259,10.273768,-6.7137823,1.6200836,1.828925,-4.1681075,4.5220165,-0.6292669,-4.924863,-4.4009724,-4.081732
P48736,-5.903343,-11.513595,3.1156168,6.189615,-0.021546198,-5.8050294,12.247365,-0.1534336,-2.6780806,3.390447,3.3708143,-1.0984386,2.494267,-1.6241908,-0.42178473,-2.8069177,-0.15880367,3.1261604,5.4534645,2.5874748,2.489092,8.560124,10.512647,-4.304213,1.765877,-2.3972988,-3.100116,3.339184,1.4792544,-6.4341326,-5.949924,-4.358284
Q9UBF8,-6.0490165,-11.421375,4.6943846,6.393644,-0.82345486,-7.329987,9.935293,2.1935453,-3.5438015,0.54293704,6.171143,-1.331301,2.6723607,-2.183004,-0.2665386,-3.9349415,-1.5473969,3.5065613,4.9566703,1.4450942,2.2011228,8.223913,10.591014,-3.365972,2.2259445,1.0959129,-2.8856153,3.8360908,0.17500818,-6.259161,-5.788962,-4.803525
P11309,-5.6654778,-9.193869,4.130829,4.600342,1.6433233,-7.917301,11.148695,0.6005692,-2.1272128,3.1398332,2.54346,-1.1548854,3.0827415,-0.1631125,-1.5477526,-1.1386226,-2.6100445,3.819139,4.4326277,1.3067286,1.7092605,7.7952538,11.894845,-6.9744368,3.497491,-2.102107,-4.3294954,4.0459986,0.5433491,-6.112336,-5.9921236,-4.7720623
Q9P1W9,-4.9837956,-10.029691,5.4545264,6.594109,0.24552558,-6.618172,8.963431,2.1223278,-1.6464218,1.5136456,3.8408606,-2.5705333,3.4653323,-1.028808,-0.20171076,-1.8812243,-1.6638323,5.2248945,2.929633,2.6375818,2.3218706,6.819282,12.954564,-5.0205526,3.4891176,0.7074866,-3.5753846,3.6700764,-1.0447218,-6.9368587,-6.0231776,-5.874039
Q86V86,-6.2778797,-9.415424,5.950685,7.4109635,-2.497736,-7.050865,11.689768,1.1513149,-3.317881,-0.81430817,3.8444858,-1.117679,2.4480336,-0.7996619,-0.57369363,-3.9234178,-2.8656428,3.0208652,4.444217,1.5490525,2.6847396,9.341309,9.33314,-5.0925903,2.2331605,-1.3628585,-1.7687509,2.9700668,-1.2666059,-5.675886,-6.0623713,-4.3263316
Q99755,-4.691792,-10.791225,4.6828537,7.73149,-2.561883,-7.237211,11.995673,0.45301735,-3.9914799,-0.46801308,5.9790277,-0.28182882,-0.113086134,-0.47538543,0.22566535,-4.3475876,-0.22292913,2.5128999,5.118125,2.9283624,3.7187884,5.926784,10.121245,-2.5747468,3.1712825,-0.7338389,0.9907523,1.8543838,1.5723631,-6.795852,-7.1813393,-2.7529392
O60331,-3.627695,-10.056577,5.7661786,6.424007,-0.3244814,-7.62549,11.948567,0.3117816,-4.5136986,0.5246005,3.4193928,-1.8987962,3.3798203,-1.6950032,-0.8089842,-3.4978604,-0.50735444,3.7497382,5.64959,3.8359935,1.4996406,8.446907,10.088619,-4.960444,0.5441725,-1.5981795,-1.493157,5.0157933,0.30265713,-5.7802057,-5.669837,-4.498207
P78356,-6.102823,-10.022597,4.836908,5.9719734,-1.9314874,-7.097981,11.870937,1.7155339,-3.9089212,1.1159245,5.609672,-0.31592083,3.0989769,-2.009615,-1.0813452,-4.2808084,-1.0501523,3.617247,4.819185,2.2917378,2.1098492,9.195162,9.686846,-5.0043745,1.0631156,-0.65281713,-2.759547,3.9337244,0.5363765,-5.7914176,-5.381788,-3.8768826
Q8TBX8,-4.7908616,-10.149685,4.662048,7.010004,-0.44111475,-7.7501497,11.018383,1.8228278,-4.0291324,0.889837,5.5423517,1.4143076,1.384361,-0.88915265,-0.84888136,-1.1446849,-2.3355672,3.6366606,3.5029325,3.7092302,5.833625,9.018507,8.850387,-4.8368664,2.4549155,-1.6591872,-3.8075597,4.0501804,-0.45888436,-4.7711873,-6.4169307,-4.4765525
P17612,-5.136971,-8.135415,6.0108457,6.4215546,-1.6860433,-6.4672136,13.185769,1.8349923,-2.1755607,2.193841,5.3272605,-0.17105709,1.996018,-0.730875,-0.89852315,-2.190999,-1.1705443,2.0632784,4.7567573,2.52334,3.5803359,9.129287,10.413435,-5.798855,1.8065767,-1.6837467,-2.9696255,4.0335517,0.65132374,-5.8488383,-5.59233,-2.8529842
P22694,-5.697088,-8.03743,6.004603,6.199675,-1.2365476,-7.018082,11.258403,3.2709265,-1.5881253,1.7062786,6.325261,-0.96336186,1.3611877,-0.41197526,-1.2605355,-1.3212752,-2.571083,2.2594516,2.6956215,1.1107502,2.9380767,8.745668,12.110413,-5.7022753,4.2437034,0.14805827,-4.153417,3.700916,-0.22508514,-6.0433125,-5.4899573,-3.6621711
Q99640,-4.9666467,-7.921143,4.5949483,6.0856433,0.5020645,-7.717931,12.279012,2.3880847,-2.7518027,1.2168846,5.2952533,-1.0479212,2.5734727,-0.41040733,-1.8715065,-2.023788,-1.4953214,3.9203742,3.9660723,2.5009525,1.8770875,8.01567,11.949156,-5.996811,2.7515209,-2.2647302,-3.5597315,5.418611,0.47945714,-5.4123316,-5.390156,-3.5472696
Q16512,-3.7048326,-9.706634,4.9392586,6.1677117,-0.5343138,-7.602024,12.485311,0.119211115,-3.6193757,2.4410758,4.340714,-0.32551295,1.5491496,-1.1409568,-2.2968338,-1.6201413,0.20377223,4.651501,3.79177,4.1078296,3.14384,8.194957,11.011526,-5.2878594,3.6837685,-2.5821502,-0.99652946,4.0473022,2.0315893,-4.5922637,-5.994036,-3.764482
Q16513,-5.3983393,-8.7912245,6.0284595,6.371998,-1.4175403,-6.7926826,12.457408,1.0901079,-2.5053113,1.4399507,5.2315493,-0.38334,3.148613,-1.6332444,-0.7264456,-2.484276,-1.5748692,3.3577735,4.1522236,4.1322427,2.9757683,8.640621,10.264763,-6.6755347,0.81131124,-1.257458,-2.7013748,3.942931,-0.2840317,-5.6225457,-5.868454,-3.3549945
P9WI81,-2.9651184,-9.88743,4.856312,6.4903173,0.1210291,-7.4420705,11.579847,1.6587701,-5.04796,0.87479085,3.437717,-2.0281932,2.016297,-0.12022852,-2.1628385,0.1635566,-0.38568214,3.9599476,2.5872586,3.564784,2.3742297,8.743038,11.293842,-6.351178,3.5409138,-1.3252025,-2.4905903,5.184763,-1.1069583,-4.9090123,-5.1535907,-4.984812
P53350,-6.099591,-8.886669,6.554053,6.452855,-0.3542883,-8.49015,12.033154,0.79010516,-2.375975,0.1558891,6.027252,0.3558565,2.8130112,-3.2840004,-0.41084582,-1.9117198,-1.6905189,2.6229367,5.7781935,3.9365113,2.2004097,8.205433,9.822894,-6.1092,1.436126,-1.0723841,-1.9896526,5.2987366,0.773932,-3.8486655,-4.739673,-2.5278585
Q9NYY3,-4.3139286,-10.425974,4.655186,5.356339,-0.50408053,-8.0668335,11.248275,1.6299002,-4.2022486,2.2913132,5.2198734,-1.0014607,1.2466226,-0.51067525,-1.237724,-2.0267162,-0.52141374,4.362487,3.0295618,2.2806637,3.7371526,8.215405,10.024967,-4.553745,2.5992973,-2.1902466,-2.6793573,4.314958,-0.087672666,-6.258831,-7.785979,-5.054404
Q9H4B4,-4.878289,-7.1133175,7.0223055,6.010389,-1.5521085,-7.18631,11.889481,2.9178503,-1.7340823,1.2306557,8.70873,0.04881163,2.023696,-1.8238589,-1.7181225,-2.6052535,-1.5917622,3.4065347,4.4047217,2.1229446,3.0172415,8.045873,11.517492,-4.8074675,2.5035295,0.1351085,-2.3529499,5.296377,1.2539725,-4.6952972,-5.7303963,-2.2190733
O00444,-5.041178,-10.095869,3.847214,6.4325714,0.806377,-7.224376,13.05724,0.4335145,-3.824047,1.6942638,4.6794815,-1.9840566,2.6077137,-1.0991756,-1.119804,-1.725436,0.31214482,2.3601625,5.874605,2.0180502,1.8205425,8.596825,10.334398,-4.81695,1.473686,-2.7548428,-2.3049467,5.940112,0.26358214,-4.897929,-5.326919,-3.6796877
Q05655,-5.556011,-9.80362,4.731434,7.826731,-1.5394374,-7.982999,12.800865,0.9530404,-2.7364686,-0.56587994,3.2044535,0.21955684,0.95247686,-1.1226149,0.9617091,-4.978053,0.001511313,3.0711615,6.6717753,3.8186045,3.311726,6.5080075,9.154338,-3.4166055,1.8205707,-3.9682658,0.14367111,2.8695283,2.3844836,-6.626399,-6.4029727,-2.6415446
Q02156,-6.5028734,-9.1692705,5.5463266,6.1129885,0.06866443,-8.047124,11.939437,-0.23764935,-3.554919,1.2146485,3.4840152,1.5938648,1.8780501,-1.698272,0.8356596,-2.001968,-1.9613006,3.039746,7.256966,1.7698365,2.4766219,7.6545362,10.144459,-4.0583687,3.1279268,-2.3408961,-3.8940935,5.156907,1.6749824,-5.8259196,-4.690128,-4.694476
P24723,-5.0498223,-10.583159,5.6223,5.4658937,-0.8782731,-5.0528064,11.147723,0.56297797,-2.6043239,3.30778,4.0594172,-2.0363967,2.2457154,-1.1254879,0.94589865,-0.9149535,-0.4889063,3.484715,4.002889,2.1205633,2.7177484,7.349292,11.333797,-4.813114,1.4682702,-0.66388476,-3.8245857,4.2539682,-1.3926159,-8.00007,-7.3925343,-5.5285554
P41743,-6.3148327,-10.566804,4.941637,5.678459,-1.1009642,-6.820361,12.364255,-0.57991695,-4.137492,-0.31749362,4.7838416,-1.5157342,3.1688397,-2.0972145,0.60704553,-4.368331,-1.2953173,3.7456348,6.3286953,4.415962,0.5544323,7.5611176,9.136857,-5.3168144,0.46976212,-0.8509318,-0.20995195,2.9447174,0.26243165,-6.0089374,-5.6795044,-4.2053404
Q04759,-5.8844156,-10.323774,5.8644614,7.645892,-1.8816038,-6.7659125,11.622887,1.1766671,-3.571288,-0.6597546,4.3337345,-0.3758168,2.937774,-2.8101432,-0.5386992,-3.4776433,-1.887567,3.2804465,5.3969603,2.9820976,2.416948,9.66021,9.277249,-4.6177583,1.2383741,-1.023278,-2.2081335,4.4110966,-0.21418981,-4.7209,-5.003823,-3.9104676
Q15139,-5.8742547,-9.457217,6.2325654,6.2446046,-1.7430907,-6.3269663,12.2797,0.076304466,-2.3553538,0.1491974,3.4611132,0.5921646,1.7358418,-1.3311805,0.52722037,-3.9253035,-3.2571023,3.9472215,6.766585,3.4937208,2.485374,7.2947035,10.359094,-4.9646835,2.5761955,-1.3794107,-1.0518757,2.0914147,1.8649585,-6.7755933,-6.5836325,-3.6776507
Q9BZL6,-6.3751764,-11.81414,3.4136565,6.38145,0.83039474,-7.832806,11.723467,-0.23496886,-4.5941825,0.29827794,4.9872684,0.05248225,2.0716503,-2.32235,0.12613238,-0.71651405,-0.49884024,3.4069118,5.826213,3.785961,1.9355787,6.928658,10.176745,-5.2379074,2.7222784,-1.1101964,-1.980551,4.87177,0.4056934,-4.648718,-4.9005637,-4.050207
O94806,-6.7568226,-8.450958,5.855139,7.724713,-0.426877,-6.3074827,12.229054,-0.35987487,-0.9489444,0.09815207,3.8681395,-0.8061359,5.6211743,-3.3334444,-1.2005347,-3.3762817,-1.8344945,3.3886733,6.9683423,3.6361802,1.3908006,9.060605,10.03188,-6.4785824,0.5096449,-1.26655,-1.3264493,4.684283,0.5524898,-2.7691898,-3.229435,-2.38346
Q13976,-6.032268,-10.901549,5.653708,6.7625027,-0.14178327,-7.2973256,11.087234,0.26781234,-3.3902822,-0.18170105,5.7271953,-0.59396255,2.1098914,-3.010074,-0.2857353,-1.0270565,-2.247758,3.795776,4.744884,3.4630961,2.7335277,8.671462,9.514878,-4.822107,2.2299304,-1.0987185,-2.0879512,5.0791636,-0.8988585,-3.8847554,-6.158517,-4.4659433
Q13237,-6.655143,-10.535791,4.679873,4.557107,-1.4871929,-6.5456214,12.3714285,2.4904206,-4.1466117,1.1007031,6.651333,0.56023616,0.9202143,-2.1444921,0.7794754,-2.175496,-0.84922487,3.5351248,5.313878,4.0091596,2.19325,8.4421015,9.051998,-5.038986,2.1060998,-0.52638084,-2.5650787,3.4424841,1.2288733,-6.2730074,-5.3347187,-4.2083764
P19525,-6.1806717,-8.56269,5.7257223,6.630158,-3.230581,-7.2597117,12.89515,2.2043822,-2.260848,1.2586564,5.9070554,-0.4333114,0.41925225,-0.76438606,-0.6162615,-3.5157056,-0.18876095,2.8568873,3.3811631,2.0210383,3.1135535,8.135026,10.415025,-4.6253843,3.451686,-2.2710438,-1.1682763,2.790604,1.0782388,-6.364609,-6.4263945,-2.8636193
P51817,-3.6293778,-9.604933,5.7263074,6.843706,-1.5043106,-6.0694804,11.396921,3.3135998,-1.8300254,1.9405754,4.6507955,-1.6284994,0.32317877,0.36271274,-0.24010411,-2.2886918,-1.2149172,3.1640797,2.9545782,3.546527,4.367489,8.02505,11.771136,-4.337455,3.8998013,-0.6398191,-2.3146427,1.8811454,0.8366574,-7.805569,-7.0029726,-4.33491
Q13523,-5.5738106,-8.5795,7.79698,6.8499913,-3.0153017,-6.253277,12.296869,1.4599525,-3.322235,-1.5632257,5.6615458,0.5062574,1.6490968,-2.9482536,0.4530779,-3.184737,-2.3885581,3.332589,5.8628054,4.306943,1.6661862,8.472041,9.753665,-4.8255653,1.9052452,-0.055455852,-1.0616312,3.9965856,0.7499736,-5.210321,-4.7452044,-3.1872237
