drug_id,0,1,2,3,4,5,6,7,8,9,10,11,12,13,14,15,16,17,18,19,20,21,22,23,24,25,26,27,28,29,30,31,32,33,34,35,36,37,38,39,40,41,42,43,44,45,46,47,48,49,50,51,52,53,54,55,56,57,58,59,60,61,62,63
CHEMBL1087421,-0.17430441,2.296124,6.504205,2.7208035,-2.243325,-3.5533712,1.7882328,1.25908,-0.33049685,-2.1398437,5.893835,1.4930668,1.1158404,0.09934312,-2.1157176,0.99977064,-1.7332283,1.9842777,0.60763407,3.7281096,1.5090742,1.3174387,6.2691355,-2.184353,0.5070749,3.856907,-2.3445158,0.8403561,-1.4471632,-0.9485152,-1.6260653,-0.6415963,-5.2140155,-4.4443073,0.94750965,-0.62382674,1.6954526,2.1553686,4.7390504,-1.6312616,1.5759703,4.907213,-1.3492385,-6.2495546,1.5954547,-0.8643572,-2.0161493,-2.4178338,-1.0844365,0.07370952,2.957684,-0.24378234,-2.229153,4.4408555,5.7463436,-0.6233992,0.7126506,-3.0085597,0.36830246,-1.9339358,-0.7477994,-3.7710328,-1.5428476,-1.8989743
CHEMBL1088633,0.06409368,-1.3137408,4.929964,1.8523942,0.18082654,-3.3169,-0.7517837,-0.3194715,-0.7256259,-3.468813,2.868643,0.11082555,0.05034879,2.0855274,-1.7634385,0.9142213,-3.120979,0.97500896,0.6797186,2.6118069,0.92271817,0.36579776,4.7567644,0.24750938,0.046951763,5.890287,-2.3617768,0.025826402,-3.5389595,-2.626823,0.025047049,-4.5403786,-4.580701,-3.9755483,1.6904362,0.45559096,0.39154866,0.6212901,4.656683,-1.2258804,-0.2579509,2.9716058,-2.1357517,-6.0829825,1.9801494,-3.4259956,0.3068938,-1.7863321,0.4729011,-0.6730747,1.417105,0.12221229,-2.7255473,4.8040686,4.736767,0.7627612,0.90476173,-3.7422261,-0.33298674,0.9423091,-1.4883357,-3.938543,-3.971577,-1.6357268
CHEMBL1090360,7.781891,1.8947531,13.64307,-1.8236974,-8.344708,-12.798812,1.0291485,5.7515173,-3.8564453,6.496143,4.5657926,-1.5654843,3.8622653,2.0146205,-1.0866445,-0.032202233,-3.190792,4.143804,-9.552681,-3.367881,0.479635,15.467427,10.541245,2.1127815,-3.8464732,10.745556,-9.864248,1.4593643,1.4838095,-7.997626,-12.092072,3.599253,-19.26083,-10.402962,-2.0638518,1.9531832,10.73104,7.006923,18.830233,6.3617043,3.7106886,-4.46797,3.414133,-8.474589,-1.7200195,4.397011,-7.0901446,-8.664966,5.73806,5.717905,-0.328719,7.0497932,-2.6978965,10.915726,8.643723,15.1741,6.225575,-9.680396,-4.421767,3.0179574,10.367116,-10.272992,-4.304451,13.446534
CHEMBL1688215,-1.1696275,-1.4545567,4.913594,0.9357084,1.0585855,-4.075046,-1.3486562,-0.95559245,-1.3963935,-1.566141,4.4139214,1.231901,0.4062942,-1.4058032,-2.9350896,-1.8128985,-2.666482,0.93106055,-0.40471184,1.3841175,2.162553,0.73531324,3.2243383,-0.6965322,-0.19746739,3.717754,-4.3816204,1.5286808,-2.7681847,-0.7993906,-0.93210024,-1.590006,-2.947763,-1.4393007,3.330957,0.6643836,-0.47102296,0.23015898,5.4961967,1.0179577,0.12611376,1.5770197,-2.6866815,-4.500299,0.48967296,-1.6124374,1.3723165,-0.7684111,-0.48929876,-0.39410782,2.046329,2.1282077,-0.48912126,1.771595,3.3132694,-0.41961938,1.0968447,-2.6459277,0.1407217,1.7994899,0.032070816,-4.309656,-1.839497,0.46791834
CHEMBL1765781,5.387103,-6.7864423,7.4168534,0.77964234,1.0824591,-10.207236,-1.6537054,6.2937083,-6.127611,2.7451322,4.9064007,-5.8422236,-0.31038123,2.4015048,-1.5180554,4.981448,-1.7288964,3.4527931,-1.7815366,5.9986734,10.919854,4.1398945,11.615399,2.1036623,2.6199427,6.632004,-6.6332445,-6.4623246,1.4185693,-6.7530217,-6.237882,-0.57898426,-10.454031,-8.77846,2.2731507,4.730837,7.6999545,5.3528275,11.745647,3.2803557,6.7028866,2.3565514,1.1840991,-9.32332,-0.14133286,1.5218335,-3.8384204,-9.501059,1.9293766,2.751595,2.6849413,0.25382984,4.7227736,9.010426,11.480401,9.946155,1.3227175,-10.301939,-0.7139486,-0.8157584,9.202178,-7.674993,-1.5354317,7.448557
CHEMBL1788116,5.9232345,-4.775715,14.221289,6.525559,-1.2933645,-8.127836,7.928816,3.0953505,-6.678226,-4.4889073,8.466122,-6.8267374,-2.593827,2.7995203,3.3808093,4.4577556,-5.410069,-0.5048083,-6.742416,3.288843,4.4314456,14.9590845,11.4344225,3.605544,-2.0194736,16.87613,-8.583734,-2.1585538,-2.3071806,-7.536802,-10.783445,2.495736,-14.095632,-12.891766,2.301732,4.187101,16.449268,17.21208,21.332254,-3.1411285,4.814271,0.85292625,6.258333,-7.791579,5.3531837,-4.396221,-0.8213736,-6.6263227,4.8070407,5.606366,6.2915382,0.88882154,4.7317557,12.266315,12.338026,10.977348,14.840677,-12.390842,-8.260006,-4.726739,7.102351,-18.192379,-2.6083407,2.169235
CHEMBL1929238,7.340523,-1.9330381,4.880305,3.6924644,1.8178489,-7.885605,-1.6021736,7.3809633,-4.969688,-2.7346015,6.075873,-9.724575,4.3689704,-2.7605238,-0.09732086,4.698373,-7.0690503,-0.12717846,-0.42993498,8.647968,5.15808,2.9403884,14.091329,4.499856,-0.5085729,8.990444,-2.4423862,-1.6381058,0.33489627,1.6037726,-3.3956537,3.1097388,-18.978788,-13.859095,0.9017454,8.36402,-0.30645603,6.472522,14.797246,4.455077,-2.152923,4.65169,0.17217943,-12.009296,1.5698031,0.45856744,0.22223718,-6.182568,2.403534,8.11212,2.6536686,2.0144978,3.1634872,11.762061,8.775258,5.68416,2.4262266,-2.263619,-1.1123389,-0.17935675,2.439436,-4.553458,3.6321344,5.672571
CHEMBL1933552,1.7439239,3.4452438,14.329052,2.884385,-5.5815916,-3.9098682,1.9719304,4.2059426,-0.19042897,-2.1965442,8.158419,-1.5717007,4.8255677,-3.1368885,-2.136594,2.5020106,-1.8494847,-2.1388469,3.3103807,4.443583,3.744853,2.6646857,9.639313,-2.340962,0.2181562,8.161001,-4.0082583,-1.043285,-0.67328846,-3.2949657,-0.31867278,4.753412,-15.645444,-9.014433,4.2064857,4.3279324,1.0893575,8.838343,6.3124356,-2.0014684,6.7389016,6.2467766,-0.5948025,-8.9042425,2.9045324,-2.7196665,-2.449167,-1.5852294,-2.5685863,0.38988522,5.7318387,-0.07879878,-1.7541623,6.9591455,7.6465135,4.277883,4.9181805,-1.9833732,-1.4652419,-6.6730857,3.3898263,-2.3347535,2.4215517,3.581352
CHEMBL202930,0.7683333,-2.6143024,9.826844,0.4992751,-2.7569003,-7.331381,-0.9280337,3.8026633,0.5289601,-3.2474945,5.8366256,-0.64768726,0.99120754,0.848479,-2.864208,0.13050684,-0.21221928,1.6515697,0.5787095,5.075788,6.7171783,-0.6632416,6.467997,-2.8313692,1.8260756,3.0125375,-8.635016,-2.0434086,-2.1833937,-2.6234465,-2.0357792,4.223649,-4.5293984,-3.543416,5.5864673,2.0633793,3.8820784,6.2267847,5.883675,-1.425489,3.014614,6.4984975,0.6270212,-5.3408704,2.1923428,-3.8392775,0.35476512,0.025572423,-0.39097136,1.2544339,0.076636255,1.3358842,-0.87673056,3.2382665,7.406184,4.8751593,2.8400848,-1.1326717,-0.92551726,-3.191026,0.8736764,-3.914731,-1.4267229,-0.76253587
CHEMBL204420,3.1951194,-9.257891,6.586638,4.3218036,1.6078609,-5.200852,-1.6674888,5.90774,-5.267989,-1.6513177,4.5580616,-9.070947,-0.3489892,1.0266999,-1.4960992,2.4382925,-3.725109,1.6363602,-0.9373485,0.57631713,5.997675,7.779075,7.3668585,8.116494,0.60671115,10.48658,-2.534884,-3.5235367,-1.9780995,0.22759089,-3.2592268,0.050782233,-7.610015,-9.847078,0.88367057,2.1188545,6.8653746,2.9392943,9.396263,-3.0709486,1.0480505,-0.91857237,-1.1116748,-5.6806307,2.9111059,-7.559885,-4.378041,-3.3529782,5.5618477,2.8191152,3.45894,-6.2558866,0.49105617,8.901087,5.410171,6.0077276,5.0291657,-11.327449,-6.5593486,2.5829396,3.1217797,-1.8936774,-4.040531,1.7409399
CHEMBL206783,1.5172228,-1.823875,11.505362,2.1276731,-3.8676248,-5.9861608,0.37937468,3.3968413,0.091030985,-0.2566216,7.109998,0.733427,3.915254,-0.8038984,-2.4769642,4.843017,-3.149061,-1.8258891,-3.705806,4.014784,4.627366,3.4879618,9.298386,1.7905729,0.42165053,7.671066,-4.925199,-1.8014581,-0.9754156,-8.028793,-4.6400633,-3.655376,-9.936308,-9.149019,3.4967368,5.1701164,6.314372,0.69335586,10.675078,2.2647753,4.185337,3.6790457,1.0755837,-8.70907,1.4722655,1.2751949,1.6412433,-3.0457623,0.57522744,-1.3177247,6.5957727,3.0986955,-2.7643614,4.2829027,7.3649983,7.9797225,7.3609014,-4.5985527,1.081639,-1.7690425,3.73422,-4.2883964,-1.7557929,6.205951
CHEMBL206955,1.4311845,-2.022882,12.819388,2.5987337,0.22740808,-4.19507,-0.60943514,4.7536225,-2.9286737,-1.1622642,6.7001243,-0.040116698,1.1327455,-1.4744011,0.10566829,1.1289263,-1.2712796,-0.74324155,-0.04121402,4.2720547,4.8289456,-1.4054478,8.12929,-0.7384987,0.78495884,6.7831326,-6.5581627,-2.2162683,-1.2010388,-3.653631,-2.0447898,4.467553,-10.3033085,-7.567034,7.3916445,1.1140646,3.1389518,7.853754,8.306771,-0.533586,5.8795667,6.295585,1.2873688,-7.7216063,1.7389345,-6.244375,0.9773119,-0.046359446,-0.27598667,1.2737324,7.442491,-3.5747838,1.0836017,4.579916,8.505528,7.6957726,6.0137725,-4.0027747,-1.599269,-2.1999538,3.1178844,-5.905673,-0.4137365,1.4106421
CHEMBL207037,2.5637329,-2.1927724,9.705352,4.0366707,0.8135262,-5.6511674,-1.242494,2.634931,0.7746895,-4.5115643,4.9528346,-3.2003605,4.6993904,-4.3291416,-2.4597697,1.7147639,-3.707463,-0.53187454,-0.5357623,4.29268,5.630936,1.9419668,9.297585,-1.9383636,0.35983405,7.787224,-4.623066,-1.0584097,0.00850071,-0.94971585,-3.448549,3.8618255,-8.780043,-4.9095607,4.001183,3.5902226,3.557102,7.166067,11.035997,-3.647384,3.5788674,3.8582773,1.0643693,-7.8232136,2.86134,-3.5951476,0.7446219,-5.30712,-0.8448466,-0.14035784,5.9120474,-0.6529948,0.102118045,6.806713,8.079854,0.62849283,4.46572,-3.8369732,-1.6138847,-7.5752697,-0.33774084,-7.0236397,1.3680171,0.21486706
CHEMBL207130,5.466866,2.510425,7.307416,-0.044848993,-0.35343298,-4.218333,-0.43435195,7.915422,1.7544817,6.664719,1.3257273,-2.1912608,1.548378,4.3916874,-2.4900215,7.466823,-3.0079145,2.8223422,-4.830691,6.0766535,5.4580374,1.6108676,10.516165,-1.3299652,-3.4469197,8.359475,-4.6019917,-1.2632257,-1.7113243,-1.0345297,-1.5884147,-2.1637414,-13.986068,-3.2928233,0.47355482,0.3933617,4.1983843,7.0771804,13.300692,0.825066,-3.3549402,5.302253,2.8334494,-10.883716,-4.027477,-1.9241152,2.4506645,-3.776535,-5.8318987,1.119495,7.4222965,0.5197468,1.2036308,9.880831,10.381599,9.377606,10.928218,-2.8557646,-4.8514285,-2.2785282,0.15961027,-9.334152,-4.4788313,-0.1708108
CHEMBL207235,3.8697538,-1.2870611,10.44702,4.653039,-4.184257,-4.1620603,0.32458407,2.3028882,-2.2134924,-0.6232298,3.7077692,-2.330217,1.9208605,0.790116,-1.5490534,6.5341997,-4.587076,-1.5761635,-3.6128485,5.3756175,5.8986692,6.1388087,11.236946,1.9162239,1.1382807,10.678253,-4.083952,-2.431184,-2.5220852,-4.231913,-2.3547714,-3.8885758,-10.053313,-7.299449,2.7508206,2.7802556,5.6589093,4.8352213,11.982996,1.7604045,2.0496812,0.90463233,3.730456,-8.290259,-1.5529337,-2.2689927,2.040272,-3.9475832,-2.5833144,-2.855695,8.509604,1.7949684,-0.5736643,9.529889,6.5960217,4.6139154,9.303871,-4.7830267,-2.238152,-3.9648638,1.8790143,-9.130414,-1.8305976,1.7456596
CHEMBL207246,3.1543596,-0.94298553,6.806345,3.6374457,-0.18988141,-6.559209,-1.9637482,6.0440283,1.5787,-1.8950925,4.798002,-4.22674,2.555713,-3.2395191,-4.6719766,-0.16020334,-2.7256095,2.546457,-1.1024804,3.8596137,6.6383142,0.5667448,9.087131,0.5317335,-1.8955414,7.94199,-5.451525,-3.1795964,0.13655554,-3.9205081,-2.86843,3.7426386,-9.375668,-2.4550548,0.55134577,5.0422583,6.297848,4.885379,7.9378905,-0.74210334,5.2809753,3.7532287,0.22983977,-7.643403,0.477402,-4.286616,-3.9759963,-4.245809,1.0756172,-1.8642262,3.6248229,-1.907188,1.6920239,9.728136,9.352783,2.795266,5.000237,-6.192098,-3.9999647,-4.906858,3.9728496,-4.3869915,1.607932,2.3545775
CHEMBL207445,-0.107536435,-2.328691,7.0384493,0.19810686,1.3556138,-6.1761885,-3.917704,5.6995955,-3.0484555,2.8990736,4.8049717,-1.0160205,3.4110405,-0.20439789,-3.877466,2.5932574,-4.620074,1.8340338,-1.7515438,6.566889,8.065583,1.7866834,9.393904,-0.87058574,-0.18130651,7.740636,-12.508163,-4.1223645,-1.0498767,-2.8601198,-5.4798026,2.388339,-9.548946,-8.6726265,10.57904,5.9830866,4.9572897,7.849177,10.649683,2.4700785,2.5863082,1.4280338,-0.00026738644,-7.7444286,1.149647,0.4919849,0.8552164,-1.300304,-2.9017088,4.0891695,2.5688975,3.6408865,4.6467648,3.852702,7.04361,10.012541,7.72443,-1.3961757,0.32920757,-2.8284707,0.7027152,-8.044474,-4.362041,1.3372027
CHEMBL207584,0.84035504,3.322004,12.208874,2.4516025,-1.32061,-4.5559745,0.77365696,5.168288,1.705953,-0.019961152,9.06186,1.5804673,5.6133304,-3.701222,-0.32540402,0.47347915,-1.8618717,1.1110581,2.4906049,4.204169,4.1301,-0.02726262,8.01155,-4.234682,0.22096306,4.795543,-5.383093,0.33016285,3.5346513,-1.3761961,-4.597855,6.2847066,-9.213382,-7.473031,4.2108893,1.7062656,1.1105981,9.072652,6.9228044,-1.9910376,6.996377,6.9752116,-1.9222288,-11.000621,2.6457067,-0.7654218,-2.7419386,-1.5217174,-2.8937466,1.9418957,6.8705916,-2.271034,0.29514524,4.1039867,8.335137,4.742176,4.2081046,-3.4487514,0.08915283,-5.7410283,1.2935449,-3.0393999,0.32444054,-0.12677348
CHEMBL207674,2.289542,1.4391367,10.120232,3.5631473,-2.5068326,-3.100298,-0.5504652,0.5445883,-0.98477614,-1.3255227,6.477796,-3.992311,3.2502334,-2.0551221,-5.55989,0.90791285,-3.5007455,-0.86132616,0.37396663,2.3136795,4.1718817,4.9099636,9.374957,3.1179626,-3.4549162,8.783044,-7.4680924,-2.8261955,-3.3323023,-4.394171,-4.293645,1.5617062,-11.686382,-5.1504555,4.7975855,3.2295208,6.5359697,4.61062,10.561576,1.1830435,4.7824163,1.0488381,0.09688896,-10.08096,0.389691,-2.080227,-1.9279501,-3.4156475,-2.0941288,-0.4233396,5.0613875,1.8728105,0.19417888,5.93847,9.075572,4.431657,9.857207,-5.6039677,-1.5054135,-4.402357,4.0322366,-6.8165135,1.5523654,3.8189034
CHEMBL207687,2.1020646,-1.1651802,7.9981227,5.7263136,-1.4792095,-5.8974648,-0.03613367,2.0869143,-0.7079409,-4.286167,5.3747406,-2.1909907,2.4453397,-5.2509346,-2.7046762,-0.13905087,-3.143031,-0.014478371,-0.8840275,2.735778,5.1298585,-0.22694787,9.984781,1.340594,0.8965947,7.695246,-2.649897,-2.763591,-1.8500706,-4.413424,0.2918628,4.0200906,-10.447139,-2.7183063,1.1610175,5.5391874,2.2404983,3.6791172,8.081237,0.6686943,6.719839,5.5244255,-0.36746085,-5.722508,-1.6692765,-8.453194,-2.0277886,-3.2894268,1.3293993,-3.1122026,6.9114485,-2.5245764,3.5229917,7.8535557,6.1588693,2.9883358,5.10567,-5.6101704,-5.3622227,-3.205227,5.501026,-3.8270426,3.9956493,5.8351827
CHEMBL207718,2.146995,-0.22379896,6.5120206,6.0003314,0.98441684,-0.6755029,2.8464417,7.0170145,0.4771074,1.1495765,3.51217,-4.3816605,4.3279867,-0.032403313,-4.2985673,5.195046,-4.0452127,-0.60764813,-2.8383534,4.987999,5.0476437,4.426314,11.870924,-2.5583148,0.2708072,9.888264,-3.669254,-4.5077453,-1.6470087,-2.4338167,1.9821838,3.7055662,-14.506329,-10.088941,1.4667172,7.220999,2.0339556,8.891049,9.324505,-1.5538735,6.326421,1.009374,0.08694433,-6.6514883,-0.7477853,-5.6072626,-3.309568,-4.2641435,-2.648111,0.93100476,5.537022,-0.41528648,4.8470197,7.4885545,5.1095996,4.45645,7.5202518,-4.568651,-4.0063787,-6.3067946,2.1975706,-3.3749945,-2.5309956,4.8513365
CHEMBL207815,2.6227407,-1.723815,4.342225,7.1776514,1.2345053,-7.8148985,3.5132635,7.9044642,-5.2163763,4.385922,-0.06746627,-5.696174,3.026904,1.2429018,1.5473529,5.6731415,0.61009526,5.540716,-0.66399616,7.536078,4.9118657,6.018669,7.2463307,-1.785372,-1.2728839,6.9908323,-8.869311,-4.272753,-2.2186608,-5.9870234,-2.459482,3.9663634,-14.726645,-7.432433,2.6004882,6.275789,11.890438,9.159608,11.293331,-1.5448571,3.2386324,6.2660823,6.8651643,-4.268631,0.043702543,0.9145904,-3.9860895,-5.616395,0.4265748,5.1748857,3.8047907,-0.5316669,6.451371,7.6483874,10.829442,9.288608,2.4773402,-3.9204025,-6.994081,-2.5395327,5.000803,-9.693167,-4.206096,5.7788796
CHEMBL208048,1.7567523,-1.208753,8.134319,1.8530473,-0.853323,-5.1816654,2.9206958,5.878847,-1.0438573,0.8057688,7.0936456,-0.5251129,4.958537,-3.4472675,-2.4594567,1.1660566,-1.7369971,0.21980643,-1.203675,0.66014373,5.457983,4.80624,8.684245,-0.47721034,-0.73489136,7.8433075,-6.2862334,0.5082443,1.3862303,-4.104583,-4.582195,5.5754848,-8.924533,-5.0385284,0.11134249,5.3388305,7.815469,5.4788284,11.648247,-1.9688427,7.4179807,3.235779,1.8784752,-6.6664276,-1.2671947,-0.10308618,-1.2307351,-4.7253137,-0.28088418,-0.6528405,7.668584,-0.017488375,0.6554985,4.201819,7.775646,6.237522,9.411559,-8.307552,-2.2189827,-7.624449,6.9090347,-3.6341586,-1.1732156,7.510555
CHEMBL208118,3.1296554,-2.9065955,10.295583,3.1640792,1.7121896,-5.148112,-2.92075,0.7662587,-1.6455644,-2.8459535,6.001454,-3.3012252,5.131669,-3.065989,-2.1724477,3.6413872,-4.9920583,-2.3037837,-3.414235,5.4927716,4.9218946,0.61536527,9.344318,1.8562934,-0.28356603,8.2551155,-5.376345,-2.0268388,-8.235943,-1.0696149,0.8307537,1.9539777,-10.39305,-3.3333423,5.2152724,0.5975285,2.1610909,1.5158222,8.7120285,2.4065866,1.2584504,5.0905113,0.9280021,-6.1468363,-1.3727411,-6.1664586,5.6425667,0.2461301,1.3423746,-0.79917896,5.617368,-0.07975471,-1.2224233,4.515532,4.8238173,6.5011077,7.9964533,-1.8513111,-2.827389,-0.9618592,2.4605713,-6.4139147,2.0537739,3.7318203
CHEMBL208286,2.472952,-3.4102805,11.229918,5.4987397,3.107689,-4.715482,-1.1969765,2.9359412,-1.3984311,-2.1294405,3.8555202,1.2797114,9.093182,-1.8252416,-0.16136345,1.3972493,-6.37777,2.693577,-0.7864596,1.9162054,3.6621406,7.6814766,4.8969464,-2.4805138,-2.5657601,10.722734,-7.56763,3.2432194,-3.120944,-0.38568103,-3.082297,-0.30753142,-4.0832734,-8.049573,6.766169,1.089401,4.3038216,3.4569902,11.98485,0.36411232,-2.8037992,1.737075,-0.5714149,-5.208811,2.4621096,0.05936861,3.222862,-2.1663744,-1.6612351,2.368702,7.9220123,3.3929403,-1.5074726,2.5435805,2.7959647,4.6440325,8.861297,-2.5106635,-2.6140301,-1.791613,-1.5343642,-9.579198,-6.088194,0.029640347
CHEMBL208292,3.8366606,-3.797031,11.177498,2.8527772,-0.5876592,-4.868702,-0.3501609,3.6501825,-3.9863446,-2.2821207,6.5318937,-2.1963277,1.8341124,-1.9214034,1.5785091,0.5306779,-1.7106214,0.57038283,0.61135423,6.6108713,3.526381,1.9513097,6.611325,0.98250496,-0.36247754,7.393221,-6.9387717,-2.4053876,0.16312742,-1.7845048,-2.467955,3.0413043,-9.338752,-7.7486477,5.248125,0.5856954,5.3318753,7.2045703,10.136522,-0.16326246,4.840426,4.4020824,4.347586,-6.261618,0.5233884,-4.9735265,0.87553847,-4.802837,0.1070247,1.4024383,9.677383,-2.6154675,-1.0609742,6.368232,7.5673833,6.3534627,3.6993606,-6.234223,-0.8298745,-2.7063255,3.3191452,-6.0783887,-1.967899,2.0717037
CHEMBL208637,-0.1861071,-0.003467448,4.652173,0.29207242,-1.9547197,-3.6934872,0.21309689,0.40262994,-2.9561124,-2.6901019,3.546204,1.454242,-2.6264887,-0.67679596,-1.6784352,-1.9411378,-0.8139468,0.32909244,-0.39628583,0.8016041,2.9684465,-1.0118564,4.4804964,-1.0851736,1.6072934,2.3255522,-2.668338,0.596576,-0.19671372,-2.6853528,-2.0278354,0.8167919,-2.0896435,-2.1521802,1.8079069,1.457232,1.9304097,2.2487469,2.114619,0.542633,2.3619702,2.7833853,-2.087075,-3.2108326,0.9457352,-1.3200487,-1.2214592,-1.613271,0.26349336,-0.22694525,0.73153484,1.6053325,0.2840791,3.0393453,4.344567,-0.24705371,0.87259346,-2.345969,0.11792941,-0.005695224,1.5093825,-3.0853775,0.43965584,0.84798187
CHEMBL210032,0.7362533,0.38337725,5.7396145,0.3221708,-1.5262053,-3.3926258,-2.193987,-0.06450682,-0.64512867,-2.3761933,4.4780154,0.38197994,-2.0934985,-0.2528562,-2.2243845,-0.5927124,-2.185594,0.50251174,-1.303089,3.0261874,3.8898466,-0.7716998,5.4321456,-0.32724655,0.06707191,4.6834207,-3.8647237,-0.48745912,-1.7306526,-2.3389246,-3.3943095,-0.9869326,-2.8660734,-2.2830029,2.4509296,0.83613473,1.3197597,2.538951,4.1292725,0.019492306,0.23088509,3.9229414,-2.331271,-5.904826,1.1015201,-2.1199968,-1.4654943,-1.0214034,-0.72578394,-1.9538509,1.8059837,0.5618965,0.39342532,4.3489404,4.8032656,0.6238017,1.6914955,-2.3847322,-0.17839722,-0.6948993,-0.7667529,-3.6639442,0.2812058,-0.6122538
CHEMBL210618,-0.5780337,-2.9373956,7.681256,0.40090668,0.76280606,-6.660324,-3.0445757,0.5268489,-1.6240501,-5.067809,3.56622,-0.40275827,1.392668,0.42718697,-4.096506,-2.0342128,-4.099584,3.2306895,2.7431312,3.5704937,3.6838152,-2.111421,6.807402,-0.42671406,-0.22582516,6.0263066,-9.560457,-4.3180513,-4.4473376,-2.3974543,-0.23557268,5.2694,-5.917668,-2.2654033,8.837635,2.5297537,3.5498767,5.4698334,4.3138766,0.7152876,4.66813,4.4363356,-1.5084827,-3.0497732,1.587341,-6.2429247,0.9797104,-2.9633532,0.24101108,3.4111772,0.6651435,1.1631604,1.9196221,3.0399108,5.982622,7.9335904,4.1779304,-2.64369,-2.3786318,-1.3566563,2.3199816,-5.8459206,-1.5367093,1.5613458
CHEMBL210928,0.14688511,-1.3320547,8.638575,4.1696496,-0.040442023,-9.203311,0.14004338,4.6964326,0.51370347,-4.8563547,7.129678,-3.220367,4.261776,-2.697377,-3.0899231,-0.7527653,-3.8431554,1.6635165,0.59473264,1.692093,5.208576,1.578884,7.456538,-0.16415128,-0.5955795,5.6274643,-7.3647957,0.08534618,-2.050323,0.26674736,-3.33717,6.766197,-8.062391,-3.5767312,3.0023472,2.907274,7.012109,5.964354,7.981329,-2.8692713,3.844364,5.532961,-0.6173574,-8.091942,1.6805199,-5.5622854,-1.4621477,-1.3184874,2.993785,2.648967,2.190652,-1.8147355,-1.0278482,5.496882,9.910222,5.0663395,7.4489355,-5.7745557,-5.9266667,-2.2778182,1.2015929,-5.10417,-1.8146825,-1.2991781
CHEMBL210963,2.638244,-1.0224888,7.872816,5.7784038,0.47832963,-6.356468,-0.57834923,9.351351,-1.4469429,-7.1778407,3.5932975,-2.3182662,6.6089473,-3.6995752,-1.0470685,-2.757316,-4.837825,-0.87218827,-3.7426043,2.7005274,4.004475,0.30084902,7.4390593,-4.998232,-1.2178847,8.102799,-4.5061636,0.014545277,2.2619383,-3.0724468,-3.2861483,4.4530697,-8.437263,-8.04118,5.974917,7.6944804,2.6021676,6.620227,8.098402,-0.22703756,3.991145,0.84122956,1.8532168,-1.9006501,0.026172206,-3.2278163,-0.47247767,-7.509438,1.4014239,3.3988297,6.2479033,3.2714698,2.681463,7.124137,8.468003,1.5667015,5.730804,-4.9698043,-0.40045726,-7.3376975,1.0640796,-7.8926744,-2.3759744,0.07539377
CHEMBL211003,1.1127937,-2.0531156,10.933474,6.874376,-0.6753461,-4.4110017,2.04257,4.4157057,-2.0544975,-1.6748164,5.1812387,0.012559682,2.2654529,-3.4101305,0.46158028,1.2790207,-0.90179217,-0.3403429,-0.7938471,4.54584,4.373764,1.9437994,9.519603,-1.0270476,1.8070337,6.7466407,-5.274452,-1.3064599,1.0731523,-4.8981233,-2.0293248,3.1513422,-9.062554,-8.031256,4.0709853,3.060831,4.477778,7.765801,10.967554,0.55251217,7.274792,2.802757,2.201173,-8.425783,0.830523,-3.2638752,1.3797827,-1.986083,-2.0791376,0.86721677,9.2022,-0.8001449,1.951331,7.1531177,7.7871,4.531468,5.1495023,-5.4852076,-1.1419742,-2.5163717,3.5460403,-5.5422525,-0.42259943,3.135157
CHEMBL212382,1.7134027,-3.832371,9.301484,2.6738946,-1.5823306,-6.4524755,-0.10485703,2.3417668,-2.2803266,-2.7247748,5.814373,-2.591481,2.705483,-1.0377682,-3.120578,-0.043577373,-2.0964184,3.368649,2.309459,3.234518,3.67935,3.490206,6.793846,-0.4080572,0.8896049,8.036353,-6.2521105,-1.5937374,-4.1591477,-1.666325,0.4868991,2.3340518,-8.757152,-5.717058,2.6491544,2.065747,2.9376793,4.4234447,6.7186875,-3.52819,2.7469335,5.7881117,-1.7453858,-4.3717885,2.4435513,-5.106034,-2.3692229,-3.4936914,0.7765572,0.65538156,3.6241038,-1.069886,-2.6177151,6.2973843,5.3132153,2.2304988,-0.37107062,-4.938245,-3.8867738,-0.72659206,2.3912134,-2.7140393,-2.0507927,3.0877726
CHEMBL212968,1.9544591,-3.9948199,6.9848022,4.1267395,-0.15322083,-6.2456617,-0.10116514,6.141058,-2.3807411,-1.5296826,6.0684977,-2.9068115,3.0390766,1.1070579,-3.5351388,1.2943251,-1.1645813,2.7129912,-1.4686188,5.23142,7.5217156,2.3310828,9.441047,-1.0998988,2.3140528,6.7558227,-8.172513,-1.9405085,-7.147114,-2.5338624,0.65452677,3.2051382,-5.8606906,-6.5681295,3.0556638,3.2132936,1.1046245,3.6277857,8.099784,-1.9157796,0.1343766,6.219282,-2.1295223,-5.57178,-1.2137407,-6.341808,-1.6558317,1.6849958,0.11980784,2.5712695,0.9706082,1.4511943,1.6571968,4.958459,5.0454564,4.879795,3.1358407,-4.214534,-2.4499893,-1.3262856,1.7007781,-1.7508084,-3.677209,2.5498266
CHEMBL213423,0.841122,-3.7606297,6.255701,0.35673177,2.087335,-6.769896,-1.1690266,5.299398,-0.23455647,-0.6095094,5.8512383,-0.91533905,3.387677,-1.3624346,-5.250271,1.1582004,-2.7125666,4.968745,3.0180738,4.8278646,8.180693,1.3172121,9.388445,-3.471274,1.4591962,6.6938148,-5.9502797,-1.344361,-0.964043,-1.0627965,0.3494863,4.8016405,-6.1885085,-2.9980073,2.5373678,3.8517387,2.5609174,4.634102,6.6525264,-2.4436994,3.592022,5.542657,-2.962709,-4.5608187,2.3589644,-1.3799697,-0.71565485,-3.1328187,-1.7699324,1.8285284,-0.17850596,-1.177046,1.2060755,5.7779155,4.749655,2.8953164,0.56348926,-3.8590908,-1.6766895,-5.7336206,4.3091936,-2.5325196,-0.086746335,2.7690246
CHEMBL213451,1.3211868,0.42852783,9.636801,-1.3523536,-3.0469851,-5.3627,-1.2065158,2.7992177,-0.7448596,-4.682317,6.3449736,-1.3058829,-1.0994322,0.07449494,-1.9729501,-1.5188595,-0.7018906,-1.3101101,-0.11026792,4.7925115,3.9763222,-0.09045857,5.403617,-1.5812021,-0.5443553,6.076576,-7.105576,0.8764571,-3.1558187,-3.0433285,-2.3862476,3.0981593,-6.668773,-5.588298,2.7459803,2.979426,1.809323,5.6344314,2.8773184,-0.6292523,0.9327116,5.873027,-2.8668623,-7.014469,2.5789802,-3.3506157,-2.0476298,0.68407303,0.610396,0.62888014,-0.95720303,3.6020544,-1.9122021,4.382712,5.7331624,4.918796,3.5030332,-2.0103164,-0.5674292,-1.1821477,-0.64055216,-0.030217499,-1.800361,2.2632313
CHEMBL214198,3.4701405,-1.7584765,8.583519,1.1939207,-2.711681,-4.718034,-3.2087631,0.3936621,-0.25649798,-2.7772818,7.7127056,-3.4941692,2.141565,0.09587307,-2.4449358,-1.6985252,-2.695032,1.7955159,-0.87209773,3.926195,5.1470385,1.1078207,6.823673,1.2495568,-0.7012102,6.0774207,-7.9429317,-3.4081264,-4.6682086,-2.2022033,-3.5719502,2.4206429,-5.0574884,-3.1690378,3.2023294,0.41284257,2.1297698,3.7942498,5.532755,1.0807806,2.8685014,5.72653,-2.2807248,-5.823533,-1.4166564,-5.750842,-2.5599592,-1.576947,0.09413722,-1.8273513,3.1272986,-0.9164499,-0.10234753,4.2545586,4.8432817,5.2027745,3.7089577,-4.826463,-2.8770814,-0.32023364,2.5931654,-2.234917,0.1691232,2.144926
CHEMBL215652,2.4327128,-2.3164473,8.163202,1.3192574,-0.5271883,-3.0093489,-0.96097,2.228714,-1.5013083,0.4049825,5.190196,-1.3466691,-0.070287555,-0.78507257,-5.803022,0.17740905,-0.17698658,0.98146677,-2.633169,4.7646008,5.379849,-0.6979801,9.297212,-2.2857735,0.73981005,6.8690987,-6.184703,-2.1507082,-6.1138644,-4.947883,2.39218,1.9024161,-8.921781,-2.5449512,2.350831,2.3147323,1.4314724,3.2721922,6.2461805,1.090352,2.4389699,5.676028,-2.5253363,-4.9269876,0.06696797,-5.330721,0.9488699,-0.13494274,-2.5475702,-1.5644737,1.8575904,2.1403024,0.19837433,5.6134024,4.1897264,1.0614258,2.7423146,-1.3390596,-1.3414199,-0.39057183,3.831753,-3.4717045,1.397604,5.5343304
CHEMBL215803,2.4365516,0.42362583,5.095708,3.3635848,4.101497,-2.1881652,-2.8520436,2.9156508,3.103013,3.113837,6.32537,-1.9138137,4.1486783,-1.3801279,-1.6423784,2.1873415,-0.4651355,0.33301562,-4.4669776,7.798301,4.3154454,-1.6706675,6.8757167,1.9240937,-1.4204465,0.3325306,-7.006784,-4.0037813,-0.81116444,-2.4972851,-5.9910655,1.2238681,-3.59283,-4.1487226,3.9514558,-0.8488625,0.46542352,0.5713742,9.199417,4.020944,3.305942,2.6302583,0.85117525,-11.845308,-3.627616,-1.8381221,-0.4595893,0.4672718,-1.354919,1.6706861,4.7412367,-0.9568354,4.0106297,-0.06059824,6.9512057,7.374522,4.9985275,-4.827204,3.6935942,-1.001449,-0.26853952,-2.456393,-0.6085216,0.6935085
CHEMBL2205426,-1.1579075,-0.082357526,9.437474,2.944925,-5.066918,-7.1357045,0.95697045,4.0219355,-3.557557,-0.111881524,8.9365,-1.7451198,6.168834,-3.9296155,-1.0802306,3.5192554,-2.9629989,-0.12748902,1.3794683,1.8636689,4.168668,3.5587976,9.347284,3.645707,2.304114,6.243018,-4.6807356,-3.0913236,0.5665308,-1.8606578,-6.2225122,2.77837,-13.622401,-10.894465,4.9066324,5.24016,5.3792,6.358556,10.582644,-3.5413275,6.9419265,4.4227924,0.2040146,-10.1302395,5.194151,-1.5637612,-3.6352677,-1.9203619,3.2660086,1.3997717,6.6142855,-0.6519456,-0.55403477,5.3605213,9.848502,5.7290893,6.551532,-2.557019,-0.28332955,-3.8448842,2.0638392,-4.5913305,-0.10535589,1.4793723
CHEMBL223367,4.731444,-5.4283504,11.405791,3.8612719,0.2775195,-5.167048,-0.91382426,3.9688616,0.4736057,-5.339445,4.1616173,-5.6021223,6.5302477,0.29423624,-0.6913987,0.82296747,-3.432463,-0.32389194,0.25198382,2.9254622,2.7405276,0.8949971,6.330081,-1.0539799,0.486211,4.780091,-5.2625217,-5.233912,0.3413794,-3.7774353,-2.6929357,3.406007,-7.73375,-9.44832,6.660207,3.6591697,4.728523,6.231157,5.634536,-2.1107106,6.292637,2.9177585,0.49546605,-5.2109747,3.6924818,-4.3435025,0.14633788,-8.013276,2.3516052,5.8188686,4.523671,0.2292169,-3.0511,3.411248,8.777048,5.4301953,2.4376886,-5.3812394,-0.4710895,-2.7438152,1.7475216,-4.738578,-1.9013481,1.3183794
CHEMBL223460,3.2064128,-4.771674,9.798681,3.050237,1.281124,-0.1892618,0.45703775,5.701564,-2.4118478,0.036594074,3.7132595,-4.1392107,0.34968194,4.5206895,-7.4615045,2.5480115,-3.5782924,-0.0591804,-4.9079657,-1.2683705,4.4405675,3.6255045,10.028481,1.8123646,-1.2812054,9.939279,-5.45054,-4.435571,-8.173689,-3.6873612,0.9675547,1.9315957,-7.764233,-6.9407883,4.9780154,-0.0344979,7.333868,2.69172,8.003202,-1.9757621,1.6437031,0.46086738,-0.65703106,-3.122887,0.45438486,-6.337862,0.73411447,-2.082345,0.16847919,3.6063087,3.5251398,0.04995002,-1.1774199,4.0813336,6.459166,5.702646,9.861678,-7.061112,-2.7536857,-1.0483979,4.574801,-5.8422422,-2.9025126,3.8266716
CHEMBL2312290,8.880247,-2.1410167,12.676991,4.8264756,-5.187632,-8.998365,-3.9024782,13.054909,2.271362,-1.2937161,11.286846,-9.31018,4.973948,5.1036534,-5.451252,-0.11462464,-2.7727957,1.550958,-6.216477,-3.1150525,10.014722,7.03596,11.023921,1.1783715,-0.42061877,7.370274,-5.5747585,-5.860141,-5.59364,-4.556345,-6.0959744,2.021019,-7.672976,-12.37347,0.1874989,1.5540326,8.471906,8.775534,12.7021475,0.5281756,-1.632661,0.7491172,-3.0543625,-12.286696,2.511581,-1.5451766,-9.170418,-0.104444176,4.061718,8.138152,-3.5729103,6.5539536,0.15410471,11.361422,13.180717,6.321951,5.8091083,-7.7494745,-1.4572027,3.3884726,6.0404625,-4.8345046,-1.0404676,-1.8522896
CHEMBL2312301,2.890385,0.14324158,8.5497,7.2351675,-0.96703494,-6.927131,-0.3776499,5.471518,-0.75398356,2.873234,-0.8658993,-5.705655,6.163823,-1.0065222,-1.3449664,11.12942,-10.207144,-1.1683658,-5.4447126,0.09836874,8.799855,3.9084532,15.704921,-0.4209652,5.56291,9.203817,-1.8672823,-4.0980754,-2.0648522,-0.8765142,-3.1611145,1.4771973,-12.639318,-9.512105,2.9824004,6.0398164,7.0069733,10.7538,6.5338435,-3.7219784,2.7520819,1.9891366,-2.933484,-11.012134,1.7786119,1.8964908,1.820878,-2.2427711,-0.6079395,3.6561193,4.9719925,0.725863,0.116485864,11.37467,9.818688,5.030537,7.6932197,-0.5890413,-8.819188,-1.0587237,-1.6011472,-8.908012,1.1684299,-0.32275024
CHEMBL2312303,5.5422196,-8.199586,4.806839,-1.1205752,4.385377,-12.139928,-3.1544323,7.383652,-5.3970013,-2.1969445,3.5403702,-4.395105,2.1792939,4.8499255,-6.8363614,5.541476,-5.585928,4.20834,1.829658,1.290085,17.483528,3.1984925,12.77933,-1.6825686,2.8582315,7.7453175,-9.812104,-4.121031,-6.404228,-2.0083046,0.11697748,1.6428802,-5.961663,-4.527428,3.69124,5.822074,4.690762,4.3380003,10.010285,0.80154604,-0.14569679,3.6636052,-3.5437567,-8.473594,-2.3238873,-3.66834,-1.7140111,-3.533378,1.5234405,2.2695675,-4.1667576,2.5311577,2.6739032,7.7136292,10.107783,9.0496235,7.6810184,-6.9321494,-5.9529467,-3.3994534,7.014353,-9.102329,-3.289954,1.3412019
CHEMBL2312304,3.8808458,-2.1042118,8.159204,3.0432045,-1.9944816,-8.681708,-1.8445597,6.3246894,0.8799681,-2.6035132,3.0169284,-2.1721835,7.5134144,-1.9985015,-5.5444202,2.49755,-8.559841,2.6903594,0.861659,2.6789014,7.764525,3.9916286,12.706933,2.505983,0.006012842,10.879056,-4.860803,-2.9334912,3.0986967,-2.7636168,-2.8982973,0.018052671,-11.217289,-10.669086,4.4712477,10.522892,2.5775776,6.6598587,15.843144,-0.86078244,0.8918392,0.859923,-2.7518456,-12.053596,2.827322,-2.7855105,-2.3408084,-7.708037,-1.2593528,4.956643,5.785689,7.807772,2.788511,9.443582,8.432922,6.491619,8.82981,-4.189784,0.21304917,-6.688058,0.636089,-6.332884,-3.7807724,3.863379
CHEMBL2333365,1.3889928,-1.3728265,8.482268,7.66169,1.612687,-5.9600267,1.0046831,4.654813,-2.528298,-0.67478395,5.710035,-4.1161942,3.7649987,-2.3593357,-4.20692,4.6463475,-3.9497886,-1.6300168,-1.9088347,3.9661381,7.9717317,4.9715033,9.4550085,1.1841815,0.7010927,6.1662393,-5.783476,-1.2947865,-3.5484345,-1.1943699,-2.5889192,-0.6584867,-9.606929,-7.946671,6.078667,4.9491453,2.2880697,3.6697676,14.744714,-2.9185135,0.24675149,1.3582239,1.9467295,-12.021379,-0.8613758,-3.934429,-1.1786132,-1.3601404,-0.005135387,2.5807202,6.3324757,1.8396024,2.6637368,5.1667657,11.614515,0.20948632,6.647698,-5.6502495,-0.48180276,-5.0894947,-0.658617,-9.870745,-1.968764,-1.327746
CHEMBL235157,0.75652534,-0.35274085,7.06797,-1.0488008,-1.8183556,-4.995625,-1.9992963,2.031365,2.1781855,-1.7161863,5.654387,-1.1256242,0.8223848,0.18239923,-3.8168077,0.39792845,-0.9935098,2.4995148,1.6228745,4.7152247,4.5241194,0.18229707,4.7025447,-1.028338,-2.414623,5.137286,-6.6298466,-1.7334268,-2.2146797,-2.2186751,-2.5988488,1.8853303,-5.7352767,-0.18817642,3.0543952,1.7406747,5.0268736,3.7556176,5.4749417,-1.7647873,1.3924973,6.0450034,0.47138113,-5.3731885,2.700397,-2.1609275,-0.8184677,-1.43585,-0.7872094,-1.4895875,0.64340144,-0.5592411,-1.1282662,4.2391963,6.7566643,3.4833848,3.9069946,-1.4935979,-1.5276619,-4.4754214,1.2442752,-3.9844751,0.18364494,-0.44261083
CHEMBL242753,0.67190635,2.556073,9.073837,-0.33956814,-5.6402493,-5.452642,-1.415865,1.3819542,-1.9088476,0.86926746,2.860662,-2.9414713,1.8026335,-0.6424145,-1.8361813,1.6848624,-4.7302976,-0.4050106,-3.245554,0.9231627,3.2435591,3.3444543,11.113601,3.09867,-1.1628814,10.480609,-5.0949783,-3.9745743,1.0612558,-3.2055154,-6.9515023,3.0114768,-20.221813,-8.477236,4.2039304,4.9616985,3.4594798,11.874129,14.894199,1.3775189,7.2077174,3.1205568,1.856134,-6.6169972,1.2305826,-3.430962,-4.4451756,-6.6625233,-0.5725221,-3.546429,5.995149,-0.3591482,6.8330812,7.271172,7.243968,12.056981,8.468996,-2.4273052,-5.3913693,-3.6396625,3.2474344,-6.5416307,-0.2880078,8.125273
CHEMBL248757,2.6836908,-3.3496528,8.11742,2.134428,1.3814116,-6.742679,-1.8593686,3.6341825,-2.0181212,0.41104436,6.2116413,-3.987621,6.2486787,0.02169329,-0.74173665,4.361538,-5.219776,0.4845023,-1.4783661,5.19828,5.372177,3.2779715,8.97453,1.9980491,-0.6013596,8.774086,-7.6061583,-3.230211,-3.4438612,-2.8366947,-3.750819,0.8483607,-9.810561,-5.344648,4.7396865,3.7732253,5.1796255,3.9566715,9.963461,1.3694001,4.0199313,3.2812543,1.1456492,-8.379366,-2.2427607,-2.8172476,2.6371553,-4.0792937,0.5763738,1.991677,6.586048,-0.17068821,0.8534853,5.2551236,8.075037,10.288,9.817138,-6.9727817,-2.7839274,-2.6087162,3.9160821,-7.40492,-3.2177062,3.0769918
CHEMBL281957,3.0115144,-2.9536865,11.26443,0.29954138,-2.4695148,-8.672449,-0.66721463,7.9572406,-2.4636507,2.025251,6.2630258,-5.1458735,2.810454,1.887402,-3.0194352,4.4765835,-4.505231,1.4586418,-4.5036573,2.4416897,10.141281,2.7550464,11.949847,0.86608154,2.0339391,6.8250628,-5.965057,-1.523853,-3.6863313,-2.0490673,-5.0454607,1.9547101,-10.486737,-8.024094,3.0340674,4.4063344,7.0083895,7.208743,9.532245,-3.4616652,1.281919,6.4696608,-2.6554813,-9.755015,3.1112766,-0.22693932,0.62446207,-1.232287,2.7416298,3.2135456,1.2867693,3.0395477,-1.3415118,7.2111573,12.315239,6.9435935,7.372133,-1.8947413,-3.0670269,-1.5617847,2.23285,-5.410931,-1.125939,2.9117308
CHEMBL373598,2.1356301,-3.3367417,7.700645,2.5684438,0.90318114,-6.984826,0.59237677,6.8858576,-2.21978,2.7578833,6.3355017,-0.8866317,5.981952,0.07071927,-4.08668,4.2815256,-4.4612827,2.5278718,-1.459847,1.9350991,5.6306634,2.4326146,9.393906,1.1868321,0.32878265,7.501727,-5.2945747,-1.7799017,-2.8797712,-2.8447356,-0.12007836,-0.64905953,-10.723252,-4.894019,2.4343452,1.6100329,6.2387958,0.5852667,10.899937,-0.7653386,4.423013,3.904384,2.6091225,-6.4654956,-2.073493,-2.229341,1.8112965,-3.3718982,1.7583859,0.10496548,6.7304544,-2.7779915,-3.4592793,5.86828,9.198821,5.7448792,6.2984858,-7.531958,-2.2143238,-2.7301142,6.561516,-7.6463075,-3.678598,2.1287003
CHEMBL376967,2.5166352,-0.73593664,10.808633,7.9211917,-1.0645285,-11.931526,2.4361713,8.6510315,0.7440088,-1.4863364,5.7295027,-4.573472,5.522361,-0.89738464,-1.6082,2.364583,-6.690886,1.6909193,-4.3786516,-1.7507951,11.569844,4.6311383,9.700379,0.04588622,1.4915141,2.1155093,-1.3364855,2.1731584,0.4379564,-1.2041562,-4.7100034,0.17044947,-6.3330417,-2.8683343,-0.76254,3.5386477,6.327735,2.65485,9.552679,0.7124988,5.860888,2.4771698,0.36037558,-9.251716,-3.5847802,0.71887016,-0.23908666,-2.9337149,5.4602313,-1.2678369,3.5597212,-1.3521416,-0.13393083,7.956974,15.48116,2.397919,7.0856576,-7.90588,-7.400874,-1.6567414,6.236135,-8.263719,0.9353355,-0.5353848
CHEMBL377383,-3.2570796,-2.1870904,3.996012,3.5650487,-1.1876049,-5.784516,1.4458028,-0.7046372,-5.8548803,-1.656241,4.701084,2.5308,-1.4837278,-1.781039,1.0032418,1.3335247,0.6348732,3.703608,1.6166943,7.7435226,1.3429558,-0.9932548,6.2640905,0.9959745,2.76868,4.6871576,-6.5635147,-4.2427607,-4.3518305,-4.6816454,-0.48116675,1.0161078,-7.796084,-5.6803737,4.660961,4.3115416,2.8016512,3.7914388,6.7676573,-1.0494287,4.696949,7.917712,0.76809376,-4.1653852,1.9986959,-5.3138933,-1.8192567,-1.6920775,1.6405425,0.2994224,5.9487243,-0.07120821,4.8114963,3.9101975,5.379426,5.252334,-0.9086177,-1.2237738,-0.81849414,1.0669732,1.0364194,-3.9402266,-1.7098761,4.450123
CHEMBL377772,2.5772874,0.52243507,9.628623,2.2762666,-1.5758749,-3.7808099,-0.40911,3.431814,2.8994806,-1.8227595,3.1551206,-0.5458389,2.5493772,-3.71274,-6.5567603,1.9274375,-4.809424,-0.9424708,-3.8340664,0.69025934,6.425065,2.069935,11.195116,-3.7512295,-1.6456032,9.898949,-4.5621233,-0.2881692,1.1833104,-5.788833,-4.0958095,3.814445,-8.741624,-3.6478214,2.4615152,7.382964,9.895235,7.195131,8.628793,-0.630563,2.6395822,2.8921638,-2.2531555,-7.1417017,4.617319,1.3164229,1.3148752,-4.786386,-3.926113,-0.12972939,3.3501449,4.8178864,0.20870492,7.284352,6.773591,1.3878692,10.893391,-0.9293126,-3.1848698,-6.7416596,1.8806845,-7.5676117,3.1907363,4.2135105
CHEMBL378370,4.0114284,-2.3520555,12.571589,4.376991,-2.0922005,-7.732843,-1.6676458,7.088433,0.34313515,-5.3262177,6.1433935,-2.8277302,7.913016,-1.6391847,-4.9558654,-0.58353364,-5.050843,1.9851575,-0.9081031,2.0307286,5.070494,6.0561857,8.867901,0.4896661,-1.664944,10.993987,-4.567546,1.3987916,-2.5225484,-2.3177078,-1.3498214,0.108752176,-8.160295,-7.5210614,2.226975,2.0251544,3.2538784,1.0021548,9.352906,1.1009405,1.4143671,0.58461857,-1.3699487,-6.0784717,1.8489082,-2.2289567,-0.9169615,-3.662787,1.6728867,0.4735349,3.389114,3.4565513,-4.6375895,8.897475,6.019727,2.951625,6.327547,-6.3705454,-0.88789046,-3.4039876,2.9048665,-4.207922,-2.8637934,1.8860419
CHEMBL378627,1.7016158,-4.267786,7.5448127,1.2634676,-4.673305,-7.425912,-0.5688893,6.493211,-2.9467356,-1.9032745,8.3454075,-0.50582004,4.4020185,1.0433457,-3.8777292,-0.96446884,-3.817607,2.988398,-1.8737811,1.9184247,5.2895193,0.9541967,9.966269,3.040611,1.5953974,7.5256596,-6.802611,-4.6817827,-0.29743153,-5.2606072,-4.2257996,0.63415635,-7.2553787,-8.786937,4.647327,5.866306,4.8202357,2.9921618,11.351677,-0.18012458,5.4554954,3.5039506,-0.46139032,-6.046595,0.46615618,-5.4920454,-2.4799335,-5.419816,2.6531875,2.4162304,6.3805914,3.2983813,0.76245445,5.4611983,8.366668,7.1731815,7.543135,-7.1045027,2.172431,-3.2558208,5.2215595,-4.9737077,-4.903234,3.4277549
CHEMBL379601,1.498938,0.5606725,7.9195075,4.2204866,-0.087872304,-4.4659085,-0.42063853,6.9080095,1.1335092,-2.5663579,5.9602823,-4.6732087,3.4460974,-2.4109876,-3.0647986,2.0452778,-3.6681683,-0.7035047,-1.3749475,4.8483286,5.9757514,1.5434233,10.014525,-1.3128242,-0.56292105,7.9783964,-3.8779035,-2.5064442,-1.8060573,-1.075775,-0.88793725,4.7154756,-10.951232,-5.718284,1.5909731,4.1390615,2.8719418,7.1593537,5.95129,-1.416357,5.6418033,2.3278527,-0.27090117,-7.4405313,0.83059496,-2.8565004,-1.741574,-1.6099788,0.29503384,0.06386787,3.1735168,-1.3524768,1.3438314,9.182122,8.008529,3.377731,4.8839793,-4.4925427,-2.5160995,-5.4999638,2.5662355,-2.3234656,1.5386779,1.4668286
CHEMBL379905,2.2708752,-3.8845696,8.924192,5.972574,-1.1034902,-5.565206,2.572808,9.21527,0.491532,-0.9335282,5.4924326,-5.2365217,2.244214,1.0825176,-4.056764,1.6475465,-1.7850401,-0.56227976,-3.0955992,0.75259155,7.878954,3.1609128,9.249099,0.15311071,1.1042598,5.1164227,-6.650079,-3.508701,-1.1024282,-4.5789423,-1.4810419,4.798066,-8.281829,-8.2473,2.1495464,5.909216,7.737478,6.8966455,8.63195,-1.460903,6.281864,1.5583992,0.5559653,-7.977109,-0.16099925,-5.343576,-2.4050245,-0.4326201,1.735608,3.3336756,2.4775388,-0.045540333,0.92309356,5.786703,10.0555,6.3113203,8.499722,-7.542099,-4.4671674,-1.7454077,4.8484087,-2.748284,-3.0659235,2.5351672
CHEMBL379929,-1.4750851,-0.01022166,8.127852,-0.13535552,-2.6845775,-4.255396,-1.4626044,-0.489272,-0.16160506,-1.9904333,5.465403,2.5496929,0.037557572,-1.2634344,-3.9613066,-2.1736038,-1.4452444,1.8688095,0.027395017,3.1840887,2.4553413,-1.7982091,6.145477,-0.8432779,0.17405975,5.3079414,-6.642919,-2.547352,-2.7543337,-3.5767064,-0.9020128,2.0293818,-6.65694,-1.6517364,4.904926,1.8438534,0.77124405,4.3494124,5.825235,1.2568182,5.7554173,4.249065,-1.2620034,-4.569319,1.4074395,-4.9169106,-0.49653018,-1.4920595,-0.99205816,-2.9613178,3.971286,1.9535306,1.6515043,3.3816435,4.8400984,3.3801892,3.4403446,-1.0205612,0.11792146,-1.426166,2.0450847,-4.2246847,0.12444615,3.0176692
CHEMBL380006,2.3165636,-2.074245,9.013707,1.3791054,-3.541032,-5.299249,2.5334208,5.9281116,1.3692341,2.1140523,5.665679,-0.91391176,1.0965543,1.4145912,-3.4690444,4.9362187,-3.3535197,-0.46564883,-2.7315729,3.7079108,8.099356,2.0752022,8.412129,-2.2338543,1.2547106,5.3212795,-7.6792684,-4.189425,1.1709288,-3.4954076,-1.6354662,2.0206273,-10.10019,-6.4268055,3.1427453,6.1430445,8.594545,9.139876,10.851376,-2.5007715,5.8761387,4.696518,4.821118,-7.496797,-0.5278433,-3.2119298,-0.4306599,-3.6042094,-1.1594069,-1.5646347,6.6823483,-0.12860984,-0.66394967,4.743119,9.724978,5.715183,7.7403116,-3.58961,-3.500637,-5.983079,3.2834322,-7.092476,-3.4876876,1.6216983
CHEMBL380386,4.0578747,2.9303956,9.355631,3.5645456,-2.921312,-4.3889313,-0.33442304,6.1923895,-0.6587659,-1.1876928,6.4406853,-3.9594605,6.0158176,-2.8321671,-1.8956319,2.1261158,-1.6958663,0.5167091,-0.055669013,5.2438865,4.0462837,0.29933396,10.873208,-0.46992093,1.3931757,5.3188405,-2.6163373,-3.5383592,-0.53251743,-2.5824857,-2.3298833,5.0191207,-10.870318,-8.231388,1.1946725,1.794261,1.2840971,5.1501975,2.586454,-0.43182495,6.968541,4.443699,-1.898756,-8.37828,1.097059,-0.7439426,-4.7682595,-3.1129484,0.70790833,2.12496,3.2449524,-0.18022573,-1.2126464,8.071705,7.901073,3.3095763,1.2352475,-3.3969333,1.0837986,-4.6645894,3.049663,-0.3705352,3.419921,2.6826582
CHEMBL380454,0.8653801,0.2894512,8.366657,6.5943303,-1.7670517,-3.2334347,3.1026254,8.435632,-0.39811957,-2.8719635,7.5657067,-3.5261269,2.902011,-1.7767328,-3.1268344,0.43000233,-1.933651,-0.034516558,-2.5224838,3.31746,4.7148056,5.908598,8.563281,-0.48322058,-1.9963455,9.133963,-4.4887614,-0.79459876,-2.0772111,-1.4591968,-2.2517827,4.350547,-9.168085,-8.345826,1.206216,5.0146775,4.3793654,6.3527374,10.623669,-3.222332,3.5069475,1.3749205,1.1183404,-6.461497,0.35285255,-4.105578,-4.505413,-2.2169902,0.33593667,1.3338859,6.7500668,0.94695085,3.2345948,7.5458155,7.995208,2.450817,7.932291,-7.0734506,-1.7099655,-6.5155425,2.2582364,-2.722897,-2.0119824,2.6228948
CHEMBL380889,2.1634204,-1.3804268,10.537209,5.950034,-1.5862285,-4.4355426,2.3667903,3.0042956,-4.5442643,-0.7181388,7.758128,-2.8418643,4.9040227,-3.4344652,0.62836504,1.9540453,-4.284937,-0.8873007,-1.3144767,3.29427,3.1496792,6.2734065,8.972904,1.4350629,-0.63864577,9.462905,-5.014351,-0.39623728,-1.4481382,-1.9401203,-1.989103,2.1971936,-13.342766,-8.47783,2.1088243,2.7899857,6.8929577,6.5076118,10.542688,2.7686303,6.854861,1.6190771,1.5971472,-7.710388,-0.4729315,-2.9033604,1.2107257,-3.4981022,0.23644407,-0.23494476,9.913077,-0.87073106,-0.7047221,7.7796226,6.6085525,5.7218275,9.823198,-6.2206717,-4.525494,-0.22787341,5.6716857,-6.904976,-1.1789849,4.4866185
CHEMBL382638,2.2099407,0.16301939,6.0560694,6.3160543,-1.6785636,-3.3900971,3.8130085,4.2731233,-0.8884225,-1.6582565,6.561893,-0.49383527,4.996107,-3.7938802,1.0341133,3.01761,-1.7436925,1.143569,0.76023734,5.0247216,4.359991,4.4638805,11.038309,0.20823127,1.5024648,7.862704,-2.4985728,-0.638514,1.8069193,-2.8895693,-3.2558458,4.3007755,-6.713503,-7.3197823,-1.4444648,4.820663,4.1369753,6.396227,11.710403,-2.7769132,5.1555715,4.614159,0.7557218,-9.07106,-0.6252614,-1.6904428,-1.9795012,-4.002064,-2.5510454,1.3677922,9.540768,-0.47844598,3.5286398,7.32437,5.4891987,4.197013,6.516125,-7.0719724,-0.4119088,-8.193148,3.4375875,-1.8602043,0.02851507,4.8479786
CHEMBL382822,3.3406985,-4.3538194,11.971202,1.4704007,-3.5789864,-2.911141,0.2426526,4.2428517,0.12655178,-0.3082093,5.6353545,-5.352431,1.1857048,-0.87826777,-4.3678756,-0.64512366,-1.7611403,-1.3235377,-2.5268898,-0.027984098,4.2370768,3.3248582,7.706142,2.294921,-1.7503047,7.537035,-5.9575353,-5.0599766,1.1106875,-4.715228,-2.4569786,5.112287,-11.002078,-4.911401,3.266261,4.0765066,10.534386,8.542834,8.369503,1.8974683,9.612522,-1.3492435,1.7688864,-5.763673,3.00084,-4.6818852,0.9133984,-5.0193076,0.061671495,0.4480071,6.127746,1.4193686,-0.9428188,6.856328,8.166804,6.0108423,11.721675,-5.2902513,-3.0696566,-1.6978112,7.7791147,-5.3798127,1.2172482,5.884993
CHEMBL382823,0.98100334,-6.33409,12.1343,2.3197262,4.812289,-6.754409,-1.2102656,4.5604906,-4.123896,1.9813178,9.4537735,-2.7337692,2.5777998,-1.3484634,-5.553256,0.5009935,-2.17127,2.7495582,2.1966608,4.529366,6.259374,2.831559,8.323524,1.0746689,-1.220969,7.2470174,-6.4030595,0.5218367,-2.3436108,-1.502953,1.0117857,1.2782408,-12.264787,-4.565236,6.6936536,0.66905886,3.239832,1.3431436,11.900172,4.0301256,3.0129871,3.3956184,-2.4450936,-9.379913,1.740832,-6.8488803,3.7270722,-1.1758804,-1.2276344,4.9395366,3.3157234,-2.9864764,0.31936535,4.707224,7.5139894,5.585611,8.346395,-7.275912,-2.7560387,2.8241103,7.073812,-8.741558,-2.3175828,1.7818358
CHEMBL383246,4.933285,-1.4282397,4.392777,-1.0870832,-1.4307575,-8.150305,0.93346006,4.590138,-6.025262,2.5575798,10.692104,-3.5979517,0.0009325743,4.110669,0.83107674,7.2706714,-4.496091,1.2061119,-2.5587153,8.990581,5.056569,5.119111,9.060806,2.994623,-0.3527385,8.570574,-9.443356,-1.6651218,-3.410971,1.3610647,-5.992375,-0.29748848,-14.631917,-9.578849,-0.10100065,4.3961163,3.4394293,6.081927,16.759382,5.0736027,-1.5681988,7.600162,6.7182918,-11.8199215,-3.1379542,-1.3772668,-1.5343778,-3.4999275,3.0269384,-0.7497711,6.3332496,0.36356214,2.3688512,6.3010354,9.104512,8.054962,9.059071,-3.5889578,-2.619414,-0.059367806,2.380652,-11.282286,-4.178604,1.516411
CHEMBL383760,3.0098772,0.26051295,9.799868,4.451653,-1.7843698,-0.11823121,2.1213696,6.3903565,1.0639284,4.222643,6.949898,0.5889206,2.232691,0.57384735,-2.3639715,2.230185,-3.7476375,1.9650065,-2.4029453,2.6350002,5.213908,4.751686,8.131158,-2.1737518,-2.9314005,9.814067,-6.995262,-1.7211857,-0.28780597,-2.7985494,-1.647613,2.3387923,-8.142473,-6.7283244,3.055332,2.4212618,7.0379143,8.332503,11.307644,-0.45108983,2.1032896,3.933733,1.1914872,-6.9707127,-1.6966866,-2.5230782,-0.57555485,-1.1089828,-6.151233,0.4512995,11.174481,-1.7805527,1.8783187,5.686184,5.192608,6.0600853,10.444272,-5.590916,-4.357912,-3.4972563,4.194717,-6.022623,-3.1999526,2.3037055
CHEMBL389745,10.647437,-4.072182,15.798332,7.0514493,6.52139,-8.611225,11.324642,7.327979,-6.083419,-2.2941215,6.4826183,-7.5958257,5.1587787,3.4869714,3.7783506,9.409162,0.22282332,1.2701968,-5.1717124,14.026264,9.091805,14.155157,7.6308866,-5.3372755,-2.3340557,1.68745,-9.767161,0.36608818,-0.059092604,0.8633301,-10.691305,3.9170957,-14.317852,-15.41103,3.7737284,-4.9205513,0.7008905,8.271318,14.957784,5.7902856,2.232713,1.5516098,8.133142,-11.921397,0.3743259,0.74246484,0.304721,-6.7164116,3.0269594,10.748583,0.43150017,-0.25367963,2.034344,4.322029,12.287953,10.907291,5.5946794,-6.712868,-0.8376504,-4.8486514,3.3839052,-16.966547,-4.22987,-2.960738
CHEMBL395080,11.191199,-3.1520615,14.899454,-1.9193178,-3.1552017,-16.39108,-1.1903203,6.1385927,-4.305027,-3.6147223,6.334654,-7.396107,4.480449,6.7368474,3.7393827,7.2001457,-9.022628,2.5429487,-3.4131691,6.395825,11.248778,8.033784,11.8917465,3.8674972,2.2687035,8.217694,-7.814997,-2.3529224,-1.8912897,-1.2820607,-10.210098,0.8385303,-10.760466,-12.615198,5.4127536,0.6967268,2.1245074,10.607041,14.605836,3.5543864,-2.7034674,6.149346,2.0273116,-9.37751,2.0710795,2.0713022,0.21516648,-3.3147173,6.9700365,9.008778,-4.1460133,5.040027,0.9979706,8.39786,10.640549,17.292807,4.3566356,-3.302506,-2.6932228,-2.2155838,4.435529,-12.337499,-0.71767247,-0.006147098
CHEMBL398606,1.6161876,-1.0879154,7.9562736,3.900465,-0.67182237,-1.4354935,0.24188367,3.3227904,0.93432915,-0.059239715,6.5889397,-3.145855,1.5598866,1.3865457,-4.349887,4.31879,-5.9005775,-0.9970193,-2.9360108,4.072064,4.4299674,3.1484091,12.128309,1.536705,-1.3176775,11.41718,-4.521964,-5.118006,-2.5329587,-6.637866,-2.2110598,-1.8523729,-12.868633,-10.462209,1.9195526,6.7052965,5.425594,5.575548,9.11451,0.3595553,5.4787107,2.5372465,-3.2913055,-10.514992,1.6456845,-3.1832688,-2.0133739,-3.8676746,-1.5349964,-0.27131844,5.3898025,-0.38082576,1.4816935,7.8872037,6.7824206,7.3385916,8.190019,-7.037892,-2.592077,-1.3798766,3.2703164,-2.7211814,-2.22092,5.693714
CHEMBL425601,4.775526,-5.5500073,13.872611,-2.6539752,0.92335933,-8.20484,-4.4650626,1.4404287,-4.1502357,-4.9984818,4.0276604,-2.8777156,-2.010507,1.7592356,-2.7161598,-0.70083225,-3.907009,1.954473,4.2814198,1.2330973,8.517394,-2.4033935,9.931295,2.6409976,-0.6582732,7.307861,-4.9226146,-2.405719,-1.4811374,-3.4167533,-2.5351474,-0.21482334,-12.224065,-5.9497876,8.170645,1.626257,0.2926855,7.1014624,13.039242,-1.247123,1.5623739,7.718129,-3.1121821,-10.262716,3.879782,-7.353027,1.2605119,-6.5029225,0.5191611,1.8825088,3.2721064,-1.594439,0.45172942,7.219455,13.096365,8.435432,2.4251542,-5.1686134,-2.3260388,-0.92297196,4.539429,-7.619803,1.4453542,3.3640816
CHEMBL437885,1.780412,0.18485838,8.227665,1.5585289,-0.33415565,-4.2521324,0.07967706,6.1958895,1.5537813,0.3083955,3.4006884,-0.2968999,1.1064196,2.4978232,-7.2152123,0.08781013,-2.5269604,2.5850902,-2.5426028,1.3801057,4.7104325,-0.74894714,9.340784,-3.9401078,-0.8615502,7.0757732,-7.8531218,-2.3308804,-3.713387,-5.386263,-0.016892672,2.9525437,-7.242712,-2.6135416,2.9790416,1.9169263,5.51203,4.936764,4.9200807,-1.2327914,4.3961706,3.7814867,-1.3164841,-5.3327255,-1.1101685,-2.5041687,-0.7723726,-2.8210065,-2.4672077,1.0624783,1.690068,1.377871,-1.3909261,5.9516892,8.775805,3.8017974,4.928822,-5.667164,-2.399463,-3.0074234,3.4805932,-5.2522554,-2.790081,1.9226294
CHEMBL438485,5.270259,-1.9001724,8.55152,-0.93326426,3.6674466,-6.567695,-0.3484882,11.014183,-2.8688989,-1.5395368,7.0450478,-5.845415,4.2070704,3.3044443,0.56054795,-0.58290374,-2.8670392,3.3192072,4.2995176,8.931775,7.157174,0.9050711,9.830265,-1.6613946,-3.506887,6.5048904,-3.91546,0.52588785,3.9465964,0.042439666,-0.35746723,3.972437,-15.919827,-9.234587,2.7913072,3.3122716,-1.2717326,9.06187,12.295984,4.2074504,4.3541417,4.5764737,0.078346014,-9.040051,-0.892798,-3.996828,0.073268265,-6.872343,-1.3960862,7.207168,0.16638273,-1.9975516,4.663388,8.438899,9.827721,12.627319,5.5318727,-7.671623,0.12705675,-5.2993975,7.8393545,-3.3114877,-4.511207,3.3012779
CHEMBL478649,0.067830145,-1.4694579,10.133669,-0.6164947,-4.5267653,-5.441112,-0.39689028,2.5782862,-2.3443553,-1.5389485,6.7808743,2.4592197,-2.2707214,1.3591352,-3.6058512,-0.30345997,-1.817113,2.4734514,-0.34365976,2.9884057,2.433774,-2.7227108,6.764522,1.3717374,0.5313411,7.1056466,-5.6788,-4.856011,-3.9271364,-5.4733324,0.073937796,0.6413243,-8.5079,-4.106178,5.3300304,2.0914156,3.2859504,2.7515743,5.305607,-1.4465458,4.9923296,7.954043,0.36970186,-3.296877,0.5855097,-7.618862,-2.311102,-3.3918242,1.9122857,-1.2027462,7.234556,-1.1064014,-0.1610825,4.57993,7.643998,6.3812,2.5563214,-4.7222548,-1.0560201,-0.7731948,4.47573,-4.425184,-1.4355174,4.1085634
CHEMBL485285,9.320457,0.36884886,10.66182,-2.3586407,-1.7350338,-6.2086186,-4.04258,6.5642395,-1.717904,1.9761101,2.1254113,-4.72377,8.275712,2.9040937,-5.315526,0.023554519,-4.869266,2.3632586,-1.2715929,-0.28908756,1.7065885,0.50199306,10.739399,1.8188858,-3.9146957,10.487686,-10.255749,-6.1927505,-4.6420302,-4.2976933,-1.1297828,5.0190225,-19.098728,-8.575634,6.1090903,2.0516245,2.0437617,9.190367,14.348539,3.2289226,2.665605,3.2166533,2.2759364,-7.7608237,-2.4000823,-3.0328102,-1.4512248,-8.105252,-0.78189164,5.768632,5.260697,7.051881,-0.5499198,6.789243,10.427163,13.187389,7.0167694,-3.5527875,-0.25057507,-1.986588,6.8361287,-8.660359,-2.3027084,8.762671
CHEMBL485286,5.5075912,-2.252514,10.559811,2.1240623,-2.8357527,-8.728011,-2.7163045,4.7718205,-3.7870543,-0.9373138,6.5458283,-6.4644227,3.861449,2.7810483,-0.6906351,3.3001223,-6.3464403,0.015209248,-5.733949,3.4846678,7.131806,3.207481,11.574707,2.6729324,-1.8365369,10.111621,-7.529089,-4.022516,-6.0887647,-5.328316,-6.031357,-0.72789633,-15.992031,-10.214249,4.7514405,4.38805,6.4666142,6.7356796,14.114367,3.5043254,0.27865848,6.605624,0.42065123,-8.922954,0.78023607,-0.6225466,0.22843313,-3.9168234,2.9307146,2.004285,3.601536,3.774594,1.7580242,7.9421244,10.97855,12.162215,7.743559,-3.2667518,-3.359919,1.6595448,5.4033895,-9.03905,-0.9852998,6.6869607
CHEMBL495729,2.0498257,-1.483247,12.245806,1.2993108,-0.5843657,-7.5430956,-1.1275758,6.9473586,-4.1802588,-1.335683,7.8211937,-2.2055998,2.4602783,-0.81210065,-1.3515509,2.3625035,-7.0432487,2.8850105,-0.20285378,1.45985,5.9911065,3.1131063,9.245493,1.6201437,-3.4975615,11.234919,-3.6526597,-2.3011885,-2.5906746,-0.5036719,-3.6798272,0.9109216,-14.919483,-9.696019,5.8687067,4.491894,5.724391,7.0339518,11.1715975,-1.8130872,1.0631529,5.963338,-2.5900598,-8.155648,4.74653,-1.8529181,-1.4228846,-6.1087766,2.9704757,3.6732645,9.292772,0.17378262,1.435302,9.324466,12.336529,8.680669,7.620288,-4.1935606,-4.254,-0.4340462,4.319559,-8.120033,0.037029743,3.7518091
CHEMBL497563,2.1512637,-4.2834044,5.70569,3.7742765,1.0293326,-6.054161,-2.9846952,8.226201,-2.590798,-3.4256587,1.8985739,-4.083262,3.1777668,0.69485104,-3.285283,0.6737964,-4.028166,1.0582517,0.01802434,2.9781876,5.32279,-1.986177,9.984676,1.0165442,1.0194259,8.560076,-4.4017153,-4.945939,-2.2080972,-5.2298017,0.47887602,0.5392965,-8.274591,-5.5314307,6.230975,5.0750403,1.8648903,3.8218086,6.770703,-1.3752041,3.8408144,0.7198523,0.59120667,-4.643597,-0.15406254,-4.6096783,1.6899667,-3.7332659,0.7454159,4.4385176,3.233424,0.1918123,1.2607976,9.818241,9.518706,4.559791,2.6202967,-6.9879055,0.77858853,-4.1753883,4.416221,-5.790751,-1.712075,0.25082266
CHEMBL522579,1.2982187,-2.832697,11.65584,1.8837757,-0.8459696,-7.446412,-3.1629684,2.8028438,-0.9296195,-2.3993957,6.3624687,-0.5574899,2.5581322,-1.8088064,-5.837632,-1.5150578,-2.8532248,2.5026157,-0.3899158,3.2647827,4.242209,0.8315263,7.2040043,-0.5982161,-0.6769631,7.571907,-7.6334133,-0.5754333,-4.87577,-2.3290622,-0.3749956,0.8271717,-8.197155,-2.6245983,6.639899,-0.4678881,1.6227515,1.0252073,8.278509,0.4944257,1.1422037,4.8135386,-0.6147578,-4.0221715,-0.033429444,-4.483125,1.5580984,-2.1134224,-0.947607,0.13662495,4.1663322,-0.48284513,-2.8741696,5.3052726,6.244756,2.8132763,1.1504809,-5.025575,-1.9280545,0.014050934,2.7765372,-5.956717,-0.86257666,1.4175743
CHEMBL523559,8.476451,-5.784406,9.525316,3.0245652,-0.6631131,-6.223248,-2.7649038,4.307284,0.09469968,-1.9908249,1.9913855,-8.401921,4.039879,4.5223184,-2.6018178,4.8861065,-7.2357297,0.5127991,-6.1295996,1.8434222,9.536216,7.3516493,12.511709,1.8102208,-0.8322619,11.088012,-5.4461474,-4.7788467,-2.5979388,-3.5217197,-4.7104974,-0.6434771,-11.54172,-11.021025,1.0114627,2.8857248,8.392933,8.528052,15.095596,2.7215793,0.34371185,0.9554444,0.09647304,-8.184913,2.343703,-0.8939621,-1.135181,-6.696647,0.7368037,0.64856666,0.8379812,3.1209033,0.99516016,9.065706,6.293555,10.514988,7.923105,-4.9350004,-4.9352765,-0.6557036,3.842081,-7.1345215,-2.8257523,5.95089
CHEMBL583042,3.8045712,4.221914,11.818785,1.3806747,-5.643629,-7.5609484,-2.2120523,5.128919,3.0466025,-2.0167532,7.915907,-1.4923679,-0.12691018,0.9505322,-0.81059986,4.065866,-7.4037395,0.74286884,-3.886642,7.392907,10.8925905,-0.04502085,12.420127,-1.2611704,-1.5792971,5.86698,-4.2017336,-2.4024026,0.488109,0.21594831,-5.819977,-1.3623492,-13.783141,-7.740466,3.2528222,2.6044369,1.7404809,9.533052,12.21427,2.3485985,0.9612799,9.348878,0.6443476,-10.888602,-1.8089852,-1.3008977,-1.851855,-3.0621936,-1.915218,-4.9352837,6.057487,-3.0488162,2.463772,9.951827,11.407609,9.041669,4.223799,-0.9628441,-5.5109744,-3.0404036,0.50174546,-5.158778,2.345254,-0.61301774
CHEMBL590109,-1.398969,-0.40924132,5.9592824,1.3829519,-1.6372707,-4.0057955,2.9900486,5.373725,-2.3471422,-1.6819694,8.200945,-2.9714096,2.7276542,-1.1078573,-2.0692387,-0.472287,-4.4058785,-0.84495664,0.40318334,-0.14526284,2.7128956,3.1717877,5.590831,0.27849883,-2.1134896,7.330242,-5.2347956,-2.2697172,0.5198477,-1.8187115,-3.4350154,4.4829297,-11.834053,-8.722652,2.6683378,8.904763,7.0968843,8.709367,6.9843745,-3.6912909,7.411923,1.6695993,-1.412782,-7.237135,4.1930857,-2.9576998,-4.2194166,-4.613316,3.6577425,2.918847,4.942084,2.062499,1.546083,4.4967175,9.892681,4.705228,9.60505,-5.0368404,-2.0258067,-3.8889902,3.5846133,-4.049954,-3.3088012,3.3367808
CHEMBL606964,2.9914887,3.4225864,8.475693,2.051649,-3.16454,-1.3485476,0.2218906,5.94115,3.1429882,-2.3257635,6.331538,-4.306691,3.4272516,1.9351285,-2.269468,3.8688757,-3.383592,-1.060092,0.0006009862,10.740481,6.701746,2.1311715,9.393686,-4.075442,-3.234581,7.6743894,-7.1628327,-3.7183695,-1.155754,-0.09179229,-1.4055732,4.5017486,-12.458215,-7.0319543,5.7283907,5.9466715,1.8290111,11.912375,10.0082,-1.0148731,1.3492811,5.5727587,3.590297,-7.512474,-0.2827959,-5.191215,-1.1951253,-2.1686985,-5.584797,0.99426454,3.3000052,1.1661767,4.903803,6.0643873,6.9993067,6.7855654,10.105088,0.7094903,-1.2863827,-11.866864,-1.2411861,-5.3869715,-1.3994312,-1.6460047
CHEMBL1082440,-1.1978599,0.6453315,7.926442,1.369996,-0.8343676,-4.0800614,-1.4273367,-1.5569085,0.503623,-2.2207057,3.548019,1.3189354,-0.34899226,-3.2975144,-2.9052057,0.0014183745,-0.856282,0.1925464,1.8946459,4.557499,2.2989283,-0.2475685,4.1419077,-1.4062083,-0.6931024,4.420981,-4.5156226,0.037442215,-1.7221651,-1.344074,-0.039088406,-0.015242271,-7.360295,0.27796054,4.762493,0.28577644,-0.04124251,3.2941542,6.9864926,-0.18289354,2.4323707,3.459587,1.9304829,-4.9902444,1.3288807,-2.7893128,1.6972469,-1.1630932,-2.6257172,-3.6623988,4.145524,-0.8607908,-0.14780475,4.203536,5.1730533,-0.5194765,0.1988559,-0.6330949,-0.65331566,-2.9677653,-0.06618316,-5.877128,1.827177,-0.2410205
CHEMBL1084546,5.6346316,-0.6305218,13.293516,2.9339466,-4.3596315,-7.3772407,-0.19313255,8.456575,-0.887638,-0.44855893,4.1769323,-2.0236545,3.107497,1.5593114,-4.1450276,2.9460828,-3.350337,2.081715,-2.4906406,2.765098,7.6069674,0.7057471,16.399548,-0.53877133,2.1219447,8.532244,-2.696591,-1.783888,2.9349587,-6.223809,-4.035618,0.2974246,-14.393035,-10.801116,2.8957005,2.913395,4.4385157,7.885414,13.85426,1.0278064,3.7222533,5.211743,-1.6900594,-11.491603,2.2297373,-2.0583222,-0.29464012,-6.346038,-3.2683969,3.5718882,4.3628755,1.4946835,-0.46567833,11.6490345,11.493092,7.0521355,6.3671646,-5.2973843,-0.78686106,-3.1051626,4.1907053,-6.9179645,-0.8393026,2.6835086
CHEMBL1090356,10.244657,0.7988308,17.690681,-2.9120831,1.8919036,-13.01683,7.5593023,5.1021624,-7.6486945,-1.04451,8.873161,-2.8258202,5.4043465,2.6061187,8.355015,9.176367,-3.8125947,2.568597,0.3197008,9.804835,6.3152175,12.856061,12.214954,-1.3052746,-1.0013214,9.629637,-5.28373,4.3862743,1.394055,1.3666569,-11.928671,6.73137,-20.407602,-14.40834,-2.9493475,-2.1195717,-1.2316706,11.226158,13.702919,1.1157169,-0.923976,7.066417,5.5209546,-16.835966,3.918626,6.129449,0.9219794,-6.9406495,7.5951805,12.579917,0.7272353,1.6797422,-2.8743813,10.419188,10.145422,14.058409,0.8701086,-1.67716,-0.46978533,-5.0790567,5.199179,-9.934102,-0.9221406,3.2569377
CHEMBL1094408,-0.18867649,0.6038561,11.025927,-1.6940892,-7.2729964,-7.0569463,-1.0257678,1.4033477,-1.7366143,2.4744895,7.2138286,-1.1498364,3.2769084,-1.7487108,-4.63062,-1.3324325,-4.402299,1.4607179,-1.60008,-2.522998,5.894546,2.404637,10.056595,4.024981,1.6858754,3.851211,-8.774805,-3.6915305,2.5026326,-1.3075081,-8.928838,6.720467,-10.594034,-6.1745677,5.9910927,3.062106,7.4073143,9.440084,9.774648,1.6897875,9.79477,1.9728214,-2.039628,-8.304371,1.758232,-1.5771022,-2.855251,-3.1758637,0.34186924,0.431504,4.090859,2.119582,1.335164,2.4868307,8.590631,9.677306,10.941535,-2.1273046,-3.068726,-0.9302802,4.5272455,-5.014588,0.64816755,4.5338955
CHEMBL115220,-0.8663482,2.1209538,6.5588474,2.3513932,-1.6813985,-2.5715497,-0.9821,-2.2912548,-0.6180954,-1.6057726,6.454824,0.5435597,-0.60351425,-0.5147953,-2.1738343,0.6479464,-2.6001916,1.1272728,-0.69029146,5.4835415,1.0034621,0.017866194,5.244439,0.28510696,-2.4243817,5.978364,-5.605817,-2.7776382,-5.79367,-2.92591,-2.04386,-1.7430712,-7.492633,-1.8092507,4.3156724,0.6249288,2.0380664,1.9643434,5.6216125,0.56015253,1.9628401,5.8169804,-0.15172815,-5.730139,-0.35496762,-3.44645,-0.94399154,-1.9128344,-1.0746663,-2.998878,5.980513,-0.78249365,1.2730057,3.7954497,6.1361914,2.5244784,2.7221398,-2.4457376,-1.373168,-0.28827792,0.333066,-5.8067994,0.5147627,0.95797765
CHEMBL116070,-0.9127767,0.74851376,5.9754314,-0.18489076,-1.097513,-2.2236338,-0.8350384,-0.3235651,-0.67395115,-2.199109,4.9465237,2.663879,0.33372962,0.21031661,-3.8757956,-3.2461774,-2.8265536,1.217917,0.5088792,0.65901875,-0.66463184,-1.5284133,5.3635597,0.104755096,-0.8845951,5.9338026,-3.7045727,0.013024062,-2.1343198,-2.4571524,-0.029698491,-0.63829833,-5.3667216,-2.0658262,3.1910284,-0.21845782,-1.594363,1.410466,5.3607254,0.7610832,3.2071671,2.107245,-2.8516865,-4.745929,-0.4918985,-4.5787992,0.2235528,-2.642366,-1.7559309,-0.36017182,4.3364334,1.1904236,-0.6095416,3.1942873,3.7891,1.9933178,2.9676924,-5.071014,1.5551147,-0.225817,1.7108378,-3.2478635,-2.6889544,1.5853753
CHEMBL1164265,4.5314646,3.966531,6.703877,0.93441665,-3.486708,-6.0504394,-3.8313937,6.9422603,0.3043602,-2.6156254,2.0380638,0.098984435,0.10989909,-0.5882913,1.4943186,2.5810697,-6.602261,2.1893382,-3.7152815,11.2103195,9.014921,-0.64000726,10.70985,-0.2536247,-0.636188,7.5366926,-6.972601,-4.5074124,5.0045094,-0.2341053,-7.1923957,4.1860895,-5.507469,-6.904183,5.145966,4.473677,4.210665,10.621662,8.002937,4.077198,2.7867503,3.4993713,5.234863,-5.689437,-3.8021069,-0.7953638,-3.629158,-5.6917872,-2.1215124,-1.161927,6.66922,1.0353553,8.206581,9.189475,6.302137,11.354774,6.6182017,-1.5643871,-0.74715084,-9.855757,-1.3305713,-5.687464,-0.5746282,-0.14804564
CHEMBL117697,1.0587733,2.6712136,6.3093834,0.693447,-0.41901183,-1.0636122,-1.9833281,-4.4831853,0.11955616,-1.4774269,2.3403993,0.97355914,-1.2890611,-1.2360524,-0.8558006,0.48114994,-2.4397962,-1.9553134,0.30310476,2.2130988,3.202908,-2.1606483,4.943871,-0.6314128,1.6921643,1.6657119,-3.5084176,-1.3936404,-1.6557562,-0.71230274,-1.7994297,0.6540845,-2.6616724,-0.33677632,3.7817647,-1.6824955,-3.121483,4.43595,2.8969111,0.89745134,3.515531,2.7637985,-1.1310915,-7.212697,-2.1813076,-3.200319,-0.4157117,-0.11617373,-2.8076692,-3.8441005,3.4244866,-0.9921919,1.4676279,1.338654,3.826249,0.5604302,0.78925765,-1.1965841,-0.3063515,-1.8542275,-1.2968012,-4.1025214,2.7609003,-0.7136983
CHEMBL1190711,1.61554,-4.7848854,8.758078,3.2288573,-0.5287411,-6.770516,-0.3182575,5.560633,0.43328547,-1.1879083,5.94842,-3.4465723,3.2189133,-1.4699701,-3.9348288,2.2790596,-4.288195,2.3650417,-2.352456,2.1559262,6.844548,4.4658923,8.159882,-1.0987602,0.07348105,9.865442,-6.1002245,-2.8535624,-3.5542614,-2.8744223,-1.6696675,2.6665907,-8.208781,-5.824695,1.5384127,6.097786,6.9629188,5.394319,7.781902,-4.1966467,3.1820858,4.6915994,-1.70786,-4.6447625,2.9372048,-2.538338,-1.9615742,-3.741526,2.0304766,-0.4213574,4.834426,-0.0011681318,-0.43236542,7.2352257,6.770783,3.5478349,3.7994056,-5.113132,-5.5562973,-2.4121115,3.1137328,-3.3383248,-1.189176,4.872085
CHEMBL1230122,-0.7337259,0.94830203,6.6726136,2.7211444,-0.041999355,-5.7364326,0.7636776,3.4921596,0.22689775,-1.4771141,8.163524,-0.6898363,2.269848,-0.9952032,-2.8863528,1.3823845,-2.2978137,2.0019784,0.3819055,6.2503104,3.2692301,0.38169727,8.320199,0.47595632,-1.9385449,6.6090794,-5.8140416,-2.0265667,-2.4201734,-3.557047,-2.3053257,0.8217788,-10.555133,-3.869069,1.2910302,3.0304618,4.8507905,3.4318857,8.528131,-0.21048547,6.393609,5.207149,0.6248039,-9.865656,0.63885117,-3.1874776,-1.6942167,-2.8129056,1.2617983,-1.4760603,4.631217,-1.3798467,0.55903673,6.7944593,10.218765,4.9900784,5.7520947,-5.998008,-0.59726036,-3.484137,3.2029216,-4.719922,-1.6359719,1.620585
CHEMBL1230607,1.5964608,-3.490741,9.72817,-0.4793192,-0.7083788,-5.962273,-3.8107748,3.2406802,1.3649851,-1.5004706,3.4418888,-1.0215102,3.3177822,0.7619722,-7.259362,-1.9689325,-2.388085,3.6870697,1.3058716,2.0179505,4.9774427,-0.12156716,5.7854476,-2.373634,-1.6340805,6.7697487,-9.621564,-3.1798701,-3.4049718,-3.4274287,-0.42076635,1.9891403,-5.971528,-0.23440807,8.082747,1.584342,2.9537306,4.169444,7.7944965,-1.3943133,2.63717,2.7911174,0.5836245,-2.9330091,1.3301196,-3.610659,1.7098769,-3.8217363,-2.6110277,0.4815548,2.2234612,2.220789,-1.6906685,4.212942,7.456862,2.538363,2.8041503,-2.956628,-0.2742439,-4.632749,2.8837109,-7.675504,-1.6769834,0.23246317
CHEMBL1236126,0.82077426,-0.39374462,8.186152,6.137221,-2.9162743,-7.14242,2.3504472,7.225911,-0.7122758,2.296981,2.9878945,-1.8825469,2.8030245,-0.38405478,-6.066733,5.967508,-4.0769067,2.0383008,-2.8229878,2.3526137,7.63458,7.5440807,12.266937,0.6939316,1.9517798,8.876967,-5.669402,-1.7643529,-0.4084218,-4.566246,-3.206263,-0.31538796,-9.454655,-9.470567,1.41788,6.8088846,8.923336,5.1931524,10.632036,-0.90803576,2.5015664,-0.40541738,-1.0778124,-10.747247,2.0896733,1.9421905,-3.172896,-2.4272711,-1.5012159,2.9530902,3.2462971,5.147625,0.70422214,9.398079,8.831976,3.7435682,8.067064,-4.8553166,-2.978202,-2.3422358,1.2393872,-6.1454787,-3.5355024,2.6159716
CHEMBL1241473,1.3030368,-1.641254,8.463528,4.4461718,-2.3843372,-7.2105846,3.3894455,7.8173285,-2.7203987,0.6764713,3.663656,-1.4038757,1.3260556,1.7081814,-2.7651284,4.8888674,-3.6611598,2.6361108,-1.052761,3.11256,5.942735,6.044773,9.55082,0.57601535,1.5577714,8.135144,-4.2515864,-1.9176977,2.181068,-3.465259,-3.0424562,-0.58145666,-8.845449,-9.533502,1.3791279,5.700763,9.366806,6.4976397,9.745749,-1.5420471,4.6677566,0.007801853,1.5539194,-9.622056,2.616375,-0.84930795,-3.4075015,-5.907299,1.1628122,3.1895607,5.478466,3.026207,0.36041403,9.399867,10.909198,4.2411475,8.578424,-6.635229,-1.9373151,-3.4380136,2.0100636,-8.488438,-6.0208755,0.17732841
CHEMBL1242373,2.3337522,-1.4032338,8.845851,3.8781075,-0.40994105,-6.612517,1.0778294,4.3075194,-2.0753455,-2.700178,7.476261,-2.6194346,2.904371,-1.3923696,-1.4987283,1.4065648,-2.763334,0.13687816,-0.7809559,5.1423073,4.478356,3.6108923,9.470451,1.0538036,0.38006842,8.0103855,-7.2642584,0.7188899,-3.978021,-1.8835112,-2.4027243,3.1041777,-7.6263533,-7.52211,1.2879373,2.2701352,4.331551,4.4245744,9.406963,-1.7232463,1.1441867,5.060282,-1.2998009,-10.325269,-0.88320816,-3.0774815,-0.25971675,-0.9674689,0.035908625,3.9241242,4.7362823,1.7603235,-1.7328942,6.3612685,7.4424067,6.256579,5.4977574,-7.8800526,-1.5282043,-1.3374084,1.27665,-1.9714172,-3.656878,3.4091816
CHEMBL1258913,3.6750138,-3.4111784,9.290657,-0.7327429,2.1138084,-12.736008,-0.95998573,5.5446405,-6.052834,-0.7365031,7.885339,-10.220531,9.106008,0.25150424,3.2419581,7.618763,-2.6091933,-0.021197308,2.7524235,3.581425,2.099419,10.743148,10.183606,8.15074,2.4386845,12.374357,4.0721974,-1.2154984,-4.2347956,-5.371215,-2.4064412,-6.744344,-18.337303,-11.477869,-3.062457,6.526785,6.851946,6.4584913,11.680374,-2.5784411,2.2739067,-0.91850907,-1.3275832,-10.221666,7.8243876,2.9120104,0.024400175,-7.764151,11.2357645,8.445506,-4.737877,7.9706745,-0.39742228,13.978042,12.551361,8.52504,5.250758,-2.8862822,-1.6344554,1.5682943,5.548168,-7.1745267,0.016482137,2.326503
CHEMBL1270230,-0.9132478,1.7805914,6.320843,2.76092,-2.433754,-2.8750052,1.6960495,-1.239218,-1.9086387,-1.5428444,4.8430433,1.4400177,-1.6875092,-1.023722,-1.5571767,0.6728095,-0.8117119,0.95985436,0.67767125,4.3458843,1.1162422,0.7240799,4.7159305,-0.9222717,-0.07412842,4.282725,-4.0295806,-1.132832,-3.040532,-2.3776882,-0.63931495,-0.7067094,-6.73633,-2.944415,2.7021255,1.1990337,1.874982,3.457058,5.579671,-1.5241617,2.5147557,4.9841914,0.6409204,-5.5623755,0.71206236,-2.985624,-1.8904517,-2.3140006,-1.1005969,-1.8791854,5.614366,0.28738058,0.48973212,4.048569,6.249639,-0.43893605,0.57090956,-2.0807478,-0.66563743,-1.3345283,-0.045341793,-5.2277346,-0.19640647,0.7564009
CHEMBL1375418,-1.5177166,-1.4028244,8.081127,-0.31295258,-0.40171266,-6.212279,-0.45690596,-0.60318124,-1.5235558,-2.5160062,7.2041435,1.7430785,0.121786386,0.03474117,-2.5170295,-0.62832516,-3.195354,1.880424,1.3812263,4.9757996,2.747203,0.05918932,4.423683,-1.1003014,-1.2875192,5.9174547,-8.595485,-0.9824389,-4.42802,-2.1178758,-0.88222337,0.26119834,-7.06658,-2.4213963,5.4380565,2.3511553,3.1125627,3.9152699,7.204677,-0.24368152,3.1005776,5.912012,-0.14527348,-6.1489763,1.0561374,-4.0172696,1.1576594,-2.431065,0.34690988,-0.7794626,4.4878335,1.692348,-0.55514836,2.627309,7.2055464,4.6898403,3.834004,-3.1286573,-0.9760208,-0.72500837,1.373561,-6.462775,-3.4416206,1.6414542
CHEMBL1375640,0.9244897,-1.0293319,5.9291534,2.4093683,-0.4302928,-2.4632113,-0.9581517,-0.6358772,-1.3283228,-1.8066595,3.762649,-0.29283386,-1.6251982,1.1395139,-1.9862556,2.219079,-2.384129,0.71956813,-1.9037846,6.3266196,4.645858,0.9821391,7.387426,-1.1523964,0.30516672,6.908732,-5.6877174,-2.431531,-5.193507,-3.1370652,-0.5469335,-2.1730313,-5.5145106,-3.0996196,2.6488676,1.2483618,2.0347161,4.259008,6.9690194,0.36530644,1.5827692,3.8020422,0.4034943,-5.945364,-0.15130197,-3.486649,0.532477,-1.2842579,-1.9143591,-4.116322,3.6497567,0.727152,1.3685243,5.925928,4.8782763,1.4047617,2.5734804,-1.8714906,-1.0555284,-1.8465974,-0.19663821,-5.847483,-1.0020744,0.7409537
CHEMBL1516890,-0.9617486,2.4052951,6.6516666,2.7751906,-2.1993394,-2.413866,-0.04188256,-1.701816,0.80662614,-3.8486261,5.4024844,-0.566419,0.13049555,-0.3436552,-2.3601613,-0.15665129,-0.9639312,0.06872304,1.8801653,4.5140133,0.61418325,-0.2043427,4.7954397,-0.45217162,-1.4781243,3.781577,-3.2882643,-1.8037788,-3.1105318,-3.477194,-1.4051297,-1.2779423,-7.1333785,-2.6373837,3.280765,1.4544669,0.16524833,2.2951474,4.0025544,-0.02243575,3.329429,4.190674,-1.207337,-6.751106,1.8616608,-3.195821,-1.8673668,-1.8049178,-1.0015119,-1.6121968,2.1397014,-0.026228413,0.29429677,3.845858,6.463291,0.4793576,1.3034874,-2.0784822,0.25965977,-1.6195887,-0.0907302,-3.4914987,1.041674,-0.37755483
CHEMBL1614705,2.3967686,-2.0980577,10.281828,3.6682034,-2.2008681,-6.869891,1.0138651,3.6559672,-1.5096205,-1.4169044,7.4619703,-1.817051,2.8663933,-2.5863962,-0.505201,4.01395,-6.396777,-0.50770855,-5.4157634,3.4279943,6.2932396,2.762486,5.8970637,-0.4032178,0.23265639,5.171758,-5.141164,-3.6878214,-3.7414742,1.1395823,-1.6335343,3.8237607,-7.0588036,-4.894291,4.2905316,3.4355896,8.910226,5.021571,6.0287848,-0.3643159,3.133663,5.192754,3.4358518,-3.0389779,-0.12819253,-2.6562746,0.9068506,-3.5239162,4.62817,0.041473508,9.487027,1.0553129,-0.6736583,3.6530354,7.765153,4.6261296,7.350827,-1.1514286,-5.008114,-1.3762798,2.7057934,-8.372248,1.2252725,2.3105433
CHEMBL1624529,-0.50070894,-2.0650032,8.592162,5.8913903,2.4990423,-2.2674809,1.810477,4.0685925,-1.3499343,-1.4545988,5.169517,0.024048865,1.1908028,1.8707035,-1.6651118,5.2978954,-4.8758755,0.527339,2.847938,5.2185903,7.3854527,1.5523034,10.320256,-1.6341922,2.3343308,7.3385277,-3.178791,-4.0972815,-3.049936,-2.5361996,2.9002674,0.23126857,-7.278695,-7.863966,6.0744185,4.0096703,-0.6736734,6.7910743,8.221453,-1.783971,5.393699,2.8731196,-0.7855662,-8.741489,0.59033996,-4.739911,0.6333059,-0.5052877,-2.50142,2.0736709,5.77875,-2.041912,5.045648,5.786967,7.270844,4.70135,4.2464557,-4.9593825,-0.48173493,-5.333699,3.3250625,-5.7393384,-1.3328568,0.3646402
CHEMBL1682341,-1.5599251,2.636918,7.2164993,0.083084404,-1.4569746,-3.5824351,1.0866029,-0.0003728103,0.08773993,1.4406701,5.4845495,4.534209,-0.8812794,-0.6384896,-3.9010637,-0.11952864,-1.1486017,1.2385967,-1.07236,3.0837576,1.013996,-0.5585798,4.181161,-1.0325068,-1.1261077,4.071731,-5.859902,0.5541623,-3.181717,-2.884809,-0.119115405,-1.2389745,-6.233916,-1.0923975,2.4982445,0.121158555,0.9683718,1.2885884,6.6019316,0.62774044,2.702185,4.2437277,0.20206346,-7.054756,-1.3129662,-2.2104552,-0.34751388,-0.5164308,-1.4580984,-2.77197,5.8681326,2.486175,-0.76848155,1.9468771,6.234448,1.9339412,3.2992003,-2.6885731,0.89615166,-0.33423394,0.8186483,-5.0006666,-2.6000834,2.3053594
CHEMBL1682346,-0.97999936,-0.5085585,7.200537,2.665265,-1.7997558,-3.5862794,-0.68986976,0.51635647,-1.4560529,-4.4211855,5.0590606,0.45990255,-0.24544884,-1.5438876,-3.507931,-0.8894702,-1.5039878,1.573069,0.6685679,5.3692403,1.6521845,0.12041287,7.3799853,-0.679888,-0.4108541,7.436629,-3.8565977,-0.9279363,-3.8537009,-2.0416038,0.9688234,0.66237664,-8.4234085,-3.1281607,3.8066814,1.1957859,0.9173091,3.1696014,7.0059247,0.22966939,1.8498667,4.255757,-0.5250299,-3.589075,2.4593472,-5.565204,0.63947415,-1.6377693,-1.630188,-1.1778245,3.2033122,0.12569368,0.8028638,6.5747724,3.7263978,0.9092228,2.2421744,-1.5267482,-0.63450515,-1.765471,0.7133814,-4.3518643,0.18879142,0.921103
CHEMBL1682358,-3.9325902,0.82764393,5.9077687,2.7828162,-1.9774132,-6.4752345,0.558313,-1.3830227,-2.519704,-3.58035,5.93906,3.9183662,1.0676949,-2.3480399,-1.0695103,-1.6385273,-2.3580658,3.4783137,2.6496675,4.042173,0.81518376,1.2828343,4.6119075,0.23497057,0.19728859,5.005567,-6.217931,-0.03178686,-2.3405879,-1.2156477,-2.1103795,0.19109508,-5.594076,-2.720703,4.5062466,1.2955452,1.1694204,2.6560006,7.6647625,0.2867849,4.392517,4.003812,0.37041083,-4.786371,0.6182918,-2.9688635,-1.2792572,-2.2677798,0.34240347,-1.8637409,5.7793145,0.4358614,1.958554,3.5196648,5.3637366,2.9689727,1.61108,-3.290432,-0.5175546,-0.97647,0.48146,-5.443729,-2.5768209,0.5404596
CHEMBL1682540,0.21159743,0.10646553,5.9273787,1.1768218,-0.60754603,-1.7323279,-1.0446546,0.21175215,0.56044126,-1.7916791,3.6202824,0.3420989,-0.21686585,0.12794642,-2.4939518,0.29140767,-1.3269296,-0.5211573,-1.0755354,3.735004,2.830724,-1.4290521,6.12287,-2.7059731,1.093688,3.8441498,-2.984572,-1.1607585,-1.947977,-3.23404,-0.41837868,-0.9013521,-4.845633,-3.196752,2.7373974,1.4385359,-1.4167536,3.3891492,3.63715,0.41619244,2.571311,2.9045384,-2.3858898,-5.39666,1.285801,-2.0745394,0.5938013,-0.8875902,-2.3802915,-1.4739624,1.2961318,1.3243927,0.31311825,3.745483,3.8368604,-0.097892866,0.37957692,-0.96410537,1.2126701,-1.19146,-0.28889683,-2.6714647,0.29505453,0.46256348
CHEMBL1682545,-1.3287246,0.5602254,7.191658,1.9422851,-2.723021,-4.0214295,-2.1498787,-0.32320926,-1.5553669,-3.3704252,3.5019088,0.7485487,1.2182676,-0.08200432,-2.9247391,-2.5105317,-1.8043315,2.1527886,-0.47558302,2.175932,-0.8502382,0.61422986,4.424676,0.283072,-1.4271996,6.8799176,-6.6097655,-1.9762713,-4.6065054,-4.668603,-3.1903489,-1.543616,-6.1890774,-4.6541753,5.6156244,1.3346925,1.2925723,2.0215936,4.325427,0.07291609,2.3436117,2.3481414,-2.1606574,-3.7504947,2.429371,-2.1670775,-2.1733143,-2.7562432,0.2458393,-0.4971838,3.3507204,3.2812479,-0.510072,4.1876655,5.4497347,2.4704905,0.93176323,-2.535581,0.51878375,1.2407024,-0.9991149,-4.169282,-2.5235498,1.4238522
CHEMBL1682546,-1.890438,1.2484379e-06,7.6873455,1.0782028,-2.061725,-5.167715,-0.16129315,0.35333276,-3.7783415,-1.5620651,4.0082192,3.6739945,-1.8203667,-0.38793892,-1.4784496,2.0641022,-0.018504322,1.5809157,-1.9703871,5.575457,2.2688468,-1.8187339,7.1697426,-0.15332176,1.6906997,4.370274,-6.0344806,-1.9298648,-5.412472,-3.6771703,-1.0918789,1.3673494,-6.640259,-2.5628126,5.243749,-1.3028457,4.8097434,1.7654077,4.796424,1.8006256,3.3764236,6.5827346,2.531395,-2.1844513,0.71075535,-2.8502824,1.98308,0.43433538,0.73912436,-1.9861408,3.4641786,-0.67050654,0.25815699,3.167404,5.0308657,6.083424,2.8982015,0.16992962,-0.98577714,0.2939321,1.4159857,-5.7582393,0.25196692,1.9233254
CHEMBL1682552,4.0564504,-5.1252556,6.3020964,-0.9930689,3.480198,-6.541277,-2.8793542,2.1264741,-1.5993391,0.5222831,2.9598453,-2.2106311,4.029819,-0.3831262,-3.151865,0.22951922,-1.0873357,3.6727314,3.0683222,5.1771035,5.1053886,-1.2743156,5.8435054,-0.08523572,0.6129981,3.7620552,-9.275987,-2.5530255,-2.6216555,-2.0992308,0.9752126,4.14288,-5.7147384,-1.5642842,4.524133,0.7524141,2.2431076,2.8912323,6.551141,0.07557039,2.6105077,5.576165,0.14686215,-5.774034,-1.1952715,-4.697438,1.7196611,-2.65163,-0.6879673,3.3316622,0.92675644,-0.16701098,-1.7018588,2.0950224,5.272097,6.5551615,1.0336878,-4.039636,-0.86834824,-1.676095,3.5376234,-3.8258665,-2.5090573,3.2684689
CHEMBL1682553,0.6552585,-0.08810261,7.33123,0.59786594,0.1733137,-1.5848842,-1.0430895,-3.078701,-2.0583112,-2.5583782,4.5454793,-0.6451507,-0.35553357,-0.021952625,-4.2992005,-1.5018337,-1.8698156,0.54448706,0.32339454,3.1590705,0.89058894,1.070314,5.776014,0.6385242,-1.9896199,5.81558,-6.0582743,-1.3239043,-5.179534,-2.2443745,-0.6764934,0.26635575,-6.658542,-1.66872,3.8813229,-1.338272,2.1496432,2.3630564,5.90497,1.8993828,3.5016716,1.6422782,-1.0553389,-5.4816465,0.5837488,-3.8066666,0.5758807,-3.0765314,-1.4758466,-1.6338116,2.532394,1.7731577,-0.93044615,3.073461,4.8387957,1.4701844,4.0521574,-3.2133195,0.4009433,-0.5580381,1.6489413,-5.633615,-0.13178821,2.4487882
CHEMBL1682554,0.3144127,-2.8595586,7.6417494,1.1506692,-2.1057549,-5.550339,0.25455853,0.2645897,-2.5466034,-5.0090437,7.2250533,-0.69149065,1.5118898,-0.077866584,-2.5024333,-3.0805478,-1.7037973,2.2142909,2.8901172,4.1887155,0.590675,0.9573424,1.1172287,1.4997675,-1.6893266,2.5220182,-5.005836,-1.8300148,-2.4374154,-0.3477886,0.66895664,-0.21066332,-5.411509,-4.2737103,5.9199457,2.1087918,1.0625334,0.34370893,6.31365,0.51463395,1.351552,3.4939659,0.7170361,-3.2410672,2.3341985,-6.815807,-1.3847764,-4.445356,3.1619394,3.1315987,3.788451,3.365129,-1.1740599,0.9502561,5.999312,1.3597406,1.8638593,-2.5328813,2.046331,0.07350305,1.4344771,-5.3135443,-3.2342744,0.17285322
CHEMBL1682558,3.0094335,-2.2362354,9.296752,4.510662,-1.5131526,-6.825361,-4.056864,3.0263064,0.3936131,-2.764151,4.9959393,-1.6660496,5.6211696,-0.70636356,-1.1977262,4.0403194,-6.241662,1.3249191,-4.7559924,3.6719546,5.1246414,1.6010262,11.4694805,2.0223303,1.5550919,10.523144,-5.1941795,-2.672466,-5.231175,-3.608015,-5.236764,-1.5181303,-5.8243484,-6.9757743,3.1363358,0.9874473,4.179301,2.3384457,8.577004,-0.976347,-0.031861573,5.4872904,-2.2828948,-8.406389,0.8642737,-2.20991,1.1549556,-1.2375394,1.0266736,-0.758635,6.2327433,-0.1584206,-2.0531693,8.261108,5.9303436,6.6841655,5.4909997,-4.600058,-2.5694673,-0.36726403,-1.166647,-4.799998,-1.4357241,0.5455998
CHEMBL17370,-0.4314726,-0.78460014,7.463378,2.4172404,-1.3558615,-5.917917,-3.079493,2.6365476,-0.894271,-1.6803756,3.4050736,0.4308983,0.51064664,-0.08461188,-5.4314213,-1.333336,-2.044413,4.2659335,-0.3472178,3.3723683,3.2704942,-1.7474707,8.139159,0.28293943,-0.8326441,7.347053,-8.98021,-4.7395024,-5.073242,-5.7429223,-1.9687366,2.244221,-6.663678,-2.030985,7.3910522,2.0202146,3.8863237,2.8339038,5.860754,0.16671814,3.2770352,5.056029,-0.8353184,-3.4481406,-0.27029687,-4.403652,-1.2901397,-2.1794116,-1.3749044,1.1301364,3.5491457,0.17480049,2.4982665,5.439916,7.1974597,6.1030397,2.4533408,-4.26513,-2.0455947,-0.86905897,2.6172645,-5.546159,-0.5684155,2.3029904
CHEMBL1738758,6.92998,-0.35989952,9.815303,2.5576067,-6.284067,-10.216562,-5.209231,11.096827,-1.7758789,-3.6589246,6.3290324,-5.993473,0.78319037,8.47532,1.0371003,-1.7272322,-3.1002102,0.9694128,-10.134444,-1.6879232,2.1600716,2.213555,14.963504,0.68604064,2.736471,6.487321,-1.713938,-1.490311,-3.7023318,-4.1154428,-6.6912203,0.05158156,-10.3214245,-11.212398,3.937949,-4.0852027,-4.5272818,6.556929,14.766172,2.717934,-2.0327582,-1.2351913,-3.2157972,-4.9932914,-4.530196,-8.600333,-3.1948712,-0.61958516,3.5868094,9.594786,-5.595825,-2.070177,1.9145206,13.574156,9.683834,12.534201,1.831872,-12.632099,-1.7587851,4.629658,3.976252,-6.7245,-1.997297,-3.5524535
CHEMBL1825138,4.0834103,0.5761588,13.510372,2.0734513,-1.8019078,-5.2820945,-1.2657259,5.9335275,1.8316216,-5.0109224,9.788482,-5.2583094,7.6799507,-4.67307,-2.1993272,-2.8964415,-1.6730005,-1.2129756,0.2514554,4.594805,1.9828547,2.0363147,5.954159,-0.051723897,-2.544878,5.169121,-4.397877,-0.4124959,2.5606072,1.3802557,-4.111084,6.578551,-12.238451,-8.574503,3.1138527,0.41439146,0.4800436,5.9900417,7.7872615,-0.081193805,7.2087097,2.3085947,0.75107,-8.397848,2.7676451,-5.3341165,-4.17753,-5.2232785,2.7478607,1.2082062,5.069099,-1.1058053,-3.4383402,5.087099,8.202817,3.1850739,4.331109,-5.45304,1.3691511,-5.272951,1.2243047,-1.2645842,0.07851824,0.6733898
CHEMBL183844,0.25315636,-2.8148365,8.332728,3.8542213,-1.5214715,-5.770503,-1.7277348,3.5863528,-1.4786699,-1.8110968,5.975733,-2.4251559,4.2109585,-3.3846345,-2.7960427,0.07654619,-1.6944516,2.7310627,0.066161826,6.4344983,3.457799,0.4471855,8.55759,1.2257036,0.094596624,7.7095404,-6.825156,-5.912164,-3.7576256,-3.2248144,0.3188999,3.9875803,-11.72183,-4.9209647,5.3077154,3.830045,2.3704047,5.032045,8.158076,0.842911,7.4216943,3.9221964,1.4374547,-3.796832,1.1260993,-6.0717444,-0.69545615,-2.9137952,0.9537575,-0.6937406,6.5146685,-0.56415504,2.7714677,7.232785,5.948055,5.6627016,2.5421956,-2.6519597,-1.396712,-2.3195095,4.566873,-3.6150959,1.2271494,5.0746307
CHEMBL184847,6.496751,-2.2725062,4.2930927,4.1070676,3.7852888,-2.9698632,-2.0350204,3.519137,-2.153132,-0.5857332,3.8124702,-7.0852227,2.115015,-2.4764879,-3.2239695,0.13083583,-1.5884962,0.1836968,-1.9526522,7.8193684,7.258091,-0.2117615,11.402664,-0.45067582,-0.21573374,7.3885674,-7.0043774,-2.9804842,-3.8444734,-4.1481247,1.1157842,4.334553,-9.707804,-4.024974,-0.55169404,4.3140163,1.5188072,5.6838818,6.950173,2.9918723,3.6814897,3.4952428,-2.551316,-9.635613,-3.5823667,-6.0439863,-1.0307342,-1.8435122,-2.3276742,0.581725,1.0292233,0.93640417,3.065266,8.929583,5.3888364,2.7962546,3.7209432,-5.4808507,-2.4098833,-1.7627733,4.1508956,-2.0618868,1.4410561,5.9723682
CHEMBL185569,2.0402143,-2.6476982,7.020323,3.6047792,-0.7394796,-5.7690797,-2.4197574,6.223408,1.0790166,-4.1407905,4.2982297,-3.869843,2.481157,-0.22516279,-4.9870305,-1.6701088,-1.8427875,4.085438,-0.2844753,6.8493333,5.35638,0.8031213,8.715349,-1.2370192,-1.533933,8.119825,-8.291471,-4.8011103,-2.0962114,-4.043613,-1.2677257,4.119715,-7.8075624,-5.547158,4.243887,5.182021,4.098034,6.0552483,7.0057435,0.20889083,3.8335617,3.1855593,-0.72047544,-4.5029745,2.0238862,-5.4096284,-3.4072697,-3.9046834,-0.588849,1.871353,0.9805808,1.7017643,3.0555792,8.271914,6.4059134,4.7588186,2.9871037,-3.9709692,-1.5369072,-3.7799072,1.821498,-2.7444491,-1.74018,2.1603043
CHEMBL1933576,4.46463,-3.6067612,12.288239,-2.527807,-3.0989351,-6.771735,-3.795383,6.275665,-5.2421427,0.80118394,2.4714243,-1.7803068,-3.1922822,0.9790964,-5.108789,3.9138238,1.7302941,0.3174181,0.19968867,4.351018,8.821554,-1.2776643,16.086317,2.0020852,4.86824,9.157142,-3.4493015,-3.2338343,-0.6166763,-4.9791026,-0.80415595,0.71766204,-15.342206,-8.118559,5.0230203,0.1498239,-3.0333176,6.5862846,13.000295,1.0172782,1.9084412,4.6143103,-1.5513482,-9.398765,0.35663927,-6.2013273,0.5186385,-2.638215,-5.287278,1.2390395,2.9450002,-1.3214332,2.0296972,11.73917,7.450223,8.852553,1.7017987,-5.278638,-0.012796402,-1.7713485,4.6027236,-3.0302706,1.7135677,5.183795
CHEMBL1933582,6.381857,-4.084935,3.8441186,3.1167796,0.013566583,-10.70866,0.10770274,7.032774,-7.729602,-0.69204783,6.64224,-7.8407497,-0.50733525,4.8369713,-1.7896352,1.9661579,-2.6148338,1.3486346,-3.5382318,2.9187515,8.070618,6.716378,9.943226,3.5193489,0.11023486,8.791636,-8.734761,0.45887217,-5.890624,-1.0779036,-3.9689646,2.4205434,-12.446592,-7.319977,-0.6925205,1.5587939,3.8843582,5.008383,19.42365,5.147358,-3.9693046,4.1219664,5.993682,-8.458855,-3.9526093,-2.260273,-3.0495324,-0.7682705,3.575699,3.016321,-1.4853009,1.9001853,5.1105657,7.911038,8.4784565,7.108935,5.6078024,-8.24086,-3.351954,1.0269127,7.456765,-11.200596,-3.9738293,3.858846
CHEMBL1958401,-0.5769545,0.88248664,6.707495,0.39183104,-0.49357432,-4.080804,-2.7674258,-0.83990884,0.90644944,-3.1213603,5.3481216,1.5885375,0.9139296,-0.5333009,-2.5298965,-0.8408441,-3.905473,1.1730337,0.30602837,3.3970299,1.2519826,-1.1734376,5.3344336,-0.12625992,-1.0870469,6.06106,-3.7285879,0.04397852,-2.2164035,-1.8432492,-2.1133473,-2.2824461,-5.4448237,-2.444413,3.25122,-0.04406458,-0.7326729,1.2337562,4.9486547,0.7935406,1.3516204,4.007354,-2.8309534,-6.6520767,1.2830414,-2.8905845,0.065062314,-1.7636571,-0.6589513,-2.055027,2.977548,-0.4814804,-1.2492486,4.296274,4.469232,2.304222,1.7880609,-3.2890654,0.07593122,0.027832672,-0.9249628,-3.7417223,-1.5075197,-0.8835429
CHEMBL196363,-0.7944521,-2.356857,7.020979,1.6559573,2.1418455,-5.3404093,1.5499984,5.8990655,-2.4601815,-4.677306,3.435888,-1.3404655,3.6927588,0.5269982,-4.0395117,-0.818079,-4.5145864,2.167862,3.2563481,2.5075257,0.5883169,1.410258,4.9797344,-2.8940423,-2.6191623,8.914069,-5.1706133,-2.0893862,-2.7926588,-2.2124074,3.8017454,3.0814743,-12.074546,-5.416706,5.443689,5.4114027,3.3033786,4.4825654,4.586953,-2.439171,6.655794,1.582999,1.575283,0.11256859,1.5401967,-4.322288,-0.3839993,-8.037345,2.4325302,3.2957528,3.599637,0.18466248,-0.73794675,5.415605,7.8033323,4.407201,2.4044394,-6.3130164,-1.9958125,-5.101142,4.958668,-5.700088,-4.6913886,3.5039098
CHEMBL1964290,-0.0020999312,1.1715497,9.415405,0.028782591,-3.0568304,-4.3007736,-0.5910648,0.47372437,1.4956272,-2.557592,3.11324,1.4085573,-0.5808184,0.72231156,-4.2710524,0.077645466,-1.0694878,0.71093214,0.3496363,3.1579182,2.0830808,-1.8143151,5.024544,-1.6865048,-1.0064957,4.6053653,-5.909854,-2.0571437,-3.1944568,-4.257454,0.43566298,0.84137654,-7.57412,-0.77707756,4.3129873,0.81238437,3.6282938,4.0212893,3.8045752,0.3219282,4.248766,4.5484653,1.300333,-4.80412,1.8576834,-4.0037975,0.36641735,-1.3828905,-0.61215997,-2.7760808,1.9823118,1.4834713,-2.2378435,4.0944943,7.176466,3.0188498,3.8854928,-0.26741984,-1.2736697,-2.154659,1.1109469,-5.7104626,-0.20562968,0.46575144
CHEMBL1964413,1.4029484,-6.2967377,4.6423407,2.706629,-0.20564014,-6.0365696,2.9095855,7.3301163,-3.210197,-2.5156736,4.8474684,-3.9433646,2.745137,-0.06504474,0.38088885,2.1566143,-4.3678336,-0.016967073,-1.6755513,-1.790328,4.702077,1.6402845,8.39257,1.9377525,3.1780481,6.130116,-2.0057418,-3.3297267,0.87069386,-1.9446298,-2.1033235,5.7712817,-5.749253,-7.5874286,-0.3116785,6.30901,9.842193,6.7703023,5.488792,-5.130345,6.9505477,2.178624,-0.51255405,-4.416418,2.8850658,-3.2784514,0.19548726,-4.83852,5.7733145,5.67748,4.908446,-0.7253982,-0.84371185,6.1771097,8.34455,6.407551,7.3916774,-7.703558,-3.3983932,-2.1736655,5.653691,-2.316452,-2.475291,3.8118978
CHEMBL1964444,-0.87879574,-1.2353013,6.456052,3.0903163,-0.29011253,-6.4027095,-0.6300124,0.2864656,-2.4136684,-0.48583895,5.456529,1.5204343,-0.6876971,0.8396249,-1.6756434,3.215517,-2.217001,2.9174044,-0.99641883,5.336615,5.2680964,0.64430285,8.091047,-0.25405005,1.5881188,6.155206,-7.6885047,-1.395474,-6.3646765,-3.5546172,-2.857856,-1.8331777,-4.961114,-2.8300214,3.7571611,0.18858284,4.1685023,2.3246086,8.257457,-1.7622432,0.58855546,7.7681155,0.0036034584,-7.465378,-0.7324865,-2.6200573,0.43688348,0.4069239,-0.6371916,-2.10632,4.2715187,-1.9756315,0.31776014,4.830565,7.5207906,4.1513357,2.0230088,-4.102245,-2.89581,0.03196775,-0.028288268,-6.704086,-2.4421856,-0.5158052
CHEMBL1964644,-2.0064244,-0.9947312,4.919138,0.18694505,-2.080712,-5.167129,-0.97023207,1.7602874,-0.71133244,-1.9394478,6.45547,2.7829108,1.0544429,-0.82939637,-3.5354543,-3.3673944,-2.0068145,3.5923471,0.6718323,0.5203704,1.7516124,0.2709455,5.050122,-0.10214529,0.48955697,5.5548954,-3.5251508,0.96655947,-0.1332484,-2.6464784,-2.9771173,-1.4466286,-3.1823535,-3.5476243,1.6017246,2.287614,-0.4043959,0.7947464,6.3539443,-1.2001072,1.960847,3.1191344,-4.7491717,-5.3329797,2.697543,-2.1516922,-2.546435,-2.213028,0.16662613,-0.43741754,2.72198,1.8321645,-0.013342457,4.0913987,4.16454,0.19227925,0.94393355,-4.5814977,1.6604325,0.006080538,0.83083314,-1.8810303,-3.2357128,0.82313406
CHEMBL1964687,0.5591529,-1.7379423,8.629476,4.2119546,0.401564,-5.1175585,1.3862004,6.449127,1.424462,-3.195491,4.753895,-1.7733829,3.2040565,-0.34618902,-4.442367,2.5021644,-3.0163279,2.4747388,3.9241657,4.493028,4.0205717,2.240347,9.274107,-2.4654155,-1.7207496,10.682377,-3.3543313,-1.7104795,-1.1396904,-5.79084,1.7107539,0.7612802,-11.681433,-5.766088,2.3985806,6.821172,4.4664745,4.9164286,7.9331737,-4.1581745,4.0832286,4.9494815,-0.9857755,-6.846124,3.9167407,-2.6537664,-0.6850705,-4.9687243,-1.8371979,2.2937346,3.6707213,-1.2654266,-0.3061155,9.544699,8.727686,3.1578484,3.1158783,-6.5876446,-2.3635063,-6.5453057,4.3242154,-3.912604,-1.4743171,2.8926132
CHEMBL1964692,2.3808696,-1.3051114,11.137463,4.4970818,-2.1901188,-4.982261,2.3764296,3.5128138,-3.8931127,-0.19093543,6.123547,-2.544851,4.168562,0.23766662,-2.319295,4.4996195,-3.5581717,-1.0765655,-1.2214475,0.13025664,5.719042,7.7527885,9.694287,0.4774745,0.5899452,9.998331,-8.493008,-0.10177501,-7.2138305,-3.4426816,-3.753651,2.279214,-8.138979,-7.567832,4.4108405,2.1013448,6.7847524,4.8669906,10.761785,-5.095757,0.9485181,4.6686435,0.83690584,-6.991393,-2.4970708,-0.26357463,0.19883895,-1.4162252,-1.6140884,2.2473092,7.5192585,0.5652037,-2.35924,4.001115,8.393185,6.4390054,7.463677,-8.402031,-4.298085,-4.4357553,3.2796822,-5.733673,-2.71477,4.470587
CHEMBL1964777,-1.2122142,0.6425861,6.1488833,-0.0007608533,-1.9823031,-3.6301339,-0.13146819,-0.048249945,0.018895611,-0.5496775,5.5607424,3.0771031,0.27507246,0.41205359,-3.346182,-1.3718345,-2.206726,1.5992815,-0.32887685,0.366943,0.062155277,-0.7023235,4.3413215,0.536783,-0.9408823,5.338754,-3.2495923,0.2874909,-2.7437577,-3.9466274,-0.4982389,-3.0364416,-5.765758,-1.0205376,1.1141889,-0.011641987,0.611225,-0.7224882,4.98987,0.7405275,3.4583201,3.631164,-1.746414,-4.9728665,-0.7025981,-2.98236,-0.1627866,-1.723441,0.14000748,-3.4220407,4.572073,-0.35077465,-2.3224459,3.3455753,4.985912,2.15056,2.6093426,-5.0979047,-0.30251572,1.1416737,2.8784657,-3.31001,-2.4586985,2.0112896
CHEMBL1964804,-0.13427101,-0.18265522,8.106286,0.96265954,-1.5525074,-5.2235274,-1.0663013,0.7230215,-1.9009223,-2.5600996,6.107534,0.87667096,1.0263724,0.7842869,-1.5871879,0.512566,-2.844712,1.4297824,0.81953,5.3953843,2.852059,0.9223721,5.5841203,-0.29752338,-1.2394061,7.385243,-8.322158,-1.2325217,-5.9285583,-2.0318928,-1.1305277,-0.11355731,-6.9365697,-2.6234577,5.624797,0.36628318,1.6682442,3.4211879,7.747211,-0.79505867,1.5170642,5.8236337,1.9769868,-4.8316917,-2.011919,-4.213896,0.9842572,-1.3919396,-0.9878408,-1.5961776,5.791752,-0.35367838,-0.37316588,3.9529986,6.472908,5.7119613,3.528039,-4.42069,-1.2990746,-2.7997565,1.1999184,-5.952063,-3.2287328,0.6376685
CHEMBL1964937,2.4950128,0.083729446,10.903304,3.3622305,-1.9326802,-6.913751,0.53136444,5.697047,-2.6837146,-2.2506833,5.3831487,-0.95267653,1.4456402,0.46311402,-2.4534535,2.4626205,-1.041761,-0.13603641,-1.460643,4.7824335,5.2827816,-1.759716,9.040678,-1.8695973,1.9909214,5.36952,-6.5640526,-1.7874528,-6.3537335,-4.316302,1.1094283,3.2777061,-9.974336,-5.255885,4.9302306,1.0192518,2.0175633,3.182384,4.711103,-1.2585586,2.6265738,9.094813,1.4495193,-5.0965233,-2.9570346,-6.4761086,-0.6197094,0.43510535,1.0721363,1.1648256,3.4819345,-1.9346865,-1.6066859,4.875993,8.892461,6.1182556,2.4012194,-4.316983,-3.4728808,-1.8065289,2.7969434,-4.5457597,-0.9458691,1.5439787
CHEMBL1965131,-0.9408652,2.7803717,7.451445,-0.3469529,-2.6438498,-3.8333106,1.6518285,-0.15153423,-1.2845591,-0.90722364,5.871381,3.084728,-1.462656,-1.9394273,-2.1682281,1.0055072,0.44866794,0.84437877,2.1743472,4.512984,3.9690964,-0.77321744,7.6885824,-1.6600596,1.4890722,4.0610876,-4.6659074,0.14705306,-1.3229902,-2.084367,-0.8423332,4.0958657,-7.1178765,-0.7368728,1.11201,0.11118756,2.0358748,5.3963437,5.616735,-0.8143021,6.0110817,6.620712,0.78376544,-6.508356,-0.078975886,-2.7059073,-1.1468071,-0.29659724,-2.2472944,-3.9417467,3.3041584,-1.6260319,0.9781983,4.0816026,5.5569654,2.8848152,3.1949208,-1.9142843,-0.80946004,-5.392599,2.8384712,-3.084594,2.1004534,2.5338705
CHEMBL1965423,1.7919792,-2.2297285,7.5507145,3.1890488,2.8698761,-3.331726,-4.3733764,1.2838056,-2.6041749,-3.7039142,3.226789,-3.1139987,1.9164019,-2.1146107,-1.7982146,-0.71669036,-5.826943,-2.3185604,-3.854179,2.5546684,2.5012426,-2.9488962,8.404361,2.1615977,0.0533946,8.67497,-5.6500435,-4.9853854,-3.840258,-3.155337,-2.5518696,1.2316936,-9.269985,-6.833651,7.591114,3.5988073,-1.1705399,5.55654,7.6639514,-0.22895065,4.646726,1.252965,-1.6387427,-7.719207,-0.41983736,-8.210941,-0.10310471,-3.9699185,1.9970982,0.86995983,7.575363,0.6570096,3.4538963,5.4137254,7.894432,4.734082,4.646228,-5.4979396,-0.050477274,-0.6978438,-0.6334974,-6.5439105,-1.0539095,2.2859764
CHEMBL1965507,2.3663976,-3.8983543,11.379378,4.456269,-1.6196535,-5.4742494,1.5217303,2.6411471,-3.6942756,-3.3689435,7.729819,-3.0257523,3.9308991,2.1330638,-1.267653,0.6849962,-2.4605482,-1.6447264,-4.9337473,0.0032340363,4.9116497,1.9121708,9.631742,-1.325915,1.4759755,6.6864524,-8.670775,-1.9389349,-8.889922,-6.9235516,-2.654844,3.0337088,-8.040101,-5.869897,3.9959066,1.4383485,7.037679,3.77266,6.232404,1.0280311,6.684436,6.4098244,-0.83080846,-4.172602,-2.968896,-5.2453375,2.6948557,-0.8323946,2.3532016,-0.3954219,4.0491,-0.5388322,-2.5601108,2.635681,8.371027,8.23597,9.042745,-7.135936,-5.660788,1.6180266,6.516416,-5.6491885,-1.9170864,4.972959
CHEMBL1965570,1.8244313,-4.7033725,8.289247,2.2759712,1.4531105,-5.6406865,1.9917934,3.4431653,-6.938425,0.58542705,7.2258368,-3.710721,3.94817,-3.0604377,1.1269131,4.7260857,-3.6881278,-1.714669,-1.6884726,4.033873,3.6457183,3.41153,9.847784,1.8069084,2.0764003,9.173597,-2.007831,-1.2914683,-0.65400064,-2.5095034,-1.3753512,1.0270776,-15.170239,-8.708065,0.69779205,5.2856555,5.979863,5.6626945,9.831905,0.02081269,7.911257,2.8484,0.45490727,-8.668123,2.5078938,-3.6866362,2.3882637,-6.001241,3.7813945,0.61523694,8.283064,-0.809243,-0.7084558,7.8662863,8.297842,4.8915052,8.58846,-5.690578,-2.2325048,-1.0489229,5.6320453,-7.436681,-1.3019328,5.8389797
CHEMBL1965589,1.0879378,0.5277685,9.562142,1.6392193,0.24617428,-2.9105058,3.207553,5.670079,-1.2569749,1.636315,7.220115,1.1327128,3.1738575,-0.9687673,-3.2983887,-0.07775766,-1.9781557,-0.39384413,-3.7224803,1.5260234,1.9979227,1.0955777,7.7929187,-2.620421,-2.129768,7.464046,-6.765534,1.0047938,-2.065019,-2.8774185,-0.49061453,3.811005,-11.229865,-4.06309,1.4347306,0.9346768,6.5091453,6.093635,10.130924,0.010370523,6.943786,2.8885443,2.4483488,-7.264292,-1.4174899,-3.2331507,2.3809173,-2.6742897,-0.78340864,-0.80460215,8.573624,1.201895,-2.3309047,4.690694,9.173929,4.18757,10.82014,-5.777999,-0.8610997,-3.4291818,4.988809,-7.4284325,-3.7004707,3.648512
CHEMBL1965631,-1.3476834,-0.12160453,7.759087,5.1766305,1.2403324,-6.763976,1.2703552,3.0831554,-0.90550923,-4.109905,7.7973747,-2.6000366,8.077698,-6.3818994,-1.0859988,-0.28183955,-3.299257,1.7481304,3.4170825,5.7213106,0.9309961,2.465686,5.6650076,-2.1344378,-1.0873137,5.5074415,-4.0012665,-0.5873086,0.037192434,2.4131253,-0.31278953,5.0038614,-13.853059,-6.1453037,3.8343043,3.8767262,1.123284,6.220867,8.765226,-2.5236156,7.2315464,3.6347885,1.2587591,-6.2470994,3.874528,-4.0193133,-1.5026613,-5.634029,2.4258902,1.3593031,6.372787,-1.6880784,-0.02065221,5.79615,8.060008,0.1359793,1.528377,-2.543244,-1.3607681,-4.756842,0.80022657,-5.6125984,-0.34373885,0.012939572
CHEMBL1965660,-1.4170418,-0.37658346,5.610463,2.0103953,-2.5067673,-3.4730983,0.69360155,-0.34902635,-3.1293037,-3.2714572,4.849343,2.8181558,0.5886954,0.100052595,-1.8285526,-0.7296171,-1.4472516,2.4333901,1.765335,3.9928048,1.607511,-1.4720895,7.454038,0.56038326,2.0495484,5.132764,-3.9288225,-3.0548396,-3.52093,-3.0865834,1.5379859,1.1473991,-6.3701606,-3.1715775,3.8310676,1.2634441,-0.98392534,2.8568363,6.086016,1.0797452,6.0526166,4.51364,0.024100117,-3.1440017,-0.6399971,-7.0871134,-0.72951794,-1.968189,-0.1781411,-1.896251,4.817149,0.023082882,2.989763,3.8831868,3.6586726,3.8500073,2.7772987,-2.4777334,0.63525367,-2.3975742,3.2287703,-3.936423,-0.93619347,2.5861177
CHEMBL1965702,2.0237672,-4.4975376,7.7310686,2.0296035,2.4544303,-7.6251044,-4.113538,4.2202716,-1.3271495,-2.7493048,3.1125617,-1.7971824,4.820434,0.20986399,-4.0646095,1.0880132,-2.0959125,3.1963131,1.0604267,6.1573453,6.31736,-0.8950188,8.702725,0.4986661,1.1400207,5.55652,-8.489978,-2.7939687,-6.097935,-2.6493878,1.4336982,3.1876261,-5.9227657,-2.5984833,6.982516,-0.07793233,0.5471812,0.32062328,6.6166234,2.8213475,1.7199507,4.6583734,0.50830114,-3.2233248,-2.1000247,-5.477097,3.0127902,0.6890074,-0.10038483,2.5011528,-0.8017715,-0.963663,0.36776352,3.6673105,4.019417,8.96659,2.4863682,-3.506582,-1.4360739,-1.5023018,3.4408674,-3.5695448,-1.5513201,1.8062608
CHEMBL1965836,3.1485152,-3.965758,9.51489,6.063064,-2.5656273,-6.6391726,4.9843097,5.8133774,-5.472974,2.052652,4.1880026,-4.87309,-0.74413735,0.11191043,0.6715755,8.50127,-0.33191907,0.32921207,-4.2927284,7.4815793,7.246082,9.989936,5.7379494,0.91906935,0.7084554,6.114216,-5.869591,-3.770546,-3.4625273,-2.489995,-2.140125,-0.21143675,-8.560426,-7.0581374,1.6093674,4.5669436,12.7569,4.8523474,9.628906,-1.4641312,2.9976962,1.6548322,9.07626,-4.11552,-0.912515,0.7488574,-1.2367679,-5.73567,3.1025753,0.0143634975,9.463055,2.036432,0.7113671,7.050806,10.588328,3.5696838,5.6629863,-4.7788944,-4.329399,-3.2919273,3.8830123,-9.621681,-1.6930718,4.3193827
CHEMBL1965845,2.7069862,-3.3241665,5.2773314,1.8090396,1.4156562,-5.9159017,-1.1501428,6.550587,-0.4578617,-1.309711,6.2819786,-2.8633854,6.6216145,-3.0218112,-3.172658,-0.44000137,-3.8089752,4.2107744,1.6349359,3.6436508,4.450869,-0.5028197,11.279295,1.1809547,1.3124908,7.6101937,-2.859861,-3.1360273,2.092662,-0.6010746,0.15430917,6.1616406,-10.00972,-5.2150345,-0.8228585,2.8309898,2.837295,5.1958127,7.482836,-0.14016666,8.838601,3.0147126,-2.1806707,-6.829982,1.5680532,-5.4770374,-1.6212866,-5.2495966,1.6131514,1.648444,3.6465805,-3.0815482,0.21122241,9.070584,5.2885723,5.131496,4.263779,-6.60135,-0.9239104,-4.2458673,6.156143,-1.0535758,-0.41213995,3.6299953
CHEMBL1965988,0.048773676,-1.1215719,10.033567,5.9292045,-0.84924966,-4.459949,0.34546798,2.0905724,-0.9984952,-1.9935302,8.493167,-3.1527727,4.7352047,-6.43858,-3.6893587,0.18103588,-3.153548,-0.18068144,-0.4538518,3.9933367,3.3469815,4.2851014,8.818076,3.2882054,-2.120789,8.366291,-4.8821115,-2.9564452,-1.3300836,-1.6244454,-2.1803591,3.8096647,-13.837805,-6.2267632,4.1488266,4.4684067,4.3338428,4.8074365,13.02395,1.245738,7.4487395,1.4041114,1.3121684,-8.2346,1.8752726,-5.6591244,-1.4610335,-3.5706801,0.8134155,-1.1214314,9.1671715,-0.7421342,3.0816615,6.451973,7.2894497,3.6413627,8.2560005,-4.8354707,-2.0236163,-3.298568,4.4859114,-5.504339,2.4167185,5.2735186
CHEMBL1966040,4.329411,-1.3807127,9.255357,1.0586228,2.8809447,-8.211203,-2.1524472,7.1687627,-0.3028951,-0.5175227,6.238194,-2.874932,5.0195456,0.03763638,-4.553415,0.6975535,-4.024489,2.211729,-1.4163448,2.9774094,6.5529704,1.2219241,7.1341043,0.0428336,-1.3864603,5.8493237,-7.6168275,-0.3779169,-2.868674,-2.0093606,-2.5376081,2.2743382,-7.189584,-5.0891433,2.533039,0.7229974,2.990631,0.23158371,5.9332423,0.29416454,2.9175134,4.4641457,-0.92836905,-7.8926487,-3.095325,-2.7328815,-3.4313939,-3.171906,3.4566867,1.4148223,1.6921847,-1.4666013,-2.9003184,3.797399,9.303252,6.7906766,3.4207988,-9.086924,-2.205226,-1.9809065,3.3796384,-3.5206394,-3.8292334,2.0252295
CHEMBL1966204,3.7520385,-0.75273,8.866017,4.0719705,-1.5221967,-4.2086716,0.16539268,3.750834,-2.877983,0.59472865,4.3526645,-3.7543497,5.6729703,-4.224793,-1.955482,4.279355,-6.0056934,-3.2038188,-4.4937487,-2.1193895,5.371298,4.9135175,11.39738,3.43347,1.5589538,11.094185,-3.5372725,-2.3792722,-3.022368,-4.2043104,-4.1064386,3.0342078,-11.21003,-8.488044,0.95523477,5.8294096,4.71123,4.763502,8.804666,-2.7095983,5.451312,1.9172024,-1.5559766,-7.826719,-1.9806523,-1.5297744,-2.4192743,-3.5120661,1.9943013,-1.0960987,9.261587,0.27972525,0.17201999,6.426678,6.5999203,6.166019,8.263469,-7.6438212,-4.6013417,-3.7446015,4.4588623,-2.9395502,1.4066231,8.934613
