protein_id,0,1,2,3,4,5,6,7,8,9,10,11,12,13,14,15,16,17,18,19,20,21,22,23,24,25,26,27,28,29,30,31,32,33,34,35,36,37,38,39,40,41,42,43,44,45,46,47,48,49,50,51,52,53,54,55,56,57,58,59,60,61,62,63
O00141,-0.22747648,0.83204937,4.656272,0.59791636,-0.6728831,-2.5387635,-0.79680514,0.075580716,-0.56959456,-2.365877,3.8545094,1.3247532,0.0456115,0.10775104,-1.8716612,-0.9072581,-1.8455753,0.27829406,0.1662564,3.068977,1.3331964,-1.4208094,4.3692155,-0.83332276,-0.13268626,3.4785764,-2.7399333,-0.4893576,-1.5152482,-2.8343556,-0.56706697,-1.4454856,-4.1360526,-2.4926136,2.6130667,1.2645847,-1.2280332,1.0917048,3.2265337,1.4738605,2.3602898,2.5094695,-1.6759652,-4.594108,-0.020140171,-2.248114,-0.25259984,-1.7067773,-0.6633346,-0.8381669,1.9169259,1.4063461,0.3519787,2.8489623,3.9459484,1.3155617,1.1431272,-2.4363265,1.6264825,-0.775241,0.6983761,-2.7997293,-0.95748633,0.64493316
O14920,0.037594832,0.5051443,5.2394686,-0.022699479,-0.2264962,-1.8946198,-0.7220862,-1.5425888,-0.82582647,-1.5281782,3.2850807,1.370017,-0.96379554,-0.3710208,-1.9840002,-0.55754787,-1.9585696,-0.3125832,0.11581251,2.1341453,0.9199326,-1.5693641,4.1192856,-0.60923487,-0.013592754,3.6765342,-2.63121,-0.41877997,-1.8625058,-2.3510616,0.11672246,-1.0719008,-4.885793,-1.410253,2.34488,0.24345554,-0.55329734,1.7441881,3.180753,0.95466065,2.7360635,2.7196858,-1.4172902,-4.614221,0.035068847,-2.8200724,0.6274104,-1.8362812,-0.96364784,-1.8456066,2.8407686,0.3270469,-0.64755696,2.6223636,3.7015436,0.80700207,1.1355642,-2.278749,0.3289995,-0.016966397,0.9078907,-3.4647498,-0.14683206,1.3002429
O15111,-0.27556044,0.5864819,4.9789433,0.1888558,-1.424772,-2.456588,-0.9350338,-1.387704,-1.4442751,-1.9493846,3.9709308,1.3889174,-1.0885386,-0.90481627,-2.0155902,-2.3539598,-1.8323174,0.036597457,-0.4470946,0.86353135,0.9244822,-0.78402364,3.4700713,0.6405101,-0.46049592,3.6646433,-3.2115786,-0.10267964,-1.9586325,-2.3090942,-1.0162799,-0.5537037,-3.726426,-0.8435437,2.2217834,0.21466932,-0.1873288,0.89181834,3.3087468,1.9984373,2.829939,1.9148494,-1.4891517,-3.4737504,-1.1030262,-3.0293689,-0.39081362,-1.4181936,-0.19702886,-2.3146863,3.2213898,0.68144983,0.17765342,2.389581,3.210368,1.3327011,2.0234666,-3.2775185,-0.18344532,0.82943594,1.9311242,-2.869328,-0.04765392,2.0041335
P00533,0.41418412,0.06430487,4.6492605,0.27177036,-0.62261814,-1.8541212,-0.84713817,0.7748992,-0.45579,-1.2125064,4.235238,0.9101502,0.370488,0.5620648,-2.8558316,-0.8688723,-1.7736781,0.8202479,-0.28840092,1.9091377,1.1455343,-0.876618,4.6673965,-0.6959473,-0.34538242,4.198986,-2.1135287,-0.25774074,-1.7525716,-2.4887881,-0.46780804,-1.8992561,-4.026773,-2.2890682,2.0221033,0.32451186,-0.92123866,0.32311678,4.0325975,0.14838648,1.1624049,2.5976799,-2.11748,-4.119831,0.15635939,-2.236494,0.0040946174,-2.112239,-1.2487172,-0.372505,2.4510562,0.6157533,-0.8863216,3.0773094,3.6909313,0.17698765,0.99815804,-3.3539495,1.6805259,-0.80329764,1.109967,-2.817927,-1.2175472,0.4299854
P04626,-0.08988626,1.7337583,5.38765,-0.5688044,-1.4813683,-1.4169878,-1.4447385,-0.6864454,0.7735729,-1.6888179,3.9108312,1.3178598,-1.5317533,0.0883525,-1.7848036,-0.8766251,-1.3236921,-0.57811576,-1.241213,2.4158766,1.497414,-2.1204638,4.703526,-0.45786658,-0.059043974,2.8569195,-3.3180494,-0.88897496,-1.0151736,-1.9750669,-2.5248477,0.79190314,-2.9966357,-1.6251078,2.4218373,-0.65700656,0.20410913,2.8922675,2.4764128,1.2171594,2.6264231,2.856218,-1.6763655,-5.008904,0.18928081,-2.1685224,-0.286076,-0.32539636,-1.5124443,-1.4924569,1.7821327,0.10192622,0.37091553,2.1234388,3.356889,2.727732,2.5635965,-1.816598,0.7363478,-0.5840312,-0.26743704,-1.6773198,0.44312012,0.2579049
P06239,0.12221644,-0.76508516,4.5496745,-0.4023014,-1.0113821,-1.8267922,-1.5778754,0.34058812,-0.7876421,-2.1306305,3.1454692,0.5801616,-1.3696272,-0.31575382,-2.7392282,-1.9270303,-1.7057824,0.7210915,-0.48343453,1.5010991,1.3182862,-1.156265,4.7530246,-0.758251,-0.18086402,5.3268275,-2.6864183,-0.5509715,-0.98496777,-2.2691917,-0.93256116,0.023035672,-4.0342283,-2.0349553,2.1945624,1.1709368,0.59139216,2.8318486,3.58591,-0.35172984,1.395128,2.2326732,-2.4599817,-3.0025356,1.9076296,-2.813991,0.00774258,-2.2391639,-1.4139473,-0.6196706,1.9844794,0.81992286,-0.054973934,4.2230883,2.7505012,0.23647046,1.2598767,-2.2797174,0.3241124,-0.5834216,0.56213635,-2.4805973,-0.37884593,1.060618
P07333,-0.5960592,-0.30793902,3.5839593,-0.04394319,-0.49272105,-1.7181027,-0.97997516,0.72706074,0.35724875,-1.548109,3.7415717,0.9418948,-0.53382933,1.362523,-2.3982654,-0.942591,-1.3668702,0.61579484,-0.3955722,2.7573202,1.1244444,-1.0698156,3.8837934,-0.15840892,-1.0612707,4.201432,-3.2848814,-1.0294621,-1.9140921,-3.3023703,-0.71925193,-2.0815053,-3.487215,-1.7787738,2.1875765,1.4452462,-0.16189085,0.9594388,4.340715,0.78480244,1.714608,1.8525783,-1.1429132,-4.170218,0.10787778,-2.5093799,0.42449704,-1.2889882,-1.0590129,-0.9893943,1.8984035,1.2357011,0.5458717,2.8540595,3.735628,2.1438892,2.3652499,-3.1468616,1.7084342,-0.8915077,0.98667413,-2.2882392,-2.1724424,0.7839863
P15056,-0.8239271,-0.3938637,4.741088,0.22521992,-1.1390498,-3.0929399,-0.9057017,0.14780545,-0.23088375,-1.5875027,2.7982411,1.3646178,-1.7249721,0.07379984,-2.2576509,-0.53420347,-0.97734547,0.28976333,-0.39036608,1.9779778,2.1669002,-1.1893413,3.7753606,-0.6241452,0.12617844,3.8736966,-3.4259229,-0.450501,-1.7577733,-3.5390444,-0.7807828,-1.5321845,-3.81914,-1.168011,2.3138342,1.7381628,0.8534143,1.8525381,3.8698852,0.033548877,1.7667471,2.7348886,-0.89673734,-4.207056,0.9776367,-2.2944772,0.27109745,-0.53783536,-0.5632588,-2.1755,1.7490221,0.9567299,0.027798722,3.4055595,4.3948717,0.977935,1.3490337,-1.8967297,-0.105064064,-0.24177483,0.55075204,-3.2015224,-0.8096257,0.71426505
P24941,0.23031469,1.2134575,5.4975243,0.5486242,-1.5007054,-2.5689943,-1.2346498,0.91093266,-0.3712973,-2.3327696,3.042192,1.366997,-0.610877,-0.35376176,-2.320597,-1.0097305,-1.470152,0.30891448,-0.38988477,2.8031967,1.2747769,-1.224333,4.410802,-0.6205478,-0.3260765,4.195068,-2.9169745,-0.02139011,-1.3981684,-1.9374965,-0.7387103,-0.48154393,-4.074831,-2.2655118,2.9724536,0.20069149,-0.58202493,1.6855078,3.7435398,0.5288589,0.6471329,2.5606117,-0.72089314,-3.9224787,0.20949575,-2.648409,-0.33569884,-1.0876592,-1.2822114,-0.5666864,2.42748,1.1559362,-0.19787607,3.6043754,3.6206806,1.0509877,1.3029028,-1.9578284,1.0648524,-1.255142,-0.44494092,-2.9749289,-0.7805424,-0.21350959
P28482,0.25998926,-1.2702116,4.16959,-0.19385453,-0.8046803,-2.5970147,-1.1957304,-0.34438002,-2.0513937,-2.0666895,2.9055364,0.6471111,-1.9377524,0.7182516,-2.116525,-1.5758584,-2.0761003,0.8417386,-0.84098804,0.7300499,1.4287525,-0.19131225,3.876803,0.61944336,-0.23824109,5.066232,-3.3647335,-0.20115596,-2.188491,-2.6223385,-1.4662467,-1.5562427,-2.8181317,-1.9662079,1.7412288,0.59715444,1.9122427,1.37461,3.6487346,0.08315271,0.88682485,1.9143502,-1.9107767,-3.374669,0.769089,-2.604085,-0.24873325,-2.0443351,0.19501765,-1.1399478,2.053907,1.0204191,-0.8554056,3.6067488,3.5458033,1.0360373,1.9074464,-3.5594969,-0.36781624,0.98135036,0.7891647,-3.3488643,-1.8615543,1.019572
P45983,-0.108914286,0.5757823,5.4301844,1.3897976,-1.3604256,-3.296068,-0.7243653,-0.44529274,-1.2168462,-3.5162435,3.1783252,0.80295104,-0.6628243,-0.9240944,-1.0730894,-1.2125967,-1.4181212,-0.1116882,-0.008878738,3.44619,0.9757854,0.30113462,3.2313645,0.50723517,-0.5199956,3.8107734,-3.1679285,0.43840832,-1.7853028,-1.6737317,-0.6282919,-1.1880519,-4.268071,-2.5974457,2.268854,0.35335022,-0.14151329,1.1006042,3.925981,2.1000807,1.5120324,1.5585073,0.11603975,-3.982285,-0.01303743,-2.7969391,-0.43567806,-1.0340972,0.34284955,-1.8401325,2.2888045,1.3768632,-0.31189597,3.4634998,3.242387,1.4716463,1.3166633,-2.1965973,0.30395538,0.22663535,-0.1709752,-2.720695,-1.1562709,0.6068967
P45984,-0.6934465,-0.98281115,5.286415,-0.05281067,-0.456884,-2.7504957,-1.5038319,0.1337959,-0.83678234,-1.468527,4.1063547,1.4963517,-0.3482145,-0.42538658,-2.5145204,-1.4340172,-1.6136156,0.47056583,-0.652964,1.4914497,0.43149167,-1.1757132,3.6981893,0.037578188,-0.27627,4.305478,-2.665214,0.26524064,-2.0220964,-2.1866758,-0.6336621,-1.8074499,-4.3000445,-1.8885851,3.0721045,-0.10715345,-0.5736795,-0.008249387,4.47047,0.3869308,0.7623515,2.6085393,-1.6933585,-3.2914352,0.7740201,-2.7004163,1.388607,-1.2528874,-0.5939113,-0.4845653,2.9866629,0.112246245,-1.3081255,2.593322,3.1535232,1.0322479,0.7122867,-3.051173,0.8959487,1.1599108,0.7066414,-2.8513458,-1.3724245,0.7391956
P49841,-0.46772984,-0.5296326,4.075181,0.3791072,-0.3857113,-2.0847836,-0.60045844,-0.7016492,-0.672319,-2.2396507,3.7355418,0.8507772,-0.641078,-0.34601766,-1.8303839,-1.2335339,-2.150806,0.75363,0.3810076,2.5560343,-0.004725214,0.011225937,3.3105447,0.49060997,-1.2606581,5.2193747,-2.4161637,-0.017290719,-1.8455923,-1.5416716,0.35184088,-1.6848588,-5.032839,-1.7899199,1.2979577,0.8158114,0.29913348,1.156095,4.517713,0.62536985,1.4745574,2.0383365,-1.0234649,-3.614712,0.7749428,-3.4613438,0.36054265,-2.1632905,-0.30312547,-1.6494796,3.2318242,0.2078356,-0.6065527,3.7375376,2.6320326,1.0775979,1.744857,-3.0361497,-0.1377964,0.33343363,0.77522904,-2.6156397,-1.7873803,1.3160117
P53350,-0.32360193,-1.1503767,3.8892975,0.7420614,-0.9009032,-1.8372602,0.102557525,-0.14802355,-1.2411267,-0.64622927,3.58932,1.2237457,-1.2860249,-0.16235602,-1.4997768,-0.18781947,-1.0843455,0.6170482,-0.39571044,2.4074502,1.6990086,-0.33965307,4.1750894,-0.6240924,0.85097307,4.272286,-2.2057502,-0.80222833,-1.5018634,-2.6417043,0.25957143,-1.8722506,-4.2562566,-2.3145726,1.107113,1.726908,-0.42457128,2.069671,4.8042827,-0.5918789,2.158319,2.7701688,-1.0866039,-3.7960627,0.46470842,-2.9727945,-0.09139551,-1.7176633,-0.95135576,-2.278288,3.8373408,0.2852875,0.49258518,3.5985377,3.0744076,-0.30499667,0.16750216,-2.5296538,0.36155415,-0.34073582,1.1384369,-2.6114953,-1.0624138,1.790756
P53779,-0.14996406,1.5262691,4.828493,1.4961193,-1.1946656,-2.1218908,-0.74883497,-0.8651963,-0.31113973,-2.0619035,3.6208084,0.98528165,0.07861231,-0.056908865,-1.6579627,-1.0135854,-2.0295918,-0.41496104,-1.0659933,2.4667625,1.452551,-0.70972395,3.970968,-0.4150462,-0.3470156,3.1980374,-3.4668953,-0.7183452,-2.9848938,-2.8075767,-0.4990099,-1.3023077,-3.8130634,-1.7349471,2.4081283,0.7918771,-1.3637356,1.0148033,2.7789938,2.7870257,2.7569695,1.8351262,-1.352441,-4.2805886,-1.8637643,-2.5511098,-0.38964605,-0.42666498,-0.60761654,-2.4133165,2.4263432,1.6166636,0.88632005,2.3164577,3.3382406,1.7954692,2.0848343,-2.2346916,0.19595808,0.41355124,0.9394587,-2.6501644,-0.41589016,1.3631886
Q13464,-0.5924868,-0.014109813,3.9742982,-0.33534202,-0.7427334,-1.849222,-1.5664072,-0.7425211,-0.2100051,-1.6139854,3.772966,1.5220108,-1.2818613,0.09752405,-0.8806555,-0.42094687,-1.9661323,0.30248374,-0.40398124,3.1584463,0.7574646,-2.0094829,3.9363368,0.28132704,-0.18731943,4.3803043,-2.547883,-1.4290679,-1.3393999,-2.532141,-1.1977799,-1.6549767,-4.086224,-2.1420698,2.2614818,1.0313162,-0.56051624,1.8546975,3.5395935,0.4618327,2.0371203,3.3359668,-1.3788823,-4.226874,0.5885749,-3.1220071,0.04820831,-1.4756634,-0.5345049,-1.9558831,3.4349167,-0.5131001,0.7566799,3.0774026,2.9922557,2.5198886,1.1170079,-2.363686,0.62972885,-0.0053217597,0.117938064,-2.0796638,-0.93635625,0.96675503
Q16539,0.46513814,-1.5307122,4.078578,1.4963948,0.029972665,-3.256795,-0.9040897,0.14972995,-1.8625588,-2.5568476,2.886341,-0.049404122,-0.6896681,-0.16137664,-1.3870765,-0.1772146,-2.018675,0.80105644,0.0029815533,3.0547957,2.21683,1.2314672,3.375664,0.056129407,-0.18744817,4.5814414,-2.7416735,0.61019635,-2.1149414,-1.0790485,-0.4584955,-2.6226695,-3.1461325,-2.4743671,1.9489948,0.72340935,0.5682049,0.7255919,5.1947346,-0.08161934,-0.8969804,1.7966851,-0.27697042,-3.6717923,0.6314187,-2.2006364,0.34037197,-1.7179881,-0.081339486,-0.97356534,2.2326472,0.7557277,-0.76201975,4.025706,3.359024,-0.5434288,0.34394085,-2.75677,-0.012071028,-0.15002707,-0.4606464,-4.013302,-1.9551203,-0.59966695
Q16584,-0.81273806,-0.20383775,5.002331,0.2948278,-1.5353135,-3.0908327,-1.4954491,0.3311193,-0.16155647,-0.7808046,3.6481295,2.0774,0.015363887,-0.28004044,-2.5092633,-1.2842102,-1.7157342,1.211746,-0.619401,0.43634263,1.2843113,-0.8214154,3.9358463,0.073451884,0.3072073,4.3873806,-3.0874145,-0.045911,-1.7946895,-2.4243329,-1.4282258,-1.6945398,-3.2124598,-1.3251622,2.5263288,0.09101452,-0.7384935,0.6702785,4.6649776,-0.47628924,1.2153473,2.7125692,-1.7210776,-3.7049255,-0.013413406,-2.5024333,-0.092784435,-0.67329335,-0.84824973,-1.8972572,3.5362236,-0.08591588,-0.55599797,2.8976269,3.408991,0.9700568,0.88861924,-3.1883202,0.13334127,0.23701887,0.5322971,-2.773968,-1.4298207,0.32770294
O00311,-0.42956495,0.9468397,4.6467514,0.7356389,-0.70720166,-2.9109669,-1.2340444,-1.1126311,-0.43490863,-2.8157825,2.1396852,1.6670214,-0.6986735,-0.096723884,-0.5288243,-0.055149473,-2.367871,0.04846105,0.5143131,3.2575686,0.6079327,-1.1009091,3.2109895,0.4120535,-0.42672992,4.1462965,-3.0789917,-0.43700105,-1.8615121,-1.882148,-0.34079444,-1.8172939,-4.207642,-1.6536336,2.7053792,0.22637932,-0.4296096,1.6151214,3.4583042,1.1960143,1.7325985,2.377338,0.4450878,-4.237233,-0.48335692,-3.028663,0.29515958,-1.1167214,-0.11577615,-2.4096305,3.1061647,-0.0432047,-0.14203471,3.2908046,3.4927044,2.666116,1.3552827,-2.1340365,-0.2704496,-0.34876418,-0.60525554,-3.41255,-1.5552922,-0.15984848
O14757,-0.34304255,0.1920009,4.721644,-0.041211013,-0.9745947,-2.8996,-1.9598043,0.20061596,-0.2663483,-2.7925243,2.9264498,1.425368,-0.71767193,-0.22379735,-1.3062087,-1.1758314,-1.8032322,0.5450304,0.14432476,3.190476,1.2723486,-1.0272765,3.757681,0.19091284,-0.56073755,4.419141,-3.5293386,-0.34048992,-0.73929787,-1.6925648,-1.6974549,-0.8601787,-3.2829251,-1.776412,3.1882656,0.15382794,-0.13150573,1.9788698,4.453621,0.8909037,1.3775802,1.8854299,0.14730924,-3.652971,0.19263135,-2.4409635,0.37390426,-1.4853829,-0.936536,-1.466123,2.7039816,0.21259709,0.30876485,3.515183,3.2808063,2.493606,1.4885337,-2.6344054,0.99001414,-1.4309663,-0.3040413,-2.9297616,-1.4086889,-0.36326197
O14965,-0.7081902,0.4534948,5.1528816,1.1818048,-0.8204695,-2.766246,-0.23582466,0.029998694,-0.518545,-2.6927109,3.8194673,1.2652099,-0.047149852,-0.7882003,-1.9259872,-1.0476581,-1.3347265,0.044931613,0.412443,3.1934965,1.0968924,-0.8074313,4.118459,-1.0636027,0.025967967,3.469938,-2.5337799,0.15293208,-1.386065,-2.2818923,0.27799416,-0.950773,-4.9481006,-2.4133356,2.4581356,1.27011,-1.1664736,1.4462502,3.8842435,1.3457837,2.4303923,2.2633696,-1.0977182,-4.159495,0.5096492,-2.6365952,0.3436653,-1.317272,-0.81002563,-1.0122932,2.1013818,1.2559931,0.0639999,3.1752908,3.503359,0.5780813,0.8109962,-1.9908462,1.0574644,-0.5029073,0.6557037,-2.6595235,-0.7062207,0.8234388
O15075,-0.7096449,0.1277749,5.120014,0.20923108,-0.7282865,-3.0408633,-1.2801749,0.22671923,-0.084534176,-1.9469017,4.1541004,1.280677,-0.8297868,0.13970642,-2.4200993,-0.7890299,-1.1937428,0.25760835,-0.15942927,2.2769563,1.5573127,-1.4414876,3.8665884,-0.018558562,-0.0869508,3.1243074,-2.9132805,0.062976606,-1.7228754,-2.5077624,-1.5845219,-1.6965702,-3.2780657,-2.1373742,2.961246,0.51757705,-0.51800084,0.44117567,4.0505557,0.095002465,0.4982592,3.1122856,-1.9651624,-5.3163342,1.1278486,-2.425281,-0.018354032,-0.32129315,-0.43584493,-0.19675648,1.4211552,0.82547957,-0.42711014,2.2927089,4.414572,1.1722356,1.2236274,-2.475955,1.4286449,0.15846206,-0.43958297,-2.6401172,-1.1769309,-0.47785592
O15264,-0.0969684,0.24893855,4.8499455,1.8208973,-1.6034241,-2.2870345,-0.42745718,1.1692868,-0.17318791,-2.5239336,3.2947104,0.34149933,-0.7365818,1.2550958,-2.0920215,-0.46561837,-1.3401684,0.072394766,-1.8387102,2.4852922,1.7822529,-0.031218704,4.7625036,-0.6829172,0.13160154,4.031918,-3.284775,-0.3182134,-3.0059502,-2.7555697,-0.9849991,-1.3809185,-3.0793219,-3.3151705,1.9384248,0.67357033,0.43930045,1.5831726,3.4744327,0.69172204,0.5131749,2.081993,-1.6205846,-4.1876335,0.27474076,-2.4812744,-0.31454298,0.14925629,-0.6676918,-0.5385368,1.0396326,1.820358,-0.19795932,3.5286562,3.5267634,1.4018416,2.1606505,-2.2535846,0.2361425,0.52707356,-0.626779,-2.1234856,-1.9584696,-0.19985767
O15530,-0.22656626,0.2503749,4.8774524,1.2352045,-0.9220507,-1.9401051,-0.8477713,0.06650268,0.03524387,-1.1885566,2.9510605,1.2138519,0.1615428,-0.16444106,-2.198698,-0.4351995,-2.4537616,0.46593145,-1.5444428,1.8869157,1.127026,-0.437348,4.6688657,-1.4984038,0.0029335301,5.094001,-3.0376894,-0.43494642,-2.8192978,-2.1105547,0.3225619,-1.0370703,-4.6987267,-1.8936354,1.9394097,0.59911114,-0.27279407,2.2047105,3.5027874,0.6475957,1.6836793,2.3631122,-1.6070844,-3.053979,-0.20978831,-2.4655597,0.7937554,-0.93631774,-1.5318254,-2.1433046,3.2063177,0.6275175,-0.40128458,3.785973,2.418543,0.8107637,1.3925204,-1.7809852,-1.0064437,0.4559625,0.3357784,-2.9373279,-1.0212162,1.0763394
O43293,-0.032790363,-0.1902769,5.275527,2.3501632,-0.8420612,-2.3583186,-0.50165206,0.307891,0.26107267,-1.8406161,2.7327292,0.131842,-0.47568586,-0.5542323,-1.6125213,0.98867416,-1.1649233,-0.44074738,-1.0568281,3.69081,2.4841242,0.039661396,4.4261165,-1.7803781,0.7051053,3.8001328,-2.3939857,-0.2115194,-2.5435052,-1.9296266,0.5019976,-1.6261183,-4.664915,-2.4152699,2.0540667,1.0585264,-0.6448923,2.28132,4.156681,-0.004233714,0.48026943,2.7639747,-0.43668503,-4.0770144,0.73939246,-2.3668075,0.87297016,0.16976577,-1.5032175,-2.0945947,2.0686426,0.4078554,-0.20845616,4.0367684,3.1125305,-0.6425011,0.03435232,-0.57260406,-0.6484286,-0.3196388,-0.9286409,-2.958357,-0.0909493,-0.30903196
O60674,-0.11044464,-0.031005032,4.2757287,0.5658692,0.36022156,-2.1240768,-1.9096456,-1.6198258,-0.6824926,-2.3997543,3.0076096,0.53119653,-0.42738926,0.03795909,-1.4430575,-0.4100606,-2.814778,-0.33842924,-0.085238606,2.6673658,0.92468274,-1.8112237,3.6486921,-0.1258954,-0.5047657,4.1412454,-2.5568376,-1.0463779,-2.9079878,-2.7448876,-0.056611873,-2.4906259,-4.526543,-1.6928254,3.1270692,1.203019,-1.3263257,0.74523675,2.616314,1.4095688,1.4019406,2.7323904,-2.0608327,-4.2351255,0.0737535,-3.0699873,0.83029974,-1.4300123,-0.27434266,-1.5139318,2.1669445,0.37638295,0.10530589,2.7459142,3.3667984,1.4032978,0.8529835,-2.0186942,0.04484467,0.9140468,0.20361401,-3.3945425,-0.45232338,0.6757992
O75116,-0.7887305,0.37521967,5.176663,1.196129,-1.4957621,-2.799254,-1.0072019,-0.55893594,-0.26994357,-2.6464145,3.2287655,1.1451827,-1.0985014,0.18079866,-1.4778942,-0.32219964,-1.6394266,-0.27373207,-0.33369634,1.7158599,1.1042683,-1.8399088,4.2634854,-0.09751206,0.7679091,3.5697558,-2.1170588,-0.5974337,-2.3845446,-3.0702069,-0.75791574,-1.7528745,-4.0830927,-2.3701184,2.584675,0.7865193,-0.73207635,1.2520704,2.6570544,0.025220133,1.4290599,3.5953152,-2.1550426,-4.5920544,0.9123919,-3.397362,-0.13511658,-0.03441339,-0.07304759,-1.3093988,1.8299823,-0.19603038,-0.37814072,3.1315813,3.89552,1.3212093,0.7374211,-2.015647,-0.4237294,1.1133974,-0.41926098,-2.3608232,-0.50918233,-0.2205055
O75582,0.19522901,0.44902351,5.437275,0.326938,-0.34050637,-1.8005514,-1.8444633,0.1963117,0.5436302,-2.243931,3.5085597,0.45575938,0.9083538,0.73148346,-2.8223944,-0.98666286,-2.006199,0.095561594,-0.5935822,2.1047833,-0.18558805,-1.0906738,4.0288773,0.024562925,-1.1743547,4.3517513,-2.5250082,-0.1725412,-2.7295477,-2.3044562,-0.5426615,-2.048222,-4.49063,-2.622315,2.8483868,-0.64573675,-1.2250571,-0.16803029,3.2188196,1.0950917,0.5437848,1.9592005,-2.2384493,-4.3361306,0.7325245,-2.6196194,0.6629115,-1.0744838,-0.7495873,-0.008321278,1.3805366,0.91916555,-1.8617263,2.6231503,3.155851,1.7244008,1.6036253,-2.645064,1.4659797,0.6654705,-0.39953434,-2.1537976,-1.7106884,-0.07608713
O94806,0.049053583,0.25844195,4.43654,0.922124,-0.7787553,-2.562501,-0.77429587,1.1276731,-0.5241312,-1.2746574,3.0939531,1.3619998,-0.30203485,1.4814303,-2.1973517,-0.01686268,-1.7537744,0.66339165,-1.1033224,2.1283882,1.8209705,-0.65020853,4.2987566,-0.47412834,0.056676973,3.799396,-3.3544888,-0.245954,-2.688904,-2.670278,-0.96368957,-2.3768759,-2.5826743,-2.3965116,2.622229,0.17364097,-0.22178604,0.4850092,4.169671,0.11136455,0.09204319,2.4278562,-0.95734006,-4.396113,-0.74435997,-2.0133955,0.11988929,-0.572361,-0.88315386,-0.43495408,2.2067149,1.2871767,-0.46877146,2.741403,4.267763,1.4325651,1.6338905,-3.0513954,1.136694,-0.39190948,-0.22654481,-3.4348736,-2.54459,-0.6528518
O95819,-0.58570313,0.3173182,5.1772666,0.010403447,-1.1361471,-1.5610837,-0.9931894,-0.31092808,0.015352458,-1.5904233,4.2171125,1.128773,-1.3659368,-0.08645329,-2.546554,-1.5402706,-1.1432955,-0.33740908,-1.058848,2.0997665,0.23904376,-1.3173116,3.6636307,0.4436738,-1.1160442,4.030432,-3.0083997,-0.38881797,-2.3854592,-2.3506227,-0.4334366,-0.8926658,-4.5379477,-1.3030379,2.5072832,-0.0606302,-0.18729363,0.8701248,4.0912642,1.2495492,1.4993329,2.360874,-1.0492792,-3.7963347,-0.12598711,-3.585496,0.8072384,-0.51011395,-1.0450668,-1.2537242,2.9921017,0.3980956,-0.23124322,2.4693394,3.1016319,1.9772835,2.4827282,-2.798491,0.6028813,0.694172,0.8929773,-2.1400313,-0.7658099,1.34199
O96013,-0.8630022,0.47790942,5.1779795,0.5848236,-1.077646,-3.0616345,-0.47089076,0.44760132,-0.7266765,-1.1993845,3.9665542,2.1182778,-0.70876515,-0.5108703,-2.0996125,-0.7669336,-1.2996875,0.14307517,-1.0706539,2.5311828,1.2959863,-1.348008,3.7687964,-0.87966955,-0.11450443,3.4251037,-3.167139,0.031383693,-2.187627,-2.9883635,-0.16779262,-1.4772005,-4.540564,-1.6195138,2.6853745,1.0159297,-0.25571886,0.51431924,3.6954803,1.5106182,1.8478975,2.9973722,-0.75738,-3.5786166,-0.469203,-2.129062,0.7335104,-0.63146514,-0.5040686,-1.5385493,2.974682,1.1405306,-0.119872555,2.560095,3.8576436,1.3989353,1.234807,-2.0942922,0.5596442,0.54658586,1.1828144,-3.1525364,-0.85985684,1.3696986
O96017,-0.87507623,-0.23922127,4.0646105,0.43757874,-0.54516923,-2.7641807,-2.1639316,0.9807183,0.54530054,-1.7734785,3.1953394,1.5879554,1.4655758,0.23088728,-2.4497383,-1.4664224,-2.6217332,1.5638238,-0.24036343,1.7628742,0.64184576,-0.8239791,3.943929,-0.4914014,-0.7408907,5.2731805,-3.2849436,-0.38397327,-1.8712566,-2.2135649,-0.850814,-1.9554102,-3.5678737,-1.8820759,3.0959487,0.84073836,-1.439271,0.7287538,4.4439735,0.39835334,0.9368486,1.7460732,-1.8173286,-3.0766375,0.20024364,-2.2230988,0.6086088,-1.3805492,-1.20676,-0.91462886,2.7326307,0.77013403,-0.033567008,3.3517933,2.6643183,1.854402,1.2340635,-2.8768063,0.90591365,-0.47640103,0.07061965,-2.6011062,-2.4677162,-0.0306027
P04629,-0.77172494,-0.098503835,4.5974016,-0.07977348,-1.4533222,-2.9235897,-1.2274743,0.58892936,-0.6016066,-2.4740188,3.885468,1.4717565,-0.6665556,-0.89251417,-2.0236216,-2.071031,-1.355545,0.74232733,0.08968062,2.4722133,0.6117657,-1.0840567,3.4945116,0.02423221,-0.9786227,4.618768,-2.680035,-0.13134126,-0.8236748,-2.611062,-0.6362062,-0.9322803,-4.70974,-1.4453247,2.330209,1.3311924,0.10961727,0.9629678,3.9701374,1.3143764,2.1386218,2.2208672,-0.66185254,-2.5867908,0.6190737,-2.6641421,0.23054084,-1.9285012,-0.3786228,-1.6001205,2.8190095,0.47969303,0.10421547,3.745946,3.0786378,1.5885447,1.3517451,-2.7194648,0.67708766,-0.46310663,1.5880669,-2.356731,-0.7280603,1.4344951
P05129,-0.70167905,1.50439,4.522034,0.19344167,-0.32477602,-2.327524,-0.48663744,-0.6466781,-0.056608427,-1.6212528,3.3301184,2.1852853,0.5534381,-0.04733308,-2.0518534,-0.87865204,-2.5732381,0.7556051,0.07040679,2.3385687,-0.016129795,-1.2819585,3.9208517,-0.8641534,-0.5127604,4.037075,-3.0424426,-0.18652217,-1.9386461,-2.2446957,0.069031015,-1.0180305,-4.761767,-2.4880083,1.8831552,0.9955912,-0.84715325,1.4877353,2.5555916,1.3541921,2.6542244,2.4738264,-2.490723,-4.88778,0.44178134,-2.2726178,-0.5132884,-1.6138417,-0.34855813,-1.0187329,2.2746363,1.9830872,-0.391903,2.4679532,3.2011833,1.9380122,1.8287643,-1.7885085,0.7161966,0.4358637,-0.048990794,-2.4709933,-1.9532853,1.3990895
P06213,0.6526366,0.38376662,4.618818,-0.0420566,-0.5827021,-0.79650533,-1.5961219,-0.38369095,0.17896652,-2.2335703,3.1912258,-0.08055404,0.088412814,0.6390002,-2.2412138,-1.6338134,-1.5330746,-0.35612455,-0.93116295,2.9448586,0.8416739,-0.66828674,4.1874366,-0.34269583,-1.2613225,4.1817856,-3.5449114,-1.2891861,-1.9650084,-2.9422917,-0.8160171,-0.8311126,-4.0462456,-2.101381,2.2598124,0.49027342,-0.699982,1.813758,3.0701103,2.7533648,3.1836054,0.44518262,-1.2539237,-3.693895,-0.4255281,-2.2210822,0.2622374,-1.9193516,-1.3500752,-1.821818,1.4920988,1.9050659,0.30008405,2.8569663,2.639455,2.1618445,2.4193776,-2.5042276,1.7108064,-0.79008836,1.2012204,-1.8477684,-0.7171361,1.908517
P06241,-0.69946665,1.0392777,4.416341,1.5794619,-0.80988336,-2.0050502,-0.08915268,0.16182478,0.51787865,-2.4631364,3.3109324,1.2153488,-0.2541531,-0.19546665,-1.1597167,0.43575102,-1.8216243,0.22258258,0.10539855,4.1300445,0.7412193,-0.92710674,4.443191,-1.2294546,0.19000572,4.0172663,-1.9143687,-0.36262238,-1.5525244,-1.3544961,0.44600213,-0.916677,-4.9094057,-3.2878888,1.6726283,1.2203169,-1.0499624,2.6243944,3.4906304,-0.08645855,1.1254562,3.2600157,-1.3517194,-4.849981,1.3359064,-3.106339,-0.21950692,-0.6364471,-1.0854486,-0.72200376,2.3025196,0.5335942,0.2865631,3.7228947,2.8121185,0.9959358,0.8824757,-0.9320166,0.27914444,-0.582232,-1.5092264,-1.8989267,-1.3285476,-0.3217814
P06493,-0.32590476,0.36900666,5.026191,0.61435974,-0.92712706,-2.4620767,-1.2891839,-0.8607496,0.3737809,-2.4370751,3.8251188,0.74013,-1.0749774,0.34702283,-1.8251591,-0.56153667,-2.1496587,0.020049503,-0.24560416,1.8279692,2.0921535,-0.70756435,4.49627,-0.12015223,-0.09790993,3.6765814,-3.1739776,-0.16264978,-1.741984,-1.5060277,-1.9555365,-0.76797736,-2.7728713,-0.94294494,2.3117647,-0.6189996,0.617633,2.0957878,4.0499682,0.2975724,1.553627,2.6187074,-1.1341369,-4.8462677,-0.0829217,-2.5397983,0.56955665,-0.5575371,-1.2874215,-1.879307,1.9992886,-1.0206431,-0.32704532,3.04197,3.8727405,1.6050444,2.2915423,-3.1488707,-0.6047775,-0.56599885,0.029309437,-3.1416698,-0.4493099,-1.0912083
P07332,-0.7884368,0.7550156,5.0147953,1.3628508,-0.061883222,-3.0040102,-1.3627989,-0.60259664,-0.12140328,-3.4691403,2.7147622,1.1548026,0.34710282,-0.6139996,-1.5789474,-0.6823771,-2.9061947,-0.11255025,0.2420699,2.9739,0.7295087,-1.4052851,4.0553365,-1.2901161,-0.32723024,4.1445003,-2.7873783,0.09609474,-2.2949746,-1.6700958,0.34154314,-0.98273945,-4.863002,-1.9347351,3.441304,0.79941714,-1.0188265,1.6694988,2.7057009,1.557777,1.4268963,2.4108183,-1.4425809,-3.6450408,0.43313468,-2.633898,1.3855292,-0.98859036,-0.81071746,-0.709091,1.6556851,0.6698849,-0.29013494,3.3176985,3.070173,1.5125812,1.1090583,-1.3566687,-0.4060704,0.30359113,-0.52913237,-3.4410295,-0.80358213,-0.3830027
P07948,-0.9619483,0.05352974,5.1544914,-0.010672547,-1.6128995,-3.5392618,-0.56068206,0.45616186,-0.5909417,-1.9245234,3.9330132,1.9660101,-0.8204404,-0.41350493,-2.0971618,-1.4128317,-1.2353042,0.8492247,-0.38485813,1.6656529,1.3160797,-0.8289637,3.989188,-0.5387504,0.08992319,3.851525,-3.111144,0.2873301,-0.9571391,-2.9185128,-1.3986753,-0.80463403,-3.980709,-1.915001,1.723573,0.9682211,1.1211803,1.3624468,3.4884727,0.80673224,2.6486714,2.698415,-1.4837136,-3.785537,1.115481,-1.6987927,-0.2226704,-1.3196018,0.037516396,-1.7289495,1.9787633,0.84626645,-0.7644301,3.2924664,3.8756077,1.4969571,1.4462379,-2.5629253,0.22435948,0.2956018,1.1250515,-2.456409,-1.1097109,1.1619272
P07949,-0.18929556,0.80108935,4.3290462,-0.0023434255,-0.50271064,-2.158032,-2.0247958,-0.52904415,0.29000607,-0.26429284,3.5307574,1.9297734,0.05535314,-0.21766426,-1.4673249,-0.2176151,-2.2312317,0.53419936,-1.0171669,2.7675865,1.8528842,-1.2547092,3.708398,-0.19116218,-0.2841033,3.7321258,-3.7725053,-0.9940665,-1.8693113,-1.893598,-1.6437663,-1.7222798,-2.8978927,-1.0711275,2.9968677,0.093506396,-1.5119219,1.2497296,4.3878164,1.011543,1.4904302,2.5819356,-0.62861127,-4.429362,-1.5241473,-1.9316663,0.16340114,-0.729296,-1.4482148,-2.6663747,4.07219,0.14678265,0.99590325,2.101826,3.1494431,2.148501,1.2733865,-2.3348482,0.87967336,-0.8407073,0.0012399005,-3.1269395,-0.91406226,0.43891758
P08069,0.69926995,0.508429,5.2683773,0.88699466,-1.1123579,-0.9340924,-1.2694535,-0.022597032,0.7280688,-2.0935354,3.453532,-0.32067975,-0.5283416,1.6352314,-2.4423344,-0.0026160218,-1.4313263,-0.68713856,-1.0794736,2.0424604,1.0217382,-1.284887,4.8312273,-0.035313684,-0.40789607,3.8631465,-2.0560603,-1.0863909,-3.0205271,-3.0187533,-0.75348,-2.0886686,-3.9340367,-2.2573895,2.1748025,-0.5896861,-0.65265846,0.7869266,3.0030296,0.36216944,0.9047524,2.6100945,-1.8038329,-4.7777104,0.09752712,-3.1748264,0.35625854,-0.4318612,-1.2833512,-0.99111795,1.3243034,-0.27155668,-1.1911445,3.0606549,3.7909806,1.3124194,1.8486265,-2.8643212,0.6654066,-0.010174014,-0.009689622,-2.1091464,-0.5684633,-0.5205202
P10721,0.14969335,0.7906459,5.3851213,2.0045583,-0.8734525,-1.4457126,0.3223832,-0.5688144,-0.26695013,-2.2521524,2.1668906,0.65468353,-0.8855141,1.2135763,-1.449398,0.9503039,-1.3914486,-0.9946036,-0.6777467,2.6060684,0.75966376,-0.8475636,4.5700955,-0.7888158,0.78749716,3.3544655,-2.1938703,-0.50825393,-3.2809877,-2.4975188,0.97413266,-1.7856194,-4.5365214,-3.0132024,2.0035887,-0.26120692,-0.78449684,1.8942202,2.9363608,0.23400621,1.4007249,2.5396907,-0.76094985,-4.9427276,-0.12668122,-3.4696202,0.5967365,-0.026575284,-0.97545534,-1.0625626,1.9069487,0.6055461,-1.1737192,3.0163743,3.7054071,0.9662578,1.2098993,-1.7722464,-0.08700799,0.47764263,-0.91415817,-2.7901165,-1.455109,-0.28932717
P11309,-0.5994724,1.5753733,4.7168865,1.6461077,-0.704152,-1.728537,0.44953826,-0.30379933,-0.23539422,-1.2270063,3.6881385,1.68282,0.13450412,-0.06593565,-2.4820402,-0.45656028,-1.982981,0.079670876,-0.6298532,2.0369914,0.88932526,-1.0938956,4.6425347,-1.6182376,0.4946299,3.237535,-2.5229728,-0.1494778,-2.8315794,-2.1011322,0.8968574,-0.72171474,-4.502871,-2.7111611,1.979741,1.1461126,-1.8423923,1.7096496,2.922131,0.58816594,1.7796718,2.9180756,-2.9091544,-5.077147,-0.21812378,-3.017394,-0.50558436,-0.3416085,-1.2866267,-0.3387099,2.3775413,2.1184025,0.33712757,2.2535772,3.271369,0.15806313,1.4406404,-1.4509526,0.46262205,0.54119194,-0.20824331,-2.5080724,-1.129504,0.97063404
P11362,-0.3711769,1.1011206,3.938074,-0.06769093,0.6802878,-2.5148273,-1.8523638,-0.8204329,-0.51965684,-2.8185062,1.7839613,1.6830902,-0.9001374,-0.15321179,-1.1288569,-0.15608114,-2.7519126,-0.086416155,0.9190025,3.811246,1.284355,-2.7433546,3.710287,-1.0958023,-0.26875004,3.5532105,-3.1466978,-0.7153304,-1.243576,-1.7059857,-0.22894262,-0.7660776,-3.709703,-1.625121,4.1570797,1.2985377,-1.186804,2.475325,2.5713532,0.8400385,0.9811939,2.72351,-0.85784864,-4.4570045,0.3828592,-2.4693751,0.85389435,-1.5240021,-1.1654129,-0.060894724,1.7280775,1.1398458,1.0583348,2.6471777,3.7234178,2.0163388,0.9995852,-0.90559924,1.0336353,-1.4311225,-1.2868217,-4.0401044,-0.8590031,-0.759477
P12931,0.070359565,-0.291115,5.2633963,1.5249503,-0.9215407,-3.9404116,-0.9167441,1.3167162,-1.021063,-2.9258277,3.8284771,0.5122165,1.0343733,-0.4501711,-2.504572,-1.4852083,-1.6964669,1.0699211,-0.19736078,2.1412487,1.8114231,1.0176189,3.8870077,-0.6155299,-0.31602585,3.9126716,-2.9378479,1.320063,-1.7139022,-1.6036224,-1.1444595,-1.6613394,-3.2613041,-2.7644792,2.254733,0.29299644,-0.026083462,-0.14546019,4.357402,1.1057464,0.2182929,1.4216005,-1.388791,-3.5439248,0.6160691,-1.1962335,-0.15801683,-1.4045745,-0.08352266,-0.23032993,1.0554043,1.7643855,-1.422405,3.4947662,3.5518575,-0.13912448,0.7763705,-2.8769493,0.92258346,-0.06977297,0.21352047,-3.0824456,-1.7387965,-0.4681703
P15735,-0.43433502,0.92835116,5.249879,0.3434557,-1.482104,-2.5115812,-1.5211167,0.09601696,1.0199848,-1.4275293,3.284196,1.3590374,-1.0270925,-0.3560041,-2.0695748,-0.29126036,-1.2147503,0.06768519,-0.5987652,2.6961775,2.130191,-1.1907969,4.0087256,-0.45958737,-0.3395479,3.6959248,-3.402308,-0.5020551,-1.4349477,-2.154481,-1.451644,-0.7918774,-3.5727184,-0.7230967,2.6272223,0.21686119,-0.077167735,2.1046674,4.3160124,0.31338635,1.3725213,2.8337064,-0.11917862,-4.5039787,-0.094972126,-2.3588066,0.23323278,-0.017371349,-1.615992,-2.5882173,2.6691191,-0.2279646,0.3309755,3.1884394,3.808541,1.5718457,1.7366589,-1.8397799,0.03807827,-1.365194,-0.18987471,-2.8483076,-0.08822685,-0.34436923
P16591,0.06760301,-0.46388513,3.9565687,0.9532244,-0.20085436,-2.0201652,-1.677526,-0.5550646,-0.22423898,-1.2061551,2.6153371,0.5796925,-0.7649541,0.9988722,-1.6966717,0.35842714,-2.7132962,0.4162464,-1.4061546,2.045414,1.9114821,-0.6478457,4.1622553,-0.26509628,-0.023942083,4.852648,-3.3214653,-1.0539455,-3.4153621,-2.4192252,-0.82281494,-2.6099348,-3.0755925,-1.9051113,2.3413117,0.75987196,-0.095370844,1.5503327,3.7478278,-0.19613497,0.05229107,2.7280958,-1.8228395,-4.355009,-0.09944428,-2.6969202,0.3676237,-0.5118491,-0.8498025,-1.8746495,2.6077678,0.37951475,0.03176824,3.2955594,3.292199,1.2268857,1.4242103,-2.2525954,-0.7527729,0.69667387,-0.76927483,-3.4262328,-1.6775368,-0.13002639
P17612,-0.44279563,-0.024201777,4.794283,1.0941545,-0.6406145,-2.7157383,-0.32682034,-0.52579814,-0.48801714,-1.5185767,3.4633548,1.1085081,-1.1663496,0.082827255,-1.9438672,-0.114853054,-1.8252578,0.34263912,-0.7593108,2.4570336,1.6495633,0.16046526,3.7534912,-0.16971412,-0.22986846,4.1495547,-3.4300096,0.15518706,-2.7466328,-1.878088,-0.40608618,-1.792367,-3.8383112,-1.8690594,1.6594839,0.55462414,0.6751406,1.4854225,4.5469627,0.28502205,0.7777026,2.594017,-0.9688931,-4.9223876,0.18667524,-2.720033,0.119947955,-0.4337727,-0.4648233,-1.92214,2.649974,0.9042437,-0.49622363,3.141069,3.7359772,0.8591248,1.8848926,-2.3556201,-0.5721988,0.64442396,-0.30170274,-3.3295188,-1.7430366,0.3963241
P23443,-0.1500004,0.012847161,5.8312316,0.7519933,-1.0211519,-2.4416203,-1.5324144,0.08995302,0.19855839,-2.6765702,2.6103284,0.36704326,-0.61094767,0.1481776,-2.4819965,-0.8207707,-0.9074445,-0.42826387,-0.4662525,2.5632377,0.3293779,-0.7409312,3.306943,0.50343716,-0.9537687,4.255825,-2.9494545,-0.0965446,-2.75773,-2.7900054,-0.14418343,-2.074472,-4.822276,-2.2395484,2.9132707,0.08259113,-0.5116235,0.427771,3.8806517,0.87980574,0.39111245,1.8185937,-0.64950144,-4.2297006,1.0530908,-3.2866697,0.58460283,-0.19052799,-0.3366893,-1.1083958,1.4674109,1.2055546,-1.424707,3.2202606,3.5728972,1.4517581,1.4089868,-1.9349097,0.7289701,0.66683865,-0.6804831,-2.4006717,-1.3991271,0.19885653
P24723,-0.3734681,-0.014158063,5.249684,0.8524625,-1.158989,-1.952766,-0.9142466,-0.7532352,-0.5977463,-1.681252,4.0477915,0.9638968,-1.5198176,0.48904744,-1.2646298,-0.3735196,-1.0563374,-0.81302863,-1.6554058,2.5281436,1.792191,-1.2504025,4.390503,0.033601005,0.81765616,2.8287005,-3.266751,-0.9094961,-2.5257843,-2.7902384,-1.6264088,-1.4202933,-3.0079184,-2.6047635,2.7204275,-0.024349013,-0.74464345,1.5103576,3.687548,1.1431059,1.9603105,2.6775246,-1.4005538,-4.872124,-0.42451555,-2.8630598,0.3175535,0.1679222,-0.69724876,-1.6011803,2.449974,0.4204464,0.4079924,2.0136788,3.574579,1.9619559,1.3769227,-2.5114596,0.7954244,0.9929982,-0.0007329546,-2.155655,-0.66162556,0.61919457
P27448,-0.44159025,1.598132,5.6592593,0.5126798,-1.459945,-2.7072053,-0.4871305,0.26688978,0.7674198,-1.7237035,3.612317,1.92352,0.38445044,-0.78823304,-2.0385368,-0.34538937,-1.6892602,0.6776631,0.007029496,2.7484326,0.42652154,-0.7540888,4.175262,-0.9384841,-0.39036155,4.1323075,-2.330557,0.36012992,-1.0683067,-1.6069449,-0.31854883,-0.60653627,-5.2694073,-2.157475,1.4206616,-0.018697225,-0.13886967,1.7025113,3.3875911,0.5337698,2.0844178,3.0678155,-1.0599389,-4.4849825,0.983204,-2.0872939,-0.34778553,-1.1585307,-0.8092244,-1.865951,2.6665611,0.21371171,-1.3605831,3.567688,3.2166774,1.267473,1.2569044,-1.6055729,0.10610592,-0.55387324,-0.2577322,-2.1956797,-0.88856745,0.34603623
P29317,-0.60142934,0.19993985,4.80375,0.5932639,-1.2698184,-2.3338602,-0.5017414,-0.31039152,-0.7678051,-1.7630348,3.0551317,1.7060856,-1.1254902,0.91147846,-2.054253,-0.93567437,-1.4897197,0.29540384,-0.41564986,1.0480316,1.3084105,-1.2231821,4.50441,-0.12724619,0.884519,3.628515,-3.2867193,-0.5354429,-2.0997155,-2.917433,-1.0337389,-1.1821063,-2.91229,-2.4219756,2.4588127,0.41320953,-0.5235387,1.9238776,3.7342246,-0.15560572,2.0551014,2.3871014,-1.9851521,-4.894934,0.06557549,-3.1099305,-0.43627635,-0.6124316,-0.7706802,-0.9375011,2.2843022,1.1171558,-0.007500667,2.5741367,4.014147,1.4746937,1.6343883,-3.0086248,0.6809593,0.19650164,-0.009607199,-2.6818519,-1.8848069,0.33641297
P29597,-0.62006444,0.13669956,5.1438127,1.0596329,-0.7713228,-3.0987625,-0.6992299,-0.101293005,-0.056258123,-2.7195382,2.8506374,1.0604091,-0.24288118,-0.08470935,-2.5348454,-0.85074866,-2.1680665,0.6033859,0.43653467,1.510423,1.0496019,-0.3432378,4.0882897,-0.69257295,-0.3125247,4.5698476,-2.7866578,0.55614454,-2.0661194,-1.8903315,-0.0018761866,-1.190192,-4.3928494,-1.5036962,2.1542313,0.43937454,0.4210344,1.5900518,3.8698115,-0.031693626,1.154086,2.299762,-1.4060138,-4.099279,0.9958294,-2.730247,0.57993066,-1.0655149,-0.77681756,-1.1555684,1.6829238,0.43642363,-1.3207196,3.8295996,3.746386,0.5307027,1.6043465,-2.4567852,-0.74655324,-0.061312694,-0.036835387,-3.432866,-1.4234378,-0.43042502
P31751,-0.80437857,0.47596496,5.113992,1.3840284,-0.97071207,-3.5827327,-0.8031676,0.16946205,-1.4291111,-2.4516754,3.441679,1.8156012,-0.32404593,-0.25526422,-1.6176792,-1.0077287,-1.8783817,0.266048,-0.84156734,2.1969562,1.1445329,-0.97923505,3.8151248,-0.31953153,0.55437994,3.3495963,-3.2375455,0.33191958,-2.601824,-2.3429728,-0.7978774,-1.5922017,-3.4028115,-3.1427934,3.2204256,0.7800173,-1.0367101,0.4562603,3.2773187,1.1403956,0.6231822,2.686953,-1.9548159,-4.2491693,0.082049854,-2.5195358,-0.2402288,-0.20873551,0.25587285,-0.1009983,2.0758214,1.993418,-0.102233596,2.3729312,3.6432002,1.3979318,0.8381476,-2.0208437,0.68863803,1.4989938,-0.6842854,-2.9199224,-1.8538592,0.20733447
P35916,-0.38095725,-0.730749,4.54985,-0.5160509,-0.64539397,-1.6145405,-1.6197146,-0.6399412,0.21410918,-0.89572906,3.360987,0.8577862,-1.6282338,0.5701592,-2.1644347,-0.59364647,-1.3780107,-0.19070134,-1.1819777,1.8309699,1.047246,-1.4406296,3.503477,0.34017348,-0.9222289,4.3801575,-3.1865149,-1.1018349,-2.4635901,-3.2400148,-0.78747225,-2.02895,-4.137008,-0.45009285,2.3047132,0.31722364,0.70661974,1.027231,3.9837062,0.75587684,1.8259879,2.4622502,-0.5841315,-3.5111134,-0.06728919,-2.8382077,1.4861559,-0.85183114,-0.9454632,-2.7002652,2.9075766,-0.5508933,-0.45537156,2.8237736,3.45659,2.12413,2.0607455,-2.8650193,-0.13584463,0.46079028,1.3601313,-2.8121831,-0.6434591,1.3021786
P35968,-0.29045773,-0.6537869,4.5938854,0.8087406,-1.2380561,-2.863105,-0.68868446,0.07659176,-0.9124713,-1.997555,3.2413259,1.1825196,-0.7170294,0.121505454,-1.6472695,-0.8268982,-2.1213655,1.0211339,-0.6089215,1.5742826,1.2097437,0.3127593,4.1033416,-0.022193793,-0.0035629477,5.1081166,-2.9500446,0.13148047,-1.8876269,-1.8357695,-0.8446153,-1.5094764,-3.6692486,-2.0181744,1.4045726,0.18192014,1.1220573,1.6612452,4.413281,0.007555425,1.3355159,2.2220907,-0.89558345,-3.2792747,0.3641544,-2.5396464,0.17773306,-1.5493616,-0.38467354,-2.0399303,3.0920837,-0.0970985,-0.98396915,4.087323,3.0491118,1.0945538,1.4685313,-3.2346432,-0.8578531,0.3282627,0.48797944,-3.0234795,-1.9113269,0.4121313
P41743,-0.3946525,-0.88531303,4.840243,-0.2197145,-0.2148059,-2.6566117,-1.6701907,-0.55491656,-0.40559852,-2.0912836,3.9135134,0.47564632,-1.3843341,-1.0217276,-2.4510477,-1.3252059,-1.703941,0.3006744,-0.23694766,2.6513686,1.3167083,-0.6198592,3.3917701,-0.022879196,-1.1935831,4.702732,-2.9882774,0.09911453,-1.6596602,-1.8325653,-0.75025,-1.1938767,-4.6479573,-1.122347,2.3004434,1.0110939,0.86533076,1.295589,4.365857,0.63676876,0.73116636,2.5152407,-1.3809552,-3.799651,1.6507362,-2.6450887,0.8806227,-1.4914541,-0.5767089,-1.5297321,2.1371872,0.36582446,-0.50425684,3.5170016,3.2035046,0.57504624,1.45539,-2.1121144,-0.11342646,0.37346643,0.47508115,-3.052287,-0.3038246,0.94830865
P42679,0.21558414,0.5847094,4.029733,0.84746253,-0.7141159,-2.6666758,-0.30184218,-0.54757047,-0.9524053,-1.4541801,3.6876273,1.2030883,-1.4800723,0.41155773,-1.0606849,0.39818832,-2.1872478,0.6298894,-0.47734487,2.9994626,2.5252883,0.06583035,4.021325,-0.022251159,0.059292294,3.6304448,-3.2064168,-0.13328367,-1.8678219,-1.3740965,-1.4959612,-1.6661559,-2.5442657,-1.8874819,1.3084162,0.33818412,0.94354934,1.7653937,4.2981286,0.13147256,0.7267928,3.0674307,-0.57730126,-5.3282313,-0.61031234,-2.1306522,-0.83594024,-1.0765076,-0.42403883,-1.9891558,2.936738,0.24955243,0.24967623,3.0932796,4.091451,1.0647306,1.8307724,-2.812143,-0.22917357,-0.6495898,-0.32786196,-3.633734,-1.4524629,-0.38553724
P42685,-0.7309486,-0.6051465,4.4600267,0.5812682,-0.88410556,-3.0078905,-1.0316706,0.43275428,-0.6293117,-2.274399,3.2328613,1.3734196,1.1282995,0.009718563,-2.3117867,-1.9605296,-2.1906962,1.4957774,0.08356744,0.99278265,-0.70071965,0.33815116,3.0864408,0.61241084,-1.0312515,5.3251777,-2.6450677,0.55223936,-2.1313484,-2.1004221,-0.080026686,-2.2514334,-4.4477596,-2.3891494,1.7436929,0.27711374,-0.27132642,-0.32688296,4.126148,0.81716514,1.2608838,1.2485756,-1.6420945,-2.747778,0.70899796,-2.6475317,0.1460005,-1.9075507,0.361002,-1.003685,2.654095,1.025347,-1.8050436,3.4338102,2.4820924,1.5057808,1.3442491,-3.4903777,0.32119542,1.2168827,0.7234567,-2.213786,-3.0766776,1.0711657
P43405,-0.52755255,0.013453566,4.0892196,0.9293519,-0.3141983,-2.5622003,-0.45076978,0.26050964,-0.32376108,-1.0519438,3.704879,1.523493,0.9493465,0.19976014,-2.7193987,-0.98169523,-2.6763458,1.502723,-0.43568954,1.4188125,1.0213981,0.16582404,4.179187,-1.0178638,-0.38072678,4.819386,-3.117647,0.18536262,-2.481616,-2.017012,0.03615593,-1.8087419,-3.9608657,-2.0910635,1.5299399,1.0666405,-0.42304927,0.9429891,4.1708035,0.35173243,1.4248623,2.0667741,-2.4893486,-4.0205097,0.058730856,-2.048172,-0.069734335,-1.6295857,-0.84248817,-1.1549335,2.6969197,1.5694062,-0.56051517,3.1529179,3.074269,0.4307807,1.5968344,-2.842153,0.1080185,0.3052731,0.6293219,-3.075875,-2.400367,0.9510668
P48729,-1.0269041,-0.4125814,4.425099,-0.36601976,0.46031064,-3.51035,-0.7756909,-0.85351,-1.0636744,-2.0959768,3.4414911,2.1350915,-0.90005744,-0.75110394,-1.3446745,-0.6366354,-2.0584004,0.78140604,1.0950536,3.1830668,1.2618515,-0.9138457,3.318698,-0.49922746,-0.10965438,3.6652434,-3.3039608,0.49235576,-0.5538275,-1.3798901,-0.7216252,-1.1724201,-3.9327843,-1.7240646,2.5608315,0.8805154,0.36703134,1.8021705,4.5156364,0.51310295,1.9468554,2.533851,-0.65727806,-4.736075,1.2039005,-1.8932788,0.86061394,-2.0972178,-0.298527,-1.0646164,2.5003366,0.65363103,-0.33657447,2.6997938,3.844338,1.3862988,0.92354465,-2.3148162,0.8628801,-0.525439,0.0027153846,-3.7504938,-1.7668093,0.3337817
P48730,-0.43410137,-0.26109186,4.639035,1.1659596,-0.12075621,-2.236896,-1.62494,-0.44962725,0.12099923,-1.9803603,3.095726,0.48149583,-0.60177064,-0.1972006,-1.8781147,-0.024736099,-1.8761585,-0.27726576,-0.6349411,3.3429894,1.8305461,-1.2629648,4.023145,-0.8527452,-0.08753577,4.0777826,-2.9535303,-0.86669576,-2.7300742,-2.5326414,-0.09143241,-2.0391643,-4.3310313,-2.006653,3.1419497,1.5503609,-1.3644344,1.6055816,3.8819788,0.52125895,0.6266435,2.7555156,-1.552081,-4.482105,0.62356937,-2.9483085,0.8526753,-0.30462265,-1.1696551,-1.438117,2.077212,0.8289301,0.6360207,3.156401,3.337878,0.67918205,0.6882132,-1.2446206,0.26063386,0.13727663,-0.66057324,-3.0311956,-0.5259931,0.16057831
P49137,-0.4904273,-0.8854753,4.5435085,0.2797295,-0.63863873,-2.441375,-0.70457226,0.26786813,-0.5062266,-0.8781168,4.0643473,0.88460785,-0.47038594,-0.016150236,-2.8363729,-1.3193537,-0.98835766,0.7253163,-0.95650804,2.0733051,0.9460837,0.30467865,3.088034,0.33450052,-1.0340927,4.337065,-3.4166322,0.04394758,-2.5654743,-2.8313775,-0.37682107,-2.3672593,-4.1824975,-1.9849461,1.6040903,1.1647205,0.13384244,-0.00022210926,4.939381,0.8843039,1.0177048,1.7148485,-1.4561579,-4.134667,0.59946454,-2.450972,-0.0014092848,-0.9732352,-0.13739094,-1.5991662,2.4596374,1.9861028,-0.61648566,2.7110205,3.3378694,0.71346384,1.6987276,-2.7900815,0.981625,0.98533255,0.9287985,-2.367461,-2.0627458,1.9630123
P49760,0.20407444,0.35807145,5.77033,0.7382752,-1.3065498,-1.9854908,-1.7816185,-0.89253026,-0.16732863,-2.504976,3.5088105,0.39914384,0.1087752,-0.81153655,-2.6429243,-2.0586345,-2.07981,0.021107532,-0.40825108,1.0076472,0.7550284,-0.4253529,4.2887416,0.101810135,-0.50613517,4.645314,-2.813814,-0.083656654,-2.1392794,-1.6489086,-0.82761484,-0.48570585,-4.2777586,-1.4509702,2.5901353,-0.5685253,-1.0339171,1.472728,3.7519526,1.0814534,1.8326643,1.5982012,-1.972615,-3.5636735,-0.026324073,-3.2747664,0.13461675,-1.2495382,-1.2813209,-1.8264785,2.6359673,0.15136424,-0.738571,3.345822,2.5887904,0.60721934,1.5294307,-2.8601022,-0.2137615,0.23367764,0.59335786,-2.5252662,0.014426302,0.6746793
P49840,-0.3117306,-0.121395126,4.766008,0.020590149,-0.38409698,-1.9704863,-1.2012013,-0.6075565,-0.84590805,-1.6217012,3.299269,1.3635864,-0.51482195,-0.36931238,-2.3337765,-1.4709213,-1.7467195,0.24112093,-0.09748274,2.1696146,0.5934656,-1.2769139,3.823943,-0.22183056,-0.3938374,4.3828654,-3.0664961,-0.54879385,-1.9238352,-2.531169,0.05278446,-1.3020996,-4.6013355,-1.9042894,2.825033,0.9316552,-1.2520795,1.3778096,4.0381336,0.9291799,2.04066,1.9743305,-1.5803881,-3.918551,0.199702,-3.1603324,0.40735656,-1.7475492,-1.0004845,-1.2173477,3.03054,1.336683,0.10949057,2.7863817,3.115701,1.0162455,1.1378325,-2.4653375,1.1569273,-0.0020337403,0.73523325,-2.895496,-1.1296682,1.638716
P51451,-1.1806265,0.027337007,5.5808916,1.3278689,-1.6602755,-3.598948,-0.86375445,-0.059058197,0.48278448,-1.9246719,3.8749053,1.1311493,-0.4833425,-1.1556137,-2.0439267,-0.6482083,-1.3420198,0.36692047,-1.018313,1.9688702,1.7765034,-0.04178815,3.7863126,-0.68629515,0.148521,3.9226224,-3.0186605,0.4165177,-2.1012146,-2.2511873,-1.0775839,-1.1177782,-4.3587008,-1.7392792,1.6196568,0.9814751,0.60517526,1.492658,3.7560027,0.5222297,1.459537,2.9943256,-1.698105,-4.1592655,1.4165964,-2.0856695,-0.015773594,0.335961,-0.1482999,-2.634614,1.8837303,0.3581359,-0.7062712,3.540545,3.2499003,0.65201604,1.1060187,-1.3527079,-1.3441502,1.2891116,-0.17767727,-2.1839352,-0.34932098,0.53339106
P51617,-1.0538986,-0.17526866,4.5995026,1.5297128,-2.3923326,-3.3129292,-0.34371603,2.1234303,-0.26158476,-1.000037,3.291747,1.8446329,-1.1531527,0.2823826,-1.7530935,-0.2318762,-0.76504564,0.7378329,-2.451574,2.1827636,2.1159396,-0.29950607,4.0231543,-0.8368908,0.49525446,4.1428003,-3.429306,-0.18290797,-2.5101848,-3.1854584,-0.9298886,-1.6648256,-3.2158194,-2.2021523,1.9313128,1.326889,0.9630111,1.167936,4.234195,0.18695031,0.46476883,2.9599943,-0.22046286,-2.643608,-0.22040854,-1.9719168,0.114228055,0.6970813,-0.48750478,-1.942977,2.9046102,0.9720663,0.24462493,3.7054272,3.407766,1.5423101,1.373687,-1.9089456,-0.5588105,0.6361636,0.22648223,-2.385823,-1.7990198,0.509205
P51812,-0.83688015,0.7998254,4.7610273,0.39520377,-0.63196003,-2.548295,-0.8682121,0.10216306,0.24843049,-2.3375745,3.1199727,1.7585617,0.033914473,0.09731126,-2.3334005,-0.9517961,-2.4478772,0.68105257,0.1053809,2.0862799,0.54379714,-1.485823,4.4821315,-1.2271303,-0.35560015,4.5492783,-2.8738596,-0.11253372,-1.6846473,-2.2159553,-0.09686802,-0.6646145,-4.6102147,-1.9473399,2.426321,0.84853923,-0.16827697,2.0551066,3.0507226,0.52489847,2.0217113,2.6225858,-1.9917548,-4.016268,0.89701134,-2.5034351,0.5144029,-1.4147727,-1.0722852,-0.7130599,1.9234405,0.8447381,-0.52085096,3.4105,3.363153,1.644407,1.7946008,-2.0376132,0.10220539,-0.2642253,0.030771377,-2.8418615,-1.4927034,0.23135266
P51817,0.7264286,0.49101388,5.0140576,1.5559716,-0.27760664,-2.2483613,-0.45621815,0.0069160685,-1.1225832,-2.8247235,2.0996904,0.42695424,-0.35968733,0.19837682,-1.6147037,0.3831764,-2.2961166,-0.111816436,-0.17991833,3.360665,0.9907587,-0.6150851,4.4454565,-1.2825075,-0.0038046045,4.5332747,-2.0662768,-0.06704489,-2.5823603,-2.0091233,1.0676067,-1.7289873,-5.169343,-3.0912132,2.1682394,0.7314469,-0.27159533,1.6824017,2.727179,0.5758879,0.5370348,2.5704682,-1.0240763,-3.9111373,0.6930017,-2.6650567,0.40865844,-1.732672,-0.62153786,-0.5647263,1.7594517,1.229031,-1.2150724,4.14987,3.4175205,0.11743518,0.5427396,-1.3676121,-0.047622323,-0.11746658,-0.69805604,-3.6533744,-1.1597509,-0.06508578
P51955,-0.28878272,0.4036449,5.362499,1.0253775,-1.7531488,-2.2649946,-0.9214391,1.6240087,0.65576255,-0.94898975,3.6953595,1.2769616,0.094618484,-0.0030164756,-3.135991,-0.6695857,-1.7129914,0.86536473,-1.8726782,1.1790537,1.5098143,-0.6708976,5.1655188,-1.6703472,0.17258048,4.786855,-2.606005,0.081175864,-2.253247,-2.0789478,-0.6610309,-0.56080365,-4.0312104,-2.0277178,1.9377441,0.13777275,0.17201173,1.7125398,3.7247462,-0.55883294,0.4282279,3.1009312,-2.2334158,-3.1508355,0.7060215,-2.0814865,0.34226438,-0.28118563,-1.8384899,-0.8883446,2.4457593,0.31585932,-0.99161863,3.8588555,2.9082484,0.2646847,1.3875345,-1.957493,-0.49309984,0.06412876,-0.0060939556,-2.373442,-0.8152299,-0.06764502
P51957,-0.18043053,-0.17165196,4.4569182,0.816195,-0.42526656,-2.3057673,-0.4876087,-0.32910466,-0.5633142,-2.7660425,3.542753,0.2908723,0.1293215,0.0648264,-2.1539183,-1.3705267,-1.5859494,0.42902648,0.31323752,2.964272,0.18805152,0.39112073,3.210875,0.33593914,-1.3351458,4.4599385,-2.786708,0.03372276,-2.233064,-2.461886,0.26375136,-2.117646,-4.920938,-2.702422,1.3929057,1.2666678,-0.25427723,0.47082332,3.903951,1.6892161,1.7977829,1.1924068,-1.4115249,-4.3389153,0.9100978,-2.8265603,-0.33364654,-1.8401983,0.24509811,-1.2592958,1.5571117,2.0895457,-0.7584461,3.3166108,3.1345878,1.0345386,1.7542977,-2.6280913,0.99540514,0.4765578,0.5753603,-2.167212,-2.0761733,1.5529559
P52333,0.70713633,0.39185274,5.4532375,0.5643966,-0.31928748,-1.7303851,-1.2567855,-0.5624211,-0.605646,-3.015903,2.65024,0.31439146,-0.5277672,-0.04567226,-1.7609717,-0.55032676,-1.790333,-0.5062295,0.2269264,3.2840197,1.2565951,-1.1509584,4.7386003,-0.94932574,0.06199996,3.9517913,-2.557341,-0.44762307,-1.3742298,-1.7935961,-0.27671164,-0.59154093,-4.4285064,-2.6097574,2.9083505,-0.043844603,-0.9053758,2.5162349,3.3089626,0.92285144,1.8554109,1.8844608,-0.98129344,-4.3489633,0.66153187,-2.6807058,0.6345038,-1.9505377,-1.5141336,-0.72123563,1.6641413,0.710306,-0.5342779,3.4962642,3.3271666,0.72418237,0.8260945,-1.926181,1.16691,-1.2585969,-0.33294505,-3.0970073,-0.3036393,-0.08002501
P53778,-0.5037263,0.46085805,4.547638,0.7616536,-0.12657775,-2.9230988,-1.1460303,-1.1227614,-0.42177507,-1.7258173,3.6791816,1.6796077,-0.029374532,-1.0489323,-1.1510546,-0.22508931,-2.3552542,0.61453855,0.66893506,3.2123961,1.7362471,-0.5996892,3.7467473,-0.35885873,0.25428408,3.6000612,-2.9329495,-0.00960727,-1.1730105,-0.85049915,-0.8894377,-1.3923386,-3.5936813,-1.865198,2.5864534,0.48342872,-1.5374984,1.7860961,4.7313814,0.27580768,1.3810405,2.8033211,-1.0146923,-5.2198195,0.016981512,-2.4804754,-0.11580841,-1.2704095,-0.9581516,-1.8219862,3.4507935,0.07978877,0.5290959,2.7160826,3.3149216,0.7150849,0.4536314,-2.1317887,0.56577,-0.85871947,-0.6959369,-3.3608875,-0.95817786,-0.2441149
P68400,-0.62825406,-0.3831591,5.263154,0.4823378,-0.63421947,-2.699526,-1.2654041,-0.52843153,-0.02481794,-2.7908525,2.3232749,1.0322601,-0.015176697,0.32602632,-2.450266,-1.1477594,-1.9174005,0.41351855,0.7215886,1.153162,0.31536674,-0.8802572,3.952285,-0.14615762,-0.14421852,4.710881,-2.8048055,-0.050427537,-1.9662435,-2.6477163,-0.07874826,-1.6349276,-4.5403223,-1.8983994,2.5934825,0.30477256,-0.41705218,1.5163556,3.7317405,0.008931033,1.9734601,1.7410033,-1.657808,-4.1621256,1.3568212,-3.1006088,0.70947707,-1.3884047,-0.63339365,-1.2444903,1.6077206,0.5218015,-1.5363463,3.5374513,3.5836813,1.1626912,1.2081964,-2.7071528,0.09597506,0.15495482,-0.009824775,-2.9073343,-1.7988697,0.07774792
P78368,-0.044974558,0.1427337,4.676932,1.2808182,-1.1296583,-2.9711013,-1.2269053,0.98344606,-0.166172,-2.4675791,4.5005026,0.46035817,0.068225265,-0.64858234,-2.278924,-1.2156982,-2.0414133,0.8240478,-0.55824375,2.8077116,2.4206235,0.15802751,4.475828,-0.8841299,-0.6226665,4.307293,-2.8282406,0.3458877,-1.4773213,-1.3095423,-1.3394241,-0.90119904,-3.3856573,-1.6115831,2.238533,0.67154074,0.04478208,1.1648605,4.6235213,0.8423117,0.47931474,2.389967,-1.1330656,-3.4148936,-0.051929902,-1.9017129,0.14681315,-1.2365798,-1.3091884,-1.1531152,2.2339218,0.23557027,0.24739943,3.9293706,3.254209,0.22300656,1.4569097,-2.7722123,0.14456384,-1.1189762,0.6264354,-3.0686302,-0.37377307,-0.5047835
Q00535,-0.40771866,-0.8245011,4.7226768,0.38210386,-0.43633655,-3.1597137,-2.2190986,0.00020442903,0.08723049,-1.8770977,3.7803955,0.19681987,-0.18091793,-0.13548541,-3.0655124,-1.72236,-1.6559134,0.5819352,-0.7584666,1.5932527,2.1086907,0.13637426,3.124864,0.39085308,-1.2950993,4.1625323,-4.080537,0.12602314,-2.6417656,-2.542224,-1.7784865,-2.1608205,-2.8774734,-0.8520335,2.8681061,0.81894845,0.14532384,-0.038071156,4.756987,1.1581181,0.25912985,1.4005103,-1.6544434,-4.1471667,0.32928544,-1.9582304,0.40193447,-0.4258937,-0.45143268,-1.6510733,1.2847904,1.4577919,-0.25610614,2.6968012,3.749251,0.89053905,2.0091958,-2.8769054,0.40410867,0.48971748,0.48752594,-3.1208348,-1.1678146,0.3063285
Q05397,0.5271508,-0.18162651,4.2787385,0.71412975,-0.5240205,-1.6324718,-1.0323305,1.7197258,-0.11820164,-0.6207091,1.6291637,0.92336494,0.14682071,1.8968098,-3.2615829,-0.30214855,-1.9046202,0.74553096,-1.7999064,1.0881269,1.3393509,-0.34353796,4.311525,-1.207151,-0.6195789,4.9965615,-3.6838596,-0.4132724,-3.4302237,-2.9694297,0.31439465,-2.0870497,-3.1447153,-1.5131763,2.6209028,0.053371202,0.31227225,0.8692768,3.946551,0.08733766,-0.054314446,1.1992309,-0.59804404,-2.607223,-1.0653344,-1.8530905,1.2821754,-0.8962546,-1.8793075,-0.61757433,2.1393394,1.8300042,-1.1425087,3.317877,3.4613736,1.0372484,2.1449318,-2.7646482,0.45749608,-0.5984307,0.4264074,-3.8224778,-2.7301462,0.04103566
Q05513,-0.017749244,0.6021449,4.5864944,1.1706975,-0.6340147,-2.313784,-1.34611,0.39151862,-0.26431242,-1.6080482,3.396334,1.1052506,0.017182011,0.36784813,-2.2954092,-0.5140559,-2.9095418,0.5860503,-1.5375831,2.0477939,1.3651358,-0.7703818,4.530494,-0.8797736,-0.4919188,4.828734,-3.1715493,-0.24146113,-3.1990728,-1.8520998,-0.47290716,-1.5548966,-3.692289,-1.9439654,2.675259,0.29724205,-0.30703223,1.0564516,3.4920344,0.6862287,0.029280528,2.7768672,-1.8799906,-3.5609,-0.64731514,-2.4895375,0.5243432,-0.71741134,-1.1813607,-0.8331616,2.775077,0.7611154,-0.24274613,3.3099635,3.0886462,1.2472883,1.8495708,-2.3667765,-0.4404152,0.50435406,-0.21795334,-3.4426928,-1.4513037,-0.13177964
Q05655,0.28146246,0.57201374,5.747163,1.2330517,-1.987293,-2.4982266,-1.1843022,1.3943342,0.2556162,-1.4889144,2.3592646,0.92442155,-0.67295533,0.24486081,-2.204644,-0.0064224987,-0.7482379,-0.028590828,-1.8234106,2.7568583,1.8259708,-0.44377983,4.211308,-0.678891,-0.040359333,4.268942,-3.377263,-0.38993037,-2.5288005,-2.869939,-0.6547653,-1.5285867,-3.9621286,-2.2474017,2.5430424,0.16687086,-0.035061747,1.4830856,4.038707,0.4849638,0.3860872,2.2596855,0.18359926,-3.5612438,-0.15195523,-2.2555022,0.09475239,0.20565055,-1.192906,-2.0355952,2.409579,1.1605949,-0.61272496,3.833448,3.553997,1.1844898,1.2101315,-1.5092325,0.26203778,-0.5096554,-0.58977515,-2.7147474,-1.0594121,0.028996605
Q06418,-0.97421575,-0.04960441,4.4669,-0.40037104,-0.5781686,-3.6023343,-0.9886404,-0.5580382,-1.2025388,-1.3989428,3.2114813,2.6945891,-0.74236965,-0.11224793,-1.3022385,-0.87421864,-2.1703923,1.2276324,-0.0077406727,1.7959207,0.73925984,-0.8542486,3.2192702,0.41082767,0.06262013,4.107756,-3.629607,0.19828945,-1.3476499,-2.0853999,-1.4501824,-1.7175645,-3.2656794,-2.0753403,2.2301395,0.38260803,0.50060475,1.0587022,4.0229554,0.41625285,1.7689495,2.6327147,-1.1532911,-4.4485197,0.4770912,-2.0365646,-0.22854562,-1.5337723,0.4529762,-1.5913767,3.1841142,0.84201914,-0.6824326,2.5186956,3.6928637,2.3593268,1.2974145,-2.869749,0.42551365,0.72489285,-0.08002479,-3.1947331,-2.6387212,0.7784816
Q08881,-0.005631361,-0.50324994,4.339671,0.5262242,-1.4376081,-1.9949292,-1.3266557,0.58011144,-0.6388714,-2.5769434,3.2637544,0.48739514,-0.62687576,0.6437408,-1.7101324,-1.6668197,-1.9644253,0.6959201,-1.5826161,2.1677375,0.21331817,0.23291709,3.8452845,0.6555489,-1.1507615,5.624792,-3.2935524,-0.4226177,-2.3988626,-2.166972,-1.0928271,-1.3373433,-3.7277517,-2.6917346,1.6222388,0.16343652,1.082527,1.2540282,3.7899134,1.3569379,1.0263395,1.2792798,-1.012652,-2.4869153,0.27063257,-2.8474116,0.072855204,-1.4469069,-0.16303533,-1.3942782,2.5476654,0.9240721,-0.6171488,3.9950159,2.1515331,2.5250938,2.466377,-3.1647246,-0.085389175,0.93228656,0.36996493,-1.8217221,-2.3537548,1.1425717
Q12851,0.37181056,0.059586,4.730379,0.58612454,-0.8860383,-2.1894388,-0.12937678,-0.9423963,-1.5510287,-1.3758681,3.4480371,0.99631655,-0.8022257,0.13201092,-2.0994928,-0.811536,-1.6024398,0.31870568,-0.0294115,1.422558,1.6257108,-0.39986026,4.2205296,-0.2574286,0.4536926,3.6871092,-2.6261187,-0.3807756,-2.0076041,-2.950929,-0.29544544,-1.7356025,-3.94494,-2.1036868,1.3835357,0.90226823,-0.35721204,1.272765,3.529385,0.552471,2.6476965,2.30655,-1.9246213,-4.7734056,-0.15282285,-2.6061451,-0.8878618,-1.978952,-0.33415607,-2.0209103,2.5687575,1.2172961,-0.4352612,2.94566,4.014823,-0.103593215,0.96730936,-3.0174272,0.50563633,0.013615547,1.3502287,-3.1958153,-0.7884671,1.6097622
Q13131,0.67916894,-0.21404956,5.1473107,0.44807702,-1.6711335,-1.6652073,-1.9245985,0.34003365,-0.6424185,-1.6573507,3.617916,0.4985253,-0.8900508,0.67568076,-1.8983426,-1.0851927,-1.8301854,0.036499806,-2.1202848,1.4968069,1.5162146,-0.81104296,4.750046,0.23866116,-0.120947905,4.6983414,-3.0295446,-0.8973219,-2.4617677,-2.4272246,-1.8709799,-1.3278686,-2.9680822,-1.8846045,2.604019,-0.8900622,0.07800112,1.1582195,3.7956386,0.85250866,0.9932371,2.2069087,-1.0268664,-2.793786,-1.0021627,-2.6774604,0.5023091,-1.0283726,-1.252314,-1.769446,3.212861,-0.5274869,-0.43504515,3.4075696,2.875857,1.812884,1.6827735,-3.5147815,0.118797705,0.18515451,0.8184604,-2.6117692,-0.60161805,0.3134745
Q13153,-0.5287937,0.016104365,5.011187,1.2184886,-1.0528846,-2.3618863,-0.3474314,-1.2427976,-0.5440534,-2.0672224,2.718079,1.1406187,-0.77819496,0.102874875,-1.1904113,0.065286875,-1.9265419,-0.09364327,-0.44374564,1.875282,0.7343669,-0.85841584,4.1929836,-0.46560752,0.79860896,4.1910586,-2.312591,-0.62878245,-2.5567958,-2.9072347,0.15438952,-1.8293642,-4.875927,-2.6493366,1.4365164,0.89899594,-0.18626274,2.0261672,2.687994,0.3239827,2.5862043,2.9340997,-1.9305941,-4.456377,0.93981254,-3.0999565,-0.044393063,-0.8465206,0.026382253,-2.4509964,2.3901627,0.23681551,-0.8848547,3.4842863,3.2351434,1.0670509,0.7173574,-1.7854611,-1.0261487,1.432746,-0.07281617,-2.4291372,-1.0327934,1.1044341
Q13188,0.55256426,-0.011694435,4.991346,0.7226362,-0.86765826,-1.356639,-0.7107904,0.29065627,-0.39992604,-0.6823757,2.6218882,0.8272445,-0.7741664,0.9999179,-2.4985807,0.008965855,-2.044265,0.25627103,-2.3699431,1.4788914,1.6233922,-0.5542586,5.263714,-1.543335,0.53603256,4.835067,-3.2684977,-0.71454793,-3.066906,-2.5868964,-0.39265722,-0.97500443,-3.7518954,-2.7105238,1.6599206,0.16588715,0.6493393,2.6157534,3.0348759,-0.067918025,1.1680633,2.4514537,-2.2993398,-3.8218389,0.32707804,-2.1194475,0.30990118,-0.8801752,-1.5296547,-1.3098645,2.2758186,1.3359069,-0.9329092,3.5116477,2.953251,0.6768821,1.6501188,-1.8366406,-0.4474643,0.6669935,-0.23557182,-2.8748515,-1.3803777,0.92633283
Q13237,-0.59876144,-0.23284927,4.035966,0.23806347,0.46484944,-2.1990445,-0.62432545,-0.6005533,0.23477961,-1.1202428,2.213057,1.2481917,-0.3739534,0.5694013,-2.6620917,0.0039288606,-2.3996348,0.7770721,0.056285284,1.8951616,1.3578167,-0.75662786,4.050158,-1.5401467,-0.2424807,4.641247,-3.3824308,-0.37063545,-2.3763163,-2.6009407,0.50163585,-1.5948541,-4.3846965,-1.5436118,1.7510669,1.6999296,0.46179354,2.478047,3.4776123,-0.31242993,1.7365716,2.2740064,-2.205869,-4.8467836,1.3925463,-2.098575,0.6433135,-1.3938665,-1.1160609,-1.4741591,1.4868736,1.6714153,-0.60912776,3.2706945,3.681951,0.52962154,1.6667725,-1.5041229,-0.3488351,-0.09540838,-0.2155378,-3.556042,-1.9331987,0.75947
Q13554,-0.3321215,0.51370525,4.8579354,0.85418195,-0.5683168,-2.817663,-1.8529305,0.026819658,0.108163185,-2.4512749,3.2836044,1.188621,0.18326496,0.6490393,-1.6201662,-0.4101033,-2.5744913,0.39475727,-0.71226686,2.4619734,1.5034406,-1.1224451,4.4459286,-0.41593286,0.027846508,3.994756,-3.3767867,-0.35964578,-2.284717,-1.9486659,-1.7227219,-1.6426944,-2.8564003,-2.4584913,3.2291412,-0.110903546,-0.7603857,1.2659993,3.5227237,0.71008223,0.7052445,2.5306756,-1.7275001,-4.6023016,-0.003081873,-2.1638122,0.3695458,-0.5454986,-0.8252386,-0.7237801,1.864212,0.45348495,-0.24435587,2.8294077,3.5518305,2.2243237,1.4914088,-2.510948,0.5389379,0.044194743,-1.0206364,-2.9659708,-1.728914,-1.0872157
Q13555,-0.18274684,0.8603385,4.747303,0.41711015,-1.1055546,-1.981367,-1.1106474,-1.3190281,-0.9127008,-2.1105845,3.8944182,1.4122419,-0.39808607,-1.0793303,-1.6056223,-1.7744492,-1.9084673,0.04092048,0.4919651,1.9333286,1.3007659,-1.425411,4.242083,-0.19518496,0.31828937,3.4124146,-2.576674,-0.66439843,-0.9441351,-1.8762971,-0.840923,-0.25725853,-3.7954073,-1.4804963,2.698577,0.57467884,-2.047992,2.0014143,3.6045563,1.2263577,3.1926656,2.2397683,-1.6703352,-4.1350737,-0.77015144,-3.177935,-0.5325526,-1.8043287,-1.2751063,-1.8972852,3.4221272,0.2285593,1.1763201,2.601725,3.0376985,0.76252395,0.8812742,-2.758055,0.8876355,-0.94775426,1.1709999,-2.6483006,0.4094544,1.1673311
Q13557,0.17037754,1.466774,6.114144,0.34239206,-2.3252125,-3.0552025,-2.3059156,0.10976358,0.27359843,-3.0095813,3.0075638,0.74472654,-0.09197864,-1.1126093,-2.3178651,-2.0243175,-1.4689711,0.06281139,-0.8103523,1.6082722,1.5838041,-1.1768924,4.30218,-0.44506067,-0.22663225,3.8848827,-3.2120757,-0.2155906,-1.1625623,-2.629565,-2.3027446,0.2749289,-3.7494886,-1.9180483,2.7342188,0.33681202,-0.24195457,1.9009864,2.0224726,1.7036474,2.155111,2.0729842,-2.1136272,-3.680955,0.9289043,-1.8173993,-1.2192167,-0.6812848,-0.48181352,-1.9694282,0.9333723,1.2439313,-0.31130785,3.564396,3.18266,1.4151175,1.3442849,-1.3292454,0.06899363,-0.16611716,-0.11648221,-1.8700888,0.8017218,0.48117548
Q13627,0.21119836,0.46763983,5.385256,0.25580597,-1.6044263,-2.4394045,-1.4520118,-0.25136346,-0.33577633,-2.1886714,3.4695215,0.583044,-0.9170129,-0.43404636,-2.2610617,-1.7029887,-1.1348463,0.17352523,-0.83556306,2.3902407,1.0000789,0.09721506,3.2990599,0.9603963,-1.2434467,4.3777986,-3.6618676,-0.11405009,-2.0332103,-2.2575936,-1.4213643,-1.1296566,-3.9008842,-1.8432357,1.9774106,0.12715308,0.31854936,0.99419147,4.1642504,1.6089108,1.3089414,1.4667801,-0.6853227,-4.198511,0.13207178,-2.7830522,-0.84613055,-0.87951684,-0.1868484,-2.2520778,2.3539987,1.5061767,-0.39320922,3.2277863,3.2274468,1.636149,2.2367678,-2.564566,0.5307677,0.19170596,0.21118936,-2.2242026,-1.0077269,1.261609
Q13976,-0.41654935,0.12769389,5.361155,1.5041543,-0.78895515,-3.4345777,-0.6922548,-0.6890567,-0.98521256,-2.5261807,3.783295,1.1710892,0.52654135,-0.83262545,-1.0811276,-0.40914267,-2.1588638,0.10197498,-0.16913077,2.6174343,0.6664152,-0.2564539,3.4764223,-0.2077271,-0.052359182,3.7717154,-2.1467493,0.3881416,-2.3713505,-2.2091827,0.013132992,-2.4768646,-5.0722017,-2.261159,2.0412686,0.29530683,-0.69059145,-0.16982105,3.2586906,1.8635567,1.9783324,2.6551583,-0.8950092,-3.5776823,-0.12227814,-2.2305012,0.620212,-1.3165613,0.53404367,-2.2417684,2.7782722,-0.06945029,-1.4069319,3.1601722,3.243622,1.0236031,0.2585622,-2.4420938,-0.37768972,1.3628935,0.824121,-3.020261,-0.8291428,0.778574
Q14012,0.06848974,0.3978487,5.0977397,1.140648,-0.39820722,-2.7708223,-0.87973297,-2.1819658,-1.5978038,-1.9352863,3.2572951,1.0688171,-1.1808028,-0.26161948,-1.307359,-0.23406318,-3.116915,-0.2515439,-0.85387826,0.8399448,1.4493275,-0.67221254,3.9163785,0.049599636,0.432562,3.6568284,-2.721531,0.22518322,-3.2903337,-1.4285148,-0.73367196,-1.5505985,-3.4389699,-1.2399148,2.208737,-0.68506634,0.42455536,0.9698186,2.621214,0.8007679,1.0219558,3.1990747,-1.97687,-4.296361,-0.7972977,-2.7847865,0.48340783,-0.7590947,0.041705072,-1.9379747,2.8740523,-0.56530625,-1.1738114,2.4996006,3.5353296,0.7906943,1.3781309,-2.7098205,-1.9918427,2.0967672,0.13403262,-4.140559,-0.3252403,0.049247123
Q14680,-0.3116982,0.857515,4.0530286,0.019167824,0.157534,-2.5136359,-0.98501706,0.482183,0.70666647,-0.36466533,3.4793248,2.0283594,0.7389419,0.25536343,-2.6425254,0.037937038,-2.7859905,1.6376245,-0.088526,2.3546565,1.2475777,-0.4327354,3.8960488,-1.0484126,-0.9904087,4.5384374,-3.244247,0.300891,-1.7505205,-1.0620968,-0.52624035,-1.6416359,-3.5907202,-1.2031658,1.8820093,0.1422258,-0.0047552995,1.0860008,4.5676074,-0.30551308,0.3226049,2.774352,-1.293695,-4.728457,0.0031990968,-1.4574956,0.30563012,-1.4656525,-1.4959984,-1.0609326,2.9972029,0.6073713,-0.79340184,2.8657942,3.5313852,1.0709367,1.890065,-2.4501262,0.46162724,-1.1753606,-0.39883193,-3.66045,-2.3324046,-0.4832435
Q15303,0.6841017,1.5393515,4.9682837,0.15366113,-1.1802979,-0.40763634,-1.4578668,-0.21148819,0.7266866,-0.43916643,2.171559,1.1700764,-1.1198655,0.9108491,-2.0816746,0.3289559,-1.5882996,-0.64087725,-1.7254055,2.4046245,0.65056777,-2.000755,4.1832623,-0.21341674,-0.7000793,4.279423,-2.9413998,-1.5624303,-2.9768136,-2.5610726,0.035805166,-1.2886558,-4.244289,-1.0773611,2.6936781,-0.701441,-0.9033486,1.7940216,3.1662867,0.5529538,0.9882888,2.6408436,-0.036262594,-3.8139422,-1.5202376,-3.3516088,0.63343793,-0.24807762,-2.1198132,-2.1783135,3.716191,-0.037691243,-0.09119826,2.7676332,3.0714,2.2157655,2.111415,-1.8271209,0.26016197,-0.72598326,-0.19661272,-2.8029604,-0.51592314,0.50820446
Q16288,0.7540417,0.58553606,4.6446047,-0.51926833,-0.2708672,-1.8957025,-1.3111452,-0.17576347,-0.6338433,-0.9890313,3.1074913,1.1466594,-1.0410771,0.90259135,-2.1233976,-0.14626907,-1.7835572,0.12409303,-0.7910536,2.6693153,2.195304,-1.5179824,4.4459095,-0.7573862,-0.20495632,3.5330398,-3.5176582,-0.9044875,-1.7436879,-2.9489236,-1.3968279,-1.4841682,-3.1210623,-1.7053691,2.5351925,0.3717471,0.17469203,1.5903419,3.2536552,0.9338268,1.8009301,2.493732,-1.127095,-4.8768854,-0.43727446,-1.5171708,0.02324972,-1.7773,-1.1508179,-1.4197421,2.0146422,1.2294936,-0.106492065,2.5463367,4.390864,1.4801314,1.6685702,-2.4995363,1.4761978,-1.1886927,0.55576444,-3.6388938,-0.8157072,0.56178874
Q16513,-0.35054037,0.60558623,4.076716,1.6231284,-1.3158596,-2.226253,0.16923127,0.50544214,-0.5813373,-0.82189274,4.015209,1.5383085,-1.2469306,0.43840256,-1.2408499,0.4443809,-1.6507356,0.39322916,-1.739085,3.1317282,2.2403197,-0.1923038,4.349101,-0.67452335,0.40000987,3.6341684,-3.1019075,-0.4341641,-2.606135,-1.8901478,-0.65960866,-1.5980756,-3.0469735,-2.32979,1.5205883,0.7793139,0.10123587,1.6444128,4.427227,0.28979853,0.6289102,3.2667155,-0.5652567,-4.3751063,-1.1613462,-2.5243547,-0.3238213,-0.016243838,-0.97323,-1.7562531,3.6181073,0.58792883,0.89988935,3.0134833,3.459027,1.1682186,1.7218752,-2.332341,-0.16845164,-0.02360326,-0.11319472,-2.8908813,-1.5601405,0.24191114
Q16620,0.09315824,1.3729358,4.8222737,0.7851737,-0.9210007,-2.3453317,-0.20041335,0.084924884,-0.6478743,-2.2942677,2.979787,1.5569046,-0.7231505,1.1198808,-1.5868319,0.11076562,-2.1267552,0.117431134,-0.27774668,2.585205,0.98086953,-1.4548229,4.591854,-0.7083576,0.09146392,3.6515815,-2.578881,-0.33322874,-2.1781423,-2.6056013,-0.32226783,-1.4923812,-3.9372249,-2.5979884,2.1107872,0.1988951,0.10437384,1.400972,2.5743172,0.6989575,1.6062893,3.052182,-1.1758039,-4.7610455,-0.23354326,-2.4679365,-0.17065218,-1.2732828,-0.47544175,-0.6497471,1.9404554,0.80228376,-0.7914761,3.077799,4.2953444,1.8623391,1.7777419,-2.5039058,0.51049685,-0.31030074,-0.1030563,-3.24135,-1.6625952,-0.2533383
Q16644,-0.21268839,0.95989966,4.2552834,0.48245513,-1.3912094,-1.6903938,-0.6731417,0.6192611,0.17645317,-2.64064,3.5853558,0.84408784,0.42983958,0.7387952,-2.5019882,-1.6065582,-2.0882952,0.83604056,-0.2739099,1.694232,0.16600478,-1.2420303,4.9157934,-0.9056711,-0.40446925,4.643632,-2.1065378,-0.7064785,-1.6209539,-3.007039,-0.5088676,-0.64188474,-4.42828,-3.2404976,1.3291093,1.4349402,-0.42126817,1.7563424,1.9190117,0.7627661,2.4673457,2.3011587,-3.5796373,-3.9658537,1.4537307,-2.5801408,-1.1973301,-1.8730601,-0.53897226,-0.19763009,0.9308425,1.6918838,-0.33291808,3.6642437,2.9143336,1.4002738,1.8945832,-2.2806602,0.826664,0.044305816,0.4285534,-1.2090709,-1.4008452,1.0556488
Q5VT25,-0.23482206,0.50524867,4.9613237,0.9236734,-0.82516974,-3.1379383,-1.4346843,-0.17976439,-0.9176578,-2.0324507,3.2270083,1.4691216,-0.45963112,-0.27783692,-1.3279352,-0.72708195,-2.1492593,0.08235897,-1.2648065,2.796689,2.266501,-0.8073283,4.112594,-0.7745267,0.22591601,3.5608563,-4.0240297,-0.31254488,-2.2030547,-2.2998257,-1.4676192,-1.1546307,-2.9999793,-1.9350187,3.2009287,0.5675273,-0.3721766,1.5595994,3.5153,1.9275452,1.6970371,2.1576686,-0.765159,-3.8080773,-1.0389376,-1.6905437,0.36895272,-0.6865659,-0.67576885,-1.8734322,2.527543,1.2790543,0.62176985,2.7249985,3.512398,1.8845942,1.353796,-2.0835645,0.27568033,0.059158567,0.14809461,-3.5048368,-0.86788046,0.4195764
Q7KZI7,0.14991257,-0.47217324,3.383817,0.86750156,-0.32101744,-2.4184167,-0.9454989,-0.27482754,-1.1772543,-1.7958565,3.8410623,0.58778226,-0.58434147,0.6173874,-0.40752426,0.24979037,-1.8815104,0.28808042,-0.6443261,4.187398,2.024726,-0.4356812,3.5551708,0.109002925,-0.2530778,3.7083485,-2.7725987,-1.2150494,-2.106303,-3.0661151,-0.96740717,-3.3011818,-3.442637,-2.5972595,1.7705988,1.7642329,-0.45413995,0.4422422,3.7950735,1.7242107,1.7324076,2.5001678,-0.47324094,-4.1950135,-0.7140103,-1.9568019,-0.19983506,-1.7411306,0.2737711,-2.3992548,2.7472038,0.6540169,0.91445273,3.0724223,3.6061687,1.725948,0.7422823,-2.7406523,1.0576453,-0.16505004,0.8941264,-2.8542125,-1.3877853,1.0540468
Q7L7X3,-0.5382011,0.43674994,4.8578196,1.4220957,-0.66975045,-2.0996702,-0.31009704,0.34022525,0.53311634,-1.0581228,3.3557985,1.2318101,0.3145322,0.18983333,-2.191,0.61257094,-1.7513201,0.45261037,-0.7081842,2.54744,0.116700724,-0.67441833,3.8588583,-0.6555928,-0.18318957,4.3646193,-1.7441821,-0.04193089,-3.0344496,-2.1082215,0.9141195,-2.5652306,-5.3204837,-2.8820446,1.5264465,0.60585874,-1.0347185,0.4359185,3.6265147,-0.52353156,-0.007727241,3.4879255,-1.9525816,-4.6414456,1.1870652,-3.042441,0.15730909,-0.19342199,-0.5175303,-0.8741291,2.6406372,0.5173688,-1.4750292,3.1998072,3.0590317,0.44949314,0.646083,-1.4407365,-0.044128012,1.1745675,-1.064863,-2.179489,-1.9066706,0.16146666
Q86V86,-0.8820298,-0.0632435,4.400668,0.62915885,-0.5901077,-3.480834,-0.0675742,0.42818516,-0.3893112,-1.3060068,4.7111077,1.678499,0.16913179,-0.28121653,-2.710774,-1.2620599,-1.8282725,1.4314768,0.12789065,1.7369306,2.008751,0.5869951,3.7594893,-0.6766216,-0.5189467,3.6468623,-3.4518378,0.98968285,-1.4141414,-1.6478242,-1.0267743,-1.357654,-3.164047,-1.1525943,1.4633942,0.71613234,0.67920995,0.6082244,5.1855392,0.6115895,1.6520247,2.0987644,-1.2835422,-4.4706974,-0.09484093,-1.4097234,0.05117471,-1.3967235,-0.68245536,-1.4120344,2.357015,1.0301054,-0.4841946,2.761569,4.0408463,0.3883174,2.011078,-3.495448,0.43905276,-0.55022407,1.341308,-3.40689,-1.8628253,0.37780017
Q8IW41,-0.42314607,0.30553865,4.6978283,0.2924106,-1.0322107,-2.5299985,-0.8627725,0.13870706,-0.543352,-2.054856,3.242657,1.596201,-0.8333403,0.2554474,-1.8198736,-0.33345386,-2.079636,0.48187134,0.00066255033,1.9896601,0.2522859,-1.9653162,4.129835,-0.2945881,-0.19773138,4.64009,-1.6761849,-0.41829687,-1.92286,-2.8466768,0.123193465,-1.9744656,-5.080266,-2.0161757,2.138453,0.7730452,-0.008391283,0.79143524,2.848862,-0.12827067,1.1915063,3.755615,-1.5685209,-3.5991244,0.9312396,-3.1299384,0.3641824,-1.5997925,-0.23107982,-0.9799635,2.728349,-0.4654883,-1.1341631,3.7197232,3.711322,1.331509,0.85302883,-2.4665968,-0.12586124,0.39114386,0.46744564,-2.9136193,-1.0798191,0.3044023
Q8N4C8,-0.8101226,-0.1307923,5.171647,-0.18088023,-0.727298,-2.6111827,-1.1400833,0.45893183,-0.083783075,-0.8626721,3.0569737,1.9682553,-1.16423,0.029400244,-2.726085,-0.74709576,-1.6829815,0.4200557,-1.5069655,1.532452,1.3508695,-1.4808768,4.2464905,-1.2545912,-0.07584693,4.382393,-3.7147658,-0.081084654,-2.1829102,-2.6133504,-0.6379159,-0.69005,-4.010177,-1.2806902,2.7672827,0.4705569,0.94285697,1.9325249,3.6854956,0.23308899,1.2778825,2.7891846,-1.3952678,-3.4212852,0.65336347,-1.9959909,1.3653061,-0.56416655,-1.3032038,-1.1939119,2.4440343,0.8862679,-0.72385776,2.9594734,3.5020213,1.5411024,1.818994,-1.8496442,-0.20910227,0.5239496,0.29488036,-3.2899485,-1.2313834,0.79274005
Q8NE63,0.39351663,0.6567463,3.8753512,1.0874292,-1.1198727,-2.023633,-0.39374977,-0.7888872,-1.0249499,-1.1089193,3.0975156,1.0356553,-1.313873,1.0587698,-1.1223717,0.29528734,-2.3415623,0.42984363,-1.3562716,2.097121,2.0051708,-0.19443722,4.1701536,0.16312817,0.2376183,4.0764046,-3.2360795,-0.9504325,-3.0067918,-2.54647,-1.0970397,-2.1730785,-2.770665,-2.2576478,1.1054008,0.6999092,0.48941797,1.6191517,3.2543585,0.45365667,1.2640027,2.8448167,-1.4410882,-4.9306593,-1.0698742,-2.606189,-1.2843685,-0.81207025,-0.116020866,-2.5099247,3.0211668,0.8334652,0.34029213,3.0724113,3.7240639,1.4400148,1.9675313,-2.7249951,-0.6633008,0.50846636,-0.049295336,-3.119472,-1.6307749,0.6722989
Q8TDC3,-0.10246588,0.011591576,4.891901,1.2797806,-0.9314452,-2.1001673,-0.2292459,0.1465342,-0.101357915,-1.639042,3.8464792,0.5430511,-1.0446696,-0.19313067,-2.1854975,-0.03575672,-1.0747336,0.14930516,-0.39129183,3.127133,1.9117429,-0.106468946,4.310517,-0.65118957,0.08373191,3.869864,-2.47253,-0.096741565,-1.9526008,-1.80395,-0.19104546,-1.3864328,-4.1961637,-2.4246597,1.6038362,0.9016241,-0.33549035,1.8588407,4.759539,-0.3834501,0.59505624,2.8680744,-1.2068831,-5.0669003,0.9257354,-2.9724312,-0.2542038,-0.5637095,-1.2130493,-1.2688382,2.357047,0.7191332,-0.057273246,3.5166342,3.5898178,-0.28269964,1.0498769,-1.9305257,0.4297336,-0.5558283,-0.45492613,-2.6037674,-0.8265971,0.09208304
Q96GD4,-0.8963765,-0.19644275,5.069416,0.9090577,-0.55358005,-3.7342963,-1.0315313,-0.36834517,-0.20721549,-2.3381283,3.5210745,1.2346195,-0.61049056,-1.0094098,-2.0374618,-0.5964917,-2.025181,0.5794141,0.36876273,2.2743537,1.7166326,-0.27397284,3.4708786,-0.4465133,-0.38160178,4.1161838,-2.9068477,0.7496375,-1.7330937,-1.4828488,-0.54255265,-1.4906095,-4.2169065,-0.94340754,2.3670475,0.6481033,0.50785595,1.1306018,4.513049,0.18996295,0.71961635,2.849586,-0.7666026,-4.1366043,0.88218266,-2.3451416,0.8280669,-0.79332465,-0.4838038,-1.8208988,2.3027644,-0.1776102,-0.8149519,3.529417,3.802296,0.42129746,1.087509,-2.202337,-0.87368166,0.050047122,0.024725057,-3.7274938,-0.77006656,-0.42939472
Q96KB5,-0.48848197,-1.0177104,3.879841,0.46201754,-0.88513666,-2.628395,-0.49265134,-0.12647466,-1.3664637,-1.4536738,3.769472,1.1595976,-0.46407533,0.37436393,-1.9311911,-1.4117544,-1.5345538,0.88193554,-0.26099238,1.5317636,1.1565311,-0.0670823,3.4212174,0.36843488,-0.32119277,4.308141,-3.0083013,-0.44909763,-2.1049345,-3.376157,-0.4222589,-2.6032293,-3.7466066,-1.7407902,1.5485007,1.4771755,-0.017952807,0.24270862,4.38923,1.0613983,2.466952,1.7041053,-1.1866143,-3.4206169,-0.3938795,-2.532612,-0.0773251,-1.9263579,0.1109671,-2.237356,2.9614303,1.0438552,-0.06800553,3.0641618,3.5584702,1.0354571,1.3216703,-3.759602,0.6096877,0.43988657,2.1451485,-2.8221564,-1.9027028,1.9863161
Q96PF2,-0.83222055,-0.4415817,4.224213,0.40121886,-0.9032568,-2.3839202,-0.36218435,-0.052304238,0.028311731,-2.1828454,3.5972786,0.9085301,-0.5671719,0.9418884,-2.3932261,-1.023578,-1.6107229,0.8513219,0.09400334,1.5402064,0.8118497,-0.47479424,4.1691575,-0.1828205,-0.22938526,4.4468822,-2.7457325,-0.36072922,-1.8823383,-3.1195526,-0.66093576,-1.7327201,-3.9958212,-2.488315,1.1190358,1.4173132,0.6193168,1.5470322,3.6025217,-0.050919708,2.2322419,2.264097,-2.5940871,-4.81718,1.7259556,-2.7162678,-0.46073428,-1.3436077,-0.13809648,-1.1775026,1.1912334,1.1233281,-0.7316736,3.4378238,3.7460458,1.2371947,1.9618611,-2.9078991,0.29505643,0.4541228,0.45935303,-1.9691156,-2.1579113,0.8382125
Q96SB4,-0.16873303,-1.047932,4.538186,0.37805688,-0.36633474,-2.02807,-1.2226369,-0.18988402,-0.0840994,-1.240431,2.9895132,0.2665347,-1.9677539,0.7795763,-2.084703,0.27711016,-1.383691,-0.21904437,-1.5615159,2.561707,1.3508446,-0.5886187,3.327135,0.24272372,-0.94167566,4.591773,-3.098774,-0.5759425,-3.3296592,-2.8473392,-0.3021217,-2.6995034,-4.1920085,-1.2998129,1.9838119,0.5904285,1.4284612,0.758899,4.124375,0.20213361,-0.12774922,2.732785,-0.49862647,-3.872075,0.69188935,-2.832753,1.3720988,-0.22139676,-0.4070962,-1.9732528,2.1939876,0.11713582,-1.0109965,3.301712,3.616099,1.3892609,1.8800896,-2.168196,-0.6880108,1.1966193,0.014681125,-3.135455,-1.3417149,0.52905333
Q9BXA7,-0.5966268,0.6456361,4.9661937,2.1660087,-1.2443514,-2.6673422,-0.39695525,0.27873585,0.12728634,-2.2840059,3.2683082,0.99435973,-0.09706627,0.18218388,-1.810526,0.17957842,-2.18994,0.31633028,-0.89045745,2.1613765,1.1927989,-0.5195224,4.617991,-0.9959704,0.5410957,4.206725,-2.2028053,0.036018677,-2.9382832,-1.8751025,-0.03493069,-1.5714267,-4.1911764,-2.9315553,1.8974942,0.6376856,-0.5486935,1.5287735,3.2200785,-0.31028825,0.2398114,3.3650994,-2.232478,-4.447463,0.79847395,-2.983951,-0.13323945,0.14936328,-0.6394099,-0.8093394,2.0092602,0.42403102,-0.6755134,3.651993,3.2119153,0.53977156,1.0141727,-1.6041899,-0.93958056,0.9917063,-1.2382814,-2.4935062,-1.3936558,-0.7061741
Q9BZL6,-0.57175875,0.38608098,5.06015,0.6397293,-1.0063,-2.9270413,-1.8564407,-0.29456955,0.025671441,-2.1315494,2.8804333,1.3114982,-0.30001846,0.2895103,-1.87168,-0.56714016,-2.3708313,0.5113455,-0.9157925,1.4895334,0.27760568,-1.1368002,3.599738,0.55512387,-0.33284724,4.6463146,-2.8800924,-0.16319065,-2.9483194,-2.2375093,-1.1606715,-2.124465,-3.8080165,-2.5063224,2.6094623,-0.0021827589,-0.2727208,0.51447016,2.9951918,0.085909545,-0.092630334,3.0319927,-2.3234973,-4.410646,1.0668811,-2.9944742,-0.22397932,-0.099435076,0.26056758,-0.95737946,2.104111,0.48592842,-1.2659327,3.003267,3.214681,2.088514,1.3724803,-2.0556893,-0.46647435,1.8691858,-1.4618402,-2.401073,-1.9684131,-0.31857163
Q9H2G2,-0.74838513,0.18887798,4.9336157,0.55266964,-0.5917846,-3.1028054,-0.7689069,-0.50530297,-0.79947764,-1.8067664,2.3391056,2.208144,-0.64532995,-0.24247195,-1.3826767,-0.27605233,-2.0247977,0.57007957,-0.03612478,2.3119116,1.3731189,-1.0552793,4.169333,-0.96700644,0.93889564,4.034517,-3.4694772,-0.14487855,-1.5094144,-2.1119232,-0.5253847,-0.9985332,-3.7882373,-2.505572,2.6322315,0.7980715,-0.39064112,2.6741378,3.7350564,0.036152568,2.047367,2.5423918,-1.2229797,-4.567802,0.72979075,-2.3160763,0.12421532,-1.0992832,-0.68734646,-1.5062921,2.670753,1.1707203,-0.16745043,3.110611,3.5183074,1.3411721,0.69054157,-1.6594028,0.17586984,-0.08604589,-0.7989518,-3.3155441,-1.8123498,0.35624307
Q9H2X6,0.3745892,0.4414362,4.336113,0.10582206,-0.3917844,-0.50984013,-1.5453881,-1.3571169,0.041893113,-1.6939906,3.2760966,0.16453785,-1.0265744,0.8173879,-2.066978,-1.1290157,-1.6719285,-0.7243753,-0.8775165,2.53589,1.1993009,-1.2421921,4.0715156,0.26973495,-0.8246201,3.7587755,-3.575682,-1.6177244,-2.607069,-2.6840835,-0.8381195,-1.131018,-3.3961356,-1.496174,2.686399,0.32343274,-1.2234788,1.9392412,3.5817316,1.7446797,2.3750393,1.3009467,-1.3891097,-4.6839924,-1.0387124,-3.3481755,0.22423595,-0.9957762,-1.6082565,-1.8481745,2.3427484,1.1534922,1.0811464,2.1790884,3.0812824,2.023196,2.5489762,-2.7106352,1.2234944,-0.45748073,0.60552335,-2.356922,-0.5549029,1.31311
Q9H3Y6,-0.38839653,0.29066706,5.1068926,1.7576743,-1.5402772,-2.0425045,-0.51781917,0.50317514,0.28707913,-2.037562,3.2189336,0.30324474,-0.4549613,0.38896897,-2.856566,-0.5998159,-1.5686567,-0.060987663,-1.4621203,1.3773766,0.6265011,-0.63083744,4.2144966,-0.63809335,-0.44885683,4.6200123,-2.1470501,-0.23913445,-3.7035134,-3.1102152,0.62743556,-1.8299022,-5.063339,-2.1989374,1.6664358,1.0472082,-0.011466384,0.6717365,2.7627172,0.32495967,0.4317085,2.8425841,-2.4037368,-3.539004,0.84623706,-3.351095,0.16398987,0.16081771,-0.49747226,-1.1083539,1.5231256,0.9754648,-1.1153218,3.7393284,3.1775382,0.387542,1.6799114,-1.7324066,-1.0619612,1.6996157,0.103588626,-2.133077,-0.8882886,0.6680888
Q9H4B4,-0.8273115,0.9607397,5.552223,1.2729418,-1.5303638,-3.5381875,-1.3441489,-0.065294504,0.076930664,-2.6190836,3.5328314,1.7436544,0.04747031,-0.5026198,-1.1853889,-0.3756762,-2.0964556,0.13573456,-0.45141357,2.3307016,1.3579605,-1.3366847,4.203699,-0.53984857,0.44394875,3.5484827,-2.6641536,0.003375901,-1.8213973,-2.1466086,-1.2853509,-1.352176,-3.8940716,-1.9225578,2.9231112,-0.011295561,-0.7179934,1.0748662,3.144103,0.99585545,1.6515728,3.263804,-1.0025424,-3.9490998,-0.1017487,-2.2622964,0.38519594,-0.23495698,-0.39450574,-1.878296,2.5144932,-0.58503884,-0.494123,3.1637266,3.5938015,1.9453111,0.79418963,-2.1164424,-0.42323563,0.32557556,-0.23758227,-2.8135047,-0.5249708,-0.67971367
Q9HAZ1,0.07129997,-0.5138366,4.8749585,0.1177261,-0.5191244,-1.846538,-1.0767161,-0.82125187,-0.5376344,-1.1810428,2.737584,0.82845837,-1.3933182,0.39425284,-2.5160851,-0.8922073,-1.8528621,0.17891198,-1.1440895,1.2652115,2.1085272,-0.3668539,4.523368,-0.75328714,0.18359269,4.429439,-4.0592422,-0.5220478,-2.2878864,-2.3347025,-1.0234665,-0.6138417,-3.1534827,-1.3633199,2.1362736,0.286149,0.8298372,2.9290266,4.093486,0.2597777,2.043655,1.6622382,-1.6016188,-4.2748322,0.16049322,-2.3466766,0.5442116,-1.1197836,-1.545523,-2.0796862,2.2583303,1.1222243,-0.20425156,3.0967376,3.4012551,0.820884,2.1055474,-2.5073824,-0.32884556,-0.0623556,0.39883265,-3.4068747,-1.0202429,1.0047747
F7AR06,-0.49112347,0.7268514,5.153605,0.6029885,-1.1373833,-2.4148643,-0.37367257,-1.0663011,-1.3297224,-1.7853006,3.8724737,1.8888155,-1.5615306,-0.6547616,-1.5747229,-0.8542133,-1.640238,-0.0811553,-0.09983646,1.8788673,1.2968525,-1.6132822,4.3787675,-0.24215546,0.97607684,3.183819,-2.4998631,-0.17707525,-1.5594546,-1.8378841,-0.7169865,-0.49875125,-3.7743723,-2.2631447,2.515045,0.3425206,-1.0019865,1.9887394,3.5599604,0.06993711,1.8655899,3.4357145,-1.959975,-4.9608574,0.15105134,-3.4161448,-0.5106251,-0.87845886,-0.73354495,-0.9457214,3.2103379,0.3522022,0.31690982,2.452256,3.6768818,0.6552368,0.8464911,-2.3351703,0.39937213,0.32397866,-0.043313995,-2.879962,-0.35736424,0.5738522
Q9HCP0,-1.0120041,-0.39697713,4.2462115,0.20395145,0.07025895,-3.401752,-0.46801278,0.017566524,-0.7758306,-1.0389161,3.6376379,2.1939816,-0.80742174,0.028870627,-1.5942447,0.049931712,-1.7606927,0.82178617,-0.13226004,2.9795294,1.9243276,-0.78913385,3.5816934,-0.82442474,0.18812898,3.4478123,-3.5148308,0.16145194,-1.551624,-2.2288468,-0.7333784,-2.0256371,-3.4369583,-1.7964466,2.3780725,1.141719,0.32719144,1.1627537,4.6451116,0.31590143,1.3858851,2.9146843,-0.6762601,-4.7311134,0.33866477,-1.5747592,0.77109206,-1.1369293,-0.43440717,-1.3277509,2.675459,0.9346062,-0.10591604,2.4928122,4.2046556,1.3172892,1.0384893,-2.3567328,0.783517,-0.18003681,0.18395004,-3.7363818,-2.0892608,0.33687392
Q9NR20,0.4667333,0.6323807,4.008384,1.3242931,-0.78216195,-1.544301,-0.4722309,-0.6633871,-0.70731187,-1.5908669,2.8501124,0.57020134,-2.354043,0.85911876,-1.0524004,1.1493044,-2.2406673,-0.30991524,-1.0910025,2.9075093,2.098627,-1.1527188,4.4902706,-0.34049237,0.32789183,4.0159655,-2.2217114,-0.973483,-2.935321,-1.815856,-0.29966503,-1.7444338,-3.3907132,-1.9374439,1.7481308,0.5191303,0.4675166,2.222061,3.2006555,-0.6636431,-0.2620473,3.9451249,-0.9671015,-4.751341,-0.3354954,-3.4328089,-0.14194496,-0.35211056,-0.98099905,-1.459836,2.9042628,-0.5196358,0.3500944,3.545793,3.7659268,0.7396209,1.5127829,-1.9104302,-1.1281058,-0.03804571,-0.94976044,-3.5370097,-0.5717714,-0.7343522
Q9NWZ3,-0.61960864,-0.16729012,4.621921,0.7206093,-0.96292955,-2.7032113,-1.2445275,0.61972046,-0.2634084,-3.0059252,3.3207808,0.97862583,0.14910418,0.19413523,-1.975469,-1.127843,-1.7302045,0.5580643,0.35366148,2.4483156,0.72530985,-1.513266,4.413187,-0.68349594,0.06972799,4.3919144,-2.106132,-0.52549124,-1.4100668,-3.0562875,-0.39306253,-1.6724839,-4.5068417,-2.9274707,2.654891,1.5291677,-1.1178571,1.1984111,3.194593,0.37776223,1.7392731,2.5559254,-2.1889646,-3.7573903,1.5219551,-2.7647762,0.06382717,-1.608923,-0.48577297,-0.38183013,1.4563808,0.8026997,-0.2614305,3.7443314,3.4298246,1.1165975,0.5163362,-2.2975118,1.1293851,-0.25149688,0.19111869,-2.157998,-1.286048,0.20335093
Q9NYL2,0.5785425,0.067743786,4.6722965,0.9971396,-0.34700763,-1.8498596,-1.5580577,0.24111903,-0.14417544,-1.0106816,2.3864195,0.49817547,-0.4843456,-0.15051875,-2.8309252,-0.20778239,-2.2097745,0.48271614,-1.0494949,2.179105,1.9283974,-0.27029753,4.1719017,-0.8872943,-0.5044179,5.058561,-3.192032,-0.2617297,-2.9039855,-1.4524319,0.10174149,-1.4610742,-3.8270779,-1.4446507,2.6791558,0.46877995,-0.5752442,1.7891617,4.5427637,-0.5125781,-0.8493923,2.3055768,-1.1955231,-3.8474338,-0.027626628,-2.802796,0.41036192,-0.7264259,-1.9622844,-1.2014508,2.9023423,1.0639489,-0.16368808,3.695564,3.0409522,-0.38991526,1.1995287,-1.6586192,-0.27167097,-0.6498736,-0.85305405,-3.8562617,-0.95833975,-0.20749609
Q9P1W9,-0.4314016,-0.6789888,4.713619,0.8920364,-0.8019182,-2.1490753,-0.91257864,0.21956892,-0.4457973,-2.665932,3.9528494,0.38025254,-0.2857673,0.11370051,-2.807272,-1.8944228,-1.7379366,0.32089946,-0.11901854,1.6428306,1.1363685,-0.4423031,4.4000993,-0.4753779,-0.5845775,4.578315,-2.7448604,-0.107538596,-2.0714924,-2.4227316,-0.1714805,-1.1580563,-4.1750474,-1.5911349,2.4630382,0.78896534,-0.36617854,1.1821666,4.4150596,0.8160828,1.7386945,1.6162498,-1.6759602,-3.243068,0.25439972,-3.1128116,0.9561978,-1.5498698,-1.31749,-0.82082707,2.011272,0.5853959,-0.21562652,3.5526123,3.2396502,0.51135594,1.7740703,-3.4050124,0.45525476,-0.25207186,1.4749551,-2.7989175,-0.9730786,0.62438816
Q9UEE5,-0.21031496,-1.0418427,5.2781887,0.43504435,-0.0069640465,-2.5147252,-1.7348467,-0.8373574,-0.5360065,-2.5129974,3.7452905,0.1408959,-0.19692641,-0.16520095,-1.9720197,-1.1756436,-1.4481392,-0.16697899,-0.45709917,2.8953137,0.80099034,-0.13768224,3.3192327,0.55428195,-0.6907819,4.0010715,-3.293461,-0.09405436,-2.4074547,-2.2757335,-1.0046476,-2.2639794,-4.125427,-2.7082322,2.7273636,0.26839533,-0.7157928,0.38717443,4.3535786,1.5424637,1.1649412,1.4254681,-1.5816946,-4.623339,1.1444671,-2.5970175,0.70682067,-1.0610538,-0.01645341,-1.177325,1.5765531,1.3207799,-0.9271238,2.5580516,3.1084685,1.3411679,1.0573299,-2.510598,1.2808466,1.220566,-0.20324662,-2.327171,-1.5250531,0.89600897
Q9UM73,-0.08997416,0.14471784,5.256214,0.34610194,-1.1046587,-2.147503,-1.4506634,-0.51975834,-0.07186855,-1.1410363,3.1776733,1.0936601,-0.22008923,-0.6497618,-2.9919362,-1.1674626,-2.062426,0.5241767,-0.35921472,0.50308996,0.6715278,-1.0649682,3.9842088,-0.24617365,-0.40473133,4.9126177,-2.244915,-0.18892822,-2.3899105,-2.3436134,0.049493775,-1.4268968,-4.8925686,-0.88344085,2.1573675,0.2536514,-0.63237804,0.9303767,3.5799727,-0.24191757,1.1694288,2.8362477,-2.1698868,-3.4950233,0.47436678,-3.1940236,0.22751674,-1.2172577,-1.0822506,-1.992139,3.1404006,-0.19344884,-1.1779914,3.4696555,3.099863,-0.036092624,0.9694645,-2.437667,-0.7477979,0.49754664,0.7798222,-3.0314715,-0.17107978,0.90517366
Q9Y243,-0.283029,0.9584207,5.4289384,2.0564976,-1.3231573,-2.821628,0.2070025,-0.64755315,-0.41278374,-2.4273784,3.9666698,1.0178269,0.11055186,0.24903925,-1.6286345,-0.21076152,-1.8593237,0.075704955,-0.1124785,1.8244584,1.0541317,0.28497598,4.130023,0.07076073,0.33240068,3.198721,-2.343708,0.5540736,-2.672606,-1.6790608,-0.45638505,-1.8774537,-3.781261,-2.5059786,1.4514693,-0.5783889,-0.5819125,0.5075911,3.7885494,0.6933752,1.4893525,2.588196,-1.368682,-5.2484317,-0.48427778,-2.8673592,-0.47955522,-0.3262259,-0.106879145,-1.5363653,2.3048491,0.15420242,-1.3114035,2.7653964,3.8553965,0.7659766,1.4774224,-3.1061697,-0.29407942,0.77427185,-0.10001167,-2.7048194,-1.4996371,-0.44137192
Q9Y4K4,-0.2368945,1.4155617,5.543685,-0.3266357,-0.6443732,-1.9798911,-1.4049711,-1.6421727,0.490597,-1.8927414,2.9670544,1.4476799,-0.42087793,-0.4827498,-2.5803907,-1.2314155,-1.9312783,-0.124507636,0.74073994,1.5080562,0.28827754,-1.5527736,3.5627377,0.21447197,-0.91577625,3.7785995,-3.0147722,-0.1910015,-1.6850755,-1.9356875,-0.42480773,-0.63971126,-4.6233983,-0.6260807,2.6232162,-0.4409285,-0.8601084,1.5563653,3.3482249,0.89158475,2.4463089,2.179477,-1.3350686,-5.100747,0.11283126,-3.1748958,0.10427108,-1.1877359,-1.1142205,-1.9764235,2.4555387,0.29905087,-0.8410496,2.4001954,3.6795704,1.5396515,2.05479,-2.352475,0.32278123,-0.47163284,0.20157848,-2.9806945,-0.34180343,0.56331384
Q9Y6M4,-0.36635625,-0.077186786,4.90696,1.5001796,-1.7155341,-3.0059464,-0.7254053,-0.010570504,-1.7498502,-2.5902565,3.485506,1.2089148,-1.4364643,-0.722111,-1.144194,-1.0396683,-1.8595906,0.092435166,-1.1434084,2.2763796,1.6300055,-0.7420944,4.2917705,-0.35717937,0.6069193,4.32741,-2.6755228,-0.22873306,-2.2001567,-2.2859583,-0.56413954,-1.0284884,-3.9904194,-2.3765943,2.4299908,1.0329164,-0.01230306,1.6779038,3.478693,0.90791017,1.2812335,2.938059,-1.0680722,-2.8457413,-0.21652637,-3.1215963,5.80661e-05,-0.8825364,-0.25771165,-1.6609446,3.2377048,0.35002354,0.44078404,3.8523612,3.032194,0.867422,0.7772815,-2.277975,-0.78068244,0.85115844,0.5316032,-2.9988904,-0.43788776,0.8253161
P31749,-0.040446997,-0.6119859,4.180463,0.71828115,0.41267878,-2.1290553,-1.238327,-0.29116955,-0.5903573,-2.2877374,2.0058022,0.723174,-0.1423313,1.2122766,-2.008739,-0.10391708,-2.3957927,0.29565436,0.28808916,2.3242662,1.0433701,-1.0764169,4.1220107,-0.65150994,-0.09432356,4.581709,-2.933575,-0.6751692,-2.615841,-2.7397947,0.3594278,-2.55139,-3.9314203,-2.2416282,2.9890125,0.88238806,-0.840593,1.3768265,3.7655778,0.0824472,1.0073864,1.8544335,-1.3269595,-4.2448153,0.3975917,-2.806176,1.1250703,-1.6598536,-0.9937442,-0.60621005,1.7584815,1.0440812,-0.6180823,3.2760515,3.771898,1.0653381,1.0071478,-2.5759995,0.7557876,-0.38178477,-0.24723122,-3.764247,-2.2623084,-0.2285256
P42336,-0.6182492,1.09594,5.2427864,0.093808606,-1.6021253,-2.7072039,-0.56074893,0.22958393,-0.071021646,-1.51611,3.1558256,2.4021263,-0.67847925,0.9855837,-1.7333164,-0.44098884,-1.4882318,0.4721601,-0.60763913,1.5195524,0.5183779,-1.3540779,4.0532722,0.16306014,0.15707763,3.5646863,-3.1883688,-0.13487671,-1.7855041,-2.6600246,-1.346863,-1.3617109,-3.316511,-2.1355112,2.176692,-0.7049101,0.29069835,1.0704707,3.4028928,0.40069032,1.9857186,2.7547433,-0.7758153,-4.610743,-0.2508609,-2.3705802,-0.15759233,-0.56024265,-0.33518973,-1.3424817,2.639284,0.30933577,-1.1980333,2.4805393,4.090273,2.87108,2.0450354,-3.0540552,0.63190407,0.15025645,-0.059433155,-2.5256934,-2.2610552,-0.039338127
Q99683,0.14071757,-0.6157984,5.011594,0.086826004,-2.027696,-2.0815291,-1.1006835,0.5432509,-0.47213653,-1.4291265,2.9056046,0.92665267,-1.6324095,-0.041768037,-1.5720282,-0.6564505,-0.38033456,0.42829743,-0.96176004,2.6848211,1.0623323,-0.26908302,3.7216244,0.6754452,-0.08473407,4.850319,-2.829913,-0.7675153,-1.2602131,-2.7316973,-1.1001953,-1.5583739,-4.126256,-2.572731,1.4778731,0.49364823,0.45941484,1.9006138,4.7196274,-0.19107135,1.3295084,2.2125409,0.00040669064,-3.6207,1.043747,-3.0215187,-0.65120476,-1.1118841,-0.48817348,-2.5616515,3.3059807,0.37614822,-0.41764244,4.101423,2.987948,1.3120328,0.89390093,-2.3589783,0.64730215,-0.4040522,-0.0061592627,-1.7742951,-1.3170825,1.2536854
P00519,-0.5857221,1.48352,4.208743,0.78329796,-1.2430629,-1.5992944,-0.3608443,-0.8779253,-0.5068162,-1.8137263,3.0758243,1.8767636,-1.0004181,0.07269934,-1.1623673,-0.58992517,-1.5070281,-0.16824093,0.12310106,2.9069166,0.25370342,-1.866263,3.6554174,0.30987138,0.027512316,3.4813955,-2.5114431,-1.182023,-2.034702,-2.655334,0.2626854,-1.3795569,-4.3694787,-2.4108033,2.3735092,1.2095674,-2.0888712,1.6363686,3.233777,0.8584451,2.252638,2.7885582,-1.1019425,-4.8565464,-0.659649,-4.067437,-0.98662937,-0.71774507,-0.58204496,-1.5066541,3.485537,1.1210365,1.2731493,2.4464264,3.3098812,1.9654647,1.3656874,-1.9929494,1.0585681,-0.19036168,-0.15063581,-2.098871,-1.2348948,1.2134203
P04049,-0.29648337,0.7577668,5.4039617,0.644266,-0.69841427,-1.6556067,-1.2542096,0.2329362,0.7864814,-2.2533112,3.2197728,0.90683603,0.26131442,0.051931642,-2.644876,-1.0502055,-2.0642493,-0.04034243,-0.93212414,2.521376,0.47028193,-1.0926619,4.6677833,-1.3038241,-0.769911,4.628139,-3.103711,-0.29198623,-2.2609255,-1.9553636,-0.018928694,-0.32646558,-4.868867,-2.0165918,2.691012,0.023883399,-0.5159847,2.1240578,3.3004477,1.2892282,1.7893155,1.8869131,-1.5689924,-3.5702333,0.4312576,-2.593591,1.2056854,-0.93059987,-1.826924,-0.8733396,1.927126,0.9268394,-0.65163106,3.3399136,2.646707,1.693286,2.10911,-1.8001102,0.31720883,-0.1686221,-0.031943914,-2.387699,-0.9609764,0.4627854
P05771,-0.19058266,0.79018974,5.5220866,1.6196482,-1.8165349,-2.8918824,-0.6939656,0.13774514,-0.6863387,-2.8959355,4.335998,0.7075991,0.06317976,-0.17074732,-1.8461131,-1.7005106,-1.4664007,0.10907571,-1.1949675,2.1806984,1.1212871,0.4246626,4.010589,0.37719148,-0.22875562,3.4634595,-3.305236,0.412714,-2.4367056,-1.883927,-1.6289622,-1.0058852,-3.1902685,-3.0847013,2.0667984,-0.22165446,-0.47722226,0.5095861,3.6911247,2.0372393,1.3698761,1.6227889,-1.6687151,-4.317937,-0.37556797,-2.495189,-0.93604654,-0.26150703,0.06996372,-1.0436502,1.8150945,1.6624732,-0.38451615,2.7005324,3.1176264,1.581412,1.981159,-2.8959727,0.62831163,1.0946348,-0.029144503,-1.8126105,-1.4269071,0.4679455
P07947,-0.32577145,-0.23920253,3.3543913,0.90829015,0.30236018,-2.5603516,-0.4896523,-1.141305,-1.466498,-1.4266939,3.009652,1.428447,-2.2305465,0.0854474,-0.21836026,1.097423,-2.39943,0.28126302,-0.2767142,3.8755198,2.039099,-0.5777575,3.3206313,0.1332405,0.2994944,3.7309308,-2.935001,-0.35242468,-2.1967628,-0.84967405,-0.5160112,-2.1816943,-2.9028645,-2.0672843,2.1104329,0.84652853,0.32418957,1.9277741,4.5682707,-0.46348426,-0.44055247,3.5436034,-0.13679378,-5.0338993,-0.13368432,-2.9637418,0.23818928,-0.7483568,-0.31246075,-1.3731072,3.646513,-0.0809082,0.81249833,2.836424,3.55867,1.153387,0.96575445,-1.960506,-0.42162806,0.09427756,-1.4169276,-3.9970994,-1.8329996,-0.56504804
P08631,-0.13224152,-0.20182012,4.237898,1.661229,-2.3743029,-2.9274347,-0.6271852,1.0258659,-1.0459497,-2.082737,4.241434,0.91504323,-1.0033296,0.11230242,-0.9814657,-0.5912555,-1.6077274,1.0444642,-1.4171735,2.2319212,1.9721847,0.35422254,4.419312,0.40163448,0.59150606,4.494058,-2.3345873,-0.20126297,-1.7970624,-1.7637156,-1.943254,-1.6618733,-2.6062279,-3.103461,1.1948446,0.52446824,0.42225826,1.199365,4.388735,-0.3333746,0.117042914,3.1584065,-1.24779,-3.493515,0.076129675,-2.7470372,-1.3669394,-0.5799408,-0.054176416,-1.5835272,3.2849715,-0.29633528,0.25936356,4.128693,2.9512885,0.9173269,0.9664358,-3.129183,-0.43062657,0.34863508,-0.2083315,-1.9648824,-1.476632,-0.26915637
P16234,-0.68247133,0.8388695,5.4423437,0.5502585,-1.1048834,-1.9645886,-1.0040303,-0.5457403,0.44060686,-2.7483869,3.2275944,1.071163,-0.31193003,-0.68144125,-2.7683604,-1.9210593,-1.6110114,0.010532222,0.41979563,1.838479,0.100985914,-0.9435569,3.944881,-0.19825423,-0.85663897,4.386065,-2.8996437,0.06322324,-1.6901835,-1.6630614,0.09844725,-0.015616245,-4.89765,-1.4555367,2.6054268,0.1674046,-0.91271436,2.0570076,3.9248815,0.81365424,2.0214784,1.6814469,-1.4314238,-4.075209,0.67656183,-3.69152,0.34038264,-0.9292184,-1.4516064,-1.0708226,2.2430477,0.8420214,-0.34019214,3.2094066,2.888783,1.1661612,2.112386,-2.2264037,0.298947,-0.37277472,0.087053254,-2.275001,-0.75720173,0.5993829
P22455,-0.6771062,-0.2051927,4.4073753,0.5960732,0.2657456,-2.7811944,-1.4389396,-1.4137136,-0.65156627,-2.021074,2.5943136,1.5381957,-0.5058991,0.15726024,-1.5669191,-0.6156395,-2.820991,0.32111952,0.1999034,1.7728082,1.3104587,-0.7102579,3.5051725,0.034565352,-0.16573405,4.114966,-3.810888,-0.07411646,-2.4496725,-1.4455703,-0.60407984,-1.7175812,-3.054773,-0.9118819,3.2719412,-0.13508148,-0.49261346,1.5333405,4.5024066,0.5933741,1.2563392,1.8470168,-0.6537311,-4.3010645,-0.80584824,-2.819223,1.3331603,-0.991383,-0.9773993,-1.667279,3.0338063,0.1262959,-0.12043905,2.477238,3.513702,1.7735406,1.6989565,-3.0029078,-0.3169196,0.06414208,-0.17939532,-4.2178125,-1.9015949,-0.3781107
P27361,-1.2016181,0.37425143,4.2448177,0.7756909,0.042476624,-2.2554343,-0.3304496,-0.15626289,0.55973285,-2.0565557,2.4505134,1.4667702,-0.90721273,-0.10143368,-1.7313108,0.19260646,-1.2757188,-0.15520158,0.55552244,4.2007437,0.8152229,-1.2490773,3.225343,-0.9981488,-0.7322544,3.7722204,-3.0900736,-0.3923254,-1.8869283,-2.3018544,1.2069014,-1.512775,-5.1725664,-1.5604935,2.6252732,1.8048422,-0.6164439,2.1127944,4.263139,0.6611744,1.5155809,2.3018117,0.2365945,-4.5568266,0.7422061,-3.027187,1.2712351,-0.5149167,-1.1998487,-1.3642201,2.158372,1.3124672,0.49390382,3.0752895,3.5988946,1.5259595,1.5161797,-0.9659298,0.6506752,-0.9360847,-0.5237224,-3.0441484,-1.6341093,0.42149526
P29323,-0.47229186,0.17513545,4.879193,0.17297652,-0.85365963,-1.8174254,-1.8191535,-0.15859883,1.3959689,-0.91132814,3.048133,0.8690906,-0.8435259,0.25012806,-2.6182535,-0.22984591,-1.4420905,0.15991114,-1.0457739,2.2867281,1.4240044,-1.0344776,3.7917604,-0.14367878,-0.81683886,4.5074067,-3.48937,-0.8545621,-2.497956,-2.4754672,-0.9209319,-1.6035715,-3.9483085,-1.023911,2.4245765,0.4642622,-0.18846925,1.7758224,4.404094,-0.12369317,0.6898326,2.5782511,-1.1306894,-4.7066536,0.6105773,-2.8624194,0.48911768,0.14761488,-1.5398297,-2.3148017,2.461328,0.28016132,-0.094540335,3.0853174,3.360746,1.5512346,2.0018566,-1.7605237,-0.062538475,-0.22364914,-0.6333523,-2.478238,-0.9400823,0.17380387
P36888,-1.0872916,0.469738,4.0001793,0.42703933,-1.4777434,-2.286659,-0.19898084,0.80351883,-0.016499355,-1.5277854,4.5637574,1.611947,-1.6819522,0.79815525,-1.9093812,-0.5765303,-0.84782785,0.33868077,-0.7240218,2.829371,1.3685664,-1.6108552,4.003178,0.0017764885,-0.21566962,3.272529,-2.6854317,-0.70682853,-1.7857898,-3.1498702,-1.0766233,-1.6082087,-3.4159732,-2.2239025,1.9249296,1.5352693,0.03451211,0.9252544,3.9188368,0.21577525,1.2000152,3.5080492,-1.4494771,-4.8156805,0.37854457,-2.9905965,-0.52324283,-0.17535041,-0.44893628,-0.6666182,2.2247186,0.77339953,0.8750569,2.6050467,4.1800694,1.9550452,2.0672123,-2.6449292,1.1862689,-0.06648643,0.3968712,-1.8721179,-1.5017557,0.45031565
P41240,-0.24640766,0.19275491,4.052099,0.4300168,-1.2244976,-2.3924491,-0.21907584,-0.46985316,-1.3077215,-0.6630771,3.1734922,1.8081776,-1.1160989,0.04585072,-1.7504178,-0.7089646,-1.7782944,0.829165,-0.89339787,1.548071,1.7989523,-0.60318285,4.090368,-0.55429065,0.5645014,4.11587,-3.3029304,-0.756121,-2.025331,-3.126031,-0.5897807,-1.4138336,-3.5713334,-2.068023,1.2570846,1.7544432,0.14788155,2.0153074,3.3892748,0.43851852,2.605049,2.624325,-1.9125671,-4.244184,-0.2282764,-2.326654,-1.1872064,-1.4458436,-0.2891946,-2.524675,3.1769412,1.6577023,0.6000616,3.0861917,3.540013,0.7497118,1.2850286,-2.3119938,-0.09671989,0.30777845,0.97793144,-2.911639,-1.2685103,2.1259203
P41279,0.11732272,-0.38128075,5.6238494,0.90229774,-1.115225,-2.4945736,-1.3476614,-0.8686141,-0.94885546,-2.681943,2.7875042,0.22188172,-1.1721677,-0.10391449,-2.1752093,-1.5288962,-1.4589161,-0.27349746,-1.0845116,1.6089257,1.7856638,0.09049127,4.166937,0.045931604,0.20893162,4.1217203,-3.9764502,-0.15057127,-2.5195775,-2.335235,-1.4061737,-0.70230347,-3.2233827,-2.441316,2.5214474,0.19223905,0.21672806,2.247717,3.7707999,1.1096311,1.6326323,1.196291,-1.7603741,-4.4019513,0.5915673,-2.761789,-0.20066687,-0.56533116,-0.5418673,-1.6803055,1.4231952,1.8469043,-0.36030087,3.1555037,3.2491324,0.91760707,1.7411423,-2.2664738,-0.05147513,0.87546587,-0.34244418,-2.6985114,-0.9417867,0.8264545
P43403,-0.2731679,-0.63145125,4.8205967,0.34166327,-1.0752445,-2.3236182,-1.3766803,0.5022579,-0.958366,-2.5170681,2.893591,0.90318924,-1.3586999,0.262317,-2.376221,-1.4106586,-1.3873166,0.22308983,-0.33405277,1.857496,1.0991727,-1.5165815,4.334468,-0.23310876,0.023525529,4.671174,-2.7467592,-0.55002296,-1.8328696,-2.9030495,-0.45441872,-1.2212212,-3.9881494,-2.2204792,3.112178,1.0038598,-0.3368789,1.6343147,3.9179401,-0.08216859,0.8952966,2.3552444,-1.4887305,-3.337901,0.9603865,-3.3955307,0.49019462,-1.3097752,-0.99473226,-0.3502734,2.1441076,0.84206796,-0.074932404,3.6894405,3.5362232,0.9072537,1.0617282,-2.609383,0.79194987,-0.203215,0.28204933,-2.8795428,-1.1373824,0.37337595
