protein_id,0,1,2,3,4,5,6,7,8,9,10,11,12,13,14,15,16,17,18,19,20,21,22,23,24,25,26,27,28,29,30,31,32,33,34,35,36,37,38,39,40,41,42,43,44,45,46,47,48,49,50,51,52,53,54,55,56,57,58,59,60,61,62,63,64,65,66,67,68,69,70,71,72,73,74,75,76,77,78,79,80,81,82,83,84,85,86,87,88,89,90,91,92,93,94,95,96,97,98,99,100,101,102,103,104,105,106,107,108,109,110,111,112,113,114,115,116,117,118,119,120,121,122,123,124,125,126,127
O00141,0.13132921,-0.15652819,1.443138,0.17987102,-0.48043856,-2.012254,-0.7316316,0.76003104,0.33363676,-0.17802581,1.888931,-0.7299921,0.28851825,-1.1313623,-0.022241052,-1.2690713,-0.80669856,0.9231419,-1.4397645,-0.29245636,1.1620737,1.0159552,1.4458617,0.37493572,-1.0257858,1.502864,-0.7871847,0.6864594,0.5523819,-0.76679593,-3.081807,0.47580495,-1.1883014,0.16224067,-0.18779385,0.9047582,3.142674,1.5452309,3.2004871,-0.5038423,-0.05961908,1.3532811,-0.15303116,-0.42921117,0.56763834,1.1767932,0.08223917,-1.4512635,0.40702438,0.021360975,0.47878426,-0.13022043,0.89981216,1.6067972,2.1185575,0.7840484,0.7974652,-1.1358625,-1.5472145,-0.041393053,1.1734431,-1.2351702,1.0729159,0.8731793,1.3332683,-0.33897018,1.305515,0.5394888,0.7130112,-1.0429603,0.7059422,0.3790488,-1.6529131,-0.7001793,-0.60204583,0.00034353137,0.7728545,0.9141609,0.11406621,2.0712092,-0.2537194,-0.08146067,1.5048549,1.0649464,-0.0016032979,0.7328302,1.6874012,-0.3573092,0.64627814,1.0013236,-0.55119306,-0.50622374,-1.2603917,0.069217086,2.2037401,-0.37803435,-3.3308587,-2.3987858,0.8235369,-0.27020493,-2.3283696,0.39282578,1.5976623,1.2040814,0.34414017,-0.52301985,0.4423058,-1.9739141,0.013189862,-1.1940098,0.10966792,-0.17762543,0.29164752,0.80980563,0.13438639,0.5048413,-0.802175,1.5709584,0.91235197,1.0427687,-0.1360499,-0.11108639,0.36494723,0.17405087,0.38322312,-1.935549,-0.5075357,0.26608098
O14920,-0.21539457,1.0080224,1.0597286,0.5703816,-0.8695266,-1.7747879,0.21734329,0.23526661,-0.0666524,0.84254944,2.2900023,-0.46325144,0.704764,-1.4610468,0.29778618,-1.0937437,-0.17725544,1.0480881,-0.9523796,0.15163162,0.08387312,1.9067384,1.1652664,0.77246714,-0.5354478,1.4855517,-0.8134547,0.61018395,0.7451628,-0.6725959,-3.003147,0.97635424,-1.3598104,-0.64120156,-0.59478384,0.28960085,3.1479807,1.8922417,3.0101242,-0.64112,0.1083636,1.1013026,0.22327997,-0.6344595,0.8889877,1.8564416,-1.2726693,-1.0031661,0.32420993,1.0121479,0.38502812,0.69409,1.5838227,0.9956322,1.1448343,0.9886857,0.39840406,-0.6907399,-0.7207135,-0.056626115,0.87208825,-1.03818,0.4726187,1.0920681,1.4998767,-1.1817671,0.84681904,-0.22489065,0.6300696,-1.1556761,0.10821497,0.793745,-1.2440352,-0.29901615,-0.9234772,-0.072288446,0.3529236,2.0783386,-0.37620208,2.839513,-0.50911665,0.15012655,0.4326261,1.0950326,0.08413624,0.67502904,1.8878036,-0.09363976,1.0658643,1.3696839,-1.3200889,-1.1075157,-1.5425931,-0.042133834,1.1173579,-0.4209292,-2.270292,-1.6326874,0.96805125,-0.25972813,-2.3453553,-0.22102693,1.5152715,1.5074037,-0.037417226,-0.5972759,1.1731852,-1.4442966,-0.49595147,-0.9765124,0.9819131,0.09688524,0.35650125,0.52377075,-0.44137537,-0.17827465,-0.89677227,1.4908192,0.56040895,1.3128533,-0.011667384,-0.3789282,0.2233855,0.016483631,0.04022847,-2.459958,-0.8034983,-0.37603828
O15111,0.68647224,-0.7176246,1.082476,-0.5653811,-0.2735485,-2.0080006,-1.2451266,0.8795138,0.47179973,-0.39017192,1.9393634,-1.054438,0.52320915,-0.7879572,0.9486165,-1.5533078,-0.52197546,0.9948063,-0.8654864,-0.24475749,0.8921589,0.56818146,0.6665799,1.0179375,-0.46800464,1.374289,-0.2699954,-0.04925258,0.7978157,-0.55626714,-2.511458,0.5865078,0.019935217,0.21411459,-0.5189086,0.77784914,3.1589086,2.3684568,2.424916,-0.9635474,-0.15077965,1.1245774,-0.01612199,0.075568944,0.7135325,0.19414675,-0.073547415,-1.3538935,1.3928,0.8624389,0.028635643,0.2713663,1.2135581,1.7347786,1.691216,1.6038365,0.84610087,-0.68465894,-1.411103,0.15966278,0.99334747,-0.68614423,0.71205455,-0.11693792,1.7525141,0.124710456,1.2064852,-0.513353,0.9458212,-0.84636724,1.1352885,0.23905435,-1.2063067,-0.4889541,-0.651545,0.28534883,0.49385262,1.3391613,0.091628075,2.4894838,-0.56230086,-0.62249535,1.0961251,0.69751966,-0.3527843,0.8643412,1.3439384,-0.8908041,0.034934476,0.9555637,-1.2701685,0.03667265,-1.3313825,0.05050736,1.6833984,0.4227913,-3.5298696,-1.9809542,0.6226956,-0.49901408,-2.6593995,0.032296218,1.0881088,0.90454745,0.25545835,-0.21020927,0.28557602,-2.2203393,-0.6525154,-0.7577192,0.38115844,0.28234875,0.27708057,0.98497844,-0.6076868,-0.43484467,-1.961731,0.8939884,0.7224486,2.0701132,-0.3008687,-1.1380781,0.0086283935,-0.41733956,0.5656199,-1.5593619,-0.67373854,1.0585059
P00533,0.49445257,-0.19530419,0.8443577,0.6669284,-0.36323863,-2.1149879,-0.8679165,1.5473349,0.36581054,-0.64186096,1.506256,-1.3638816,0.09939267,-1.5130506,-0.055617824,-1.1155492,-0.17460462,0.41377434,-1.6992729,0.36779705,1.4864435,0.5202194,1.5575336,0.29543293,-0.7148887,1.3635621,-0.8914763,0.25957018,1.0739173,-1.1259253,-3.1294847,0.9796725,-0.89053214,-0.085749306,-0.12513173,1.374522,3.3731632,1.503635,2.5071504,-0.3096799,-0.27973586,1.0209419,0.32397765,-0.36881918,0.5287186,0.7027233,-0.3756274,-1.082134,0.52351755,0.45292136,-3.4851488e-05,-0.096184775,1.3755736,2.0492854,2.08471,0.69346005,1.2184819,-0.958648,-1.5001909,-0.49538144,0.5756718,-1.1771196,1.1540766,0.012213049,1.0650064,0.27698648,1.9522116,0.5958949,0.09073648,-0.5563462,0.9606239,0.16086578,-1.7448448,-0.4394886,-0.21696192,0.0067096474,0.40972087,0.12592934,0.27104294,1.7829,-0.41868216,-0.67759144,1.480369,0.9365296,0.100293115,0.8377675,1.5463473,0.4676392,0.7501895,0.92406744,-0.07942932,-0.6697285,-0.60019827,0.31631294,1.9449044,0.33855444,-3.2728562,-1.9144595,0.8342875,-0.1585288,-2.4065628,0.7241537,1.1313971,1.3085225,1.6374708,-0.9070841,0.830467,-2.1376338,-0.55548644,-1.5161313,-0.10698773,-0.030663662,0.31474853,0.34492984,1.0888438,0.04392425,-0.14976104,1.4924468,0.90511966,1.0121723,0.25334767,-0.54260117,0.42222625,-0.5314423,0.9753567,-1.4349849,0.2824427,0.82192767
P04626,0.44923124,0.49841642,1.0573263,0.31899184,-0.45032606,-1.6327015,0.24788758,0.86436963,0.5521887,-0.070884,1.8991915,-1.3809484,0.49817744,-0.6456551,0.39504576,-0.7039465,-0.62453496,-0.083708085,-1.6923943,0.15707849,0.8877639,1.3762989,0.82604104,0.5140361,-0.844424,1.2734512,-0.53833354,0.6050828,1.0496074,-0.49137253,-2.8728783,0.68433017,-1.0943394,-0.63022447,-0.50940776,0.92405295,3.1290598,2.0019314,2.7561476,-0.75229317,-0.37585193,0.91003096,0.63299227,-0.5744376,0.8179096,1.1676439,-0.648966,-1.0463554,0.9210787,0.7372994,-1.9352883e-06,0.86601186,1.284415,0.6849712,1.6092863,0.9151051,1.7686619,-0.38759136,-0.9924946,-0.7633601,0.32965255,-1.424317,0.17867282,0.20888512,1.8956864,-0.2410132,1.3441448,-0.15549114,-0.037108876,-0.33475113,0.9802637,0.9745155,-1.765995,0.1326027,-0.094421044,-0.38239607,0.6775448,1.3090773,0.40770963,2.547588,0.1327878,-0.7198429,0.5670586,1.120701,-0.11610885,0.8829989,1.6557655,-0.124187455,0.9042754,1.077695,-0.5357964,-0.7928884,-1.0430382,-0.015826877,1.3173301,0.002712925,-3.402537,-2.096625,-0.08186883,-0.10630413,-2.4024346,0.5554379,0.8697749,1.8587629,0.98045236,-0.49026066,0.9918796,-2.3285835,-0.75388175,-0.8650449,0.68308836,0.2321484,0.0944383,0.38815024,0.5050194,0.16248927,-1.0268805,1.788204,0.7657534,0.99182886,0.4828013,-0.26664224,0.47391295,0.12593694,0.7781339,-1.4272687,-0.35221153,0.38592818
P06239,0.08744787,-0.18609063,1.3860192,0.5613385,-0.29742274,-1.9061967,-0.923598,0.9073689,1.3944445,-0.22600424,1.5100088,-0.8117646,1.2248801,-1.9901096,-0.51739794,-1.0434355,-0.58989567,0.6202484,-1.4438375,-0.2579168,0.8475097,0.8595706,1.3722465,-0.029758153,-1.0482113,1.244768,-0.5610093,0.47297558,0.8638297,-0.9881191,-2.767008,0.72563595,-1.4290161,0.05082436,-0.0068510976,1.8460144,2.9222038,1.3524878,3.1821203,-0.5466377,-0.26502264,1.040045,-0.39970568,-0.5907347,1.019807,1.0835477,0.3083916,-1.4465191,0.10318432,0.5405693,0.34293205,0.5283928,0.93590504,1.507075,1.92015,0.5575988,1.027021,-0.33163315,-1.5320404,-0.2239304,0.40733925,-0.8231197,1.4014778,0.9050068,1.4182171,-0.11208252,1.5303429,0.48070562,0.7901254,-0.4405459,0.65980077,0.5198599,-1.6041207,-0.19021554,-0.123784244,-0.44107437,0.9633487,0.8576779,0.5425365,2.0125196,-0.1830902,-0.25693816,1.6372408,1.1653646,0.34210926,1.0902028,1.4972615,-0.25867084,0.42628762,0.5860982,-0.12262623,-0.4571506,-0.5835273,0.22230296,1.7151197,-0.07023652,-3.2536397,-2.8550699,1.0197501,-0.52468044,-2.4322383,0.48256883,1.075544,1.4425411,0.7945113,-0.91861814,0.020829145,-2.1070182,0.113252275,-0.6958226,-0.2030231,-0.008656331,0.16809937,1.210264,-0.17536896,0.056624405,-0.45865488,1.2470129,0.7507096,1.5279391,0.15946853,-0.35855106,0.7599516,-0.24483123,0.9892267,-1.4697914,0.002881141,0.40989596
P07333,0.66107917,-0.023972439,2.2687624,-0.8197796,-0.6360795,-2.4378169,-1.0058422,1.6237651,0.928428,-0.37793005,1.7451018,-0.4122763,0.61140555,-0.7602032,-0.5885523,-1.5575202,-1.0557029,1.2000086,-1.3542048,-0.40908867,1.7749928,-0.20837383,1.889854,0.024303328,-0.49335012,1.0895244,-0.7743511,0.78955084,1.2203498,-0.3484042,-2.8345811,1.0968734,-0.59039336,-0.15189677,0.13741827,0.59434736,2.2442257,1.5895238,2.022029,-0.5218104,-0.21803607,1.8712311,-1.2173536,-0.50176823,0.90474725,0.9377165,0.060577635,-1.2662003,0.55704355,0.6460087,-0.13606353,0.47680676,0.22498189,1.2969406,2.0604663,1.3236982,1.0146233,-0.2521488,-1.1641872,-0.17458923,0.52856296,-0.48407373,0.8597251,0.34448567,1.3678288,-0.20662472,1.4715223,0.015535453,1.2409124,-0.6248534,0.11252713,0.6107525,-1.1498234,-1.1618159,-0.4676676,-0.18931822,1.4069884,1.1328076,0.005508832,1.3675884,-0.26360872,-0.19346307,1.810081,0.96121883,0.69505316,0.7606461,1.4337693,-1.0507271,0.108624086,1.0611234,-0.9853175,-0.49295393,-0.9682847,0.065489344,1.2910746,-0.28650668,-2.8627098,-2.5680542,1.2143571,-0.27247134,-2.9399745,0.9360341,1.3155602,0.9460532,0.5537301,-0.62055975,-0.40408844,-2.4057713,-0.26205644,-0.95194936,-0.19511476,-0.59645903,-0.5601075,0.93871015,-0.3376073,0.49598435,-0.35731676,1.2421718,1.0517997,1.7335458,-0.34617266,-0.88769454,0.7212329,-0.6314193,0.07996577,-0.99437773,-1.3293253,-0.020891609
P15056,0.1777282,-0.16904604,1.0530818,-0.47645035,-0.25600556,-2.118716,-1.0322845,0.77586627,0.5070223,-0.16876607,2.4592373,-1.3215114,0.14054324,-0.9705662,-0.021017246,-0.8025811,-0.4010303,0.7144471,-0.7737289,1.1661981,1.4091278,0.7237431,0.9940721,0.8967026,-0.9222039,1.7090513,-1.2587724,-0.3542789,0.49532366,-0.53215885,-2.6891203,0.37004474,-1.017286,0.1957389,0.43941823,1.1049759,3.30912,2.072577,2.692861,-0.77604645,-0.5717009,1.3917971,0.43369743,-0.33890548,0.98902935,0.6882853,-0.21409373,-1.0639445,0.60796595,0.510097,0.046817195,0.37992084,1.5452394,1.4899606,1.7731578,1.3196213,1.3257798,-0.051525194,-1.1080768,-0.613451,0.42502612,-1.3783853,0.8652434,-0.47595802,2.0105207,0.13163763,1.803893,-0.16616341,0.8415268,-0.41270837,0.73782027,-0.48937434,-1.5041829,-0.39774895,-1.073768,-0.10683923,0.47895768,1.0813518,-0.058674708,2.7674854,-0.42530486,-0.7873619,0.89078784,1.677728,0.0085190665,0.6895238,1.4791508,-0.33191833,0.5008113,1.1354741,-0.7187234,-0.8455788,-1.8398054,-0.03527412,2.1647837,-0.33530247,-3.612669,-1.2172489,0.57754594,-0.49642923,-3.0820265,-0.10465239,0.59176564,1.3725731,0.8570567,0.038797155,0.71534926,-2.280514,-1.3030589,-2.1033301,0.3038594,-0.22058742,0.04534137,-0.2324112,0.16669786,-0.49886405,-0.9449558,1.1436205,0.57963634,1.2360704,-0.46704105,-0.6173695,-0.17262566,-0.44460002,0.11352567,-1.6433557,-0.4503478,0.83035636
P24941,0.8450233,-0.87220204,1.1447877,-0.31322545,-0.36960068,-1.6435719,-1.7783362,0.6901796,0.65069973,-0.05096021,2.0020168,-1.3579125,0.6224943,-0.49228385,0.20902166,-1.7517755,-1.2677089,0.539581,-1.7799319,-1.2323201,1.087328,0.8761302,0.69830513,1.052415,-0.79058707,1.2665417,-0.59242785,0.19081593,-0.14561185,-0.04504726,-2.4464312,0.20587851,0.0034211734,0.5829827,-0.31325278,0.12582475,2.7550132,1.5620921,2.7504957,-0.07792969,-0.6857365,0.45806217,-0.3319365,0.017421613,-0.43421465,-0.22153874,0.45732063,-0.7038556,0.9380401,0.27072307,-0.06796497,-0.28639537,0.4837768,1.3843933,1.2681075,1.3006389,1.1632336,-1.2547824,-1.8349899,1.1276139,1.0838532,-0.77166575,0.44058463,-0.25058672,2.0226233,-0.21433452,0.85239685,-0.28046447,0.73280156,-1.2560725,0.77285933,0.41817293,-1.4383011,-0.8280575,-0.5580584,-0.94554365,0.7549686,1.169404,0.20291504,2.0109994,-0.79262596,-0.5886982,1.0382023,0.75512797,-0.9943955,1.437438,0.9574668,-0.31342903,-0.21666877,1.389696,-0.6318805,0.6361846,-1.0357007,0.30217215,1.7449129,-0.4511717,-3.6267648,-2.5372875,-0.13651784,-0.18807665,-2.400002,-0.49721834,0.94609207,0.8094598,-0.7013225,-0.95034945,-0.13523151,-1.8673596,-0.1917222,-0.3197151,-0.036710937,-0.70597255,0.96921045,1.6291611,-0.8468637,0.5767455,-2.7888114,1.6464306,0.62906903,1.0923176,-0.68262637,-1.5353596,0.20728727,0.42657018,0.26103985,-1.221009,-1.0095743,1.026743
P28482,1.2556802,-0.7764019,0.36160913,0.021146234,0.98926324,-0.8173832,-1.1089337,0.86640316,1.0362039,0.6288779,0.635149,-1.5124516,0.0072924495,-0.89145875,-0.399153,-1.170176,-0.07255788,0.74927914,-1.9743282,0.83174056,1.3199025,-0.37825918,1.4962814,0.8019097,-1.2179838,0.68005013,-1.4344491,-0.30739668,0.9731946,-1.0025296,-2.343513,1.5487651,-0.3802776,0.40061706,-0.4056635,0.749181,2.5939748,1.3292987,2.6035402,0.63325006,-0.30694377,0.93330395,-0.37177873,-1.177285,-0.06374359,0.17289087,0.29013437,-0.852239,-0.25821686,1.1921515,-0.11555505,0.2929039,1.802663,0.8822342,1.161014,1.8768308,1.2745175,-0.93164635,-0.85667765,0.4832949,0.79582846,0.03546032,0.90362537,1.7764502,1.244452,-0.49633235,2.38588,-0.0843189,0.26913247,0.0413761,0.27640185,1.5123739,-0.23029709,-0.2819974,-0.22459136,-0.7573571,0.5603535,2.0063326,-0.63948077,2.2977505,-0.22421391,-0.5645701,0.53851986,-0.44958982,0.29799056,0.9153771,1.63869,0.29597625,0.11754259,1.6219522,0.11965275,-1.3931454,-1.6189587,-1.0972241,1.1603379,-0.6306037,-3.1661997,-3.1490762,0.26856968,-0.40090784,-1.1146045,0.057811074,-0.23345666,0.43228483,1.2774975,-0.7236358,-0.5339693,-1.7844412,0.85848075,-0.3269962,-0.75303257,0.25908518,0.8912116,0.26912263,-0.67537886,-0.58034253,-1.570838,1.3768394,1.1669122,2.3343306,0.23999225,-1.0739187,-0.10698897,0.44081083,1.1101377,0.44840118,-0.31948203,0.9708873
P45983,0.54511064,-0.20078087,1.4367156,0.14879557,0.56255686,-1.5926187,-0.17191018,0.7043171,0.3026201,-0.43358508,2.4806895,-1.9671247,-0.60367507,-0.36639643,-0.47640437,-0.65336794,0.18125546,0.14621618,-1.2366191,1.6832452,1.7773432,0.7033404,1.5092428,0.9487875,-1.0553757,1.902153,-1.4651569,0.23988491,-0.3579525,-0.8063914,-2.2342165,0.49968806,-0.6943284,0.36054686,0.11221923,0.06605119,3.1925309,1.5355064,2.473611,-0.63087106,-1.2064706,1.6022881,0.12134247,-0.9469897,0.8091131,0.32967934,0.26116523,-0.08384821,0.3040032,0.99264526,-0.42088318,0.59841967,1.4801962,1.2797157,1.8579899,0.9795201,2.2179706,-0.4957908,-1.0600281,-0.33979407,0.44161618,-1.5422205,0.8628777,-0.49001384,1.7217076,0.026910068,2.07583,0.025020052,0.48861733,0.7932089,0.8777895,0.27138978,-0.86660826,-0.65250134,-0.62143,0.21298389,1.2878218,1.382885,-1.1629188,1.9240658,-0.2643174,-0.35107732,0.4246116,0.91772324,-0.50190204,0.63148475,1.4378842,-0.28248304,-0.25857982,1.9157493,-0.34473127,-1.6473297,-2.2856033,-1.0778786,2.2093916,-0.74895966,-4.0135007,-1.586916,0.18047808,0.049764097,-2.7159905,-0.6275028,0.17393917,1.665398,1.9318463,-0.041566033,0.25809467,-1.7600454,-0.69104344,-2.3906837,0.020578146,-0.5419557,0.009526148,-0.9762605,0.5332416,-0.16324657,-0.95056367,1.3382237,0.3766348,0.913002,-0.08910376,-0.5078853,0.28924587,-0.41272527,0.75622517,-0.6290367,-0.9516438,1.5236597
P45984,-0.13391118,-0.19327077,0.35609093,0.22445889,0.13496046,-1.894789,-0.4141318,1.4447966,0.04628221,0.48582265,2.297999,-1.0822517,0.21972318,-1.2255038,0.28783268,-1.6001647,-0.361569,0.41201845,-1.9168832,0.034890823,0.9905036,0.53791463,0.5503067,0.40162185,-1.165311,0.8661599,-0.9369631,0.723879,1.0839536,-0.6030507,-2.9163141,0.5789771,-1.6332603,0.06413593,-0.3630301,1.2217959,2.7633252,1.3261025,3.3717608,-0.08447318,0.27702275,0.9831687,0.6276524,-0.4705789,0.05843156,0.76308906,-0.324304,-0.93848,1.070538,0.061974067,0.48012656,-0.40032145,1.5429556,0.9737747,2.1136236,0.74570614,0.9325511,-1.3419744,-0.9940713,0.14829208,1.2803069,-1.2389711,0.17836246,0.5676739,1.6550606,-0.4094467,1.3349049,0.8673216,0.036909677,-1.0036306,0.76798135,0.16642067,-1.7122829,-0.765766,-0.17102504,-1.1350968,0.5590948,0.38661352,0.86035496,3.0129483,-0.42332965,-1.3082247,0.63565487,1.4445633,0.10329145,0.8114585,2.011864,0.59308296,1.6022078,0.7095941,0.5270428,-0.8338933,-1.1077697,0.42849213,1.616145,-0.5672106,-3.573912,-2.8553228,-0.24993032,0.044930488,-2.3046184,0.4887569,0.91329956,1.1703998,0.6462892,-0.5360861,0.72509366,-2.8977318,0.0794072,-0.8540502,0.40651152,0.06655194,1.1336409,0.42617851,0.44501594,0.32990938,-1.36325,2.2979076,1.1224138,0.22104782,-0.5533302,0.120395124,0.37575695,0.6681366,-0.040661227,-1.232431,0.57517403,0.18277282
P49841,0.09516178,0.090584494,1.0048497,-0.4607492,-0.21035734,-1.9897697,-0.28231838,0.8825159,0.73969126,0.3990537,2.7035437,-0.63028187,0.41782755,-1.0756657,-0.6127074,-0.603244,-0.58156735,0.56329775,-1.0086335,0.21893275,1.4447542,0.9527518,1.6139185,0.694758,-0.42851558,1.7695457,-0.71001697,0.59687364,1.3226601,-0.33929744,-2.7415943,0.46743044,-1.1556871,0.025909182,-0.69592917,0.7495973,3.2148666,1.7207055,3.3291373,-1.0965436,-0.22736046,1.3481301,-0.1450639,-1.3223835,0.9357201,0.8110049,-0.4948815,-1.0107626,0.37720543,0.32870308,0.24701422,0.08272995,0.8656969,1.3798232,1.6554987,0.6773395,1.977479,-0.95474553,-1.0733311,-0.8267459,0.6393486,-1.3689135,0.37478527,-0.4505836,1.9827118,-0.3447851,1.6411321,0.28543547,0.65259665,-0.37583956,0.50129277,0.32986507,-1.4082956,-0.107502565,-1.2340052,-0.49147436,0.7586479,1.7470803,0.1989877,2.8701544,-1.0685421,-0.63839006,0.18063581,1.4105593,0.17722702,0.92161816,1.7399802,-0.78409415,1.0024338,1.7602148,-0.6543741,-1.0854577,-1.4066567,-0.40638694,1.5088665,-1.1892796,-3.049271,-2.076523,0.63044333,0.29570836,-3.068257,0.6142757,0.330518,1.0295258,0.758958,-0.6150484,0.1638404,-2.4346862,-0.9749855,-1.32929,0.542993,-0.55083746,-0.24161454,0.25035262,0.43878448,0.14772148,-0.9323481,2.0515707,0.84550846,0.6344081,-0.65498704,-0.8532518,0.013157893,-0.116928,-0.38962996,-2.0138648,-1.3822402,0.0841016
P53350,0.6874871,0.51165336,1.1147355,-0.2533951,-0.6249902,-1.6044484,-0.88846034,0.9637339,0.9170098,0.10535248,1.8277464,-1.059278,0.14832999,-0.6272086,0.019155134,-0.90646267,-1.0055994,0.922704,-1.4201437,0.6774435,1.037006,0.6261485,1.3372345,0.66966003,-1.0919929,1.6625999,-1.0850303,-0.074323036,0.971512,-0.11559005,-2.9594805,1.1504389,-0.91993517,-0.46192104,-0.08796597,0.63239443,3.2276309,2.375628,2.6106653,-0.7348712,-0.8458084,1.6133137,0.044509377,-0.8135965,0.9660553,0.7388358,-0.91430986,-1.1114788,0.27925223,0.9883448,0.1559669,0.3138479,1.3714341,1.322934,1.4050442,1.6694645,1.3556924,-0.26947847,-1.0914968,-0.5657341,-0.04315055,-0.9561195,0.37819448,0.047743607,1.6133325,0.002660133,1.463577,-0.46734628,0.4497613,-0.59840125,0.19242196,0.77733195,-1.1369696,-0.20311691,-0.7762216,-0.02677086,0.68269616,1.9793414,-0.312925,2.311106,-0.49871087,-0.5221972,0.93246484,0.46986106,-0.119798616,0.11366451,1.8525227,-0.16390716,0.61663127,1.4717457,-1.0107714,-0.9608007,-1.7195997,-0.5011519,1.5332237,-0.35001805,-3.0068636,-1.6104814,0.97480935,-0.5234291,-2.7750661,0.12539586,0.7135569,1.1702471,0.59921294,-0.29636338,0.65569717,-1.9510663,-1.3485508,-1.2241404,0.5580844,-0.05980488,-0.09653698,0.54373413,0.12452185,-0.14258566,-1.1271865,1.3271155,1.1921797,2.047431,0.3241055,-1.1125178,0.26915202,-0.33294433,0.6219364,-1.6560352,-0.8634038,0.18314359
P53779,0.70003235,0.62114596,1.2312876,-1.0769069,-0.69291407,-1.014528,-0.86980826,-0.06450419,0.79935807,0.36762705,1.3987668,-1.6997885,0.55672735,-0.5067349,-0.2868401,-1.0305958,-1.4762118,-0.13158064,-1.630305,0.04056601,0.7101994,0.7374694,0.97523326,1.0656822,-1.1558323,1.5194572,-1.1215026,-0.41396558,1.2741616,-0.04652836,-3.0861733,1.0661669,-1.8800646,-0.728833,0.6709559,0.7559278,2.47475,2.6234329,2.312816,-0.2085656,-0.05916737,0.6262022,0.11476617,-0.05198884,1.0230933,1.2027732,-0.61020803,-1.6673306,0.3690021,0.61172026,-0.097680636,1.0022708,1.3641427,0.08070476,0.73562145,1.9128046,1.6175842,0.54837185,-0.82728523,-0.63254374,0.17904502,-1.0170307,0.6088377,0.92794204,2.0829625,-0.57104445,1.3477339,-1.2831906,0.580821,-1.1598408,0.109733775,0.40560994,-1.6671195,0.053606734,-0.7712313,-0.85388446,0.4297699,1.9242307,0.3711178,2.742115,0.2279669,-0.6024059,0.87840265,1.0765433,0.17673725,0.93709385,1.0430491,0.18222396,0.8320687,0.9638719,-1.0085608,-0.6446086,-1.2457372,0.13913465,0.6488052,-0.5987939,-3.0446017,-1.3585559,-0.37577105,-0.5340602,-2.0656047,0.30081102,0.11619654,2.0562754,0.6135272,-0.41252783,0.6774933,-2.8852704,-0.87154424,-0.8549632,0.470713,-0.28855917,0.52385384,0.069506794,-0.6772323,0.13386878,-1.4808062,1.569861,1.1076639,1.8920668,0.54891676,-0.6186828,-0.3712391,0.96367496,0.049998485,-1.361219,-1.2222747,-0.091303155
Q13464,0.103180654,0.44769722,1.4518243,-0.9868128,0.36677954,-1.6899173,-0.76066655,0.951749,0.8764838,-0.16381525,2.157986,-1.0133562,0.37102067,-1.2034007,-0.21977669,-1.2415895,-0.8465431,0.51596713,-0.90641856,0.4529947,1.0646312,0.03934514,1.592847,0.3305289,-1.1533772,2.060657,-0.35631365,0.85507655,1.2292353,-0.120209746,-2.5177734,0.71057516,-2.0614505,0.38145405,-0.22826809,0.5584147,2.1934114,2.3379278,2.7186985,-1.0614219,-0.0066026263,1.5283704,-0.3097735,-0.64409924,1.1635895,0.82817006,0.38754755,-1.3656846,0.30043566,0.038068645,0.15251686,-0.24187161,1.0340093,1.7430165,1.9507468,0.91561836,1.3780432,-0.22092575,-1.1289141,-1.0840582,0.49647647,-1.0938182,1.0660176,-0.077965535,1.8086752,0.015812283,1.3899668,-0.052038148,0.770674,-0.5892186,0.16233358,-0.1509667,-1.148769,-0.4198619,-1.059519,0.11158096,1.1222907,1.2582365,-0.16546677,2.3888078,-0.49722525,-0.4149931,0.5598573,0.6607388,0.3474767,0.15623865,1.4573433,-0.5394639,0.62596464,0.63764393,-0.65055054,-1.2625663,-1.39955,-0.41641515,1.0991346,-1.0291741,-2.8873332,-1.6459558,0.7429314,-0.27924675,-2.8883896,0.12321319,0.63516027,1.4202538,0.8452606,-0.2939331,-0.15962854,-2.9993384,-0.6044847,-1.2413372,0.12766653,-0.3568206,0.0017621405,-0.049598675,0.16829403,0.40964973,-0.83625954,1.2512099,1.279174,0.89886713,-0.40806624,-0.16918208,0.4142444,0.25122607,-0.2747103,-1.7946863,-0.6887425,-0.10190167
Q16539,-0.3401468,-0.5493168,0.9327265,-0.26449966,-0.17055778,-1.5407317,-0.507626,0.40208763,0.61489415,-0.006262514,1.7268801,-0.23830624,-0.2561825,-1.5841211,-0.6339748,-0.5579705,0.18856584,0.8553437,-0.43108395,1.7565461,0.8294769,-0.06707694,0.8678279,-0.17382157,-1.2745365,1.3607123,-1.765904,-0.8157115,1.2896315,-1.6043832,-2.4088705,0.9708578,-1.629477,-0.037954573,0.9401984,2.4090767,3.033722,1.3230556,2.5258055,-0.46985322,0.47776166,1.6711856,0.33509767,-0.75866,2.0552711,0.8454097,-0.2355667,-2.0840874,-0.15985422,0.5223503,1.0633726,0.66338956,1.5785445,0.8624823,1.869636,0.72909147,0.74338347,-0.077522,-0.014176325,-1.1361284,0.6228426,-1.3139013,1.0441077,1.4842196,0.3020965,0.36640644,2.1384802,0.872074,0.3150985,-0.014700724,0.6356429,-0.55384344,-0.9803746,-0.08210362,-0.27722257,0.33431178,0.40435454,0.6549371,0.69394296,2.4062114,-0.18757103,-0.6467658,1.4116102,1.2358693,0.6603462,0.009415944,1.8354044,0.14044535,1.3524027,0.7043959,-0.30412468,-1.100242,-1.489412,-0.4832635,1.6920973,0.17246257,-2.6034987,-1.5934356,1.0345677,-0.45928997,-1.7470362,1.2729803,0.3607068,0.7701967,2.1120598,0.63686424,0.6081414,-2.1343699,-0.31357953,-1.6523908,0.21203081,1.2090949,0.0039457297,-0.8847926,0.60664946,-0.9977287,0.39285424,0.6536218,0.73583597,1.8221456,0.5734839,0.5177037,-0.44118822,-0.44429353,0.46549693,-0.9952753,0.43750206,0.37749544
Q16584,0.61182165,-0.2474259,0.09066692,-0.24122861,0.17967048,-1.6129023,-0.45361355,1.0541,0.49896348,1.1493636,1.6483432,-1.1108856,0.57021904,-1.0793067,-0.12597978,-0.804926,-0.5433545,1.0968268,-1.2595853,0.5639263,1.5851477,0.671084,0.8989957,0.41633847,-1.0132085,0.27628142,-1.5284947,-0.18307814,1.6231152,-0.003984996,-2.9006984,0.97492725,-1.0236902,0.25166047,-0.40171164,1.0033225,3.0799356,1.5404485,3.0865166,0.04372497,0.8377829,0.84716547,0.8581406,-0.7731554,-0.42651224,1.19072,-0.58873427,-1.8451928,0.34286648,-0.32279032,0.8685464,-0.5624352,1.238433,0.705351,1.9884176,1.1151365,1.0036403,-1.044006,-1.0509064,-0.7714735,1.1222628,-1.0712925,0.41326514,0.72856504,1.4584382,-1.2196149,1.550855,0.3692911,0.52048826,-0.97555083,0.24069306,1.0749882,-1.6506706,0.18216744,-1.0960898,-1.121405,0.21654011,1.1298416,0.16488138,3.1865675,-0.1237191,-0.5951105,0.18405834,0.80084544,1.2605691,1.1227723,1.9479872,0.14230095,1.4933486,1.5189136,0.012451227,-0.95414674,-1.7015382,-0.066215135,1.7739751,-0.7241831,-2.9683926,-2.3749542,0.10781091,-0.067112446,-1.2339628,0.784865,0.8367647,-0.019762779,0.017290294,-0.43663687,0.408991,-1.7653323,0.062682204,-0.87133145,0.29353154,0.14959072,0.5477724,0.27756315,0.06319465,0.15468119,-0.9149553,2.1856866,0.9608063,1.0106921,-0.35487247,-0.22165857,-0.5576969,0.39840227,0.112194784,-0.97663534,-0.49215296,0.47836754
O00311,0.30886766,-0.031220432,-0.15996851,0.27090222,-0.048315234,-1.2029928,-0.1885354,0.8095145,0.08694586,0.82176065,1.4400365,-0.8017201,0.004823573,-0.9402197,0.0053940564,-0.6333188,-0.68375057,0.12313991,-2.2274616,0.018831518,1.2546599,0.9453995,1.0311598,0.49095613,-0.90281767,0.71140623,-1.1137241,0.3651251,1.4911892,-0.62927336,-3.190435,0.51807284,-1.1427727,-0.2433083,-0.7227128,1.2545277,3.1004758,1.070159,3.3503041,0.3811622,0.4431238,0.4228002,0.8492184,-0.95468515,-0.55381906,1.2459623,-0.6492399,-1.3628573,0.42302403,-0.4236954,0.7820767,-0.3297396,1.4284141,0.6712999,1.6039755,0.8911367,1.4426999,-1.6317332,-0.8855212,-0.3904462,1.0870329,-1.2509001,0.052767932,1.0913948,1.2380826,-0.633859,1.921332,0.91117775,-0.64642256,-1.07326,0.71867335,0.91406405,-1.7316263,0.05214744,-0.39247143,-1.1035815,-0.1768068,0.64849865,0.9306272,2.7976143,0.0015861155,-1.0237666,0.2635228,0.99807787,0.22804523,1.0609182,1.6645325,0.77682245,1.7239008,1.0607938,0.4572826,-0.67336327,-0.6154062,0.14259039,1.3725343,-0.68302625,-3.0931032,-2.6652157,-0.17215735,-0.030838067,-1.2610531,1.1246909,0.86231,0.80389595,0.66650236,-0.89701074,1.1520888,-2.2146585,0.1714989,-0.7009978,0.31734028,0.2457788,0.85187274,0.2571811,1.0172986,0.35637796,-1.0910859,2.663158,1.237388,0.3465414,0.012629652,-0.045762718,-0.11722611,0.9965175,0.10797599,-1.2908508,0.048122995,-0.027805999
O14757,-0.09200336,-0.53082895,0.40886813,-0.1633268,0.37589929,-1.620787,-0.37696314,1.2481402,0.3620197,0.8322611,2.5538924,-0.937724,-0.064246476,-0.9310511,-0.6905243,-1.1753557,0.6517924,0.91967756,-1.1905733,0.5428496,1.1020536,0.11283646,1.1069267,0.73173976,-0.5183856,0.6143446,-1.3673265,-0.1710364,0.5093131,-1.0314286,-2.379855,0.94316757,-0.528386,-0.012095231,-0.16666317,1.0861815,2.7774565,1.1555251,2.4958389,-0.7196827,-0.24386673,1.3055961,-0.6514415,-1.2774309,0.83622146,0.124535605,-0.56491023,-0.30019286,0.5146602,1.6770837,-0.26822615,0.6895071,1.5839976,0.70394766,1.974793,0.84342074,1.2802505,-0.8085532,-0.38747984,0.57592636,0.72469133,-0.49602646,0.33315498,0.22088996,1.3945266,-0.117386885,1.7425642,0.55708706,0.28552482,-0.050365217,0.6527202,0.70389223,-0.31939673,-0.8757184,-0.5543649,-0.7307204,1.1245592,1.6699297,-0.2586883,2.7559657,-0.80527025,-0.756134,0.21593305,1.444001,0.11615078,0.7715936,2.522133,-0.40480432,0.7508109,1.681831,-0.007841159,-1.5570301,-1.6909349,-0.85950166,1.7646904,-0.39811847,-3.4676962,-2.6279209,0.2418799,0.18543367,-2.5429323,0.2046074,-0.073397174,0.95727617,1.7848394,-0.4653411,-0.22895156,-1.8464735,-0.19636658,-1.3428042,0.0056481883,-0.09425851,0.38938212,0.074599825,-0.6383733,-0.45856705,-0.9377659,1.8479133,0.4564226,1.7970942,-0.3411945,-0.82930946,0.19162174,-0.6541187,0.43889764,-0.12032453,-0.3886948,1.0765799
O14965,-0.39583215,0.5527668,0.991036,-0.034130435,-1.1624354,-1.7127432,-0.44968256,0.6372523,-0.26883888,-0.2337758,1.5334454,-0.85908943,0.816429,-1.1524736,0.6639774,-1.1235527,0.39606678,1.4620188,-0.053413328,0.37671438,0.24700983,1.1644312,0.51290196,0.17284223,-0.59798557,0.45905334,-1.1571698,-0.89906514,0.29003677,-0.7650389,-3.134546,1.2405136,-1.0088291,-0.6604522,0.93105906,1.5871649,3.4421744,2.8084252,1.4525069,-1.5098675,0.6165019,1.0645798,0.28237504,0.68072,1.6162214,1.7121149,-1.1807483,-1.965332,0.9201527,1.4334844,-0.09442408,1.2849932,1.5497458,1.1172503,2.5015223,0.79814315,-0.25395378,0.97674334,-0.75458217,-0.57990646,0.19919285,-0.8976657,1.4235029,-0.018257309,1.0546615,-0.16059367,0.67115015,-0.4816939,0.8004914,-1.3659085,0.60357153,0.08016207,-1.389691,-0.28351066,-0.83421993,0.68628454,0.68488705,0.45542678,-0.3648946,1.9961749,0.5068965,0.52166176,1.3077863,1.8221891,0.89064807,0.5600904,2.075864,-0.45223084,0.55826384,0.22520198,-1.6756692,-0.47198638,-1.2422115,0.5137486,1.9304922,1.7603223,-2.7561522,-0.3383114,1.082829,-0.9344652,-2.33136,-0.043859296,2.2110395,1.7045314,0.8699298,-0.14343701,1.1219352,-1.0461351,-1.08963,-1.9034936,0.39801764,0.6811392,-0.176434,0.28011093,-0.9816676,-0.3420759,0.36817718,0.6028885,-0.13354874,2.8017774,0.6643342,-0.017305598,0.21567631,-1.6654296,1.1325943,-1.6418761,0.17196289,1.2720771
O15075,0.48637536,-0.73456967,1.0067334,0.46110722,-0.10023349,-2.4931843,-0.7952942,1.3709344,1.3022283,-0.5789849,1.8541839,-0.9089776,0.47388816,-1.2388101,-0.033802003,-0.444939,-0.08375001,0.93050915,-0.6020139,0.5502711,1.7448316,0.96223444,1.4591696,0.6010988,-0.30376688,1.6594368,-0.0793703,0.56300926,0.95673203,-1.0968164,-2.1549473,0.06496973,-0.0650793,0.51187384,-1.0484768,1.3813676,3.4677093,1.3403448,3.2305226,-1.1585361,-1.1647471,1.4454782,0.032181095,-1.0878692,1.0817735,0.4011652,0.15066819,-0.58211195,0.4557311,0.68951416,-0.45507777,0.13406998,0.91837204,2.4320555,1.6935798,0.53401244,1.132102,-0.8090954,-1.5189795,-0.5390712,0.4977072,-0.8132333,0.8683361,-0.72564155,1.7027462,0.5189726,1.3736694,0.3952218,0.81437373,0.5089443,1.232199,0.17761065,-1.2229418,-0.01127076,-0.48901668,0.14786468,0.19406018,1.2412244,0.081242315,2.1741157,-1.0588691,-0.69966316,0.94170886,0.8585394,-0.112591445,0.71972096,1.370593,-1.2496097,0.06620184,1.1677583,-0.3654086,-0.6928705,-1.0526823,-0.19974838,2.201054,-0.029385341,-3.122713,-2.0975425,1.1269386,0.15413648,-3.2316947,0.49159724,0.3643687,0.69347614,0.68793035,-0.27712655,-0.07836836,-1.6180625,-1.0554123,-1.2360438,-0.19528452,-0.2789742,-0.560335,0.8844612,0.6586331,-0.6394448,-0.4317598,0.89293236,0.48290336,0.69164455,-0.6924226,-1.0620478,0.13319772,-0.94140446,0.7903976,-1.7078888,-0.09906898,0.94198704
O15264,0.54987043,-0.043838665,0.48766407,-0.102161676,-0.65657955,-2.284795,-0.23359907,1.1717513,0.012965504,0.76835185,2.2449856,-1.1169062,0.17313358,-0.25704277,0.28663382,-0.87109774,-0.6824903,0.8207063,-1.7561529,0.20702237,1.7410364,1.1478806,0.96954083,1.3711601,-0.30618918,0.7257195,-1.1405603,0.24821222,1.0634209,-0.36235678,-3.1347895,0.2548842,-0.110578075,-0.55332524,-0.56622267,0.52108425,2.8980122,1.1495855,2.8002915,-0.037542515,-0.5005567,1.0788178,0.34268397,-0.65644586,-0.20536669,1.1416743,-1.1006459,-0.51123583,1.1297156,0.49915126,-0.07583392,0.40966368,1.4756463,0.51605535,1.3450158,1.7590446,1.2338473,-0.98537034,-0.93137664,0.235518,0.8763921,-0.78716755,-0.30671808,0.30085334,1.9993131,-0.8583255,1.5054817,-0.08321153,0.5666763,-0.6488266,0.7019985,0.8499478,-1.5674549,-0.660957,-0.7383195,-1.0350008,-0.023342134,1.5838931,0.28324848,2.9275076,-0.161566,-0.97495043,0.47020948,1.5904186,0.14440803,1.087451,1.4546586,-0.35600957,0.939515,1.3942832,-0.2192455,-0.69702846,-1.2469678,0.32006103,1.6522495,-0.62140673,-3.35041,-2.2463295,-0.028286435,-0.03599727,-2.4175184,0.5406928,0.66049254,1.0366676,0.07395695,-0.41613975,1.0816722,-1.9616235,-0.6864411,-1.2733408,0.68247414,-0.56516594,0.18314336,0.56160647,0.066610634,-0.23989956,-1.3517172,2.2282648,0.8021438,0.83263636,-0.73021424,-0.88246435,-0.23431288,0.21733189,-0.19998157,-1.2698942,-1.0340986,0.048277844
O15530,-0.20791584,-0.67911094,0.9061227,0.5293579,0.020035468,-1.3223948,-0.29049787,0.30006087,1.1299679,-0.42085415,2.0968196,-0.24326496,1.5664003,-2.1860342,0.23831978,-0.90725374,-0.56826776,-0.46648043,-1.9352648,-0.9967747,-0.3827189,0.9437047,0.23787051,0.12520176,-0.71936077,1.372914,0.06179115,0.3998404,0.94765586,-1.0704426,-2.4580464,0.37521824,-0.94599336,-0.29420632,-0.4111543,2.3248072,2.756999,0.8747177,3.091401,-0.8664792,0.28225282,0.52344614,-0.21869859,-0.4264479,1.0201203,0.030902416,0.329165,-1.758957,1.059746,0.40618238,1.8555353,0.7904756,0.7376729,0.35544083,1.0757488,0.20731957,2.0278268,-0.93317497,-1.057618,0.17057061,0.27792665,-0.968385,0.44060975,0.9415478,0.84854263,0.19763663,2.1770859,0.95613444,0.29778242,-0.03283617,1.6175114,0.5919822,-1.6672158,0.15919515,0.69373584,-0.2322188,1.5923432,0.47222012,1.9352304,2.2334077,-0.13545203,-1.0253918,1.7289507,1.727371,-0.7619517,1.6983147,1.2115092,-0.024021227,0.54762167,0.423292,0.13987282,0.5752083,0.18726215,0.15290761,1.3193759,0.07207371,-3.3245618,-3.4048204,0.5874704,-0.7896542,-1.6160254,0.73772097,0.7500566,1.6010238,1.8360633,-1.0899291,0.56516933,-2.7057648,0.8604596,0.36725372,1.1250217,1.1972097,0.44807634,1.3937131,0.21605739,-0.39149523,-1.6984956,1.0080657,0.55554557,1.5843695,0.740869,-0.17157705,1.2668294,-0.038584553,1.0291256,-0.9371248,-0.21102625,0.26350516
O43293,0.7208618,0.08652012,1.0954655,-0.42717534,0.40026683,-1.9900961,-0.65147704,1.3656583,0.61758816,0.46781665,1.6581049,-1.2342098,0.7451515,-1.5799564,-0.48919746,-1.145548,0.15878215,0.41326421,-1.8034326,1.2448816,1.4857678,-0.08876023,1.3943663,0.382,-0.6116346,0.8032646,-1.7587267,-0.16232163,1.6911556,-0.9957356,-2.8588076,1.7855669,-1.1292448,-0.2428211,0.35688847,1.1415448,2.7798984,1.8007586,2.058991,0.42897278,0.45509297,0.86783844,0.16028066,-0.5111965,0.5519622,1.1586971,-0.3710596,-1.0858872,0.42092255,1.1034279,-0.21788253,1.2054477,1.6076931,0.49292088,1.274901,1.4767661,1.3750095,0.1353433,-0.34378892,-0.42290318,0.5493763,-0.7508458,0.844104,0.75378096,1.7018758,-0.7303244,2.5805504,-0.19413143,0.44006026,-0.27649042,0.112615414,0.38495085,-0.9755613,-0.46661308,-0.26954818,-1.072342,0.5888851,0.9116873,0.081937,2.5273483,-0.039098464,-1.0581396,0.65554523,1.4002776,1.1418778,1.7538679,1.5166166,0.61053014,0.7938508,1.2994497,-0.4369014,-1.3115926,-1.0918262,0.13595529,0.42295238,-0.21613336,-2.765276,-2.1814828,0.2698244,-0.41457826,-2.2822502,0.53500944,0.4673009,1.3014814,1.7028909,-0.92530465,0.39853927,-2.8879805,-0.017958522,-1.129226,-0.18058598,0.22990428,0.5375513,-0.59931374,-0.27161938,-0.79016227,-0.72504914,1.6267937,0.74239653,1.7898451,-0.17182422,-0.8929367,0.108517185,-0.3817068,0.1302625,-0.10201087,-0.24382147,0.64861524
O60674,-0.12151048,0.48919937,0.98695874,-0.007409837,-0.58793896,-2.1076834,0.28873986,0.87619275,0.6834354,0.5906834,2.3512685,-0.4812964,1.22305,-1.4326566,-0.6569197,-0.39511925,-0.19332771,0.71622217,-0.8921974,-0.16339925,1.164941,1.379109,1.5950243,0.5149291,0.032877065,0.9280662,-0.6168735,0.5129258,1.3153313,-0.48041928,-2.7765763,0.61214155,-0.96783876,-0.5640121,-0.6321991,1.086942,3.0338395,1.4571521,2.8624785,-1.2135111,0.14280881,1.0396852,-0.40639895,-1.0862991,1.0214775,1.69697,-1.0014808,-1.2037245,0.46812305,0.78820753,0.092549816,0.94327354,0.8196032,0.77361846,1.6895337,0.4554262,1.5212402,-0.29688093,-0.90372264,-0.7374574,0.29681757,-0.8849139,0.5922442,-0.050629374,1.725529,-0.8785102,1.4857917,0.1455448,0.90145683,-0.3670058,0.4872678,0.9899376,-1.526834,0.018509666,-1.0277596,-0.5470556,0.86780965,1.6271452,0.1901893,2.6317527,-0.35404736,-0.073009685,0.39189717,1.9082949,0.9219169,1.3847779,1.6978656,-1.0042521,0.86045235,1.3514717,-0.7075878,-1.0086613,-0.7962024,0.040200505,1.3601516,-0.4900241,-2.6377478,-2.03299,0.8672141,0.06115683,-2.6761682,0.8062506,0.84334075,1.3679857,0.86176527,-1.0254838,0.37665713,-1.8016623,-0.58936733,-1.1429068,0.57312787,-0.440968,-0.5692233,0.62999934,-0.15831731,-0.0016562277,-0.019195419,1.7527632,0.3199516,1.11469,-0.25783205,-0.62232834,0.27946854,-0.6695306,0.054587573,-1.5853289,-1.3113841,0.047125414
O75116,0.3364015,0.42012173,1.2216127,-0.43009275,0.2622705,-1.4726862,-0.71130353,0.12352608,0.14541014,0.58097285,2.0837662,-1.3069166,0.36459306,-1.044208,0.3074732,-1.5961335,-0.5708171,0.5185629,-1.2263554,0.026366182,0.6310325,1.108842,1.4159389,1.1193942,-0.9024139,1.8722796,-0.56126153,0.8163864,0.47595036,-0.5488046,-2.6104836,0.58384895,-1.5465039,0.29777515,-0.6317834,-0.2648706,2.6455731,2.314107,3.1756716,-0.18331018,0.115559235,0.76897067,-0.06410119,-0.3714758,0.34607404,1.4414386,0.2249033,-0.96196157,0.3162264,0.38751543,-0.25074208,0.29114634,1.521865,1.3574452,1.1817498,1.4335123,0.8368842,-0.72985554,-1.0871744,0.15559767,1.3643153,-0.9182571,1.0076878,0.99698114,2.2044256,-1.005572,1.1098549,-0.61582714,0.7164823,-1.2165899,0.1636149,0.3483534,-1.0062757,-0.5597355,-1.1275253,-0.28389323,0.39582998,2.013968,-0.69030243,2.8849204,-0.3471416,-0.05347855,0.13380156,0.6053121,-0.14936978,0.9943569,1.2608157,-0.23632427,0.382233,1.1134374,-1.1436807,-1.0947924,-1.6256623,-0.23072426,0.8654856,-1.0911562,-2.9308286,-1.9056686,0.18238394,-0.28490996,-2.2961981,-0.66910136,1.058967,1.632415,-0.17538042,-0.6798536,0.3027328,-2.3428767,0.07106334,-0.8830172,0.05334923,-0.40450752,0.8646382,0.114093594,-0.8071626,0.22361888,-1.8883744,1.5918316,0.8962841,0.9508801,-0.6016825,-0.45340845,-0.024621923,0.9983615,-0.4027222,-1.9987624,-0.95974964,0.060123585
O75582,0.066416524,-0.15139504,0.74020445,-0.339848,-0.46282586,-1.7093215,-0.5744626,0.8547529,-0.1807163,0.75844944,1.4382532,-0.7237801,-0.13217571,-0.31151962,0.82956254,-2.086493,-0.48119527,1.9407935,-0.7709015,0.017866224,0.5984828,0.27368677,0.44412085,0.9473473,-1.058372,0.46576583,-0.82152236,0.30037943,0.9346314,-0.43485576,-2.759145,0.8285302,-1.0847802,-0.21306746,-0.22986314,0.47009063,2.1329956,1.7445925,2.8419435,-0.35229254,0.13228029,1.9335251,-0.21203518,-0.11930159,0.6682895,1.186396,-0.78389454,-1.2050896,1.0086664,0.7917574,0.16402149,-0.20887612,1.724654,0.7998721,1.8893574,1.8739908,-0.8833221,-0.7484945,-0.715594,0.7681746,1.4790468,-0.08883957,0.25385642,1.8083148,1.3417541,-0.90730876,0.2295109,-0.2295809,1.2379094,-1.2880058,0.19910571,0.63136256,-1.0147687,-1.1875558,-0.6864038,-0.34353074,0.33621347,2.1307926,-0.19818226,3.3151865,-0.2767289,-0.38059458,1.2156948,0.6793077,0.57218426,-0.23704824,2.3190637,-0.64817756,1.2133282,0.7038639,-0.6219594,-1.1942971,-2.3455424,0.0343088,1.9068351,-0.35184374,-2.9442625,-2.3958638,0.3846142,-0.2486955,-2.0258482,0.1479348,1.053352,0.74487233,-0.5922375,0.57925916,0.31438524,-1.9143386,0.07686213,-0.70276207,0.5177646,-0.009764597,0.7856092,0.9641103,-1.3450676,-0.1075425,-1.2704729,1.3309288,1.2856853,1.915304,-0.4738685,0.120925024,-0.30032054,0.68826747,-0.011063356,-1.4128922,-0.2542586,-0.36674798
O94806,0.84631824,-0.06783724,1.260899,0.43208313,-0.9082443,-2.2428164,-0.7972538,0.91923064,-0.054086313,-0.04870491,1.0184397,-1.1831344,-0.4772566,-0.78455746,0.045440927,-1.3466015,-0.44796258,0.706251,-1.6334623,0.4502241,1.6506292,0.898241,1.6521682,0.94887435,-0.47471294,1.5154376,-1.1235229,0.48230904,1.2775607,-1.5584562,-3.007771,0.934115,-0.9163206,-0.42768753,-0.19122034,0.66033626,3.5118587,1.6019344,2.9707131,0.75846446,-0.47164863,1.2083281,0.43903944,-0.3438748,0.6040133,1.6260524,-0.7432375,-0.71820194,0.3005225,0.709728,-0.84845555,0.5194301,1.6140851,1.607602,1.0183343,1.6700498,0.2592143,-0.9480653,-0.9089013,0.09848284,1.4619758,-0.95787066,0.81418866,1.5135584,1.4289831,-0.5348417,1.3577621,-0.2604137,0.3987067,-0.93886805,0.438629,0.021104408,-1.5118346,-0.8803783,-0.21639356,-0.45448044,-0.81055105,1.3468273,0.048814278,2.3571408,-0.52042633,-0.68722135,1.421797,0.6811357,0.04996157,0.83529,1.1115133,0.37913257,0.9047365,1.226174,-0.78182715,-0.8280375,-1.0558442,0.6278711,1.1580987,-0.013130993,-2.7949622,-2.0025797,0.42512214,0.17061765,-2.536874,0.8400114,0.98673457,1.3861995,0.38882068,-0.39848953,1.1055765,-2.2837362,-0.57551116,-1.298477,-0.28004515,-0.37396726,0.6358968,0.040614996,0.4478172,-0.34382415,-0.47298953,1.4762055,1.0229667,0.68676215,-0.23271176,-0.7031085,-0.54800797,0.48809257,0.06455962,-1.7380021,-0.03149769,-0.06921425
O95819,0.13078901,0.12889051,0.21394701,0.37887883,-0.5816148,-1.289422,-0.7673123,0.35422423,1.0031991,0.70026225,1.3634086,-1.0182505,1.0138139,-1.6558958,-0.4390412,-0.28488228,-0.060653992,0.7691719,-1.0578126,0.2575594,0.70792913,1.5735313,1.2378167,0.6198291,-0.607657,0.8094979,-1.1162897,-0.8034706,0.7708021,-0.9714414,-2.9799736,0.8304009,-0.9381763,-0.36914617,-0.06273253,2.0249734,3.9276817,1.9711134,3.0790806,-0.72976464,-0.14619596,0.36627483,0.17814325,-0.85873175,0.87618196,1.4453567,-0.864223,-1.4888902,-0.16134833,1.0868957,-0.07661028,1.0257223,1.5316354,1.052048,1.3763391,0.7989346,1.0237496,0.014072079,-1.0371062,-0.4240205,0.067642376,-0.7380446,1.1118999,0.4878923,1.6492131,-0.2826842,1.6580781,-0.13434947,0.19521287,-0.83567774,0.6801705,0.97088706,-1.3618238,0.6569946,-0.9002359,-0.5612671,-0.01345516,1.6608804,0.100850046,2.7971306,-0.118603475,-0.084086604,0.6085862,1.3954532,0.40399826,1.3332409,1.8342314,-0.11865966,0.6800419,1.0848845,-0.64282143,-0.621807,-0.7343176,-0.0554263,1.6203783,0.38220906,-2.8335042,-1.6284589,0.7392481,-0.58277607,-2.040077,0.28259486,0.7555357,1.3096893,0.7480558,-1.0243878,0.71358883,-1.126962,-0.7697413,-1.1330373,-0.082825735,0.26495504,0.13421533,0.7588411,-0.5402563,-0.5887382,-0.43737987,1.4937572,0.24125057,2.2268023,0.46401352,-0.9691653,-0.19313994,-0.6396152,1.1268368,-1.5817361,-0.16410175,0.9798525
O96013,0.8021065,-0.54504234,1.61535,-0.017137088,-0.4054936,-1.8778014,-1.0568594,0.20396078,2.2312577,-0.24910994,1.4123247,-0.33625978,0.8922389,-1.1094929,-0.92421407,0.3605168,-1.699709,0.22031692,-1.7854629,0.65351826,1.7993758,0.98326725,1.5023088,0.4469812,-0.9888392,1.732567,-1.0311103,0.096198946,0.90240294,-0.7301503,-2.4872394,-0.21433619,-0.296625,-0.074893,0.15794292,1.7775798,2.726927,0.44109792,3.1887023,0.24163209,-1.2941273,1.2367214,-0.19370687,-1.2207892,0.58612955,0.9591838,0.6850283,-1.2318429,-0.30575278,-0.17626108,0.9450322,1.1121205,0.5111659,0.5933213,0.6274311,1.5990293,2.3626373,-0.15851575,-1.1849896,-0.7021154,-0.23273943,-1.0226038,0.5300323,1.0735328,1.4752953,0.07943277,2.6034553,0.29280576,0.73701733,0.65696824,0.673728,0.6048311,-1.3811073,0.27201834,-0.06928537,-0.5202104,0.44726413,1.3982077,0.9069166,1.6257306,0.32809535,-0.8089036,1.7871345,1.306494,-0.111377925,1.2678245,0.36950594,-0.67400223,-0.10020321,1.131837,-0.075977914,0.033935748,-0.6257716,-0.22272722,1.6508905,-1.0043563,-3.2186606,-2.8655393,1.0752261,-0.9865666,-2.2109988,1.0110337,0.26917922,0.9816492,0.55452716,-0.33559996,0.44629058,-2.003216,-0.2586355,-0.84641004,0.103186086,-0.034301005,-0.7750218,0.7385123,0.6461852,-0.6806352,-0.87338275,0.8128584,0.77534264,1.2320753,0.04180163,-0.788087,0.23739423,0.091161355,0.46359122,-1.0217037,-1.1879536,-0.20917289
O96017,1.1371422,-0.3956401,0.8799544,-0.5174974,0.52464473,-0.9718952,-1.3156974,0.45155635,0.545659,0.25164762,0.42510575,-1.6029459,-0.22906625,-0.998512,-0.30864677,-1.6701477,-0.25066534,0.75157624,-1.4652421,-0.13904943,1.2471303,-0.10635811,2.4030743,1.0771903,-0.7709442,1.345354,-0.5585227,0.13878435,1.2461315,-1.252592,-2.5313332,1.3522413,-1.108303,0.4017695,-0.5560628,0.45425522,2.574644,2.1488502,2.547055,0.0669378,0.30842578,0.6981203,-0.76437044,-0.6388715,0.57274145,0.87877303,0.38736552,-1.3916516,-0.42613202,0.87402683,-0.9075945,0.11534515,1.6489359,1.872822,1.382926,1.6083727,0.6054849,-0.86827344,-1.1310047,0.07310739,1.4371388,-0.024959777,1.8782156,2.0066009,1.28941,-0.5221659,1.5940166,-0.6374829,0.51548237,-1.0109805,0.24850693,0.9346153,-0.5019141,-0.36634386,-0.94881874,0.0064923656,0.07127844,2.2293608,-0.9632016,2.3284662,-0.38190186,0.20524196,0.7801069,-0.6711538,0.48803326,0.89591384,1.4439474,-0.28550166,0.17473003,1.2477896,-0.9202098,-1.4863082,-1.2846315,-0.8004431,0.92354256,-0.47581697,-2.930359,-2.368785,0.40432176,-0.0745527,-1.4191244,0.2825967,0.3039056,1.1802877,1.0317698,-0.9294858,-0.6763761,-2.2328522,0.67417765,-0.5859801,-1.1579337,-0.30270338,0.90178454,0.17567018,-0.98279124,0.097333625,-1.053655,1.415103,1.3713591,2.2280166,0.22732916,-0.7788565,-0.5638332,0.904431,0.6070528,-1.000198,-0.72209626,0.6068319
P04629,0.24584351,-0.052676324,1.3560488,-0.09649434,-0.093944974,-1.764316,-0.3340009,1.3596228,0.6290857,-0.1081576,1.9982691,-1.048734,0.6623715,-1.0466934,-0.25801748,-1.7087488,-0.35606396,0.78984773,-1.4453121,-0.80913335,0.8602761,0.20600258,1.4107819,0.3546176,-0.60739326,1.0485451,-0.28251797,0.88466,1.0585402,-0.41689852,-2.6916618,1.2106365,-1.1009656,-0.16111569,-0.4844978,0.590224,2.4103446,1.7669115,2.484646,-1.2092365,-0.00066339585,1.4942544,-1.0103565,-0.5934422,1.0633904,0.44681394,-0.25949952,-1.0660325,0.8801479,1.0905808,-0.035786092,0.11723611,0.7294843,1.2109575,2.186684,0.5828129,1.1613967,-0.75123835,-1.3189417,0.1538034,0.64317805,-0.46666414,0.7921772,0.2093938,1.4937172,-0.4003017,1.0481503,0.106037505,1.0146785,-0.5833227,0.569838,1.0445324,-1.28099,-0.8573197,-0.41661298,-0.2390862,1.8289385,1.4438628,-0.093038745,2.1490421,-0.60641414,-0.16000646,1.1339462,0.77362597,0.33166847,0.7011805,2.0080314,-0.74865746,0.45981926,1.114523,-0.4688384,-0.99531126,-1.16363,-0.26103473,1.5003716,-0.29322237,-3.0571837,-2.60952,0.5598097,0.16662532,-2.5834036,0.36834356,0.81060004,1.4011195,1.2085794,-0.88326395,-0.50707316,-2.391171,0.06984213,-0.590848,0.28854477,-0.44117174,0.19494337,1.1839088,-0.6014254,0.66261417,-0.8175816,1.591511,0.9473465,1.6601388,0.059519824,-0.56459665,0.92020965,-0.31161165,0.65906024,-0.988217,-0.9509154,0.3962413
P05129,-0.3976981,0.1828533,1.3901963,-1.0016793,-0.46808913,-2.2530406,-0.5907857,1.0528073,0.5894052,0.52070934,2.9958985,0.11256119,1.1871676,-1.458482,-0.39881635,-1.1634239,-0.5863117,0.7744938,-0.89708084,-0.3192479,0.8805354,0.6546262,0.848559,-0.12320702,-0.40194395,1.0672264,-0.9576181,0.38632667,1.1839286,-0.2572037,-2.6620114,0.7308415,-1.2510561,-0.04660338,0.13388167,1.1887972,2.780985,1.9217213,2.5940437,-0.8636365,0.6884606,1.0149155,-0.19983576,-0.5378228,0.98905706,1.088435,-0.29389533,-1.449902,0.87656665,0.47098875,0.471012,0.8258182,0.58166075,0.8384773,2.0801718,0.6508832,1.3609701,-0.2502704,-0.5966629,-0.49295008,0.8083305,-1.4235125,0.38596314,-0.3256647,1.9578971,-0.31191492,1.4277877,0.39370245,0.5418859,-1.150952,0.28250748,-0.1927832,-1.2845837,-0.5009404,-0.733871,-0.87938714,1.1351136,0.69917965,0.88762605,2.643336,-0.65233356,-0.77421075,0.46418443,2.2678812,0.47545373,1.4453919,1.8762324,-0.56426877,1.1209258,1.0512731,-1.1152478,-0.19523667,-0.9083344,0.3781633,0.85708225,-0.3408008,-2.640655,-2.1016486,0.52031267,-0.21186769,-3.103422,0.6748699,1.3115283,0.9997434,0.3069193,-0.7024676,0.2070315,-2.7364318,-0.61418873,-0.84269685,0.40417564,0.13537103,-0.015045744,0.33951136,-0.30742618,0.17294435,-0.95284486,1.5828567,0.33482483,0.8242923,-0.7077198,-0.54088557,0.37971473,-0.4888631,-0.6802296,-1.3587629,-0.58118236,0.17713708
P06213,0.27588877,0.29553428,1.4877043,-0.3326858,-1.0423448,-2.3682206,-0.31373847,0.8107259,0.49994925,-0.1307863,2.3435392,-0.60978305,0.606585,-0.8130618,-0.04789644,-0.71494347,-1.1148673,0.030662071,-1.7913576,-0.12263879,1.3199624,1.0712111,1.1557434,0.75457644,-0.31335548,1.5092576,-0.75075364,0.5383585,1.1745236,-0.6726034,-3.1079645,0.22125126,-0.76230353,-0.8516718,0.015841788,1.0734657,2.8092825,1.3965892,2.5534925,-0.2631468,-0.40196517,1.0542595,0.040476274,-0.40625808,0.7334627,1.303747,-0.59172624,-0.99491256,0.9545753,0.3430178,0.20193297,1.1100022,0.87734574,0.45273393,1.0651331,1.3039377,1.6914632,-0.29379424,-0.7323012,-0.3323009,0.36425048,-1.1819699,0.079933904,0.31961492,1.7710234,-0.17354271,1.8689435,-0.02777689,0.38806462,-0.5536891,0.8112389,0.135319,-1.8148198,-0.5411762,-0.1960214,-0.5654212,0.45206335,0.95341635,1.0761758,2.2281804,0.09206997,-0.94882315,1.1704133,1.997442,-0.15593596,1.1482356,0.8049782,-0.28064063,0.6560514,0.77319735,-0.61390686,-0.09870282,-0.3416574,0.5458686,0.93045413,-0.28920358,-3.1522436,-2.065127,0.32997462,-0.38095737,-2.8362715,1.012661,0.9760981,1.8515465,0.8485205,-0.60365963,1.2339044,-2.7907197,-0.79480153,-1.1936698,0.71695733,-0.21479098,-0.2594181,0.3510927,0.5611711,-0.089624576,-0.95687026,1.6763937,0.75805956,0.79846656,-0.14351001,-0.5906243,0.38520762,0.061323147,-0.27729744,-1.6234794,-1.0363735,-0.38298652
P06241,0.08401491,0.36532834,-0.027708737,-0.12186192,-0.40052685,-1.9945786,-0.18235205,1.5250298,0.3216741,0.7496005,1.8111403,-0.6681523,0.55757123,-0.29043803,1.1134977,-0.3543206,-0.21680993,0.825667,-1.2743046,1.2881305,1.1514087,0.98371446,-0.24716829,0.34388596,-0.76441634,-0.07580414,-1.304218,-0.30216286,0.84854335,-0.33235407,-2.6209056,0.31033394,-0.15360324,-0.6446716,-0.047095798,1.5948837,2.9575467,1.7617499,2.2574062,-0.17931992,-0.36565474,0.8999119,1.3742278,-0.3419792,0.119858205,1.6058826,-1.1031122,-0.74229074,1.3883576,0.92811143,-0.13023393,1.3732537,1.9669957,0.22846548,1.9074485,1.7510074,0.79175913,0.35512358,-0.23132654,-0.4690723,0.17606992,-1.0769973,-0.5146101,-0.13454415,2.2132354,-0.04668069,1.4856755,0.023788137,-0.2874,-0.45283568,0.7911947,0.5389563,-1.2749428,-0.096331626,-0.07486187,-1.096594,-0.21168394,0.68291634,0.67930084,3.0062456,0.6848284,-1.5158986,0.08147923,2.0253332,0.46681026,0.8018767,1.9465008,-0.0036131218,1.1876606,0.40807602,-0.2442143,-0.53169096,-1.1250577,0.5393024,1.3173779,0.6242602,-3.2990685,-1.8167224,-0.11717659,-0.87029505,-2.74022,0.48527625,1.2873565,1.0612583,-0.0076139728,0.15596,1.6518055,-1.9779197,-1.2749692,-1.2780176,0.48226738,0.8391636,-0.05560025,0.12985511,0.16524373,-0.9156862,-1.0216943,1.5957012,0.347474,1.1257725,-0.466426,-0.3367415,0.14296381,-0.6338352,0.2999876,-0.6475145,0.9921074,0.60790527
P06493,0.43360287,-0.4794504,1.827155,0.10693584,-0.5006065,-2.4559836,-0.9633601,0.82794404,0.38022175,-0.320018,2.5398142,-0.55321443,0.20443037,-1.265167,-0.2286543,-1.2620826,-0.80575407,1.0185348,-1.2138156,0.04191879,1.6106699,1.0631342,1.5938877,0.3784156,-0.7056397,1.8646723,-1.0124639,0.68050545,0.52669567,-0.71789724,-2.7220476,0.45848545,-0.60056484,0.55216604,-0.29243273,0.41417462,3.454008,1.3036393,3.132396,-0.19986846,-0.18990998,1.377629,0.08669569,-0.5372918,0.3115962,0.79340494,0.22708195,-1.1776216,0.31477046,-0.16239582,0.5719504,-0.32179588,0.523514,1.9693533,1.7758752,0.7779882,1.1040169,-1.504577,-1.5556169,-0.14464697,1.3755362,-1.5719558,0.9143832,0.20046528,1.3040199,-0.39620876,1.548028,0.5957855,0.8590716,-0.75345767,0.60245705,-0.0027947403,-1.5135096,-0.6915016,-0.7218185,0.03474022,0.61731887,0.7678684,-0.03304459,1.7871892,-0.8718191,-0.22091915,1.3285656,0.9305648,-0.23741639,1.0958685,1.2772169,-0.3110425,0.35181883,1.6130182,-0.85068667,-0.18140334,-1.3686409,0.0542367,1.9590405,-0.5487186,-3.1059356,-2.2462783,1.0995829,-0.04922539,-2.6083167,0.27416617,1.6389081,0.5865631,0.052998308,-0.5357731,0.41490945,-1.7756417,-0.26415148,-1.3398144,0.14965335,-0.27108705,0.18234311,0.5428789,0.58459455,0.2846717,-1.1017078,1.4834944,0.6803701,0.55345064,-0.67717993,-0.73320246,0.16571684,-0.2053621,-0.0119790025,-2.1432645,-0.9553262,0.52652323
P07332,0.63453346,0.3083603,1.6077303,-0.054551773,-0.41116416,-1.548567,-0.26341832,0.5518818,0.60158,-0.6330397,1.6609523,-0.8115399,0.21061018,-0.5644036,0.6535394,-0.96707183,-1.1069465,0.29488537,-1.4534235,-0.061009314,0.90396625,1.0136268,1.3163817,0.3896826,-0.9879271,1.9280063,-0.18513793,0.99079436,0.84194034,-0.4895819,-2.884282,0.5090129,-0.8498703,-0.27794698,-0.70644337,0.5161574,3.2193136,2.2671983,2.9706905,-0.8092487,-0.44792628,1.4931782,0.1115155,-0.53235954,0.84801406,1.2304256,0.07327992,-1.6013261,0.6604285,0.18904653,0.49346697,0.36566624,0.88825524,1.4594115,1.7083199,1.241166,1.5167882,-0.7647495,-1.3074228,-0.7178701,0.5236214,-1.2448747,0.5736015,0.6406154,1.4134322,0.06411148,1.5136274,-0.07005382,0.25807157,-0.481527,0.9234679,0.90891397,-1.5365974,-0.16819769,-0.26122177,0.7168881,0.9197415,1.4685748,0.057303194,1.9296523,0.19029152,-0.24264982,1.2467248,0.36603162,-0.47838122,0.41153944,1.4053458,-0.6237031,0.31808338,0.9697908,-1.1557447,-0.49493316,-1.1799285,-0.3879798,1.5492586,-0.19938594,-3.2909808,-2.1844096,0.84280753,-0.5446998,-2.3825843,0.482197,1.6024805,1.5896995,0.61231256,-0.32993275,0.7857453,-2.2991807,-0.39660266,-0.83098847,0.5313303,0.32737374,-0.21384986,0.6418487,0.6443715,0.40034503,-1.2219784,1.2277895,1.1961055,1.3410932,0.4948611,-0.20861982,0.69352585,0.2632132,0.6918124,-1.9356756,-0.8087479,0.008241333
P07948,0.07349875,0.19335467,0.6096051,0.6551217,-0.22763553,-1.3056728,-0.26507086,0.44983324,1.0045519,0.45081413,1.7848825,-1.2431979,1.0830555,-1.8644191,-0.36350894,-0.560603,0.019461073,0.9270305,-0.825137,0.38640517,0.49702302,1.5546926,1.1958109,0.26648402,-1.0763069,1.078757,-1.0504812,-0.3483497,0.8941971,-0.5980439,-2.969411,1.2573051,-1.4433159,-0.0777719,-0.24421097,1.5109586,3.7671628,2.0634243,3.1484716,-1.2431874,0.21116106,0.8907267,0.29324344,-0.8713887,1.1028196,1.1067278,-0.7043646,-1.7929624,-0.11503641,0.85546094,0.6490806,0.30521756,1.3199573,1.2337916,1.9534932,0.27179685,1.1226165,-0.38059267,-1.2949554,-0.8506073,0.25229782,-1.1221203,1.2102213,0.4100197,1.1538066,-0.5895076,1.2457646,0.16188227,0.5569726,-0.5364671,0.57350105,1.1622157,-1.4689521,0.625242,-0.89003575,-0.071833536,0.90311956,1.504249,-0.26964745,2.5547493,-0.3555783,0.27952066,0.6250048,0.8011039,0.5803354,0.8740621,2.1364803,-0.15868524,0.81778353,1.4212888,-0.5848307,-1.0148435,-1.4770068,-0.5029899,2.0018177,0.08275588,-2.892534,-1.8114725,0.9237731,-0.25899354,-1.729792,0.12881237,0.9338675,1.0212674,1.0043099,-0.7379788,0.333942,-1.0548509,-0.37349954,-1.0232185,0.43145284,0.441265,0.16724047,0.69444513,-0.27880636,-0.07713802,-0.35833266,1.4242272,0.3961932,2.0279002,0.6843379,-0.36616305,0.14204288,-0.61116827,1.31987,-1.5741725,-0.42780352,1.0000916
P07949,-0.3947676,0.78294736,0.7910487,0.31673506,-0.16648205,-1.7221873,0.7470071,1.2528825,0.70033705,0.24987105,2.8740182,-0.6041791,1.5543247,-1.4996732,0.43845904,-0.7513025,0.0098758675,-0.18048689,-1.4380379,-0.28639123,0.025290929,1.508421,0.33018115,-0.13661924,-0.43522978,0.9515497,-0.057227366,1.0207256,1.2712365,-0.27891845,-2.604152,0.9037522,-1.348977,-0.7819753,-0.89065677,1.2961272,3.041746,2.1462548,2.7592373,-1.6027322,0.20957607,0.77582735,0.5304556,-0.77412885,1.2719027,1.1303054,-0.9834376,-1.0136353,1.3590721,1.1603092,0.30275488,1.1889867,0.9985752,0.41231066,1.79303,0.024980163,1.7962415,-0.17682539,-0.5681331,-0.73441374,0.020109354,-1.3401752,-0.18391454,-0.67422193,1.9379958,-0.19540602,1.0879121,0.2862728,-0.20344748,-0.26712,0.92208225,0.88742274,-1.4279504,0.2462228,0.112350374,-0.60949266,1.3558582,0.8044521,0.8305205,2.5793576,-0.23708986,-0.89284927,-0.10180403,1.816555,0.051937275,1.2179052,2.1232789,-0.23359829,1.1771994,0.7863988,-0.5469175,-0.6757454,-0.5135947,0.14090897,0.6102158,0.22884178,-2.6825416,-2.1353726,0.05193995,-0.0253146,-2.6952853,0.42991763,1.0362378,1.7462014,1.1157508,-0.89867747,0.7259279,-2.370855,-0.68431395,-0.2984238,1.0748581,0.6438962,-0.04658267,0.60624427,0.23483425,0.10879794,-0.90995026,1.6549273,0.2413183,0.677912,0.16640161,-0.24656864,1.1538442,-0.6207822,0.46380416,-1.1288809,0.052709606,0.34176853
P08069,0.007971794,-0.10680639,-0.16148937,-0.45864516,-0.72524893,-1.426496,-0.39867947,0.8275178,0.5928944,0.86654556,1.4796194,-0.87973297,0.9553872,-0.515418,0.37386733,-0.79904443,-0.8953773,0.682967,-1.1991402,-1.1196457,0.9973826,1.3145632,0.43772784,0.8195385,-0.46999472,0.09028597,-0.17964219,0.0067122765,1.348254,-0.1392415,-2.8937252,-0.07266374,-0.7833509,-0.44476846,-0.7243449,1.7447913,2.705743,1.7819427,3.0409174,-1.0395738,0.19874513,0.32201353,0.17857432,-0.48707202,0.30062217,1.2425822,-0.8400914,-1.5055299,1.1418103,0.24775404,-0.18792826,0.300793,1.1135695,0.54194516,1.9772997,0.89444286,0.78773713,-0.4766019,-1.102265,-0.23215438,0.6498738,-0.5387841,0.010955354,0.17124496,2.1493561,-0.3260992,0.5238422,-0.03396543,0.18759383,-1.3889759,1.0450804,0.9968672,-1.8619391,0.28242,-0.8025937,-1.214256,-0.1176645,1.2963699,1.1272565,3.219889,0.10243801,-0.77983975,0.25693333,1.7118328,0.51180387,1.0073605,1.8786669,-0.8965943,1.3884307,0.38097,-0.08698578,-0.21113764,-0.45213422,0.5131847,1.5978912,0.0683008,-3.4629664,-2.3820896,-0.51254743,-0.0381361,-2.201476,1.1152431,0.66596365,1.1683961,-0.3189963,-0.57164013,0.4820821,-2.142389,-0.7413075,-0.47224796,0.302672,-0.17229769,0.21922074,1.4923707,-0.6163842,0.37919515,-1.1025095,2.392177,0.7853743,1.203539,-0.2947423,-0.36231148,-0.33011806,0.44450197,0.2545459,-1.6098149,-0.18268548,0.28629634
P10721,0.1548368,-0.34683058,0.8903032,-0.6985203,0.3567381,-1.9749129,-0.5420351,1.1565826,0.44179085,0.6066862,2.5266695,-0.88630223,0.75081253,-0.60640955,0.52811694,-1.6736172,-0.36428925,0.47649622,-1.7977325,-0.28102195,0.8493342,0.40121314,0.48653644,1.0808942,-0.47323424,0.69049686,-0.51815057,0.6249469,0.5168362,-0.60816526,-2.3681743,0.24580507,-0.28051308,-0.19392774,-0.49244624,0.68111706,2.0116863,1.4260021,2.5662136,-0.30786476,-0.32923827,0.9540354,-0.560395,-0.44308057,0.28600016,0.6419396,0.088559926,-0.31689355,1.5625695,1.2337586,-0.34556726,1.2928433,1.4712954,0.1773777,1.434753,1.756559,1.2732774,-0.3843725,-0.55003124,1.0374324,0.8871033,-0.2976333,-0.09284408,0.5561218,2.3508732,-0.38325173,1.5228533,-0.16644168,0.61352825,-0.39412504,0.83769506,0.6214958,-0.72646415,-1.1206125,-0.09439436,-1.0904607,0.9634595,1.5751964,0.44121608,2.9290001,0.037482157,-1.2133226,0.42346033,1.8153396,-0.23995192,1.3523434,1.524091,-0.7461595,0.265419,0.6943323,-0.32485235,-0.5788852,-1.0540597,0.08257399,0.9092436,-0.49480844,-3.7073946,-3.0986657,-0.3412606,-0.4858541,-2.833493,-0.10371409,0.57643217,1.640982,0.4118684,-0.50751734,0.15680122,-2.8529937,0.17644215,-0.4831026,0.29775468,-0.10659747,0.49773532,0.7079549,-1.1253225,-0.3631241,-2.2149289,1.5632812,0.5864281,1.3289987,-0.88509524,-0.75586283,0.64052045,0.27762026,-0.2066876,-0.30074447,-0.5355379,0.30770007
P11309,1.0170774,0.31692243,-0.3936237,0.83729786,0.15587398,-0.9377422,-0.09433798,1.1851808,0.40664813,0.54246956,1.5780176,-0.97163224,0.00060017593,-0.8107976,0.2030343,-0.104131304,-0.4608823,0.90511805,-2.035763,0.86468256,1.3220794,0.93356276,1.6741815,0.78825253,-0.7277507,1.0428842,-1.1893252,-0.104749665,1.0302392,0.21565643,-3.149106,1.2096376,0.24971017,-0.27695262,-1.3391831,0.17023775,3.6193707,1.2985893,2.6233344,-0.5225237,-0.49564332,1.1033312,0.5562382,-1.5282067,-0.81878483,0.23749082,-1.3954767,-1.0382982,0.10257847,0.23926637,1.4291502,-1.0301642,1.3022585,1.3665414,1.3980126,1.0592709,2.1238868,-1.9430187,-1.4726392,-0.60765415,-0.17485392,-0.8014053,-0.10105897,-0.42289156,0.48353538,-0.45999166,2.1729822,0.55933803,-0.31726098,-0.1886071,0.42064542,2.0838485,-0.9351571,0.4173326,-0.99740934,0.2490902,0.6972071,1.4099367,-0.7581371,1.6709495,-0.49453363,-0.24460012,0.019170944,-0.36003473,-0.08745782,0.38960513,1.9683315,0.47590712,0.70534235,2.2793212,-0.048797805,-1.0513197,-1.4664055,-1.1835774,2.1077871,-0.7089376,-2.6424358,-1.7991325,1.3472962,-0.39155686,-0.93614894,0.08360756,0.90244555,-0.10573585,1.0628337,-1.0965159,1.0549879,-0.336047,-0.48984426,-1.0224885,1.0267944,0.25621724,-0.04673292,0.6986379,1.3472941,0.044264823,-1.0685153,1.9327722,1.1714904,1.6711495,0.6749484,-1.223547,0.54053366,-0.630416,1.303069,-1.1449864,-1.2017186,0.6065547
P11362,1.362113,-0.61512774,1.5250567,0.110751666,-0.2167048,-1.1676592,-1.2598257,0.090720624,1.28118,0.014252952,1.6784222,-0.85730416,0.8895189,-1.1483744,-0.7673793,-0.6720582,-1.1852238,0.000561852,-2.0722692,-1.0229261,1.2229133,1.4252449,1.7940655,0.39378452,-0.45780042,1.620807,-0.84595776,0.14202276,0.31755272,-0.5185568,-2.464938,0.8177169,0.20086975,0.44175276,-0.6801306,0.26341242,3.5867264,1.3718776,2.7683644,0.16466127,-0.28090984,-0.0043031555,-0.32099938,-0.9644438,-0.3343812,0.30828515,0.5533314,-1.2991122,-0.36627197,0.22989437,0.41375956,0.41160432,-0.09680959,1.3450123,0.7812649,0.7641483,2.4726782,-1.5980358,-1.7553761,0.16757636,0.78591114,-1.2231729,0.8717305,0.27340803,1.28527,-0.37892953,1.9983561,0.016943116,-0.054728374,-0.61110926,0.65543306,1.4449422,-1.0188595,0.42425784,-0.3693794,-0.46607772,0.77942675,1.3767974,-0.06909265,0.9364286,-0.6287391,0.13472041,0.6890844,0.0011446001,-0.8769995,2.2351944,0.65806293,-0.09896846,-0.50972044,2.35856,-1.1207514,0.6323839,-0.41581345,-0.51414233,1.0138319,-0.4429917,-2.574951,-2.5055704,0.5082653,-0.10419094,-1.3175309,0.20042682,1.0208832,0.44188574,0.18146637,-1.7539574,-0.17383952,-1.0288913,0.27352998,0.026952418,-0.36350575,-0.087958306,0.32138854,1.1536988,0.004123779,0.54780495,-2.0600064,1.6660316,0.3392098,1.3472875,0.35605845,-1.8763584,0.24791664,0.070596345,0.8664339,-1.0024226,-1.7249358,1.2066895
P12931,0.36426798,-0.057805467,0.60637987,-1.155735,0.32975665,-1.455773,-1.113974,0.24309668,0.22852904,0.086644545,2.5928748,-1.2294872,0.30576393,-1.4903946,0.5130353,-1.2191193,-0.027592756,0.18003833,-0.44320405,0.43857017,0.40707982,0.5747011,1.1044781,1.2316501,-0.30023798,2.2052076,-0.32374072,-0.2993472,1.0978968,-0.6293988,-2.324057,0.79458696,-0.9912088,0.36107194,-0.5674659,0.491949,3.2065353,2.9640276,2.3661203,-1.140344,0.38738713,0.5174878,0.2605682,-0.3211277,1.0692999,0.21350831,-0.21815889,-1.3860551,0.6247282,0.7083448,-0.018362552,0.22101113,1.6525948,1.9083385,0.98624337,1.1742848,1.561315,-0.5174959,-0.8736611,-0.7328024,0.7909872,-1.1453972,1.0286689,-0.573128,1.7438515,0.18734232,1.6041609,-0.74392575,0.23983523,-0.8836751,0.6679807,-0.5354723,-0.6847435,0.2182757,-1.385715,0.48001555,0.11013297,1.4578552,-0.26248658,2.754533,-1.101121,-0.6016526,-0.27733034,0.58499354,-0.4610371,0.9193449,1.1552626,-0.26863024,0.41679177,1.2129898,-1.6534778,-0.7078455,-1.2982997,-0.50306964,0.64647543,-0.3108466,-2.8367205,-0.6998125,0.50181633,-0.32788503,-2.5508106,-0.40118423,0.27232167,1.3065821,1.1524593,-0.5799595,0.45960346,-2.662021,-1.1408174,-1.1913866,0.45945364,0.30484918,0.57031083,-0.5000673,-0.16791482,-0.6078384,-2.0063448,1.1170483,0.752231,1.6472232,-0.24949835,-1.1768653,-0.451235,-0.06341458,-0.20442663,-2.0620081,-0.8690635,0.8816876
P15735,-0.7591507,-0.18184128,0.5000803,-0.09578408,-0.15649486,-1.925355,-1.0208795,0.6605645,0.6141843,0.66323227,2.679709,-0.30219656,0.4088301,-1.7555268,-0.62489146,-0.908964,0.027139828,1.0033058,-0.97116715,0.8497945,0.5472518,0.5301005,1.0201056,0.946239,-0.78440696,1.6767848,-1.2579887,-0.24408314,0.38655472,-1.0127068,-2.5914652,0.30146644,-1.4616395,0.00012166286,0.39829084,1.7097901,2.5515828,0.9479111,3.024022,-0.59349,-0.54207516,1.3566343,-0.42729646,-0.888791,1.1300281,0.4227454,-0.4727361,-0.45813423,0.27353108,0.9457029,0.53072464,0.4087615,1.7943815,1.1400808,1.2255853,1.0010525,0.91919017,-0.4395476,-0.6453411,0.45405322,0.37359923,-0.7348253,0.60144097,0.29805997,1.6137512,0.06804479,1.8922551,0.5831832,0.85834426,-0.4458852,0.39705387,-0.6285213,-0.87150145,-0.88136953,-0.86775833,-0.61710167,0.64019454,1.3880044,0.45790538,3.0538354,-0.98611164,-0.918264,0.88221943,2.0590417,-0.21741614,0.48489696,1.7476971,-0.030876094,0.8889965,0.8021303,-0.013749156,-1.0222545,-1.317072,-0.07551726,1.7480365,-0.89652395,-2.9905462,-1.8930892,1.0361537,-0.58012766,-3.2445984,-0.2621049,0.13933487,1.4277407,1.0714936,-0.34993193,0.5661195,-2.348637,-0.7130663,-1.674534,0.5539558,-0.24930528,0.45829988,0.326596,-0.38355234,-1.0386574,-1.0407863,1.1789894,0.6159165,1.3852124,-0.78343195,-0.71869934,0.27010882,-0.4125971,-0.32146582,-1.6469853,-0.22985667,-0.03254382
P16591,0.37893808,0.26568288,1.2881342,-0.2559277,-0.32901984,-1.7203951,0.25134194,1.1150842,0.67431927,0.502784,2.5631263,-0.21092974,1.1659135,-1.0908146,-0.049835436,-0.65993756,-0.65350807,0.7779578,-1.1011074,0.5740665,0.91963464,0.8379995,0.18819845,-0.800985,-0.9990127,0.44179186,-1.735988,0.08709726,1.6280141,0.47093606,-2.5708334,1.7278079,-0.9753778,-0.20742463,0.02479336,0.80271846,3.3973792,2.0433757,2.3356643,-0.5324892,1.101609,1.2409308,1.215435,-0.6591593,0.45593613,0.9809498,-0.8985024,-2.1200027,0.8012675,0.20859759,1.6796716,0.3642794,0.32488072,0.10625106,2.2250583,0.5624996,1.7994618,-0.6011388,-0.55196655,-1.4876577,0.6734229,-2.1653793,-0.24159783,-0.15606682,1.2228725,-0.9973099,1.5258832,0.503516,0.21155408,-0.6370584,0.12154409,1.0941577,-1.6433928,0.36305445,-0.28818348,-0.79509926,1.4707378,0.5617326,0.5659943,2.3049557,-0.2710573,-0.6527284,0.26778844,1.005581,0.93113416,1.2691454,2.2141979,0.25587586,1.5124366,2.057927,-1.01609,-0.2880589,-1.8378232,-0.15288572,1.0451295,-0.05738172,-2.3013175,-2.1700044,0.3763601,-0.032451995,-1.6844466,0.99424934,1.6185477,-0.11068644,0.32973224,-0.28430653,0.60771215,-1.8937821,-0.4152104,-0.4042105,1.1725994,1.2081505,-0.02926563,0.083365925,0.5539472,0.33220157,-0.9930807,1.8469193,0.4234403,1.0439298,0.22890201,-0.25612077,0.35694343,-0.6882946,0.2348726,-0.68425876,-0.62595046,0.64813185
P17612,0.52086985,-0.23477334,0.92696095,0.2492728,-0.07152637,-1.8351159,0.07841221,1.0789181,0.13522097,0.08666289,2.1657615,-1.2099024,0.0005610436,-0.41930297,0.612487,-1.1139706,-0.30560955,0.80509096,-1.408793,0.021963216,1.3717413,1.2635496,1.0206828,0.6060558,-0.7590684,1.0498736,-0.5581429,0.8487688,0.7283557,-0.6335007,-2.8405151,0.46980932,-0.406966,0.035810646,-1.0901221,0.5023253,3.5012426,1.8523281,3.1739833,-0.82774913,-0.15237075,1.2592341,0.44061065,-0.7775581,0.31846866,1.0110614,-0.31777838,-1.0777849,0.98355067,0.4462565,0.07144531,0.08472973,1.1624818,1.3812853,2.3856735,0.8718725,1.2006397,-1.395676,-1.2129561,-0.28774118,1.2639239,-1.2718486,0.2743081,0.27293822,1.558439,-0.36614954,1.1003095,0.35431647,0.13711531,-0.48201093,1.0909498,1.1016641,-1.3505602,-0.28995055,-0.45882636,0.0076601095,0.63373506,1.3078508,-0.1686476,2.47189,-0.18731916,-0.40073764,0.3882621,0.69684744,-0.0930904,0.7796789,2.0933256,-0.6965939,0.7577633,1.5011259,-0.6466724,-0.8669323,-1.657632,-0.39729092,2.0604713,-0.10698049,-3.6773946,-2.6009629,0.16870554,0.18756384,-2.277371,0.49731866,1.4081509,0.967275,0.4335993,-0.2662966,0.54127973,-1.8225626,-0.24313438,-1.0086334,0.36746463,0.21362202,0.15716153,0.53705263,0.33254495,0.38216445,-1.2657607,2.0139043,0.7771969,0.9100742,-0.13067792,-0.21875311,0.22560467,0.05856712,0.65381837,-1.4336022,-0.42752424,0.82176083
P23443,0.5290315,-0.53907853,0.9797742,0.8065076,-0.13659254,-1.103331,-0.30347148,0.44177946,0.4545859,-0.54935026,1.7818806,-1.509005,-0.25637245,-0.5203505,0.18855372,-0.6952197,-0.30892834,-0.400033,-1.9677995,-0.04845804,0.96400446,1.5077494,0.76783925,0.31152162,-1.141755,1.4050746,-0.7471948,0.3340486,-0.28325236,-1.3547176,-2.587565,0.16842523,-0.461908,0.021626815,-0.44825837,1.3445592,4.227916,1.6638203,3.3142617,-0.45555717,-0.8118329,0.60340166,0.64684594,-0.78770983,0.5180819,0.59412885,0.3126731,-0.89287186,0.5334852,0.6619551,-0.10132955,0.8152311,1.1476266,1.2209022,2.0104964,0.45214504,1.9150338,-1.223462,-1.2260151,-0.0027785413,0.7938407,-1.7216723,0.5487099,0.35510266,1.345483,0.6254094,1.6358905,0.63345855,-0.9549793,-0.09992519,1.7491784,0.8286053,-1.3515981,0.055798635,0.4835913,0.019221548,0.6026591,0.63046545,0.3011479,1.6659877,0.14894894,-0.5405749,0.793436,0.76502305,-1.2202072,1.0593215,1.5368723,0.14441502,0.24113287,1.2434773,-0.22915763,-0.17692085,-0.80892795,-0.42722946,1.9884517,0.48276523,-3.767873,-2.3216097,-0.2979229,-0.015834996,-1.7853267,0.3560459,1.0064688,1.5438484,1.27018,-0.51911825,0.72736126,-1.4795816,-0.16314742,-0.9098291,-0.18608598,0.52359486,0.4623088,0.26997453,0.7755566,0.30271655,-1.2514911,1.6210142,0.33196896,0.7978201,0.71674967,-0.20725596,0.41466144,0.120437436,1.3984194,-0.82079047,0.32371703,1.4354026
P24723,1.3022718,-0.26001966,1.3478444,0.012808025,-0.5151308,-1.5065144,-1.3915724,1.3625731,0.6328931,-0.19854344,1.3362607,-1.5997798,0.309755,-0.50564754,0.022622194,-1.9345723,-1.1343509,0.95978546,-2.2197745,-0.54610366,1.137998,-0.00984914,1.2324268,0.65351963,-1.084151,0.94957787,-1.2263623,-0.08591843,0.6696373,0.006026052,-2.775838,1.5665625,-0.37010056,-0.25146013,0.15809235,0.1654249,2.7705674,1.8845873,1.9979446,-0.036181748,-0.47283673,1.3203871,-0.5504414,-0.13375725,0.08490121,-0.045442753,-0.56898767,-1.2097037,0.7141672,1.0179594,0.2448536,-0.23234761,0.8689048,1.1121767,1.5714158,1.7500714,1.1818022,-0.9605109,-1.6896102,0.68571866,0.52627313,-0.4896136,0.6250365,0.48519236,1.2198334,-0.4411859,1.4210259,-0.44767487,0.84752935,-1.0997791,0.24106039,1.3295708,-1.3302938,-0.9795117,-0.31655055,-0.46882713,1.4426663,1.47895,-0.34094977,1.6672531,-0.5007,-0.36027092,1.8077562,0.013833737,-0.17901005,0.7891096,1.7050761,0.26149005,0.12142632,1.7092865,-0.65413284,-0.26817864,-1.4673212,-0.15118712,1.7116764,-0.08917512,-3.3081014,-2.4937668,0.57058233,-0.3712117,-1.8986017,0.026160534,0.98488134,0.8212932,0.60486203,-0.92405623,0.031286377,-1.8438507,-0.118330434,-0.48457935,0.24134526,-0.32927412,0.7044897,1.3402293,-0.5622826,0.49774852,-1.703721,1.4624759,1.2262675,2.4437275,0.5129398,-1.4152868,0.5881028,-0.14796579,1.1061025,-0.5718246,-1.1538346,0.74746764
P27448,0.58768344,-0.51700056,0.45562035,1.2994854,-0.20007718,-2.1478724,-0.7735215,1.479398,0.5224384,0.3201477,1.6833159,-1.3785284,0.51710016,-1.3862836,-0.37872314,-1.1684872,-0.46191344,0.62899494,-2.469511,-0.4079071,1.5903971,1.0602796,1.4887275,0.85202247,-0.5813198,0.76686865,-0.92630273,0.6689091,0.52862144,-0.7927479,-2.9317153,0.4158023,-0.32275975,0.023072552,-0.78060424,0.8202662,2.950345,0.21387835,3.2859313,0.43059742,-0.7496758,0.7267163,-0.11625096,-0.837165,-0.73587906,0.7034105,-0.3062857,-0.27006713,0.45230088,0.25250202,0.13213305,-0.3752439,1.119861,1.3438702,1.4753653,0.84243506,1.2174045,-1.8530926,-1.8151878,0.9347627,0.9366214,-0.5838201,0.5240915,0.5865435,1.3894914,-0.744022,1.7190669,0.8300298,0.48724103,-0.5012638,0.8023374,1.1348565,-1.69289,-0.79158235,-0.206941,-1.1506581,0.45454812,0.820637,0.22875512,2.0038488,-0.4910315,-0.6366066,1.189227,1.084559,-0.13214983,1.4884512,1.329164,0.3354336,0.4973143,1.3835214,0.73344237,-0.49968055,-0.5607412,0.3871041,2.1234283,-0.7085457,-3.3054163,-3.083178,0.41078618,0.049785852,-1.8636103,0.23202184,0.84286755,0.90600157,0.4415037,-1.4230579,0.5097667,-1.4256371,0.4188038,-0.8249654,-0.029484635,-0.8363112,0.775583,1.4630928,0.39823052,0.27785584,-1.0290016,2.110055,0.79024184,0.45086432,-0.44211644,-0.90711445,0.56150794,0.20233388,0.6898014,-0.9949727,-0.40900484,0.4143393
P29317,0.86933774,-0.33044025,0.8308201,0.73523474,-0.2709665,-2.3158445,-0.03939621,1.3753986,0.8403505,-0.2187392,1.1466845,-1.171183,0.22766468,-0.6495032,-0.029618084,-0.069543876,-0.48306498,1.0260923,-1.2978531,0.63831794,2.6153674,1.401619,1.8872064,0.5334112,-0.5022456,0.8836145,-0.6582715,0.79227495,1.2532346,-0.86631966,-2.9748735,0.049004883,-0.043528683,0.10058464,-1.1165795,1.1713347,3.5461388,0.97983366,3.3349338,-0.4685344,-0.71390224,1.379581,0.46343035,-1.1469853,0.08258698,1.6377201,-0.14252412,-1.1029838,0.3347591,-0.12620355,-0.1859308,0.0062530246,0.9457301,1.7976754,2.2679899,0.8428687,1.209258,-1.044675,-1.6362702,-1.0358263,0.7188359,-0.9395149,0.7632486,0.24636377,1.6135782,-0.45104492,1.743522,0.6319742,0.66837597,0.2785485,1.1832126,1.3680751,-1.9807487,0.15051118,-0.6602937,-0.13047871,-0.04768254,1.167252,-0.11535065,2.219412,0.17067659,-0.2737279,0.9513037,0.86479723,0.83036727,0.97845876,1.4626138,-1.065575,0.50408185,1.3067011,0.018226635,-0.9956066,-1.0822843,-0.045534037,2.5838408,-0.22045928,-3.3783522,-2.4845655,0.8158424,0.11912255,-2.1786761,1.1942775,1.1256052,0.61936975,0.38936743,-0.39007434,0.50442415,-1.206502,-0.4041237,-1.5205564,-0.24150476,-0.41647315,-0.77143764,0.7325,1.1042241,0.0322082,0.26666713,1.798539,0.7680423,0.51131064,-0.36202285,-0.29857877,-0.086004876,-0.35273644,0.9337274,-1.5329595,-0.47115418,0.6292716
P29597,-0.0703516,0.14789318,0.8733601,-0.30165848,-0.10620384,-0.8913758,-0.46753043,-0.40653124,0.4725578,0.89520776,2.5471094,-0.58081573,0.9295186,-1.5107442,-0.30487195,-0.74130005,-0.03392026,0.674206,-0.81647164,0.044167753,-0.018051028,1.5609994,0.9184766,0.43117037,-0.78233963,1.1975988,-1.3254327,-0.63259286,0.031652305,-0.58709866,-2.592169,0.9998719,-0.91254336,0.04410608,0.002575118,0.8631153,3.636124,2.2060642,2.7237873,-0.9040096,0.62077165,0.42600164,-0.064739935,-0.7723496,0.78676736,1.0222421,-0.3336225,-1.7090814,-0.078016005,1.0000851,0.8158505,1.0917801,1.1312438,0.59457004,1.5067723,0.6686022,1.4920073,-0.4019687,-0.6785103,-0.16114128,0.60719144,-1.2793183,0.9360218,0.5591269,1.2987108,-0.64866567,1.59819,-0.07202336,0.14674373,-0.98799485,0.42812788,0.95457846,-0.65890366,0.39527518,-1.0667608,-0.02423301,1.0748732,1.7397313,-0.43167147,2.3897057,-0.19176155,0.41919714,0.0008744211,1.0544091,-0.14557144,1.4297055,1.8712816,-0.22396046,0.36124238,1.7430053,-1.4696902,-0.44019383,-1.4872874,-0.8306756,1.2939316,-0.09027493,-2.6757538,-1.6146988,0.6275853,-0.5888647,-1.5917755,-0.3998631,1.2547197,1.0704967,0.6834746,-0.8824333,0.36747527,-1.0520738,-0.07453843,-0.8812992,0.41909325,0.7226264,0.38382477,0.22086209,-1.0487641,-0.13746472,-1.6100628,1.5272304,-0.03230032,2.5094292,0.5177635,-0.7597895,0.079762,-0.46306196,0.6488697,-1.3734003,-1.1749363,1.2414732
P31751,0.42807811,-0.71504986,0.87400633,0.07820168,-0.22719254,-2.1816514,-0.55370843,0.89392596,0.31862786,-0.32895532,1.9908481,-1.028778,-0.0028203875,-1.302122,-0.16492979,-0.4884022,0.07595761,0.83839875,-0.80296344,1.4814167,1.7068429,0.5679475,1.1689603,0.60351896,-0.70282674,1.3705124,-1.633256,-0.6679952,1.1630487,-1.040388,-2.906081,0.8645681,-0.5297967,0.08166075,0.31562552,1.5483799,3.7202616,1.4174445,2.4424155,-0.55608827,0.050527014,1.4228199,0.64946926,-0.5162272,0.8556093,0.4933626,-0.5232185,-1.5371244,0.4387529,0.35689875,0.8149785,0.14225939,1.380175,1.3094949,1.8229902,0.9198011,1.4494151,-0.6663227,-0.98936063,-1.0074748,0.6210702,-1.4568449,0.9618801,0.08471733,0.8043141,-0.07193332,2.3942409,0.5019955,0.7173606,0.054309975,1.0007639,-0.023255894,-1.6140914,-0.08042145,-0.78833014,0.30718845,0.43358463,0.6237736,0.12197709,2.3831968,-0.33765066,-0.58392566,1.1624081,1.2078887,0.47465912,0.7536135,1.4271278,-0.034544878,0.7182547,1.4023112,-0.37678558,-0.7468804,-1.5154388,-0.2207159,2.2058847,0.09848756,-3.1869514,-1.3894194,0.9531211,-0.26005962,-1.8860155,0.79192704,0.5885702,0.56984127,1.768424,0.073792756,0.8785592,-1.6158606,-0.702239,-1.9781579,0.5167191,0.43515754,-0.14738028,-0.4828946,0.9443969,-0.8170759,-0.10348018,1.0630935,0.51117414,1.5454823,0.20882908,-0.36470687,-0.40166196,-0.92714816,0.7208844,-1.1478416,-0.48080388,1.0949883
P35916,-0.03402093,0.27331054,0.5467469,-0.43229392,0.21107486,-2.082863,-0.16895622,1.4090838,0.34723037,0.4806903,2.187412,-0.40786773,0.67887104,-1.477118,0.55625576,-1.166227,0.36390126,1.0036333,-0.93831503,0.74900043,0.73521763,0.2564243,1.0599856,0.5460777,-0.2707542,0.9602811,-0.59820044,0.3303195,1.6217077,-0.94969803,-2.7937398,1.0871221,-0.7636299,-0.4010624,-0.65898156,1.260633,2.8227253,2.0971072,2.4613461,-0.937903,0.32723194,1.3800583,-0.099050544,-0.7507158,1.0877979,1.151674,-0.7522991,-1.1033362,1.0405301,1.3604805,0.023986608,1.0278807,1.9231989,1.0946546,1.7952105,1.35218,0.8631564,-0.16855071,-0.27394542,-0.3977578,0.533561,-0.44502857,0.44432718,0.38155308,1.5876329,-0.18029693,1.8362244,0.079777606,0.4057353,-0.38187054,0.5661263,0.42027503,-0.6464824,-0.46872032,-0.5822478,-0.062356126,0.55076474,1.4216974,0.11666557,3.031036,-0.26713672,-0.8492515,0.2700547,1.374899,0.6302438,0.67062926,2.026436,-0.5511084,0.9238318,0.6261314,-0.81719375,-1.295933,-1.0334255,-0.17590986,0.7580024,0.061537243,-2.6656656,-1.9911903,0.92613614,-0.5516244,-2.70724,0.43438128,0.8962085,1.2391466,1.2181988,-0.41103753,0.6124792,-2.4593549,-0.46102756,-0.99326265,0.47179386,0.5878027,-0.06813415,0.09108311,-0.2695395,-0.9038395,-0.7712779,1.2226763,0.77623975,1.8489459,-0.35905918,-0.5426727,0.43615782,-0.72246385,0.044434488,-1.1328114,-0.045422114,0.12755801
P35968,-0.054590605,1.2021253,1.1410476,0.031044642,-0.92781854,-1.4387838,0.15992615,0.91338503,0.85669535,0.42311937,1.7999858,-0.3490262,0.6341899,-0.34546363,-0.18030861,-0.41518176,-1.0420634,0.5712321,-1.826353,0.048131067,0.7308225,1.1460891,1.1979636,0.26392934,-0.78598785,0.9297653,-0.7805937,0.61828196,0.6066851,-0.12078053,-3.037295,0.62747866,-0.93278325,-1.2590151,-0.104836755,0.9354402,2.5344448,1.6862377,2.4607027,-0.89376545,-0.9817883,1.4741528,-0.46701074,-1.043932,1.0244353,1.693958,-1.0816207,-0.67448956,0.52141315,1.2583272,-0.0040470115,1.524375,1.0838014,0.17597461,1.540473,1.3224481,1.5137867,0.31593266,-0.56157714,-0.2961163,-0.60476613,-0.6966152,-0.19477952,0.34157136,1.7639257,-0.09030643,1.3886786,-0.10718885,0.07303897,-0.3559741,0.28686944,1.3542672,-1.078194,-0.3772665,-0.19927584,-0.39923045,1.1325874,1.8685805,0.19784984,2.0081594,0.48753485,-0.37818038,0.80500686,1.6332879,-0.042094484,0.34910902,1.9453934,-0.6161074,0.65469503,0.8275742,-0.69590956,-0.8943531,-0.8407042,-0.25923994,1.1887212,-0.2508522,-3.139252,-2.2615995,0.81947654,-0.76777464,-3.184746,0.4979743,1.265353,2.1739333,0.7142528,-0.64685595,1.0274681,-2.0164478,-1.0746078,-1.1049719,0.7264755,-0.10827416,-0.7577095,0.9600974,-0.081375845,0.17206837,-0.60279655,1.7243353,0.83031267,1.8632767,0.4704461,-0.5736593,1.2295005,-0.48723942,0.54210323,-1.3644514,-0.8544925,-0.50545245
P41743,-0.44327992,0.166929,0.8771381,0.10326892,0.36447388,-1.3896495,-0.0723925,1.0587645,1.1967249,0.351326,2.9900029,-0.97774565,0.727367,-1.11329,-0.7282745,-0.5316266,-0.20978084,-0.049013045,-1.472169,0.044291552,0.8821832,1.1839435,0.9216802,-0.24366203,-1.1915776,1.1007744,-0.700869,0.6698392,-0.08845225,-0.39561298,-2.2692919,0.14673646,-1.3528107,0.23686248,-0.34228617,1.4254857,3.1301823,1.661557,3.2654784,-1.4172769,-0.5181717,0.8301926,-0.09031307,-1.3796967,0.8732804,0.65027297,0.32920477,-0.65161926,0.34440237,0.67628884,0.02641172,0.7353067,0.7473497,0.8808009,2.467175,-0.19952062,2.1478047,-0.4081987,-0.92539513,-0.4798637,0.08194369,-1.5491327,0.392506,-0.81848294,1.9233603,0.4030489,1.3280325,0.849376,-0.41134188,0.01019509,0.8910847,0.6724619,-0.97339004,0.09942554,-0.24109276,-0.67189896,1.5394375,0.7652377,0.275005,2.0353405,-0.15866461,-0.5164662,-0.12515235,1.5523696,-0.31145775,0.9020772,2.0713377,-0.45290348,0.5408882,0.9815135,0.07817504,-0.8014123,-0.98261446,-0.66529936,1.7192526,-0.4165924,-3.5998619,-2.4769406,-0.05890334,-0.014870601,-2.8650417,0.07953975,0.71878356,1.5605831,1.1593072,-0.81158763,-0.12492056,-2.0088384,-0.5452585,-1.1323858,-0.079484954,0.045170777,-0.057070524,0.45249125,0.21240655,0.699295,-1.0630684,2.2554004,0.2855446,0.6692369,-0.09235792,-0.2314037,1.1024344,-0.42814502,0.747703,-0.9619187,0.057861418,1.2249638
P42679,0.84057474,-0.53895164,0.74161214,-0.41021526,0.018480336,-1.6412957,-0.6106093,0.7618082,1.1500869,0.7409078,1.16209,-1.3164009,0.8064714,-1.3082181,-0.9467743,-0.7293745,0.09480885,1.0827404,-0.39228612,0.27970883,1.6796262,0.6971332,1.6073724,0.54940766,-0.35671508,0.61465216,-1.0916071,-0.43502653,2.1765811,-0.8077805,-2.4168878,1.5440799,-1.0940893,0.32975513,-0.49017757,1.3263297,3.4278305,2.1318998,2.922214,-0.60836643,0.701122,0.67603165,0.047444463,-1.0367601,1.0838345,1.0432973,-0.47237197,-1.7796608,-0.24170585,0.8994639,-0.612546,0.42035776,0.94160664,1.1373953,1.4992782,0.68493426,0.8521868,-0.2861691,-0.9147774,-1.0301324,1.1044859,-0.6418104,1.2884599,0.7217636,1.7637047,-1.0633037,1.1496965,-0.49719235,1.0666666,-0.46968606,0.27795374,1.0370266,-1.3169079,0.67758363,-1.1748005,-1.0428823,-0.0040516313,2.01859,-0.19567071,2.9735463,-0.8616609,-0.13723937,0.20561382,0.4128464,1.6084456,1.517021,1.7979239,-0.74923104,0.9612345,1.9172845,-0.7929143,-1.2910278,-1.5356529,-0.32645145,1.1435055,-0.18226856,-2.1745768,-1.8988799,0.11015617,0.64609295,-1.5757898,1.0389134,-0.2694468,0.1785968,0.5570834,-0.5262137,-0.77399695,-1.5655494,-0.2932901,-0.5159799,-0.50432724,-0.15609638,0.17044577,0.28981695,-0.8144289,-0.28615206,-0.14498813,1.611609,0.47385013,1.6049837,-0.119222894,-0.9432957,-1.1223226,-0.14992698,0.5589349,-0.83921474,-0.80358887,1.0917822
P42685,0.8249301,0.38215053,1.4149792,-0.97890455,-0.17360172,-1.4862324,-0.72060513,0.9550343,0.71148485,0.6006089,1.8848026,-0.5896122,0.35129493,-0.8766082,-0.68612957,-0.8694576,-0.6831856,0.79248303,-1.3554882,0.5650861,1.4739817,0.27062613,1.5865011,-0.15714519,-0.8114407,1.0358381,-1.7241464,-0.12906256,1.4025333,-0.20118053,-2.871382,1.7111276,-0.94526446,-0.050255716,0.13111305,0.5947634,3.2232456,2.3088925,2.1940444,-0.14989631,0.48200914,1.0224975,0.07455625,-0.9466492,0.5195054,1.1040788,-0.43662834,-1.5974971,-0.07478273,0.67493594,0.18308957,0.6946831,0.8261145,0.9536906,1.9322821,1.3280813,1.7762617,-0.3676153,-0.6127335,-1.0473183,0.6272054,-1.4294454,0.6515532,0.2541412,1.536269,-0.49941716,2.0831363,-0.08338913,-0.044080272,-0.9704435,-0.20363,0.9372492,-0.8562645,-0.03045041,-0.8786611,-0.5634307,0.9024937,1.3653681,-0.3103854,2.0382018,-0.33006588,-0.3088808,0.2560622,0.6223248,0.7377411,1.224059,2.0496464,0.042465284,0.8845903,2.1297722,-1.4753952,-0.82746804,-1.5845976,-0.617279,0.7883834,-0.3157941,-2.5880744,-1.9480656,0.65695333,-0.2146231,-2.228703,0.78129417,1.230939,0.5178505,0.7201479,-0.7987037,0.15846178,-2.0816505,-0.6219025,-1.0053403,-0.09583734,0.33694974,-0.044018716,-0.24650207,0.02348728,0.3234769,-0.8582193,1.9096221,0.7925214,1.7664227,0.14297727,-1.030453,-0.01015103,-0.44588524,0.07452247,-0.8598811,-1.0383428,0.67976975
P43405,0.032674707,0.40270582,0.58015615,-1.3194159,-0.8561375,-1.3581352,-0.85867316,0.4356334,0.8070023,0.4001823,1.3058363,-0.4875843,0.22650188,-0.51789874,-0.40428302,-0.6282178,-1.4896053,0.7266649,-1.1500343,-0.4737292,1.1731147,0.24050799,1.7682331,1.1409916,-0.520161,1.3773956,-0.272793,-0.015922487,1.6740258,-0.27304482,-3.3070345,0.116597906,-1.276389,-0.7441482,-0.04852837,1.4563723,1.9993706,1.8203226,2.538176,-1.0707476,-0.22218975,1.2591769,-1.0236313,-0.7257292,1.1064637,1.2316608,-0.62811977,-1.6496919,0.36626342,0.15554294,0.10274476,0.3548058,1.2036302,0.86749953,1.4302937,1.7186364,1.1980622,0.09414136,-0.9283048,-0.7088962,-0.083240576,-0.123987794,0.6207046,0.7856976,1.6555036,0.13420865,1.5563844,-0.39856535,0.79442525,-1.1377634,0.41060784,0.42438692,-1.423012,-0.25266188,-1.416807,-0.09043253,0.21764486,2.036393,0.6861378,2.6921463,0.183061,-0.46101686,1.2025361,1.5734535,0.58666056,0.03624135,1.4060967,-1.2780064,1.0331023,0.14520027,-0.5791697,-0.87579834,-0.5406253,-0.061307453,1.4879696,-0.82944936,-3.278397,-1.745032,0.88133,-0.7532198,-2.793287,1.2682598,0.22698598,1.8854523,0.8381657,-0.3703827,0.4741086,-2.944623,-1.0926083,-1.4279718,0.37523535,-0.75866157,-0.5807512,0.8134583,-0.33035377,0.11603184,-0.42725876,1.6408215,1.6234576,2.1699872,0.04853239,-0.46984732,-0.18998599,0.47088006,-0.28684565,-2.2037272,-1.5192114,-0.970706
P48729,0.82340217,0.12510085,1.2805651,0.7019868,-0.6150007,-2.4659379,-0.16556856,1.1478654,-0.0916016,-0.627018,1.6267047,-0.58792526,0.31529072,-1.2463009,1.1509881,-1.1657147,-0.5409621,0.34306437,-2.0552676,0.27619073,1.0192564,0.93050754,1.2996583,0.89621055,-0.11986302,1.7243029,-0.36856845,0.97476816,1.5053405,-1.207012,-3.1699212,0.78911954,-0.17291516,-0.82223296,-0.9487303,0.60217494,3.2813025,1.4347813,2.6374264,0.19745828,-0.28124505,1.382876,0.53175133,-0.17568372,0.31776994,1.341901,-0.80317616,-1.075806,1.2487329,0.4958041,0.54032904,0.59071,1.4935392,1.3517408,0.8312043,1.6935081,1.1856452,-1.263782,-1.0374212,-0.084233485,0.8955287,-0.94297975,0.2836606,1.0720994,1.0300211,-0.4063206,2.2207885,0.098597474,0.38119167,-0.38618842,0.9954373,0.49458447,-1.6282252,-0.75293654,0.20559785,0.3804192,0.061179746,0.8662084,0.5452646,2.0417132,-0.09774991,-0.932204,1.5360646,0.8309,-0.31359988,0.9813366,0.77499557,0.22534686,0.5829044,0.8769827,-0.8526249,-0.28675964,-0.4198738,0.5958329,0.8727731,0.09311542,-2.7689233,-2.2839541,1.1531087,-0.59481025,-2.2277844,0.74116826,1.6413214,1.4583821,0.96289086,-0.70789224,1.7553188,-2.4231231,-0.14607643,-0.7839749,0.9681306,0.43583465,0.12926888,0.4864347,1.1152732,-0.66058195,-1.0685403,0.990597,1.076128,0.96125495,0.10191757,-0.6602393,0.6856186,-0.07045704,0.30045402,-1.7675794,-0.49697882,-0.4811505
P48730,0.08015164,-0.5952238,1.7664862,-0.20869622,-0.41100222,-2.274373,-0.43112177,0.9668385,0.96061826,0.37890294,2.3342352,-0.07956958,0.6880527,-1.1255639,-0.62201613,-1.1617604,-0.6445159,1.6795543,-0.71977204,0.26182085,1.2742624,0.445537,0.9180661,-0.11408748,-0.9894138,0.7119295,-1.3515273,0.3147936,0.95231354,-0.37130013,-2.28154,0.826211,-0.92236954,0.2392708,0.17488304,1.1208571,2.7520826,0.9765438,3.0615938,-0.53803873,0.24785717,2.1036239,-0.41155237,-0.89857495,0.9574733,0.85494614,-0.06469541,-1.5992665,0.30495897,0.32029295,1.1513352,0.093826324,0.40465125,0.70221967,2.1746418,0.826975,0.6218549,-0.77380264,-0.87750626,-0.19511652,1.1070259,-0.9978832,0.5228324,1.1258001,1.1078703,-0.88463473,1.3302261,0.7532184,1.5661167,-0.3563952,0.25692838,0.76113415,-1.384299,-0.7070546,-0.5766338,-0.50587595,1.3987544,1.4686304,0.26251835,2.442593,-0.5359468,-0.18762021,1.5677973,1.2032137,0.90246904,0.67243636,2.1496365,-0.9358589,0.8956534,1.6535767,-0.5439839,-0.7142474,-2.1588378,-0.327184,2.2354925,-0.6413062,-2.888855,-3.0084116,1.0733773,-0.058922715,-2.2272546,0.9124276,1.128205,0.08222669,0.13276832,0.20830199,-0.29670647,-1.7402103,0.23707598,-0.86949986,0.47788125,0.17929414,-0.17852041,0.86378294,-0.4576772,0.0059415065,-0.55961347,1.3283991,0.7177459,1.5935278,-0.4002286,-0.09957429,0.11395156,-0.37971163,0.16729732,-1.0235921,-1.0154414,0.14813867
P49137,0.35374513,0.23902702,1.6380903,-1.1128622,-0.34506437,-1.9670659,-0.40164748,0.9540299,0.3766152,0.49811202,2.4024737,-0.576134,0.3669905,-0.5926218,-0.58995986,-0.92565465,-0.55004585,1.0067554,-1.2693402,1.036986,1.6658809,0.20507178,1.2073456,0.21104936,-0.7749718,0.7794376,-2.1252956,-0.31066576,0.9758012,-0.2967263,-2.9922872,1.2900159,-0.7800124,-0.35418826,0.8223383,0.73898715,2.8812373,1.9083903,1.9275763,-0.23051368,0.32492366,1.5695406,-0.12121844,-0.5960665,0.7700352,1.2834902,-0.5147544,-1.43278,0.5241263,0.82248324,0.32964474,1.2602452,1.0599256,0.15185572,2.0644772,1.6999408,1.6101733,0.25631395,-0.30228838,-0.6676114,0.4948259,-1.2769989,0.4614076,0.42086115,1.5454717,-0.63765734,2.1495202,-0.10097692,0.6945261,-0.52479154,0.026391983,0.50427985,-1.0011806,-0.6920308,-0.77681994,-0.5660574,1.2019241,1.20979,-0.14314844,2.2272954,0.26909724,-0.43439716,0.7604815,1.721962,0.8931397,1.0951008,1.7704921,-0.339158,0.66610557,1.5974554,-1.1174003,-0.90688217,-1.8011663,-0.29409453,1.2162743,-0.33276477,-2.9494643,-1.790942,0.5036172,-0.48890832,-2.4256995,0.6502355,1.0964558,0.97087187,0.9964835,-0.15946275,0.44536233,-2.2096825,-0.5298566,-1.6516165,0.29077312,0.1388323,-0.29732502,-0.5391538,-0.32804772,-0.13931514,-0.6161823,1.5280201,0.4982873,1.8674047,-0.12297988,-0.4996482,0.052774902,-0.6229473,-0.17951627,-0.43995067,-1.2075621,0.5015461
P49760,0.16068769,-0.6104622,0.74447083,0.53125894,0.61741275,-2.0979617,-0.6324552,1.1486079,0.730061,0.6107957,2.0445638,-1.2020401,0.30967757,-1.5813526,-0.30866003,-1.5521477,0.25516835,0.9731093,-1.2481006,0.95777303,0.888227,0.18707806,0.95670146,1.126002,-0.90320665,1.3505639,-0.972955,0.60011387,1.0033017,-1.0374538,-1.9754404,0.8925714,-1.3310884,0.31931597,-0.44704273,0.6477211,2.110101,0.63776076,3.3301332,0.17924985,-0.6312345,1.6208405,-0.2049169,-0.937894,0.7310419,0.21478333,-0.17642392,0.02537179,0.41580677,1.1141833,0.06889249,-0.080231234,1.864964,1.0559357,0.82198024,1.2513461,0.51179266,-1.0544385,-0.8195612,0.862222,1.1911932,-0.3154514,0.49865258,1.2706089,1.7207953,-0.8999977,1.4687054,0.23819232,1.4444743,0.15835695,0.2781492,0.16624925,-0.9525147,-1.1038591,-0.33721393,-1.1316905,0.62332726,2.034525,-0.04053111,3.417196,-1.3855734,-1.1927677,0.95447314,0.8932039,0.18022144,0.6477635,1.7351522,0.16114156,0.8591601,1.4233537,0.47394603,-1.7884278,-2.111698,-0.19717112,1.5054594,-1.4004196,-3.055577,-3.099419,0.43911967,0.18983512,-2.6247792,-0.3371796,-0.5206203,0.9323181,0.7607235,-0.1509738,-0.1486505,-2.5633216,0.3256344,-0.7522084,0.38681388,-0.47673592,1.1538084,0.46354038,-0.5557301,-1.0267887,-1.5024931,1.2670653,1.0566392,0.8527407,-1.0311737,-0.6715116,0.06251783,0.49905849,-0.041332286,-0.84861696,-0.14124262,-0.088018864
P49840,0.30944562,-0.5087814,0.09580446,-0.8265146,-0.27291632,-1.8971424,-0.869951,0.742437,0.4351944,0.6791597,1.6517384,-0.8387073,0.53152096,-1.2421129,0.009804187,-1.0173398,-0.6174586,0.33768547,-1.5046974,-0.4768082,1.1779866,0.44173244,1.2012912,1.326401,-0.10871737,0.99299955,-0.44152394,-0.06768742,1.9283056,-0.9561801,-3.0813527,0.2919184,-0.84475595,-0.3998828,-0.60405576,1.7401903,2.7637744,1.5116757,3.109485,-0.28781277,0.4287778,0.5494051,-0.25705323,-0.5721023,0.40893516,0.9585432,-0.5647523,-1.5483633,0.9361579,0.22128321,0.15415667,0.379206,1.6433268,0.80166095,1.1424905,1.6140983,1.3260272,-0.85957104,-0.8848584,-0.092523605,0.9789504,-0.35475677,0.5191384,1.049393,1.5897539,-0.35627103,1.88874,-0.039808635,0.47507614,-0.9463715,0.9287872,0.29061103,-1.4701416,-0.20278923,-0.82175434,-0.8132132,-0.33058515,1.355235,1.1149019,3.145557,-0.22919226,-1.1131508,0.7111793,1.6001205,0.41804546,1.3146081,1.0991274,-0.4274371,1.1288232,0.5586294,-0.13139692,-0.46670097,-0.23875651,0.40552634,1.0296768,-0.50730336,-3.069167,-2.2831018,0.057751957,-0.25210306,-1.8711919,1.1726817,0.024249826,1.2353871,0.97141016,-0.7678946,0.6100697,-2.8942542,-0.13333991,-0.7433308,0.3025415,-0.20188826,0.4506422,0.5675563,-0.1998716,-0.48199078,-1.2283008,1.9453318,1.1824943,1.4437022,-0.38616934,-0.694205,-0.54737866,0.6711156,-0.32617104,-1.4231428,-0.7983085,-0.20751512
P51451,-0.2321865,-0.3376162,0.2975398,0.71659946,-0.07881472,-1.4448495,0.21208316,0.897783,-0.0768595,0.03157969,2.2583196,-1.1505297,0.24813,-1.4196298,0.3378108,-1.2881625,0.105665736,0.60029185,-1.5686626,0.075288974,0.35973752,0.77626103,0.5245008,0.7304743,-1.1267825,1.128849,-0.913966,0.14904098,1.1754265,-0.7474569,-3.3726287,1.0695016,-1.5379837,-0.40430462,-0.3212196,1.5105381,3.3036306,1.3552864,3.1985714,-1.1545117,0.41794997,1.5068756,0.39760184,-0.44875038,0.8722162,0.20518671,-1.0996317,-1.576877,1.1860803,0.51466465,1.4714537,-0.5911537,1.6025382,0.7993348,2.114395,0.32770833,1.1206105,-1.4490207,-1.1614214,-0.042201683,0.79049605,-1.1058038,0.36473918,0.6069865,0.65750825,-0.46094564,1.4068947,0.84308666,0.5620303,-0.5303879,1.1269909,0.67833096,-1.8419544,-0.43231064,-0.34271526,-0.02649295,1.3111371,0.75421494,0.5432346,2.849649,-0.5176942,-0.65988785,1.1831703,1.1864858,0.0873258,0.36369798,2.2752078,0.35015863,1.4781084,1.0577875,0.37592164,-1.0155889,-1.5269916,-0.15700348,2.416283,-0.16833435,-3.3749807,-2.2753398,0.4120709,-0.0049327556,-1.4293535,0.40456706,0.61291385,1.1007237,1.7820057,-0.28663087,0.81475914,-1.9285576,0.13712299,-0.9712547,1.3239533,0.4562086,0.80031425,0.61742055,0.43496123,0.02019417,-0.8461483,1.6792114,0.94966066,1.4445351,0.58305854,0.27643004,0.51400584,-0.08489221,1.007592,-1.2413023,-0.1737493,0.49585974
P51617,-0.0686327,0.23650646,0.3680908,-0.010580353,-0.14401779,-1.7776332,0.061102763,1.058283,0.41665873,0.8740914,2.5493636,-0.58589125,0.7929574,-1.2521087,0.20339903,-0.742171,0.04106863,0.96306396,-1.0987751,0.5241545,0.6844405,1.0218731,0.6910237,0.4388605,-0.5748126,0.64537245,-1.0574912,-0.041892443,1.0406656,-0.394145,-2.7632897,0.89940876,-0.7159159,-0.38602012,-0.49481422,1.1528047,3.2537181,1.7975683,2.7649648,-0.9273568,0.25822842,1.0887637,0.34337375,-0.9227532,0.60483515,1.0413373,-1.0492313,-1.2280813,0.8339984,1.0301981,0.65309787,0.69471145,1.55252,0.61331457,1.9690214,0.9540088,1.2953191,-0.5721009,-0.6056715,-0.44592863,0.46291718,-1.0116804,0.09422855,0.13660978,1.5766748,-0.58564883,1.6285365,0.31962183,0.23316842,-0.55217224,0.59819317,1.0595572,-1.1325213,0.01792019,-0.7413029,-0.5020056,0.8126604,1.455981,0.14149038,3.0246177,-0.25221488,-0.5906825,0.09963099,1.4712276,0.4750381,0.93712664,2.359039,-0.29470217,1.1713805,1.3851525,-0.59567857,-0.9965794,-1.4943178,-0.33280143,1.5543642,-0.10665185,-3.1080468,-2.2173824,0.6155026,-0.35573706,-2.3144336,0.38894224,1.0422868,0.9040316,0.8334294,-0.51503897,0.803384,-1.7677051,-0.57032585,-1.0532275,0.8737564,0.59857345,0.062456317,0.42519903,-0.17987286,-0.41171503,-0.9883336,1.7969122,0.5002277,1.7151475,-0.052215282,-0.5444741,0.26884088,-0.6422429,0.41793525,-1.1434593,-0.42455652,0.54811513
P51812,-0.45321077,0.1437337,0.9097349,-0.13371766,-0.3360359,-2.1155982,0.059996694,1.0478337,0.7941107,0.51868224,2.300771,0.54648155,0.43822238,-1.2898195,-0.42693013,-0.30889273,-0.51226753,1.0960898,-0.9252774,0.036495514,1.1950676,0.95133764,1.6448073,-0.11288512,-0.4403103,1.2088965,-0.38757104,1.013839,1.3097712,-0.8079456,-2.8049002,0.05609587,-0.7839781,-0.08474134,-0.92370343,1.4775997,2.8875546,1.0185789,3.3260646,-1.0953587,0.010798404,1.5690526,-0.4483474,-1.6755573,0.8930388,1.4727966,-0.23655345,-1.341411,0.085587,0.017399205,0.79815483,0.26886407,0.6471218,1.3752146,2.2374809,0.32977295,1.2431372,-1.0835369,-0.7232389,-0.8403478,0.5705834,-0.96466166,0.33293927,0.47911292,1.1061745,0.041725703,1.6550108,1.2869012,0.14741261,-0.29091775,0.66493905,0.76617575,-1.000771,-0.091461144,-0.76201165,0.11310256,0.69815046,1.2752552,0.53196806,2.230846,-0.306091,-0.27260673,0.54940706,1.4718705,0.44067279,0.43424326,2.135141,-1.250704,1.0486534,0.8734196,-0.3945765,-0.8384736,-0.72402394,-0.49566418,1.6471622,-0.6091373,-2.6531312,-2.6572807,1.437046,-0.20934224,-2.6904302,1.298726,1.3684989,0.71599936,0.6170673,-0.47198552,0.3373743,-1.839824,-0.32167023,-1.1074166,0.2698556,0.23864901,-0.91482896,0.74818414,0.7388371,0.13355407,-0.042424932,1.8247492,0.88660556,0.8781372,-0.45191675,-0.06500001,0.61834925,-0.5130948,-0.07843422,-2.0270107,-0.5512388,-0.4180538
P51817,1.105581,-0.4107579,1.1000509,-0.34399033,0.40277052,-1.0566094,-0.60445595,0.99368364,1.2749217,0.2394417,2.185658,-1.605022,0.7746746,-0.6245656,-0.14385128,-0.9334368,-1.3040063,0.21317014,-2.0011158,0.2521263,1.3628203,0.63477355,0.340512,-0.36898476,-1.8819913,0.6738747,-1.6527717,-0.15024416,0.920383,0.6147941,-2.650467,1.3057326,-0.95782787,0.43517533,0.04652259,0.7935887,3.2712338,2.0798728,2.707722,-0.26252174,0.36300468,0.75011885,0.99762625,-0.6423936,-0.18361346,0.18782076,0.21061938,-1.9663508,0.5424734,-0.2076277,1.3182431,-0.27323756,0.4692541,0.41282034,2.4230452,0.83913195,2.495359,-0.9388876,-1.426657,-1.0531145,0.6384624,-2.051569,0.18760301,-0.097912624,1.6325332,-0.48979226,1.7322209,0.32865983,-0.096027635,-0.5527924,0.5908669,1.4390047,-1.7742478,0.5490007,-0.2503322,-1.0389085,1.5979745,0.70712453,0.3527468,2.231431,0.069504544,-0.73882353,0.40362522,0.32261914,0.2296913,1.3237243,2.003422,0.4140709,0.8661777,2.0101306,-0.23709574,-0.19068407,-1.9365602,-0.6145034,1.8143106,-0.41335282,-3.5290062,-2.629811,-0.44185963,-0.14857098,-1.2511778,0.5075002,0.92531425,0.18466127,0.46813232,-0.44461676,0.019915815,-2.008641,-0.028456109,-0.3207394,0.3766215,0.72082716,0.60261184,0.39905515,0.3837725,0.90113986,-2.023786,2.244225,0.8786495,1.3142078,0.54863894,-0.40444693,0.26430303,0.2833755,1.0277779,-0.2515315,-0.60462254,1.4958768
P51955,0.23067178,-0.20540059,-0.4314436,-0.7687402,0.30346155,-1.1148484,-0.6584242,1.020581,0.6307755,1.5704542,1.3034942,-0.41743842,-0.43443117,0.12975194,0.035148036,-0.6242884,-0.6343792,1.444343,-1.8155788,1.1693366,1.4633222,-0.21576762,0.78151876,1.1853551,-1.1003569,0.008823122,-1.6040455,-0.43884742,0.8573266,-0.45628875,-2.6817374,0.19106063,-0.09238265,-0.45598465,-0.21276635,1.322759,1.9452596,0.83623755,2.7975926,0.26638013,-0.78096163,1.5767647,-0.42252424,-1.4951725,-0.16802306,0.91812783,-0.6306186,-0.46395433,0.47129634,0.9224838,0.15469517,0.7420881,2.1710594,-0.17249465,1.4562186,2.578618,0.84585476,-0.3698783,-0.013272921,0.5799051,0.29090518,0.2877149,-0.53490263,1.5841745,1.6324613,-0.23404041,2.056553,0.23579523,0.13722686,-0.23389992,0.27046394,1.2648045,-0.18368311,-0.7746603,-0.6320643,-1.1092924,0.062799774,2.3248124,0.1373213,3.2133331,0.51835537,-1.3104714,0.2520143,1.2723309,0.43841672,0.010420197,2.2093768,-0.51542056,1.0160718,0.76698726,0.47015747,-1.487718,-1.7276386,-0.78543097,1.6576362,-0.9749696,-3.3306081,-2.7976685,0.22683775,-0.91850865,-1.9252515,0.50871396,-0.0056530247,0.629807,0.354159,0.24963662,0.5227408,-1.8410666,-0.1340518,-1.0885848,0.09331272,0.11377899,0.081309386,0.37570426,-0.7524786,-0.9794019,-1.482488,1.8789485,1.3950249,2.3224614,-0.5520373,-0.52279574,-0.19168961,0.47544053,-0.024975121,-0.016309192,-0.26047513,-0.31320423
P51957,0.41254866,-0.4099696,0.9803125,-0.43364817,0.7065517,-1.5596408,-0.49753112,1.2667698,1.0988452,0.48823434,2.5655093,-1.1391706,0.8670571,-0.9624909,-0.33829907,-1.1400305,-0.82210475,0.31518736,-1.92602,0.19927885,1.3885297,0.34992078,0.58297086,-0.03745379,-1.4431785,0.73127127,-1.2860961,0.45612612,0.8702473,0.1751524,-2.4729872,0.8018203,-1.0950443,0.506442,-0.1854564,0.91484964,2.6427908,1.4930145,3.0346122,-0.3211054,0.17089222,0.9832947,0.28070349,-0.88694483,-0.029016167,0.28976092,0.46910357,-1.2452303,0.7875966,0.07799561,0.8478403,0.029537257,0.7356779,0.42288214,2.2962995,0.80670327,2.2334883,-0.88231254,-1.1327084,-0.3493126,0.77870804,-1.4720246,0.1539874,-0.033131145,2.0477238,-0.5166244,1.8862864,0.643147,0.31959045,-0.26997966,0.6019667,0.95530224,-1.4458591,-0.21364658,-0.27321795,-1.3952906,1.6887823,0.841557,0.52100456,2.692562,-0.16304229,-1.0519674,0.2909716,1.1649667,0.3044877,1.4081537,1.9446932,-0.032574557,0.79315996,1.507423,0.21200043,-0.6281181,-1.6102847,-0.38769457,1.5704278,-0.9372289,-3.7016387,-3.1915016,-0.33594078,-0.11157282,-2.1100876,0.32302856,0.6416872,0.6359702,0.6111607,-0.60039955,-0.2628571,-2.6348777,0.2569492,-0.5021994,0.24265525,0.18276086,0.5403166,0.43860465,-0.012198068,0.53251976,-1.8978152,2.1931355,0.80529803,0.8146386,-0.40151116,-0.3561706,0.5948968,0.26936942,0.27272895,-0.21864529,-0.4830553,0.9174702
