protein_id,0,1,2,3,4,5,6,7,8,9,10,11,12,13,14,15,16,17,18,19,20,21,22,23,24,25,26,27,28,29,30,31,32,33,34,35,36,37,38,39,40,41,42,43,44,45,46,47,48,49,50,51,52,53,54,55,56,57,58,59,60,61,62,63
O00141,-0.018767113,0.01255586,0.30253494,0.034130957,-0.044520672,-0.19006607,-0.023004815,0.047550328,-0.030328304,-0.06782304,0.1762088,0.14252463,0.017737133,0.06364713,-0.12504052,0.015310952,-0.12554356,0.08578647,-0.014074388,0.16483116,0.057148337,-0.029597426,0.27110326,-0.042844668,0.0096433135,0.30627006,-0.20910713,-0.012950043,-0.13271642,-0.18805861,-0.007141947,-0.173259,-0.27407247,-0.19577256,0.11445878,0.04974514,-0.012555087,0.07379051,0.28074417,-0.00988289,0.099464856,0.1654124,-0.060768504,-0.31118563,0.024578577,-0.1308749,-0.018343005,-0.106822416,-0.02436154,-0.095842004,0.19085354,0.09755423,-0.07657841,0.2253848,0.26316458,0.09827992,0.06537066,-0.17214468,0.06733101,-0.02625889,-0.01696168,-0.21070965,-0.21557942,0.032201093
O14920,-0.024153557,0.052398812,0.2951829,0.05428949,-0.078181446,-0.10133393,-0.041693944,0.027004812,0.02607255,-0.08009318,0.22500241,0.08111461,-0.037544373,0.07021715,-0.14510205,-0.020608883,-0.10346776,0.018891335,-0.09552492,0.14634457,0.06041204,-0.06779883,0.29377514,-0.028615002,-0.0029275466,0.26386705,-0.20070621,-0.053584177,-0.17919731,-0.1700049,-0.04626534,-0.089501984,-0.22982104,-0.1880611,0.12744114,0.03760598,-0.039056025,0.108117364,0.2256644,0.009660113,0.061965216,0.17619333,-0.1425757,-0.31843978,0.015754428,-0.19178341,-0.035170615,-0.0029894246,-0.067767344,-0.048754036,0.14424478,0.093931295,0.006398899,0.17831998,0.21338968,0.11702629,0.1373977,-0.13615681,0.046065133,0.028394166,-0.05111569,-0.11985491,-0.12987284,0.026545146
O15111,0.020829387,0.08761077,0.30405146,0.021547008,-0.069262415,-0.1526434,-0.07415727,-0.035851438,-0.011256041,-0.09965627,0.121770516,0.09800513,-0.056854777,0.025169129,-0.11038624,-0.024338944,-0.15277383,0.028226534,-0.05249975,0.112355314,0.118321024,-0.027397662,0.25930208,-0.028315922,-0.015949313,0.2680174,-0.26578328,-0.018996112,-0.12905258,-0.10879362,-0.08659374,-0.028073262,-0.17381571,-0.069239154,0.13634808,-0.023542138,0.059714228,0.173651,0.20898621,0.04979955,0.10439768,0.11656141,-0.021782005,-0.27279213,-0.06337421,-0.12166401,-0.022661697,-0.056107294,-0.072307214,-0.15767705,0.16270533,0.061008476,-0.0126465205,0.2021447,0.22741255,0.12872534,0.16250338,-0.1383476,-0.04603963,-0.05680583,-0.028677404,-0.2359384,-0.08407018,-0.004293781
P00533,-0.016709054,-0.0031325761,0.25006503,-0.005872608,0.059836052,-0.10251661,-0.0722727,-0.11998836,-0.04889119,-0.054796368,0.18720424,0.073853716,-0.08855206,-0.06382294,-0.09238016,-0.019422518,-0.12796548,-0.012380538,-0.0077071814,0.20378351,0.03126911,-0.033439986,0.136587,0.03847918,-0.07764143,0.23148353,-0.20264474,0.0054345527,-0.14683186,-0.014331384,0.019043038,-0.0871215,-0.25130776,-0.054125737,0.16576377,-0.0050114864,-0.036079057,0.0684995,0.29485616,0.049204886,-0.0070056603,0.13097571,-0.007669367,-0.27618498,-0.014647422,-0.20025328,0.07247463,-0.05458353,-0.05332905,-0.081761375,0.2349726,0.039139,0.0073986747,0.106303655,0.15593599,0.06690974,0.095500425,-0.10362965,0.01644346,0.035193373,-0.049560044,-0.22127433,-0.076136984,0.052726198
P04626,-0.021769527,-0.01723275,0.25924098,-0.054170907,-0.0393304,-0.11660282,-0.13587393,-0.059634168,0.055356555,-0.06450395,0.17150223,0.027429933,0.023444438,0.042172823,-0.17943169,-0.09662469,-0.10612504,0.039613288,-0.04344069,-0.0007039668,0.015616675,-0.06324998,0.18478255,0.031544983,-0.06530593,0.2599407,-0.18743291,-0.060684342,-0.1507458,-0.24449229,-0.09515165,-0.13407674,-0.226127,-0.08293983,0.08568662,0.0649101,0.009054823,0.015110967,0.11251116,0.059723366,0.15167929,0.09571509,-0.22883241,-0.26187044,0.10481383,-0.10758221,-0.042989656,-0.0638908,0.027424892,-0.14092234,0.025546271,0.090328656,-0.082012504,0.13797826,0.18633881,0.11061923,0.11451863,-0.13186494,0.00918441,0.109857336,0.044025227,-0.07745041,-0.06845314,0.12154064
P06239,-0.06293674,0.02900819,0.31097275,-0.00071428285,-0.044405185,-0.1628158,-0.0642334,-0.0025667043,0.056339096,-0.07184952,0.2350256,0.11108144,-0.033845063,0.018222278,-0.18730687,-0.033264216,-0.13116787,0.052375495,-0.021510664,0.10819548,0.048827764,-0.0828265,0.25570607,-0.031380318,-0.05366037,0.29925695,-0.19654077,-0.010434138,-0.14777645,-0.16629615,-0.026429856,-0.10474942,-0.29698604,-0.07708388,0.125159,0.04919026,0.027428243,0.0797891,0.25002998,-0.014760519,0.07758306,0.20975621,-0.130342,-0.3114765,0.07015849,-0.1732701,0.023886401,-0.043540638,-0.056309026,-0.098599255,0.15017846,0.025095735,-0.060491424,0.20197602,0.25061277,0.0957715,0.13983947,-0.14772628,-0.016904268,0.020485803,0.0026723493,-0.18360193,-0.10221626,0.024689496
P07333,-0.024754709,0.003091772,0.26495415,0.045189492,-0.10063455,-0.10396288,-0.049664564,0.04776927,-0.009652434,-0.16261482,0.139904,0.054884296,-0.04710382,0.037738122,-0.109209694,-0.06762763,-0.07695798,0.0040337527,-0.03168308,0.1453199,0.025023874,-0.087970264,0.2615055,-0.039178636,-0.016933825,0.29646116,-0.1507538,-0.0715545,-0.11181519,-0.21734071,0.0241228,-0.06776507,-0.29430822,-0.1371481,0.13608351,0.09290797,-0.016262602,0.12929003,0.17916352,0.054561567,0.15038843,0.112611845,-0.042737134,-0.14857669,0.025012061,-0.19898137,0.02734307,-0.082897894,-0.05975932,-0.09218451,0.13206539,0.051730584,0.013103856,0.2568528,0.17599773,0.114350185,0.09011261,-0.12955841,0.020121345,-0.032245677,0.05724003,-0.121312834,-0.0712008,0.07438908
P15056,0.008401951,0.03233191,0.3161165,-0.01020886,-0.06973193,-0.20030129,-0.13909969,0.05595594,0.02424699,-0.086256355,0.25548106,0.07276993,0.02967709,0.0092038,-0.14599046,-0.053809382,-0.120065905,0.06250817,-0.072099626,0.15018477,0.11668034,-0.042778574,0.24491291,-0.009586953,-0.06158318,0.25931802,-0.21933195,-0.011581376,-0.10511255,-0.1675638,-0.15649685,-0.1268349,-0.1967646,-0.10370294,0.1513452,0.008134866,0.016708855,0.0006496956,0.23132141,0.08391509,0.059252016,0.15820606,-0.08393358,-0.25663266,0.002127091,-0.05569815,-0.017064001,-0.072536804,-0.0226365,-0.1175583,0.12161696,0.040412102,-0.049658496,0.18808208,0.24085304,0.12456125,0.0993457,-0.17224245,0.061747205,-0.023282643,0.027584877,-0.17165887,-0.0674371,0.0038176924
P24941,-0.058220297,0.05120067,0.35415947,0.09324225,-0.1217798,-0.18257284,-0.08040521,0.013926903,0.07782425,-0.18347691,0.22493029,0.05520218,0.0051358864,-0.013059983,-0.15236257,-0.0538672,-0.1078437,0.0330157,-0.016383333,0.1792148,0.04328703,-0.040866785,0.27602574,-0.008093754,-0.039929625,0.33378696,-0.18383697,-0.03376393,-0.15852487,-0.1909101,-0.02703124,-0.11264558,-0.34604347,-0.1786691,0.12280655,0.09880445,-0.052270543,0.11042975,0.2464937,0.022440506,0.09269311,0.18248168,-0.13695058,-0.32641596,0.10733779,-0.23112467,-0.061929204,-0.008675125,-0.025995657,-0.13750483,0.12191907,0.06779091,-0.01670161,0.2812216,0.21829328,0.09394728,0.10357414,-0.10448961,-0.017296469,0.023962356,-0.060397603,-0.10412244,-0.088533714,0.02462879
P28482,-0.015199902,-0.010583678,0.29288095,-0.0067520635,-0.04359766,-0.1761787,-0.07079148,-0.01072412,-0.028210238,-0.0894012,0.30121693,0.09612705,-0.025226519,-0.013771981,-0.12960123,-0.06466822,-0.13229492,0.07459649,0.00906846,0.17165615,0.1099681,-0.019402128,0.26565182,0.0045979437,-0.04060312,0.291031,-0.20555036,-0.009052457,-0.06747164,-0.1173437,-0.09574896,-0.108721,-0.23756175,-0.09417875,0.119271696,0.025661688,0.0046223183,0.07683725,0.34460077,0.030953992,0.12327735,0.16701595,-0.05775432,-0.29744443,-0.0066169733,-0.14534692,-0.0035143283,-0.14067587,-0.06030584,-0.13924605,0.23107259,-0.009495196,-0.0039043226,0.21467742,0.24310306,0.07770871,0.10206808,-0.24087,0.057376944,-0.07448007,0.07261786,-0.20859475,-0.08796875,0.03727531
P45983,-0.0074402643,0.011272747,0.3687813,0.014625253,-0.099681765,-0.21681193,-0.09810992,-0.032819062,-0.09153973,-0.18072142,0.20548792,0.10149683,-0.027294362,-0.06280411,-0.12450792,-0.122803114,-0.15997973,0.059760906,-0.0077664917,0.065651685,0.01947385,-0.04607938,0.26938656,0.016587328,0.0010884486,0.34184748,-0.1724767,0.024344731,-0.09625517,-0.119877204,-0.07189053,-0.048176847,-0.29378542,-0.1624643,0.14253165,-0.0023085296,0.017239958,0.095780015,0.20359588,0.029684916,0.10515992,0.16822477,-0.1435276,-0.22065417,0.0806334,-0.18729559,-0.04081509,-0.13401316,0.013549926,-0.09136684,0.18504427,0.025269102,-0.097395405,0.2600098,0.19051558,0.071221076,0.056295116,-0.17547001,-0.036124203,0.067924835,0.004949274,-0.1825825,-0.070046976,0.05418849
P45984,-0.03495483,0.04101073,0.3502882,0.034748636,-0.079153486,-0.1828633,-0.10428442,-0.0030920685,0.013190737,-0.13912031,0.23490688,0.09263934,0.014989498,0.044305667,-0.13277875,-0.067756,-0.13659632,0.03165464,-0.07762718,0.12087903,0.0392401,-0.05488053,0.2694505,0.016825711,-0.021758528,0.27855194,-0.23814663,-0.021453103,-0.17412892,-0.17880811,-0.11472936,-0.11748258,-0.2291966,-0.18698171,0.16600493,-0.0069063483,-0.02691198,0.048541225,0.21576488,0.08053248,0.097548895,0.1478621,-0.14676161,-0.31404656,0.022822935,-0.15594281,-0.023829192,-0.025613163,-0.0024083466,-0.083110295,0.12352486,0.08270826,-0.057975054,0.17371786,0.22513089,0.18134725,0.13221185,-0.17526093,0.039556354,0.082901,-0.040129,-0.13421129,-0.14605367,0.021040332
P49841,0.0132995695,6.014429e-06,0.3177884,0.11682246,-0.04304726,-0.14711393,-0.05823638,-0.023444543,-0.050093494,-0.22177024,0.1666182,0.012806907,-0.0817917,0.030904302,-0.070086055,0.01655588,-0.13637489,-0.027806407,-0.019204693,0.24296615,0.12904608,-0.051333476,0.3196221,-0.055153597,0.034795426,0.2857487,-0.17782342,-0.04861221,-0.1544632,-0.1383405,-0.011663025,-0.09647179,-0.26496682,-0.19683418,0.17642465,0.060241602,-0.028647358,0.18285637,0.23925515,0.021126771,0.060621805,0.16914275,-0.054773815,-0.2959506,0.03249519,-0.2162246,0.027745446,-0.06255255,-0.0701852,-0.07307114,0.123229526,0.032820296,0.019685421,0.275132,0.23471037,0.057239167,0.060814984,-0.11969489,-0.0064531947,-0.03790454,-0.06701806,-0.21810201,-0.062294025,-0.045777846
P53350,0.031391628,0.070250325,0.32329828,0.087165006,-0.04691779,-0.1666673,-0.04239393,-0.0022787903,0.0013835684,-0.17145343,0.24685943,0.024848912,0.028202599,0.042276606,-0.12185593,-0.0043162326,-0.1477941,0.016280228,-0.006631029,0.20058987,0.11062328,-0.0047476557,0.29023236,-0.03980582,-0.040392686,0.24355844,-0.1728262,-0.0019477211,-0.14702447,-0.14105918,-0.05164526,-0.13067713,-0.2550008,-0.14809027,0.10898026,0.0101887565,-0.006391981,0.048546143,0.21690993,0.09260719,0.098762654,0.15305682,-0.07692952,-0.3278362,-0.022199053,-0.12101927,-0.018402863,-0.091896184,-0.034237318,-0.10006307,0.09310444,0.041671004,-0.059800755,0.2211343,0.2687867,0.070220076,0.11613275,-0.1831049,0.028602457,-0.046426143,0.017452803,-0.20474604,-0.071898505,-0.030854708
P53779,0.034241892,0.016771233,0.3597823,0.048082955,-0.09327313,-0.08908736,-0.076227136,-0.011432128,0.010829917,-0.1020776,0.2378432,0.017786529,0.009114569,0.011683497,-0.1993198,-0.09590559,-0.11955996,0.015354551,-0.07336913,0.06671268,0.0413322,-0.00010153884,0.2933393,-0.001687325,-0.05665232,0.33022943,-0.18021375,-0.02145742,-0.17961518,-0.14686091,-0.022414573,-0.07863413,-0.29657936,-0.1023791,0.10830039,-0.037191194,-0.021964278,0.07106211,0.25980192,0.055042613,0.1113608,0.10608004,-0.11247988,-0.23067263,-0.022852536,-0.20225754,0.009559772,-0.08465556,-0.0924075,-0.13647708,0.18545341,0.02075526,-0.08270811,0.23270936,0.17973338,0.04176756,0.13587448,-0.21149245,-0.010205364,0.013733713,0.07206713,-0.15566252,-0.04665906,0.07326918
Q13464,-0.033908434,0.039353035,0.30341142,0.074128486,-0.071997836,-0.114863895,-0.014122034,0.029906461,0.0006060788,-0.08602555,0.1771018,0.09430208,-0.078534745,0.014788425,-0.07597718,0.04498126,-0.046164796,-0.04124112,-0.06964492,0.22822504,0.08762854,-0.11388548,0.26718017,-0.08103988,0.047525555,0.19205818,-0.15102284,-0.05786419,-0.1298282,-0.1796701,0.021431562,-0.08368694,-0.2778581,-0.15750797,0.16107008,0.0627784,-0.06254037,0.12666114,0.20688751,0.026551541,0.09523659,0.20213327,-0.012638144,-0.25180352,0.0017103521,-0.17252138,0.047323067,0.0069322363,-0.080186896,-0.083577886,0.164863,0.034889325,0.028671196,0.18019065,0.21588556,0.085431986,0.03770701,-0.059735645,0.044429127,-0.0209017,-0.02477926,-0.14854528,-0.040027324,0.024047162
Q16539,-0.057977416,-0.029281404,0.32938534,0.025024425,-0.14141339,-0.1905794,-0.05610487,0.008882206,-0.05723113,-0.13500074,0.31389487,0.10895429,-0.04897252,-0.0026429011,-0.05682372,-0.074313864,-0.030801892,0.03004365,-0.020723497,0.16565731,0.04587366,-0.07374288,0.25539294,0.07435409,0.057256054,0.22265479,-0.14222732,-0.04846722,-0.058049034,-0.21475163,-0.13522367,-0.14587817,-0.23880987,-0.24411137,0.12405592,0.047364485,-0.0847829,0.029426917,0.27732515,0.029278422,0.16606526,0.20065264,-0.10833464,-0.30817765,0.06745686,-0.20088129,-0.08438216,-0.063120045,0.042256363,-0.109812796,0.20067847,0.002744072,0.0018942229,0.18151245,0.22797263,0.13375561,0.008210335,-0.21473706,0.12593281,0.049438294,0.026653657,-0.053537656,-0.09898249,0.07564809
Q16584,-0.03540468,0.0076360083,0.30649477,0.041798882,-0.078602105,-0.14533345,-0.1213838,0.021387348,0.052536827,-0.15085645,0.25189394,0.045852322,0.0022108832,0.06113688,-0.14277595,-0.07333576,-0.10578318,0.013042452,-0.035596028,0.12487744,0.09229473,-0.07362445,0.27564144,0.014840561,-0.032021794,0.25014687,-0.2056663,-0.05150616,-0.13639213,-0.18091977,-0.11786052,-0.11906852,-0.18600522,-0.10053716,0.19646932,0.0011148676,-0.06361099,0.04665213,0.2732652,0.05331246,0.09415901,0.13097611,-0.08495906,-0.27369583,-0.025796298,-0.17574355,0.03241334,-0.022688096,-0.078352876,-0.08834176,0.123296544,-0.0089650825,0.008865531,0.18002865,0.23840316,0.14833297,0.12979177,-0.22318217,0.064686015,-0.035420336,0.025972715,-0.14415114,-0.08051185,-0.039655045
O00311,0.00035893192,-0.005232938,0.33568245,0.10318869,-0.029960308,-0.16830125,-0.10371809,-0.060978293,0.027807975,-0.1772528,0.18971327,0.0021362284,0.004263323,-0.025965372,-0.08571766,0.010877332,-0.13178474,-0.008874757,0.002798389,0.22126794,0.11492131,0.008101193,0.25039724,-0.012777485,-0.013683295,0.27407217,-0.18470266,-0.018752428,-0.1459238,-0.09786533,-0.041871905,-0.13397649,-0.26996484,-0.13045174,0.15430519,0.014473088,-0.059131514,0.111577645,0.2861568,0.040922154,0.062183082,0.13495031,-0.036985487,-0.31198862,0.032833286,-0.17579547,0.032499015,-0.03882131,-0.057548203,-0.16454908,0.1394881,-0.011637645,-0.027654137,0.24093297,0.204952,0.04763657,0.047042273,-0.11968227,-0.022054637,-0.024081599,-0.06496926,-0.19286102,-0.043866824,-0.043584988
O14757,-0.014657927,0.05133299,0.33053035,0.02489731,-0.04823915,-0.20286505,-0.04687712,-0.065806545,-0.09460656,-0.10501604,0.2236005,0.13422899,-0.07746236,0.037491497,-0.108012244,-0.03338383,-0.151045,0.020962024,-0.032895647,0.09478037,0.082393885,-0.067455634,0.24767081,0.03521782,0.010958495,0.22603361,-0.23199615,0.005898702,-0.17339805,-0.14908922,-0.08629074,-0.12661275,-0.19197303,-0.12404257,0.16832778,-0.026075894,0.009383532,0.036887176,0.23378329,0.04662924,0.07761297,0.19256021,-0.08934293,-0.3441015,-0.057292946,-0.17319725,-0.022786673,-0.054501176,0.010657355,-0.08302335,0.18976896,0.05201558,-0.050595205,0.135991,0.2953884,0.12877914,0.12428156,-0.21712808,0.012462191,0.06288655,-0.0031838603,-0.25201088,-0.12921154,0.0064634755
O14965,-0.078358755,-0.02382517,0.33446282,0.052862167,-0.104782164,-0.23161869,-0.08523423,0.028320864,-0.0072639463,-0.13865614,0.23958059,0.10128214,-0.022425503,0.0037503,-0.1765792,-0.10223029,-0.12503408,0.06660736,-0.039919928,0.06414741,0.06269731,-0.041829284,0.25513282,0.011403659,-0.028920174,0.3350165,-0.21980834,-2.2273474e-05,-0.1726114,-0.21096873,-0.055352062,-0.13823278,-0.27605796,-0.10729027,0.15754014,0.07173512,0.013433605,0.036989443,0.28216106,0.017684512,0.08054762,0.17142811,-0.12498361,-0.2443405,0.04305055,-0.1991476,0.005361526,-0.03595682,-0.0076100915,-0.12041545,0.16474697,0.04406115,-0.046311446,0.24409056,0.24807918,0.098349094,0.11485305,-0.2028702,-0.03564068,0.07138232,0.041271556,-0.18338534,-0.124776915,0.04078237
O15075,-0.036417317,-0.0067772856,0.3308069,0.058276437,-0.12147435,-0.16848262,-0.102045335,0.026722502,0.03661752,-0.14685854,0.13604161,0.069549486,-0.022325676,0.030270796,-0.13598892,-0.04135992,-0.1020359,0.035417203,-0.029626593,0.07745144,0.08437545,-0.07512416,0.30035836,-0.03738592,0.04009472,0.32045117,-0.1826685,-0.05729987,-0.12325283,-0.21283123,-0.057298668,-0.0915314,-0.25481912,-0.1393633,0.15429167,0.05744785,-0.025151536,0.15725785,0.22172828,-0.042017154,0.11634366,0.15847571,-0.10984113,-0.24186008,0.0791673,-0.19004814,-0.008670139,-0.031975396,-0.0658887,-0.13808514,0.12594911,0.009669118,-0.031363625,0.2773438,0.21829252,0.08260295,0.057499845,-0.13138327,-0.032217644,-0.016914275,-0.027678534,-0.14558826,-0.07533714,-0.008025873
O15264,-0.048735224,0.0013363407,0.35036892,0.05263815,-0.04761865,-0.18257932,-0.08229343,-0.025964871,0.04430238,-0.11281562,0.27624834,0.05997377,-0.04876646,0.021167416,-0.128207,0.008936365,-0.10173585,-0.014085841,-0.0611852,0.19527993,0.13937323,-0.07392609,0.2818933,-0.03691606,-0.0041656676,0.23117316,-0.21629246,-0.0387046,-0.16622946,-0.20008405,-0.0857835,-0.14487764,-0.2632432,-0.11267879,0.1643528,0.04722142,-0.007849779,0.075961135,0.26521772,0.054953557,0.1103047,0.21164934,-0.09179272,-0.35138592,0.029137826,-0.14896376,0.050617803,0.0005359097,-0.048532486,-0.14917052,0.12199336,0.002277932,-0.01610491,0.1860357,0.2813018,0.10868279,0.09986897,-0.14508145,0.009120772,0.02528483,0.004246994,-0.18507299,-0.042655006,0.0011630538
O15530,0.004388313,-0.006905497,0.3299382,-0.010163053,0.0005022792,-0.12279038,-0.09853091,-0.0537887,-0.048602715,-0.18652052,0.21188128,0.057187296,-0.03979209,-0.021368187,-0.089190036,-0.04739139,-0.13821247,-0.0120589975,0.02351801,0.22774407,0.0070229047,-0.114807025,0.27291763,-0.02396749,-0.026507715,0.29370335,-0.13873586,-0.03590284,-0.07980241,-0.12230857,-0.0071090134,-0.075065844,-0.34383902,-0.17493519,0.18358248,0.016706206,-0.049907856,0.117616676,0.20909044,0.066050455,0.1259298,0.16627963,-0.083246544,-0.25439572,0.08656234,-0.19609275,0.069018796,-0.1592745,-0.049465448,-0.043866403,0.15807676,0.0010008768,-0.05092255,0.22180972,0.18785349,0.103622034,0.040290914,-0.13662791,0.072729856,-0.01159628,-0.0019861718,-0.17553598,-0.047143478,0.042195514
O43293,-0.032344922,0.04067967,0.3530025,0.046844743,-0.04338991,-0.20504923,-0.08505499,-0.011289532,0.016905602,-0.14202109,0.19075201,0.09577225,-0.03864484,-0.023410069,-0.12183871,0.00943837,-0.12941365,0.017509246,-0.0025233268,0.21605583,0.12260058,-0.08891604,0.29022884,-0.07787682,0.012115419,0.274812,-0.2083005,-0.020690564,-0.11341556,-0.1569832,-0.04048012,-0.0897391,-0.29878607,-0.14112037,0.18165278,0.073907524,-0.024015358,0.15403964,0.24310032,0.009761015,0.08909427,0.21395227,-0.08233734,-0.33776164,0.077784054,-0.15310434,0.0130145475,-0.050141655,-0.06312399,-0.11353654,0.13251975,0.04813122,-0.013344824,0.24194801,0.267106,0.07084659,0.055810787,-0.079946205,0.0063998243,-0.041884072,-0.064321235,-0.2210572,-0.053577084,-0.01872649
O60674,-0.0026447666,0.07253136,0.3454906,0.06185482,-0.08541765,-0.083109416,-0.026005518,0.037450407,0.08651195,-0.059056807,0.19117366,0.054534405,-0.0011601473,0.0166131,-0.12427527,0.0314085,-0.043740835,-0.03695421,-0.10884565,0.19139647,0.02612539,-0.034752168,0.23401313,-0.052307557,-0.042697646,0.21407822,-0.15321831,-0.017852847,-0.15926185,-0.13790938,0.014285806,-0.0790415,-0.30670178,-0.117201015,0.09529942,-0.04139976,-0.007750576,0.0635124,0.19912207,0.078196645,0.08650968,0.14237043,0.007771142,-0.22772768,-0.010027671,-0.12964118,0.061215084,0.019849505,-0.079393975,-0.13144264,0.14397189,0.015123168,-0.08904469,0.17349584,0.1702373,0.109643325,0.107455984,-0.07539927,0.010048732,0.011629171,-0.009167766,-0.10287465,-0.046496708,0.03541998
O75116,-0.016198542,0.09600578,0.3135819,-0.0022119877,-0.070496134,-0.19182938,-0.07056065,0.026094299,0.020091157,-0.13567309,0.1794559,0.11328586,0.019984074,0.04788534,-0.11982379,-0.058879744,-0.118571974,0.05596571,-0.027293455,0.11849602,-0.00013389725,-0.009702462,0.18899168,0.047919456,-0.07909194,0.2326525,-0.22871137,0.04439459,-0.11253884,-0.09335445,-0.11624099,-0.07863289,-0.17676033,-0.13745365,0.122415505,-0.07852686,0.055889618,0.012759809,0.20019631,0.08218501,0.044518806,0.10001284,-0.03998963,-0.2851397,0.0047418918,-0.09584202,-0.038170114,-0.039876286,0.020917155,-0.04642432,0.09385548,0.085876636,-0.11884399,0.14346509,0.2217499,0.20636141,0.17635366,-0.17421344,0.04946026,0.021145957,-0.063325286,-0.14318523,-0.19003725,-0.0349911
O75582,0.040466756,0.04137094,0.31037444,0.029265534,-0.048560895,-0.12234706,-0.10737886,0.01555763,0.033546954,-0.10843931,0.23063466,0.01654039,-0.006298173,0.056912072,-0.14005859,0.00036633262,-0.14256765,0.014152182,-0.08986127,0.1689314,0.12688796,-0.06327758,0.31331006,-0.060120374,-0.027300829,0.26889464,-0.18418983,-0.054603092,-0.15146312,-0.1716445,-0.10391241,-0.10581,-0.22647004,-0.14586344,0.12653203,0.020491531,0.014294205,0.09013031,0.17379335,0.052390225,0.0686015,0.18276438,-0.14220773,-0.29734293,0.027573133,-0.101207115,-0.008045937,-0.06770786,-0.0640022,-0.093817994,0.080958374,0.033337217,-0.04025153,0.2158033,0.23364079,0.08836871,0.109157145,-0.13487682,0.021048035,-0.016324256,-0.009836701,-0.1672863,-0.035076685,-0.009893722
O94806,-0.015018104,-0.011522779,0.29094478,0.0018966573,-0.046086784,-0.12660146,-0.081632376,-0.037169084,-0.07137432,-0.09017425,0.19125812,0.09197483,-0.08930482,0.02294923,-0.12990832,-0.074570544,-0.13418345,0.008319785,-0.07084754,0.067580655,0.05930407,-0.09068143,0.25368592,0.0018841068,-0.0047704014,0.27570757,-0.20645721,-0.035131447,-0.16018914,-0.1533235,-0.045174044,-0.07302719,-0.21636724,-0.086425476,0.17935371,0.0021880781,0.006659777,0.0887164,0.22118577,0.035318486,0.0836149,0.15182976,-0.09310629,-0.209258,-0.03221146,-0.19328687,0.050158273,-0.06966684,-0.056098014,-0.07642697,0.1975731,0.023625474,-0.013927819,0.16891403,0.20429698,0.10671105,0.114480816,-0.18712528,-0.008186655,0.050520025,0.04359176,-0.20956805,-0.07468779,0.05638971
O95819,-0.040283713,0.06540139,0.27654728,0.05328952,-0.045849033,-0.14745638,-0.037353158,-0.001462665,-0.014381585,-0.10479425,0.24348986,0.08666886,-0.061746687,-0.031899344,-0.15175089,-0.043863095,-0.10747093,0.003913295,-0.0086274035,0.16114269,0.10619477,-0.1107588,0.25498343,-0.06422708,-0.014488654,0.20759515,-0.1569505,-0.018497715,-0.12831709,-0.14545256,0.0026757906,-0.059067804,-0.2629626,-0.08403358,0.16961844,0.1035308,-0.06392745,0.08060477,0.21219818,0.028246384,0.058037836,0.21522912,-0.11700074,-0.28270024,0.003125503,-0.1856643,-0.0032315585,-0.032628212,-0.074877664,-0.040015545,0.14248781,0.06402507,0.05890445,0.16920708,0.24582252,0.01961372,0.085967876,-0.103000924,0.02702418,-0.02676833,0.019040242,-0.1965289,-0.0038684,0.020335047
O96013,-0.048964087,0.06648622,0.3899953,0.049064312,-0.095993325,-0.21382442,-0.057119697,-0.011882271,-0.014635722,-0.15663846,0.2507522,0.12008832,-0.015535508,-0.027782638,-0.16868162,-0.095061354,-0.12993772,0.023906853,-0.011373757,0.0778838,0.043688305,-0.0645536,0.26998693,-0.008616727,-0.019882116,0.2621803,-0.19786078,0.040218152,-0.14078255,-0.13533233,-0.04918364,-0.058464993,-0.28269657,-0.09917398,0.1747959,-0.024929734,-0.011795949,0.050636947,0.24139944,0.054496974,0.104238585,0.17934763,-0.10188073,-0.27994978,0.001834655,-0.18868822,0.013439165,-0.042370405,-0.035468973,-0.07822707,0.16351983,0.022945227,-0.081785925,0.193505,0.2553212,0.09433123,0.123555884,-0.19107096,-0.012893411,0.038228568,0.024377549,-0.20238633,-0.07050722,0.0019835662
O96017,-0.061628424,-0.015145878,0.28244212,0.040746056,-0.038257226,-0.16629992,-0.05296255,0.0043857624,-0.029588263,-0.09023202,0.20058778,0.13524623,-0.012634179,0.0093668355,-0.12472518,-0.043980077,-0.14381732,0.06777513,-0.021160934,0.13625023,0.08390419,-0.06772813,0.3011796,-0.072031826,0.047491644,0.30478886,-0.21852553,-0.035989426,-0.11378708,-0.15256009,-0.025191065,-0.08095841,-0.24656291,-0.1731616,0.16329357,0.08718494,-0.06220575,0.16616932,0.28291193,-0.021794554,0.1256969,0.16625579,-0.13399349,-0.28200877,0.041902576,-0.1758007,0.007490959,-0.08282105,-0.081127755,-0.074660555,0.20131461,0.07854165,0.02957945,0.21509114,0.20656498,0.07560958,0.0603275,-0.14597562,0.03565608,-0.014484982,-0.020107225,-0.18808706,-0.1437181,0.043304496
P04629,0.014692372,0.0987045,0.26127297,-0.043340284,-0.04285506,-0.14752433,-0.13753432,-0.078266695,-0.032511815,-0.13763031,0.16809753,0.1133041,-0.041997537,-0.046852235,-0.074743345,-0.06897379,-0.19900514,0.060914766,0.037116006,0.15335223,0.020980489,-0.10194758,0.21761253,0.042392153,-0.064410634,0.31107786,-0.17601469,-0.034336224,-0.057194732,-0.05823679,-0.088242695,-0.037734568,-0.23821163,-0.09317465,0.1517084,0.0071494565,-0.022018159,0.12683353,0.1801349,0.031063655,0.0666164,0.18214671,-0.088146485,-0.2680174,0.017222116,-0.18460217,-0.07343787,-0.14263186,-0.024571043,-0.10238496,0.21797805,0.00076275825,0.01124846,0.21010964,0.17678955,0.1400917,0.099557914,-0.13380978,-0.0007843908,-0.04837535,-0.054098826,-0.19178598,-0.055697076,0.00925151
P05129,-0.0050898176,0.0070912703,0.3431035,0.00041003842,-0.06418135,-0.1054001,-0.055330634,0.0049296976,0.034457948,-0.06448591,0.22857797,0.038475625,-0.12014167,0.023697758,-0.16189262,-0.0021814923,-0.03548414,-0.024144307,-0.10203306,0.18628961,0.086303376,-0.058922313,0.25191936,-0.015333056,-0.035487767,0.24268277,-0.20047283,-0.033618838,-0.1516135,-0.17345783,-0.056621112,-0.080117255,-0.2744641,-0.13885386,0.10999644,0.026428387,0.05539449,0.10845904,0.2431328,0.012821324,0.04604302,0.18504065,-0.08274449,-0.3263172,0.09342127,-0.16613278,0.008435081,0.0027515623,-0.055130024,-0.09409936,0.1057112,0.06964979,-0.048791446,0.18390046,0.23433343,0.08021562,0.12696472,-0.090932354,0.034306493,0.03390812,-0.038614146,-0.12751539,-0.05127719,0.05458061
P06213,0.042936582,0.049414814,0.28521067,-0.024059473,-0.086234346,-0.046927642,-0.09687471,-0.05754428,0.012062388,-0.09199928,0.1867026,0.019613087,-0.07550906,0.042036682,-0.10511663,-0.030760238,-0.0861917,-0.026316404,-0.06154818,0.11686544,0.048038222,-0.12069211,0.26546052,0.011567844,-0.012922694,0.23958246,-0.12831852,-0.10859136,-0.11369213,-0.20609136,-0.079675354,-0.07210175,-0.2493774,-0.13166073,0.09352405,0.025896078,-0.018879896,0.11362765,0.10540433,0.043486185,0.15100923,0.17291957,-0.14412466,-0.2727062,0.043542117,-0.17494175,-0.05905778,-0.07857372,-0.036151797,-0.13260294,0.11266075,0.007704136,-0.014559334,0.18366264,0.19177096,0.10699414,0.08986813,-0.11872351,0.028937355,0.010316423,0.021118183,-0.0866797,0.01945087,0.08338011
P06241,-0.082174644,0.063267656,0.2765285,0.021463951,-0.006192868,-0.23074977,-0.059404768,-0.059875153,-0.009514842,-0.09702181,0.25736147,0.16338733,-0.014480407,-0.075799376,-0.09708555,-0.041414525,-0.16035973,0.07207896,0.04783555,0.20694077,0.10053302,-0.03942863,0.20601352,-0.014132598,-0.029031202,0.2317926,-0.24308097,0.027527977,-0.07467372,-0.052998435,-0.06975778,-0.07248238,-0.22456615,-0.08690472,0.16285858,0.06185032,-0.046847966,0.1031914,0.31764436,0.03914138,0.08545542,0.18730083,-0.06409327,-0.36045638,0.0014839612,-0.14474535,-0.024199465,-0.061243482,-0.037104264,-0.11111426,0.2183992,0.05950911,0.052893497,0.15125015,0.23796213,0.09898177,0.09928567,-0.13399395,0.029479701,-0.04057017,-0.04625905,-0.22652122,-0.11131638,0.0016420905
P06493,-0.015033881,0.020346176,0.3376238,0.011678718,-0.056575976,-0.1741971,-0.08471217,0.032087907,-0.025303727,-0.14209047,0.3123676,0.08817588,0.010496566,-0.016364316,-0.19293603,-0.13727489,-0.16235252,0.07984955,-0.032438476,0.13930744,0.07508947,-0.020777913,0.31581217,-0.03178631,-0.05846285,0.33435285,-0.23267612,0.020111412,-0.10181292,-0.09779274,-0.09266448,-0.034561962,-0.25362828,-0.14696965,0.15640438,0.010852221,-0.0012473456,0.097482614,0.31054157,0.058884047,0.09076306,0.14040324,-0.14771381,-0.27492708,0.02322961,-0.15899874,-0.0060099987,-0.13147244,-0.083554864,-0.035676423,0.17791967,0.07569115,-0.021750387,0.2290365,0.21254268,0.08200796,0.15061644,-0.22753029,0.06275432,-0.031427283,0.03793311,-0.18931918,-0.10991652,0.033911858
P07332,0.038048573,0.112220086,0.32641253,-0.022343148,-0.088117264,-0.116435945,-0.14385983,0.019415395,0.018507274,-0.1477825,0.2041591,0.07284834,-0.03630493,0.0642581,-0.13260026,-0.05608946,-0.16298391,0.007867152,-0.07605785,0.116961434,0.055357493,-0.15207101,0.31125173,-0.012052646,-0.04578222,0.273497,-0.1809397,-0.05660045,-0.121626474,-0.15247478,-0.13574116,-0.03884076,-0.20365301,-0.11745141,0.19197637,-0.054183852,0.00840963,0.08710894,0.12007729,0.06347987,0.06264472,0.19418122,-0.12098706,-0.2486351,-0.017016042,-0.1453194,-0.009300185,-0.075391784,-0.06876173,-0.035177924,0.11516075,-0.0074999356,-0.042801663,0.1952335,0.22983806,0.18756105,0.15280822,-0.16946726,0.033013694,-0.0294373,-0.01580743,-0.16789137,-0.033799127,-0.04581048
P07948,-0.048770428,-0.024265599,0.30634445,0.04100824,-0.024224374,-0.14822263,-0.07630988,-0.064658016,-0.018925216,-0.16158976,0.20741841,0.07766603,-0.026589802,0.020392716,-0.087777376,-0.037275128,-0.15952274,0.013486467,-0.008614054,0.15560584,-0.000353682,-0.06231972,0.24980637,0.016045459,-0.024607662,0.3186372,-0.17696062,-0.031877525,-0.16052258,-0.14020988,-0.0065645017,-0.13415127,-0.30832073,-0.1479308,0.15268648,0.014395026,-0.025132602,0.08815931,0.24810997,0.044945147,0.11543767,0.15727307,-0.08488374,-0.26123714,0.037966486,-0.22431155,0.06740741,-0.08503004,-0.021721313,-0.10647871,0.19133495,-0.015295359,-0.0554531,0.2161051,0.18924345,0.14449722,0.09268768,-0.18090466,-0.015959747,0.06770032,-0.005161065,-0.1733456,-0.12867263,0.034431525
P07949,0.01645449,0.02465216,0.29269543,0.011732945,-0.05616156,-0.06820899,-0.017666485,0.034061242,0.06935792,-0.054583885,0.21531658,0.015069897,-0.05774924,0.07730235,-0.1841195,-0.00071923353,-0.053862385,0.006944408,-0.08156169,0.14948303,0.087299146,-0.008850654,0.2673853,-0.047019225,-0.057445146,0.24412084,-0.1874969,-0.027831564,-0.14088336,-0.16028336,-0.03968747,-0.07012376,-0.24078092,-0.11539732,0.04767883,0.01395154,0.082004145,0.1126035,0.22868177,0.012219633,0.07948822,0.13050637,-0.08368099,-0.30545768,0.057757534,-0.1220812,0.0009018503,-0.033785354,-0.08566396,-0.090995975,0.06744159,0.073209494,-0.067995,0.19307408,0.22539036,0.06420305,0.17269416,-0.1300649,0.031105649,-0.030261189,0.006510834,-0.121631324,-0.08123647,0.036796827
P08069,-0.015128039,0.07747806,0.29458895,0.009026168,-0.08508446,-0.13646801,-0.059098434,-0.01167446,0.02093945,-0.098937735,0.23068604,0.11092453,0.042560965,-0.03603583,-0.09658985,-0.05917155,-0.12743168,0.04959067,0.013167417,0.12316181,-0.007391724,-0.04724944,0.22037646,0.00764328,-0.052208155,0.25880945,-0.12328453,-0.0006490677,-0.06074674,-0.08884743,-0.03583826,-0.06616198,-0.28300935,-0.08128402,0.0924381,-0.036875375,-0.037635278,0.043064546,0.21242614,0.06546198,0.14690587,0.1520257,-0.03648456,-0.20543516,-0.025618425,-0.14467242,-0.005473518,-0.111935474,-0.04095962,-0.14048721,0.22462654,-0.054495167,-0.064802535,0.19256875,0.16214117,0.11557428,0.08383401,-0.17918208,0.011650046,-0.035822086,0.058675297,-0.13168107,-0.052547447,0.037873194
P10721,0.0063092187,-0.0064329146,0.2324137,0.009962891,-0.062446017,-0.113414384,-0.07985665,0.0066535706,-0.07630379,-0.15429673,0.21706836,0.06287249,-0.05366074,-0.003129982,-0.07008593,-0.08333862,-0.10805756,0.037923463,0.017066801,0.190213,0.065604724,-0.07934251,0.2617761,0.009047527,-0.0012542151,0.27410856,-0.141009,-0.064526305,-0.039956447,-0.12759247,-0.06100253,-0.06544082,-0.2171597,-0.16702247,0.15021631,0.07165011,-0.07296026,0.11968728,0.24534917,0.026786724,0.10577103,0.1403332,-0.0710279,-0.21572062,0.015175338,-0.19650039,-0.038316973,-0.14761962,-0.055336494,-0.050276976,0.19420522,0.024415012,0.07278096,0.22101673,0.17399743,0.08060249,0.04405938,-0.17893079,0.10011979,-0.08442568,0.02785604,-0.13894843,-0.06281578,0.040993113
P11309,-0.05618582,0.047068667,0.35676306,0.06331643,-0.08494908,-0.21826676,-0.08698143,0.046114773,-0.041779406,-0.18035026,0.23104958,0.11817566,-0.027588766,-0.03199921,-0.13579842,-0.0954449,-0.12889735,0.027770033,-0.067438,0.19342454,0.04473128,-0.0794567,0.2680902,-0.02642329,-0.027829954,0.30391923,-0.23548417,0.004023345,-0.15891947,-0.15667,-0.040997595,-0.06955963,-0.29453254,-0.19493048,0.22001442,0.067037106,-0.04243253,0.07688711,0.24038365,0.09059225,0.044747017,0.1733384,-0.10283091,-0.2503621,0.03351725,-0.19460785,-2.1765823e-05,-0.032337587,-0.020299116,-0.026937524,0.1611267,0.13186786,0.006077933,0.22045572,0.21532068,0.13714838,0.10293124,-0.1178027,0.04068827,0.05707677,-0.045305613,-0.17533693,-0.11968807,0.03727486
P11362,0.0039138487,0.02954713,0.24878708,0.06290009,-0.06406598,-0.13924311,-0.09966925,0.0046617696,0.010937788,-0.13662769,0.164096,0.035394426,-0.07296221,0.10862341,-0.07768732,0.014499223,-0.16072008,0.0135317,-0.10234241,0.12665191,0.09229442,-0.034407396,0.23887911,0.039740257,-0.04580421,0.2756062,-0.21048298,-0.040695913,-0.20705883,-0.12274984,-0.11078473,-0.1368664,-0.13240293,-0.09781559,0.14093682,-0.035883807,0.075961165,0.059267335,0.20387304,0.02593706,-0.035047162,0.15981284,-0.03606713,-0.24418883,-0.054693807,-0.16221546,0.021175679,0.010063804,-0.024465213,-0.09095787,0.12829547,-0.024532314,-0.029017055,0.19867462,0.21916088,0.18400593,0.1759168,-0.18457243,-0.06690114,0.037096612,-0.06115458,-0.19156097,-0.130748,-0.089992866
P12931,-0.05332731,0.10208682,0.3151197,0.006724,-0.08019534,-0.2009435,-0.037759997,0.015896767,-0.012374902,-0.092001036,0.2502169,0.16821074,-0.06618311,-0.019309085,-0.0754057,0.002174157,-0.11584667,0.022716414,-0.059867274,0.22606733,0.09056859,-0.13169089,0.26965985,-0.0710943,0.006779404,0.2148246,-0.19837786,-0.025482723,-0.08579995,-0.17284298,-0.073320374,-0.05713932,-0.27558634,-0.14391688,0.14158791,0.07218857,0.023722867,0.111226305,0.16752987,0.08254333,0.14276057,0.25754935,-0.0687591,-0.29427695,0.014755605,-0.1066466,-0.017556597,-0.050239503,-0.014296922,-0.10824764,0.17215768,0.049334824,0.015918706,0.18106484,0.2561495,0.16377392,0.093534544,-0.08643454,0.025231104,0.0006636976,-1.6212929e-05,-0.17483279,-0.05221907,0.048983507
P15735,0.0051694205,0.073622234,0.3232003,-0.030804595,-0.07107247,-0.09901037,-0.12874511,-0.004724112,0.006469833,-0.08699951,0.21962032,0.0975661,0.012970152,0.017191598,-0.21577737,-0.15723589,-0.17504819,0.05700028,-0.0910084,0.059846513,0.012061533,-0.08045566,0.29398146,-0.013108028,-0.08429384,0.3575752,-0.26183516,-0.046415754,-0.16460906,-0.15984425,-0.07054237,-0.019541828,-0.2595275,-0.11502688,0.17027077,0.008237122,-0.032023396,0.11084642,0.20417354,0.091770396,0.12445899,0.104827896,-0.18829118,-0.2398858,-0.020673737,-0.18257017,-0.031039855,-0.10443455,-0.08994395,-0.07327829,0.18189177,0.13224092,-0.00826611,0.1917206,0.17078514,0.14757983,0.19517247,-0.1814739,0.03968066,0.020073872,0.03338154,-0.15597305,-0.10251345,0.11275111
P16591,-0.01072132,0.004263254,0.26265034,0.031680807,-0.07151584,-0.16952848,-0.06382328,0.0508596,-0.06950084,-0.116086565,0.19347164,0.10980151,-0.05315692,0.008574827,-0.102380276,-0.052729618,-0.15078104,0.07544823,-0.052704148,0.15631586,0.08217303,-0.04479046,0.2784619,-0.034958445,-0.0067580366,0.33330587,-0.19946146,-0.02118354,-0.10510863,-0.12162308,-0.047535606,-0.07028009,-0.22853632,-0.15214494,0.13963182,0.05766026,0.028557822,0.12944248,0.25676516,0.0062424224,0.049056135,0.1689572,-0.0622108,-0.19681609,0.0045313938,-0.16100575,-0.008693164,-0.111166105,-0.052653223,-0.0686703,0.21589713,0.048675597,0.013333352,0.25869042,0.19232246,0.094901964,0.09036033,-0.16463561,0.0023145438,-0.030419597,0.000791848,-0.20355582,-0.12546577,0.025135443
P17612,0.026373956,-0.040421266,0.35212982,0.07974576,-0.059682973,-0.19086307,-0.099188805,-0.09348099,-0.12197168,-0.16726913,0.16776855,0.05003529,-0.07409969,-0.013351701,-0.08083364,-0.047685713,-0.14774989,0.014628535,-0.012218771,0.12282717,0.10900507,0.009290897,0.2631773,0.06079231,0.04149457,0.31547508,-0.22421208,-0.015443491,-0.16568282,-0.11038389,-0.071514785,-0.13560636,-0.21525486,-0.16686729,0.18051516,-0.016726283,-0.046831377,0.11694244,0.32095563,0.0006782042,0.05084864,0.13017182,-0.0580919,-0.30712765,-0.013587709,-0.23964176,-0.02673142,-0.08267558,-0.019876476,-0.14427045,0.23230381,0.024746027,-0.026990931,0.2385287,0.22690877,0.043237157,0.040974647,-0.20740192,-0.018462075,0.028737321,-0.051317792,-0.2484862,-0.104165696,0.0006050087
P23443,0.017308662,0.066936806,0.3669844,0.047661744,-0.07822866,-0.14120016,-0.0448086,0.01054386,0.01442072,-0.123187646,0.2644875,0.04823493,-0.05212304,-0.024612362,-0.14069021,-0.023518996,-0.089260936,-0.0015147781,-0.06691124,0.23110875,0.11957844,-0.021269197,0.30173582,-0.059310477,-0.026392397,0.25180668,-0.20306733,-0.0026423507,-0.10936922,-0.10958471,-0.06881928,-0.028978169,-0.27992186,-0.1579731,0.11287967,0.011321358,0.021732295,0.14435363,0.2538093,0.06432336,0.08985288,0.1751788,-0.070419,-0.3245948,0.038431983,-0.13922668,-0.0210887,-0.052120645,-0.079960704,-0.10390093,0.13462922,0.065425366,-0.02223377,0.22494003,0.22695151,0.058903545,0.11977334,-0.11001867,0.032613266,-0.042886857,-0.024137327,-0.16159067,-0.024856355,0.023763277
P24723,-0.0059553394,0.0733337,0.26659086,0.04407052,-0.050240092,-0.08952192,-0.05572738,-0.07362857,0.034975003,-0.13170782,0.15120943,0.057177663,-0.0460225,0.05276792,-0.08485689,0.0009705267,-0.14124319,-0.011316359,-0.0060133873,0.16980165,0.03657918,-0.06513355,0.23541072,0.009162279,-0.055138506,0.27267557,-0.18422867,-0.07239684,-0.15997705,-0.15309498,0.0017282031,-0.105407834,-0.27160567,-0.079184845,0.11280743,0.02311695,-0.015096414,0.1256271,0.19516684,0.066481635,0.1407146,0.13582215,-0.02412388,-0.28454965,-0.045933925,-0.20978329,0.008423248,-0.05804286,-0.05645535,-0.17069277,0.16978347,0.0029034843,0.002639826,0.20460227,0.2092255,0.15367757,0.15339646,-0.14560032,-0.030385738,-0.030950442,0.002278697,-0.17349459,-0.078142986,0.026824737
P27448,-0.050100498,0.045151226,0.32052767,0.030984884,-0.075619,-0.19410896,-0.03400158,0.06620763,0.015557784,-0.13525236,0.17606108,0.11777588,0.006169419,0.0130033465,-0.1385398,-0.049273286,-0.09627982,0.034179024,-0.028969893,0.16729593,0.047452986,-0.05748555,0.24635485,-0.07906698,-0.0450073,0.26925296,-0.21297045,0.0027774612,-0.108341075,-0.19965139,0.0025087374,-0.07567159,-0.30755353,-0.10614834,0.13860917,0.06159545,0.042830445,0.08315958,0.20342827,0.105432555,0.16380104,0.12370308,-0.010553748,-0.19761465,0.011070432,-0.101371124,0.05543555,-0.07674249,-0.038613647,-0.11252983,0.11606586,0.08644607,-0.05723666,0.22642858,0.233797,0.14076635,0.121555425,-0.12614916,0.019685728,-0.02984457,0.062566265,-0.18287706,-0.10836069,0.05780531
P29317,-0.033770274,-0.028773377,0.34213775,0.030059755,-0.1276095,-0.18900076,-0.03754633,0.03986749,-0.06660653,-0.14900278,0.2247738,0.077835634,-0.11832158,-0.008913457,-0.1309149,-0.09540776,-0.051791776,0.015125717,-0.05731274,0.05760161,0.08316231,-0.0323137,0.25601196,0.00995581,0.023436017,0.23909506,-0.17240098,0.037102215,-0.08591338,-0.12437767,-0.09667829,-0.01963695,-0.19382837,-0.11062392,0.13428004,-0.031200867,0.09249203,0.08832799,0.2534119,-0.004315839,0.060569704,0.15562162,-0.048925053,-0.18838964,0.046988122,-0.16774064,0.024668135,-0.033687536,-0.029144475,-0.052068807,0.13727738,-0.012773457,-0.07222977,0.21100366,0.21974394,0.06692075,0.09966965,-0.19514337,-0.019918805,0.034075245,0.03541037,-0.15856043,-0.055741955,-0.003639436
P29597,0.013665085,0.010032611,0.30488423,0.043933105,-0.04359483,-0.15786996,-0.06520872,-0.04710015,-0.10582155,-0.14756231,0.18542638,0.056584556,-0.047031738,-0.048667684,-0.120594956,-0.07435221,-0.1292878,0.014374631,0.0037958503,0.11370845,0.05626716,-0.06266047,0.24376616,-0.011231574,0.010161636,0.2639408,-0.13864768,-0.0037696667,-0.12517701,-0.12833689,-0.003214982,-0.077426635,-0.2758481,-0.15534815,0.15297677,0.05806609,-0.056401204,0.07484092,0.18681559,0.026246458,0.060213942,0.165259,-0.1415973,-0.24599585,0.05023274,-0.19623382,-0.035359748,-0.10849993,-0.011047645,-0.04449891,0.15021583,0.07509811,-0.026160274,0.20509759,0.20041457,-0.006175775,0.022871183,-0.12414678,0.014113942,0.03979414,-0.0011633678,-0.19430634,-0.03180928,0.055961598
P31751,0.031986326,-0.06448733,0.30443642,0.024819553,-0.0502661,-0.10789712,-0.13619387,-0.028679466,-0.013615476,-0.13927738,0.20276742,-0.020590467,-0.05668966,0.046074748,-0.16360886,-0.08152214,-0.12568381,0.018010188,-0.05605922,0.11050717,0.10333954,-0.011364758,0.27828363,0.03313843,-0.04847992,0.34682164,-0.21919915,-0.062053155,-0.16998538,-0.16728169,-0.084584065,-0.12358473,-0.22267464,-0.113976076,0.15144044,0.021211531,0.002875084,0.10539422,0.29462796,0.017138146,0.056627024,0.09858272,-0.10897664,-0.26128182,0.02744647,-0.20936303,0.013016457,-0.087979585,-0.07442161,-0.12550507,0.14206795,0.029252667,-0.018447695,0.24892661,0.20548227,0.063692,0.12277677,-0.21233447,0.008512694,-0.0058862176,0.017585972,-0.18117909,-0.07435468,0.02959683
P35916,-0.0784252,0.030630875,0.26583073,0.055932723,-0.010056886,-0.19758561,0.012513069,-0.06762598,-0.08086079,-0.18290797,0.13186422,0.15242463,-0.08438419,0.020296548,-0.00096862734,0.030827442,-0.12916788,-0.008436916,0.06793006,0.159015,0.026887342,-0.10331702,0.21203808,-0.021133836,0.069011375,0.16358916,-0.13862401,0.021321787,-0.07821707,-0.08091602,0.004745204,-0.07360896,-0.21270308,-0.13824907,0.16724432,-0.00867434,-0.0015751214,0.11672157,0.18198043,0.0031669606,0.107531264,0.18833494,0.00077945937,-0.27003106,0.016577782,-0.17391673,0.070496306,-0.052589457,0.0032580115,-0.022412777,0.14703405,-0.031353846,-0.044530433,0.14443322,0.23845264,0.1398375,0.04631447,-0.13362908,-0.009699721,0.016077997,-0.05861318,-0.21915372,-0.13118067,-0.070823714
P35968,-0.035005577,0.00072696555,0.23905738,-0.008210594,-0.040165477,-0.13616256,-0.04723241,0.03824827,0.016267842,-0.067848966,0.18118152,0.095672294,-0.04048538,0.035632636,-0.14150262,-0.028490776,-0.10072434,0.06119881,-0.018069137,0.14037451,0.07335523,-0.059313763,0.238289,-0.04756873,-0.036471583,0.27758476,-0.19012997,-0.031027406,-0.091460824,-0.16379645,-0.025261423,-0.08797781,-0.23854211,-0.091701165,0.10555637,0.07861306,0.038595673,0.10965939,0.24129662,-0.0041534742,0.094669,0.14861515,-0.06308183,-0.23865612,0.045423612,-0.12750016,0.015244168,-0.08552036,-0.06363724,-0.09105955,0.14028904,0.05481283,-0.010442397,0.20926993,0.21827742,0.089610316,0.11229509,-0.13849998,0.028574368,-0.053592812,0.026372567,-0.17082423,-0.11343914,0.04050189
P41743,-0.013097708,0.037779782,0.3088257,0.03639578,-0.029563138,-0.17129311,-0.115120925,-0.0059040585,-0.008065166,-0.14107232,0.1023185,0.11148824,-0.0134750875,0.025543531,-0.11583285,-0.025291998,-0.15803322,0.022123817,0.014470543,0.111566424,0.116537884,-0.10030917,0.28387755,-0.06518954,0.031188484,0.2581755,-0.2289873,-0.023479473,-0.1013332,-0.11076975,-0.05385355,-0.05120831,-0.17480457,-0.070826724,0.25209814,-0.019191887,-0.061475478,0.16066921,0.24915656,-0.005612171,0.07640285,0.12588562,-0.020403923,-0.24275191,-0.045842934,-0.15011075,0.07199764,-0.061872344,-0.12884393,-0.06920067,0.16118363,0.007585612,0.002222965,0.19854742,0.2393733,0.101774655,0.07469942,-0.15130934,0.017496113,-0.112637326,-0.043427847,-0.2700763,-0.08436017,-0.09251808
P42679,-0.0092481,0.000533996,0.35152027,0.025491726,-0.055545986,-0.19408675,-0.07832734,0.01637236,-0.074054375,-0.17941639,0.1739446,0.09802948,-0.0167832,0.012914626,-0.13996737,-0.11022832,-0.114508644,0.025436467,0.0039029396,0.13993883,0.020713484,-0.021853674,0.22266956,0.034159504,-0.0662917,0.30439812,-0.2442956,0.024451304,-0.1335017,-0.14107975,-0.01751389,-0.106085025,-0.26562554,-0.106161974,0.21302089,-0.03577219,-0.007991379,0.03298104,0.3121333,0.10595535,0.09378712,0.061698485,0.040422328,-0.20221671,-0.05912917,-0.18693736,0.070912436,-0.11282136,-0.03957678,-0.07698012,0.19595082,0.07096829,-0.07339118,0.21024315,0.235724,0.14324467,0.12749241,-0.23920164,0.06680849,-0.029105708,0.052687187,-0.24294427,-0.15865228,0.02652956
P42685,0.0028297123,0.007572955,0.34331387,0.028002053,-0.032479763,-0.15135874,-0.08426015,-0.0890843,-0.06841266,-0.13692167,0.20798042,0.07834058,-0.0812682,-0.0550838,-0.106822036,-0.05310421,-0.13946982,-0.0029506474,0.014574336,0.15633205,0.06209879,-0.051384218,0.24059704,0.02789847,-0.022399087,0.28798681,-0.18629494,-0.00040118047,-0.1222385,-0.06961328,-0.018637592,-0.075244576,-0.2814288,-0.08091374,0.18506782,-0.031018559,-0.03899469,0.1069054,0.30559838,0.025776196,0.065836266,0.16190585,-0.018989353,-0.27099591,-0.020441338,-0.23595905,0.045469284,-0.09542169,-0.06954615,-0.1190991,0.2542095,-0.029461343,-0.02627174,0.20706794,0.21086852,0.05573375,0.07399207,-0.18111528,-0.0077789226,-0.016843412,-0.000247538,-0.24586971,-0.04005389,0.01332892
P43405,-0.02301402,0.11199089,0.28877574,0.008651219,-0.07132755,-0.12302758,-0.13762315,0.04577477,0.11580193,-0.101758,0.17933533,0.10283834,0.07687695,0.051448107,-0.14561765,-0.036043476,-0.1802198,0.07162149,-0.069146946,0.14712691,-0.016292809,-0.08998972,0.2631205,-0.020437185,-0.08902036,0.34234905,-0.20104043,-0.053212963,-0.15399799,-0.14078039,-0.06827663,-0.093475826,-0.2680828,-0.15149157,0.14307351,0.0070796683,-0.044484477,0.07898821,0.16714,0.04436868,0.04942984,0.16262338,-0.14010319,-0.26338413,0.034115873,-0.1463644,-0.03035138,-0.041363887,-0.057517935,-0.07746132,0.14224063,0.0566805,-0.045062978,0.2137588,0.16278328,0.20763204,0.15265101,-0.10999254,0.018441148,0.0043420577,-0.08568735,-0.10493115,-0.14871177,-0.0076289116
P48729,0.0016329212,-0.0652896,0.33780935,-0.0030876677,-0.057410516,-0.16804811,-0.1335388,0.010513242,-0.050473757,-0.17300618,0.20227043,0.021291306,-0.11784418,0.024526667,-0.18176022,-0.09344979,-0.13065054,0.012445412,-0.0659139,0.10915786,0.11142459,-0.09198661,0.30421644,-0.025398303,-0.036056515,0.35725895,-0.21662089,-0.04131149,-0.15580776,-0.21524969,-0.069661684,-0.08651064,-0.27592832,-0.10360553,0.19292356,0.06945449,0.082334526,0.12064089,0.23195007,0.0204903,0.057704218,0.16903166,-0.12660387,-0.21550782,0.08743356,-0.19139752,0.06132103,-0.10036787,-0.055223845,-0.07508293,0.103259504,0.036545172,-0.04020215,0.2813936,0.25149265,0.07202668,0.11626897,-0.1746753,-0.023887776,0.023507278,0.044867344,-0.2276003,-0.038232513,0.03611585
P48730,0.080392815,-0.06079515,0.34461346,0.045702223,-0.07031532,-0.124410585,-0.16095191,-0.00808478,-0.08838959,-0.17566511,0.15775052,-0.041452058,-0.04400399,0.0826259,-0.17698368,-0.10253441,-0.14524926,0.0066300677,-0.10785569,0.027070519,0.067396805,-0.023017775,0.29088607,0.05935482,-0.021606535,0.35574442,-0.20030753,-0.04436843,-0.23984993,-0.19598512,-0.09653179,-0.15137927,-0.19792026,-0.18757229,0.18589441,-0.028503086,-0.0027295859,0.029628295,0.20326321,0.021828536,-0.024432471,0.09656095,-0.18251202,-0.22746427,0.031917147,-0.21386337,-0.016966296,-0.079840995,-0.014045755,-0.034854826,0.08957137,0.07942265,-0.10235767,0.24054286,0.2092242,0.05563096,0.09600624,-0.22217779,0.0059286333,0.10324011,-0.020215485,-0.1873356,-0.10071187,0.009031703
P49137,0.00659393,0.060708515,0.33418554,0.13349321,-0.10056905,-0.16069813,-0.05378873,-0.004426198,-0.037338257,-0.20118788,0.17949893,0.04768554,-0.034079697,0.025756335,-0.08869831,-0.009202947,-0.13546695,0.004733796,-0.0304544,0.18972547,0.08008602,-0.045378864,0.31006458,-0.0131380875,0.03626394,0.2930308,-0.16651832,-0.040001426,-0.17695884,-0.14841318,-0.025245026,-0.110575914,-0.26481384,-0.24081235,0.15452924,0.051415104,-0.08374925,0.130184,0.21779361,0.005813594,0.038107686,0.18713516,-0.11743343,-0.3268959,0.02885277,-0.2413157,-0.076093584,-0.02900152,-0.030080993,-0.06363459,0.14573859,0.07410488,0.0056155557,0.25967342,0.22642465,0.06531074,0.060911626,-0.12214656,0.0037619048,0.011425983,-0.103761196,-0.16413705,-0.10010292,-0.032217525
P49760,-0.016265173,0.04874126,0.3460318,0.1481935,-0.079110675,-0.2050426,0.010510808,-0.006513194,-0.06725563,-0.22529764,0.18702564,0.05334459,0.02184706,-0.024129122,-0.110031605,-0.055681307,-0.12603259,0.024396071,0.0046303,0.1847386,0.03698283,0.038574185,0.2626033,-0.036480322,0.0033712208,0.2841578,-0.17569748,0.03597604,-0.16623878,-0.13232654,0.039098296,-0.09369904,-0.32617882,-0.24818996,0.09927891,0.076153174,-0.038716502,0.095170565,0.21277988,0.08176661,0.10110085,0.11649469,-0.110996425,-0.2960172,0.058599554,-0.19231233,-0.06688246,-0.07093241,0.021822501,-0.065961495,0.10280882,0.1620566,-0.05703472,0.25658822,0.20737965,0.029181758,0.07064371,-0.111983344,-0.0038669102,0.05659917,-0.047633074,-0.1619393,-0.13547537,0.04716686
P49840,-0.037238475,0.056449503,0.31748167,0.009825805,-0.10424101,-0.13900869,-0.06707863,0.08223967,0.04089381,-0.07874124,0.25585786,0.11971533,-0.006462288,-0.008382671,-0.19792342,-0.07954749,-0.1268918,0.08555312,-0.06257515,0.1380176,0.032689843,-0.08250974,0.31270918,-0.06374678,-0.04575711,0.36096087,-0.18059412,-0.026270043,-0.11229509,-0.15740946,-0.026473816,-0.04356455,-0.32498616,-0.15867372,0.11686535,0.07695754,-0.011010592,0.12618788,0.2479907,-0.016064733,0.07225327,0.21132311,-0.16281332,-0.2532558,0.08364981,-0.186097,-0.04038551,-0.080924146,-0.08805074,-0.058283538,0.19297032,0.07313095,-0.015567665,0.26435417,0.19204311,0.07988404,0.120367214,-0.1291115,0.025818232,-0.019363837,-0.0037972662,-0.12852131,-0.09959902,0.063939415
P51451,-0.022728067,0.0147707965,0.28317934,0.054287523,-0.078802034,-0.16195618,-0.05281828,0.031579845,-0.05426563,-0.14341792,0.23170273,0.08174339,-0.036189158,0.079076804,-0.112093136,-0.06027361,-0.13042507,0.017510887,-0.078229114,0.14919195,0.05794214,-0.06984306,0.2636631,0.002078368,-0.04212743,0.28406164,-0.2102156,-0.051522125,-0.19294916,-0.2396932,-0.034061622,-0.15885349,-0.2525795,-0.13664737,0.155934,0.060733564,0.00733401,0.015236661,0.21103594,0.12278352,0.12266906,0.1462402,-0.05801009,-0.2137372,-0.073933445,-0.17279789,0.026635194,-0.07561341,-0.0049963174,-0.09981719,0.16437116,0.065270804,-0.0046979864,0.2052453,0.24910572,0.17248893,0.14363167,-0.22120687,0.029165125,0.04050227,0.09305679,-0.18991278,-0.12921765,0.06785548
P51617,-0.012939991,0.033478066,0.32827708,0.07221072,-0.088494614,-0.17468284,-0.08723493,-0.023309443,-0.032752015,-0.15587443,0.18880746,0.078301646,0.01289912,-0.032081824,-0.124092914,-0.069492355,-0.15082362,0.03992437,-0.0012191695,0.11864716,0.03478618,-0.05568381,0.26430857,-0.0038977196,-0.008540139,0.3278103,-0.15804917,-0.028114686,-0.1482319,-0.1631549,-0.0025333005,-0.11615038,-0.31809634,-0.15151276,0.15084074,0.05997625,-0.08469308,0.07819034,0.21996346,0.032278564,0.09974137,0.16749611,-0.12094426,-0.24681155,0.023821138,-0.21930131,-0.038607262,-0.08995432,-0.0236084,-0.12477145,0.19695334,0.039855205,-0.026971381,0.2556758,0.19775727,0.055267584,0.045184422,-0.14707969,-0.016106142,0.023236662,0.0012424798,-0.17596355,-0.068556555,0.04880331
P51812,-0.023100574,0.013263183,0.35705215,0.08693011,-0.09965438,-0.20260003,-0.056184698,0.026597062,-0.0012942475,-0.17506926,0.18261959,0.06783453,-0.053423524,-0.004084985,-0.088531,-0.0031353615,-0.086111695,0.0067249658,-0.026317805,0.17709419,0.1021058,-0.01607567,0.26460475,-0.019228201,0.018116413,0.25715894,-0.18361963,0.016249266,-0.107758895,-0.10905032,-0.06339519,-0.079294406,-0.23921089,-0.13997817,0.15092215,-0.020210514,0.026292423,0.118216455,0.27691332,0.005484413,0.049725965,0.16303724,0.010323064,-0.25809819,0.033676602,-0.16293468,0.031161973,-0.016099699,-0.048066303,-0.11075779,0.14563058,-0.019705746,-0.061202753,0.24923065,0.23122959,0.0866788,0.07067676,-0.14039704,-0.02321807,-0.027846176,-0.052850425,-0.18595472,-0.078362234,-0.06734662
P51817,0.02171346,-0.035006467,0.33930194,0.058003195,-0.045426287,-0.0863925,-0.096756324,-0.03144139,-0.023935266,-0.12743467,0.20893177,0.011408784,-0.10023445,0.064806156,-0.123236336,-0.005734939,-0.13029253,-0.032891396,-0.12252496,0.17311136,0.10500431,-0.07043779,0.33645856,-0.029156456,0.015342255,0.320579,-0.21100302,-0.08193214,-0.21060924,-0.17188773,-0.05119332,-0.10461055,-0.25754023,-0.18126003,0.17396507,0.009987004,-0.0077927476,0.1613171,0.25121832,0.016154755,0.057713907,0.17358895,-0.116293706,-0.28850633,0.023141142,-0.22512257,0.056055553,-0.039897744,-0.09452106,-0.090370044,0.16294077,0.021484246,-0.010038152,0.23536718,0.20803118,0.09456252,0.10679241,-0.15366438,-0.0044965493,0.0434143,-0.037303764,-0.18385307,-0.067758605,0.020855913
P51955,-0.060022138,-0.008959061,0.32548258,0.08374421,-0.055880614,-0.2384719,-0.001344422,0.035321373,-0.045602217,-0.17835332,0.24321015,0.11047711,0.0026983826,-0.05191986,-0.119448744,-0.03427762,-0.113403104,0.06935369,0.08409331,0.19057393,0.05738883,-0.02032116,0.2628453,-0.050929986,0.008605619,0.28873158,-0.12235129,0.052311767,-0.06378959,-0.10904531,0.033129025,-0.11338352,-0.33976898,-0.16242342,0.12413049,0.07342063,-0.029308211,0.07470662,0.3144629,-0.024362147,0.083279535,0.19900104,-0.051366746,-0.27118883,0.09229423,-0.18391207,0.016890142,-0.119575396,-0.028009742,-0.057891805,0.18018799,0.006567335,-0.066397734,0.27393934,0.24751739,-0.0018191844,0.012922503,-0.16638428,0.023046616,-0.048149653,0.011034637,-0.2104818,-0.11072421,-0.015911713
P51957,-0.049452707,-0.026662141,0.2598506,0.020691104,-0.049210213,-0.23410623,-0.08744415,0.08523758,-0.077067,-0.16285604,0.20441516,0.108750686,-0.0035626348,-0.002277479,-0.15277313,-0.12414159,-0.16449767,0.100389875,-0.030476537,0.093657054,0.08754658,-0.05505556,0.2697876,-0.06950949,-0.01699117,0.31882173,-0.21448238,0.020543575,-0.09525664,-0.15320691,-0.067090966,-0.058264054,-0.20861225,-0.13730587,0.1786783,0.100861534,0.045444373,0.07850225,0.2148281,0.039117582,0.055706,0.1392111,-0.13953456,-0.15638164,0.05589497,-0.10435681,0.019266626,-0.12262063,-0.023850428,0.0035676234,0.1079732,0.10697697,-0.009531824,0.24225792,0.21042399,0.08098147,0.09092526,-0.1691942,0.014836229,0.0062626437,0.039871268,-0.21306781,-0.13043284,0.019867366
P52333,0.0018148388,0.013056683,0.29197237,0.12420206,-0.08401841,-0.13192904,-0.002415254,-0.023474198,-0.016014706,-0.121594205,0.18958113,0.028913304,-0.028766666,0.008848217,-0.040574037,0.04985062,-0.09590496,-0.004295263,-0.058119096,0.19389017,0.011256783,0.0369998,0.19599561,0.03925745,-0.023989081,0.26784828,-0.10399766,-0.0065306723,-0.18977083,-0.10760002,0.03166114,-0.1767824,-0.30752748,-0.17039523,0.038226865,-0.0067233862,0.008128426,0.0232837,0.22679165,0.036926247,0.029254192,0.17029592,0.0023075275,-0.23721531,0.0036093737,-0.20050982,-0.00428058,-0.020251352,0.027460596,-0.16153654,0.19981748,-0.031201731,-0.093933426,0.23113266,0.16076204,0.073592916,0.057069935,-0.12762257,-0.069993116,0.089336485,-0.033307202,-0.12568566,-0.10237982,0.024684172
P53778,-0.01217887,0.036700666,0.27341196,0.08787047,-0.039948504,-0.09835383,-0.01934382,0.027647818,0.07818536,-0.090144426,0.18208358,0.067358054,-0.008637131,0.103593566,-0.09412182,0.095981166,-0.14245479,0.023886055,-0.04786917,0.24717295,0.09792479,-0.047819145,0.3274276,-0.09764443,-0.0031466726,0.31133896,-0.17860787,-0.0806088,-0.16423471,-0.17200509,0.02043567,-0.14849746,-0.29656905,-0.15709952,0.08994576,0.056654833,-0.0032992333,0.17313926,0.25891215,-0.009888341,0.11411713,0.19376595,-0.029543439,-0.3152802,-0.0007732358,-0.16314307,0.046731547,-0.05499787,-0.11300522,-0.15086445,0.1739491,-0.007675275,-0.012371202,0.2691288,0.23384702,0.1184211,0.11420126,-0.12981449,-0.010890441,-0.083638124,-0.03227,-0.1857382,-0.13392964,-0.024117444
P68400,-0.042823594,-0.007999229,0.30540606,0.05565939,-0.0652808,-0.20368917,-0.11718637,0.11933456,0.051402826,-0.13705815,0.29825726,0.045879923,0.021774096,0.071073934,-0.16274355,-0.049658496,-0.09879383,0.0443809,-0.108659446,0.20410831,0.16451666,-0.05153358,0.3054753,-0.06057914,-0.02765597,0.24629566,-0.25059518,-0.033091635,-0.14850698,-0.21671554,-0.15922382,-0.13855743,-0.16965058,-0.1794947,0.19374624,0.0806631,-0.011614313,0.031662926,0.26808003,0.07857307,0.039866414,0.15942052,-0.13466236,-0.29622215,0.033394665,-0.07774136,0.014713354,-0.004025329,-0.052926965,-0.033278976,0.043458767,0.104200885,0.022485899,0.19328412,0.26788232,0.13934062,0.12400661,-0.16813748,0.10720849,-0.013101285,-0.007134276,-0.14244486,-0.11776869,-0.036441736
P78368,0.03523065,-0.031931743,0.34467146,0.084612295,-0.06621772,-0.21426292,-0.10808033,0.016563425,-0.059324257,-0.20236889,0.2727499,-0.0073533296,-0.03145924,0.023980543,-0.110645056,-0.03347622,-0.13811731,0.024417859,-0.04717444,0.16704448,0.16569379,0.0018715085,0.3085935,0.0019164423,0.009335669,0.27135417,-0.17635486,0.006014188,-0.13865854,-0.12938869,-0.1491824,-0.14141801,-0.18487567,-0.18482904,0.15601763,-0.0043490566,0.021582888,0.043225594,0.26588807,0.027757356,0.0013964039,0.18098938,-0.11531603,-0.3005823,0.0420153,-0.13509233,-0.014194792,-0.07514832,-0.012122707,-0.06176324,0.091438666,-0.004750313,-0.060541093,0.2498856,0.2642848,0.038281042,0.058983218,-0.21271844,0.015954755,0.007444626,-0.021305103,-0.20758656,-0.056534924,-0.079823054
Q00535,-0.069299236,0.03567797,0.3776803,0.072047286,-0.095672265,-0.1894527,-0.028444534,0.013078177,0.025056412,-0.2020175,0.23134132,0.096494,-0.033258222,0.010861484,-0.13917011,-0.068167195,-0.09799902,0.018734148,-0.011249886,0.19066025,0.05742951,-0.031280324,0.3081413,-0.041802995,-0.004310848,0.2947925,-0.23756862,0.0028415557,-0.1166773,-0.15343425,-0.041062303,-0.040121462,-0.3020504,-0.18992323,0.14697817,0.03701475,0.0049819583,0.17477806,0.2869615,0.05009098,0.15915956,0.13778016,-0.07664162,-0.32756418,0.07305328,-0.20137596,0.007066087,-0.0390226,-0.060100995,-0.08830829,0.12299851,0.08482324,-0.028334895,0.24879047,0.23969641,0.13550988,0.1453174,-0.15252203,0.025125355,-0.013096844,-0.035304666,-0.14746256,-0.13579194,0.01454585
Q05397,-0.04862777,0.09991684,0.2500665,0.09167447,-0.13155305,-0.12189052,-0.020975243,-0.04803852,0.0019174382,-0.17872982,0.14685926,0.093700625,-0.11288462,0.05739825,0.009542215,0.031425007,-0.09847899,-0.031890854,-0.021449922,0.17003936,0.05424287,-0.124306045,0.25642678,0.017376171,0.06338151,0.192809,-0.12896928,-0.09023175,-0.11859465,-0.16472444,-0.057538606,-0.06898748,-0.19809389,-0.16968498,0.11554985,0.047311045,-0.036941808,0.1650283,0.120077565,0.009536075,0.12684162,0.21755615,-0.054240394,-0.29258624,-0.006216469,-0.23374057,-0.069348745,0.024248527,-0.004621824,-0.11621688,0.1449872,-0.030366316,0.064909585,0.19220449,0.21012405,0.1818829,0.090490445,-0.09916211,-0.040179204,0.011442587,-0.07914626,-0.09559412,-0.05986749,-0.03451749
Q05513,0.01879524,0.0038055193,0.2859578,0.0056208726,-0.056862026,-0.12513235,-0.04951863,0.08624296,0.006174163,-0.06314117,0.1435351,0.060208656,-0.04560484,0.14009175,-0.20276566,-0.01481807,-0.087650225,0.0395634,-0.08619671,0.096592866,0.100292906,-0.0557038,0.28259546,-0.05538104,-0.038581096,0.2907118,-0.2353259,-0.047989283,-0.18432716,-0.26258838,-0.030048648,-0.14246657,-0.21869381,-0.12007253,0.1254771,0.055556078,0.07378698,0.06996323,0.2144628,0.0119982455,0.06990568,0.12128921,-0.07894457,-0.26184314,0.007307065,-0.113437355,0.014770689,-0.06465374,-0.06350504,-0.0672665,0.06997108,0.13378765,-0.07075618,0.21385992,0.28919876,0.10008238,0.15930654,-0.17330933,0.0528299,-0.03314823,0.038297772,-0.20686737,-0.15708306,0.03255362
Q05655,-0.052346796,0.08298211,0.37220135,0.08421044,-0.13275263,-0.17651165,-0.05323603,0.049136348,0.074364625,-0.11126908,0.1881546,0.106009975,-0.03394231,-0.015417159,-0.14401636,-0.014528674,-0.08173963,0.011282475,-0.07888315,0.12544897,0.08025803,-0.04708142,0.27454856,-0.05074849,0.006350979,0.25413635,-0.20054868,0.014608927,-0.13950634,-0.11106566,-0.053350486,-0.026208982,-0.2507103,-0.11020992,0.14904213,-0.023794832,0.006460461,0.13286388,0.24573365,-0.008405166,0.039884362,0.18832433,-0.04374863,-0.2645913,0.025462791,-0.16872993,0.011287743,0.058386255,-0.08764593,-0.10739472,0.15353952,0.009593772,-0.048056163,0.21962778,0.21096437,0.09786658,0.117280625,-0.090204716,-0.051633846,-0.00083015143,-0.07735078,-0.14745173,-0.06320631,-0.05062499
Q06418,0.006811308,0.024044883,0.2553982,0.04716079,-0.017767683,-0.08761087,-0.010722731,-0.045022376,-0.11007728,-0.09752037,0.22992747,0.064475335,-0.03279263,0.021429945,-0.12842642,-0.100948706,-0.11509694,-0.006173278,-0.056205016,0.14868404,0.038382426,-0.027517742,0.22694185,0.0006148057,-0.04240224,0.22949167,-0.21507943,-0.03349903,-0.18610029,-0.15924142,0.024773177,-0.092002116,-0.24255578,-0.14579889,0.14273342,0.05805589,-0.073847935,0.040893476,0.22665894,0.15091442,0.13651101,0.07318097,-0.090878665,-0.24191403,-0.10068288,-0.19227184,-0.0043691867,-0.101539515,-0.035575017,-0.054656696,0.18535952,0.16787328,0.04515513,0.122305416,0.1884402,0.082208015,0.13499358,-0.18842973,0.0902587,0.041481845,0.088395335,-0.17951946,-0.109054685,0.15083636
Q08881,-0.0334008,0.06286852,0.29743025,0.029295567,-0.03987848,-0.11134175,-0.045819722,-0.07157939,0.00393976,-0.158554,0.18542776,0.08153842,-0.026623752,0.05213055,-0.109829746,-0.028953886,-0.1478894,-0.0027588294,0.011493758,0.124728955,-0.028420042,-0.11711798,0.2584861,0.0018511172,-0.020292457,0.26710945,-0.1384751,-0.04862377,-0.1607793,-0.17590217,0.010645421,-0.106512144,-0.3123826,-0.16571984,0.12612085,0.032670744,-0.04734079,0.08770577,0.13699129,0.037764132,0.13649277,0.18318014,-0.15802068,-0.31644204,0.058882058,-0.22733101,-0.009706878,-0.07234397,-0.008001451,-0.057214517,0.11725502,0.036748227,-0.059014827,0.18112794,0.21712825,0.13861163,0.11175237,-0.13934845,0.008720024,0.06532989,-0.02563324,-0.13504866,-0.105070755,0.03738942
Q12851,0.016679807,-0.010536576,0.33233637,0.014929669,-0.0732304,-0.1375471,-0.11661403,0.044636566,-0.0056550894,-0.098134585,0.14012244,0.04150806,0.010731281,0.018152718,-0.20425563,-0.08706751,-0.091614984,0.02597944,-0.049422532,0.050471425,-0.019846436,-0.045990057,0.19066665,0.038497306,-0.09846318,0.3318978,-0.16146107,-0.0054834783,-0.19639753,-0.19744556,0.026957955,-0.16267054,-0.31438258,-0.07412063,0.16616088,-0.0076567917,-0.021424575,-0.04961616,0.22612989,0.040362515,0.0036205805,0.10184604,-0.051012795,-0.1521102,0.00923821,-0.19164059,0.04795187,-0.06732281,-0.02652662,-0.08583714,0.15474048,0.05188051,-0.13619913,0.21806224,0.19707862,0.0652197,0.08701058,-0.17221436,0.013152136,0.05036072,0.049039718,-0.18030746,-0.09725137,0.056795947
Q13131,-0.044413686,-0.0101316795,0.31529555,-0.017440695,-0.11208974,-0.14786653,-0.123232126,0.024601268,-0.011002033,-0.15425998,0.21841946,0.085608445,-0.011741145,-0.04656949,-0.18446772,-0.19088195,-0.10230607,0.052805178,0.0030730828,0.0573395,0.00043563772,-0.08830716,0.24650654,0.017263368,-0.06548856,0.34576085,-0.17870775,-0.029588789,-0.07635761,-0.18000105,-0.03637517,-0.03595312,-0.30329832,-0.07076367,0.18002386,0.053675145,-0.046555825,0.07886614,0.25397784,0.054630853,0.15002063,0.104917586,-0.100641504,-0.14088018,0.03490423,-0.22133699,0.015984114,-0.122269556,-0.068695284,-0.09898107,0.19392891,0.025665259,-0.0044825915,0.24538052,0.16647044,0.0960624,0.102001205,-0.2015821,0.033739768,-0.02277325,0.107480004,-0.13357416,-0.043907247,0.1010326
Q13153,0.004921037,0.024851415,0.2820652,0.043152194,-0.051334657,-0.12889858,-0.023132661,-0.05587383,-0.09459354,-0.101544596,0.21299902,0.07878636,-0.124027625,0.07736559,-0.068065524,0.005096637,-0.12565802,-0.026552742,-0.10742841,0.16753627,0.15229648,-0.09767733,0.3161142,-0.055973988,0.0634186,0.21047023,-0.22984178,-0.08804004,-0.17521933,-0.23432454,-0.07689686,-0.095705405,-0.19554676,-0.17749575,0.13410357,0.08254006,0.025248423,0.15225962,0.15266363,0.08865302,0.17791472,0.19104569,-0.124318555,-0.31864238,-0.042806245,-0.14406325,-0.02113382,-0.061122853,-0.02140493,-0.11668726,0.13133632,0.096510716,0.052973293,0.16617599,0.26965278,0.1263073,0.11372803,-0.14561838,0.0154248085,0.04465565,0.03460259,-0.20173152,-0.061179865,0.085024655
Q13188,-0.060567457,0.036180265,0.33131725,-0.021170992,0.00613862,-0.20342366,-0.031285845,-0.01554815,0.0011432839,-0.16438559,0.24558511,0.13042511,0.039140873,0.011288488,-0.17326595,-0.08298696,-0.15626517,0.07519024,0.07818773,0.13591823,-0.0055925073,-0.053477593,0.26168418,-0.046400893,-0.05241227,0.27481073,-0.1950517,0.054868124,-0.06903475,-0.11622971,-0.026073793,-0.065438196,-0.3074103,-0.15450655,0.1271386,0.01440839,0.021708237,0.07819292,0.2357881,0.044686582,0.1570666,0.14229354,-0.14692213,-0.33998403,0.11660691,-0.12516637,0.023304563,-0.150789,-0.019841356,-0.0045854663,0.0830454,0.08791738,-0.12646376,0.18457969,0.25674337,0.112265386,0.1309146,-0.18671863,0.07603794,-0.007621047,0.0058958493,-0.18912748,-0.17164071,0.016598577
Q13237,-0.0741625,0.03807208,0.25409406,-0.03638709,-0.15645067,-0.18441829,-0.067007884,0.009073633,-0.054096907,-0.0380267,0.14589247,0.21763055,-0.10369283,-0.0006019686,-0.07141617,-0.069242194,-0.111153305,0.07996773,-0.05002631,0.005448984,0.036500536,-0.14124143,0.22874065,0.020612488,0.048480213,0.2854822,-0.18514173,-0.057754375,-0.065847546,-0.19927295,-0.08692084,-0.052052576,-0.19717732,-0.062551215,0.12870888,0.044709586,0.035721455,0.1238745,0.18055016,-0.03328519,0.15837434,0.21675476,-0.054921545,-0.15633716,-0.025297124,-0.17588343,-0.046622973,-0.061632466,-0.009607725,-0.17175736,0.28267846,-0.035812743,0.018345641,0.20264983,0.20132656,0.17483194,0.07807924,-0.16909732,-0.05761809,0.01909141,0.05599957,-0.15929861,-0.08911307,0.07998957
Q13554,-0.040631987,0.009535329,0.33080623,0.061432462,-0.0004251969,-0.17800601,-0.0717417,-0.08631076,-0.025285687,-0.19942462,0.23733771,0.059258662,0.04170202,-0.043314148,-0.12797877,-0.1024343,-0.19623752,0.0145934895,0.019802216,0.114198014,0.022358956,-0.01118331,0.24617402,-0.027331546,-0.05382424,0.2827645,-0.19231662,0.039838526,-0.14536251,-0.07002606,-0.0070757964,-0.059658587,-0.29496482,-0.084038876,0.16183616,-0.021552632,-0.018917978,0.07044737,0.23085788,0.12445526,0.14561898,0.09876125,-0.101040915,-0.22764876,-0.0064909486,-0.16611782,0.09455104,-0.11019995,-0.043115523,-0.09199657,0.14616795,0.005380908,-0.07560056,0.19247925,0.17604755,0.08982842,0.12160246,-0.19269668,-0.04305911,0.05153528,0.05177217,-0.21510574,-0.0695505,0.024702571
Q13555,-0.022069236,0.045534827,0.3096543,-0.002312625,-0.042684145,-0.13991575,-0.048554346,-0.0795479,-0.022838566,-0.07577908,0.19909249,0.1185561,-0.050244637,0.010192375,-0.14489785,-0.068243146,-0.12593666,0.028138269,0.006359191,0.09191211,0.063451424,-0.040824436,0.23383567,0.020338137,-0.03009133,0.25503838,-0.24564767,-0.01388814,-0.12882477,-0.12980875,-0.044160288,-0.072548844,-0.22651163,-0.06010267,0.14121324,-0.010928491,-0.015374695,0.108662404,0.28547737,0.04324932,0.15258195,0.11774625,-0.05353102,-0.3211002,-0.05412953,-0.18836398,-0.005636852,-0.078424186,-0.06556766,-0.14587952,0.21286914,0.05396535,-0.014527884,0.15232348,0.24458945,0.108082294,0.15311256,-0.20501888,0.021712186,-0.027631542,0.03497856,-0.21942821,-0.106999494,0.058088057
Q13557,0.015249059,0.059450556,0.32795292,0.042881675,-0.05753976,-0.14288649,-0.08413918,0.028589103,-0.022096265,-0.13519032,0.20698547,0.0821027,-0.020204224,-0.0017046425,-0.15849957,-0.07844983,-0.15643314,0.03461295,-0.052732658,0.16627172,0.098086625,-0.036866277,0.30350032,-0.055026688,-0.04484718,0.31365874,-0.24413566,-0.0053459276,-0.12993325,-0.08959372,-0.0461042,-0.02138617,-0.23633385,-0.10976295,0.18987195,-0.0065864995,-0.0129674915,0.14295147,0.2813627,0.063894,0.06197985,0.120937645,-0.046035685,-0.23683281,-0.05404394,-0.16565612,0.026526362,-0.08992867,-0.12390214,-0.06480642,0.1943152,0.072167225,0.009931769,0.23174992,0.20634957,0.09090643,0.14769593,-0.17094289,0.027359486,-0.08079244,0.0007972458,-0.23326814,-0.08441888,-0.0020193807
Q13627,0.028836269,0.0040115453,0.27795076,-0.019634617,0.010125696,-0.0990458,-0.07578634,-0.06356221,-0.015244397,-0.12556529,0.16067737,0.024619643,-0.102246284,0.06946804,-0.13172616,-0.009629554,-0.14687502,0.0031093382,-0.029593056,0.16405089,0.06460382,-0.04816901,0.24878068,-0.00017960908,-0.069751814,0.29858598,-0.21430723,-0.03685039,-0.15538394,-0.13121116,-0.041330546,-0.09121197,-0.24423496,-0.10884009,0.11383166,0.009380119,0.09363526,0.13500729,0.20728429,0.028526422,0.059261024,0.1360583,-0.0810362,-0.31077796,0.055225868,-0.16628094,0.029018555,-0.10151188,-0.044521343,-0.08011853,0.09669024,0.05513314,-0.062946334,0.2063802,0.23264739,0.11374171,0.16749498,-0.14829972,-0.0058576567,0.000746433,-0.030127043,-0.21207452,-0.10495291,0.01843011
Q13976,0.020443492,-0.07032658,0.3387335,0.02091436,-0.10632627,-0.118699886,-0.13031462,0.02330827,-0.033830427,-0.17816567,0.23560575,-0.0070055453,-0.04298562,0.003589049,-0.13301224,-0.11192526,-0.06304711,0.0037312966,-0.044981457,0.12743632,0.08707525,-0.06262823,0.3113004,0.005250476,0.020019975,0.30023378,-0.1491842,-0.06620539,-0.077525124,-0.1925222,-0.108770385,-0.07345976,-0.24462526,-0.1895952,0.16494016,0.03273205,-0.05475846,0.11390765,0.25054842,0.020940214,0.12024902,0.12266493,-0.1313989,-0.21383739,0.09089067,-0.19489355,-0.0061671785,-0.10611512,-0.065112054,-0.07886807,0.12128385,0.0071860747,-0.01206542,0.2566434,0.18155362,0.04949844,0.028630858,-0.18758549,0.081811786,-0.020695914,0.038207214,-0.09795328,-0.012715548,0.04527684
Q14012,-0.085380435,0.04273826,0.40685123,-0.0076796943,-0.115645245,-0.18793146,-0.054668617,0.022639934,0.012354448,-0.07339087,0.30897063,0.16095945,-0.062422432,-0.05333988,-0.18169089,-0.11088476,-0.05823279,0.020401943,-0.09356887,0.11480359,0.072845615,-0.09120855,0.29534352,-0.046312682,0.017577443,0.2329706,-0.2489059,0.014881365,-0.09237109,-0.15268034,-0.11053798,0.015347262,-0.26338297,-0.14175136,0.17325637,0.0032965795,-0.0037652557,0.12762865,0.27638572,0.048221562,0.15174922,0.19401576,-0.13496779,-0.3032227,0.05839905,-0.15558417,0.0051834285,-0.002009222,-0.07306329,-0.07559924,0.17822106,0.07750002,-0.01760106,0.1523718,0.22608586,0.12095225,0.12540212,-0.1377493,0.056905936,0.047025282,0.009771347,-0.12324406,-0.058422584,0.081353225
Q14680,0.030517196,0.023400515,0.33548728,0.06737092,-0.10635386,-0.14081897,-0.026527062,0.02785471,-0.067455135,-0.09006661,0.20042884,0.07045601,-0.021998217,0.0511948,-0.1584673,-0.04477145,-0.11843349,0.034112163,-0.08558927,0.036886863,0.08999539,-0.03447626,0.32400846,-0.048869766,0.049825083,0.27449065,-0.16359188,-0.014363354,-0.16736053,-0.18474883,-0.042531934,-0.08793736,-0.22655252,-0.17256019,0.10569352,-0.0010656393,0.0019003137,0.08190472,0.1897511,-0.0017131667,0.09508138,0.16697079,-0.15349157,-0.24650009,-0.007389477,-0.15363094,-0.0407295,-0.07598337,-0.046017718,-0.07076479,0.14745934,0.060267054,-0.08107088,0.21934757,0.23286001,0.020646239,0.07675987,-0.18838646,-0.0053910958,0.035815928,0.03683663,-0.18318824,-0.08070876,0.036546834
Q15303,-0.00040029752,0.07969876,0.22092521,0.043594386,-0.06822444,-0.051919598,-0.045882355,-0.038938858,-0.017447777,-0.12160085,0.18676348,0.07331879,-0.044467803,-0.0044918535,-0.07972505,-0.043820575,-0.1520216,0.006410553,0.008013193,0.13365164,0.010855207,-0.11780232,0.25975358,-0.017938871,-0.022947598,0.27149194,-0.08610834,-0.07201921,-0.10255432,-0.098505035,0.03424234,-0.037247818,-0.2761996,-0.083261356,0.12338483,0.03746914,-0.08609666,0.1260449,0.16561414,0.018793011,0.1066002,0.1849383,-0.07631234,-0.18537894,-0.050260983,-0.24529047,-0.004063866,-0.10330166,-0.09470552,-0.08062015,0.23521438,-0.052505575,0.05507956,0.21183693,0.14491063,0.075918965,0.08610805,-0.14550702,-0.017357206,-0.055377584,0.03987206,-0.14957234,-0.0057377256,0.030751714
Q16288,-0.02888054,0.11196383,0.27913538,0.07888592,-0.04676435,-0.10700376,0.05946826,-0.018044252,-0.04208518,-0.06902181,0.19986765,0.13322203,-0.070159495,0.08993314,-0.06884895,0.040724553,-0.07694125,-0.039283462,-0.076183006,0.17675287,0.081974685,-0.08082781,0.26502034,-0.057067286,0.06081581,0.103671,-0.2041876,-0.025351819,-0.16740489,-0.14904687,-0.018350653,-0.06582968,-0.1665152,-0.18330224,0.13169426,-0.003597299,-0.04260493,0.09999523,0.17201468,0.07538782,0.12754634,0.16630201,-0.05402128,-0.35037786,-0.09390479,-0.14158458,-0.010751734,0.022134958,-0.04609483,-0.023797598,0.13125524,0.118564084,0.021437025,0.06699011,0.2578967,0.14247063,0.13432783,-0.12409772,0.079200104,0.020065162,-0.03485989,-0.16380398,-0.13178974,0.012376989
Q16513,-0.028484035,0.03597887,0.26452857,0.04986038,-0.072668076,-0.15193266,-0.07997072,0.06299167,0.0029019495,-0.13976799,0.17322536,0.071485914,0.014208269,0.03227036,-0.15006223,-0.08961614,-0.11246546,0.061288606,-0.045830287,0.14714065,0.013755347,-0.022068303,0.21672022,0.01513779,-0.07041294,0.30797157,-0.21454091,-0.016258575,-0.15854818,-0.15097943,-0.030888509,-0.10439278,-0.23384114,-0.1797988,0.14747074,0.06886627,-0.040507846,0.04798385,0.23490217,0.05001574,0.012555176,0.097463235,-0.103387676,-0.23995788,0.033365108,-0.18081574,-0.0516199,-0.03995171,-0.01805947,-0.025041765,0.11974957,0.158094,-0.0018249608,0.20529573,0.17902306,0.123990595,0.13061768,-0.13347,0.061934453,0.020798255,-0.05441887,-0.121396825,-0.17924783,0.033280034
Q16620,0.021600593,0.017050257,0.35386977,0.05984964,-0.10889681,-0.13161144,-0.124520324,0.04258637,0.026325043,-0.16980031,0.1658527,0.017212886,-0.031898577,-0.02577129,-0.062257666,-0.0075606415,-0.05259035,-0.03262099,-0.08120019,0.2470787,0.08675811,-0.060224496,0.27007553,-0.030722704,0.01171388,0.25552228,-0.15833193,-0.053448252,-0.08368567,-0.13543777,-0.08392452,-0.05771954,-0.2616029,-0.19227841,0.1726442,0.0002543581,-0.04864746,0.13807736,0.20965953,0.059232265,0.064935416,0.14188984,-0.006330992,-0.20893745,0.061750613,-0.14622107,0.016836355,-0.023503657,-0.066214964,-0.115197584,0.12639154,0.0032616102,-0.013194049,0.24855058,0.15505123,0.106492236,0.017014176,-0.060596894,0.04537026,-0.039157398,-0.073470786,-0.097050175,-0.0032256737,-0.012408908
Q16644,-0.043597944,0.071610615,0.3431906,0.026826104,-0.04211731,-0.20502177,-0.08936729,-0.02924883,0.023754742,-0.17561093,0.2252182,0.112662934,-0.013856684,-0.04277316,-0.08317776,-0.01921064,-0.15891753,0.03256639,0.0105685545,0.2555667,0.027098436,-0.061109263,0.23865631,-0.0067769275,-0.06396475,0.30268157,-0.20140389,0.0068674227,-0.10064012,-0.08719953,-0.047461107,-0.084868915,-0.32623503,-0.1468074,0.1553871,0.015620408,2.714293e-06,0.107012644,0.2482318,0.072040536,0.08101289,0.19507137,-0.037940387,-0.3120825,0.06114223,-0.16954908,0.013575803,-0.07550882,-0.017795177,-0.113317624,0.17983872,0.01476382,-0.04519077,0.23348537,0.21376424,0.16371794,0.10530381,-0.11218598,0.0022884677,-0.005615207,-0.07168789,-0.18341312,-0.10295777,-0.007967728
Q5VT25,0.019979846,0.06160291,0.30770606,0.03620333,-0.11178281,-0.12212565,-0.079832025,-0.04852026,-0.0077835293,-0.072464734,0.16289353,0.058664788,-0.016550438,-0.04450921,-0.15634331,-0.09586711,-0.10426426,0.028484708,-0.038058214,0.029785037,0.09350121,-0.012904564,0.23768553,-0.0015132384,-0.007422519,0.25854984,-0.19696501,-0.02565207,-0.12114026,-0.13208416,-0.060404927,-0.02670304,-0.21101794,-0.05835691,0.106318794,0.0149993105,-0.040055834,0.119880654,0.20731835,0.033121843,0.12808758,0.10309742,-0.10722431,-0.23820487,-0.03364145,-0.16485819,-0.081262775,-0.052349888,-0.06835418,-0.17945233,0.17565218,0.060574938,0.0030353242,0.1931367,0.17710415,0.015853485,0.09733258,-0.13556595,-0.035598494,-0.019693768,0.033315882,-0.15735038,0.000939318,0.07581155
Q7KZI7,-0.024921425,-0.011795223,0.31540003,0.04447881,-0.05323296,-0.14963004,-0.019932637,-0.031184707,-0.0127758235,-0.10759096,0.17615494,0.07930459,-0.09583857,-0.0016086504,-0.05201164,0.037196588,-0.09614485,-0.0047744038,-0.068028845,0.22293195,0.08597526,-0.012042703,0.25214106,-0.047596067,0.009441857,0.27261725,-0.20253792,-0.019960454,-0.11581619,-0.12123583,-0.022116415,-0.07253151,-0.28687888,-0.13696007,0.08378612,0.017848572,0.09332862,0.18097576,0.24719596,0.04317665,0.13422343,0.1622185,0.01966649,-0.2502021,0.041029945,-0.13878363,0.061887957,-0.054016612,-0.0404187,-0.1825193,0.18266056,-0.0036619112,-0.04728189,0.23976055,0.19147001,0.118802965,0.09264754,-0.099524796,-0.05698812,0.013630825,-0.016869422,-0.17779727,-0.082387835,0.049729377
Q7L7X3,0.016650064,0.083573125,0.29636973,0.08533934,-0.0813407,-0.026433254,0.004947148,0.037562136,0.05493132,-0.050342213,0.26259464,0.023314482,0.010152372,-0.0054823337,-0.14349121,-0.016051639,-0.057266463,-0.020721272,-0.12593809,0.24178629,0.040653106,-0.009774881,0.27320173,-0.07777611,-0.0543242,0.24100511,-0.14947881,-0.052037336,-0.1662044,-0.13708033,0.042332895,-0.04923948,-0.33232588,-0.18264133,0.055126585,0.05662986,-0.070523284,0.102270424,0.20860621,0.11061804,0.11389063,0.13392124,-0.08808784,-0.2526915,-0.013993283,-0.1640108,-0.023774063,-0.02558201,-0.100593604,-0.10545464,0.16524962,0.115805365,0.022159709,0.18860656,0.12931666,0.049387857,0.12018631,-0.066244826,0.059309673,-0.00058283855,0.019206768,-0.059301395,-0.031484887,0.13183716
Q86V86,-0.042227525,-0.005326827,0.36217123,0.11154179,-0.05434554,-0.17115767,-0.01579058,-0.040900234,-0.04264525,-0.17209628,0.2603866,0.07498543,-0.07193119,0.035809267,-0.08780672,0.00053515506,-0.13094914,-0.011020693,-0.057392895,0.19964477,0.10051427,-0.026966631,0.3305536,-0.033191636,0.055894393,0.2667039,-0.21441786,-0.011199634,-0.17863293,-0.12647845,-0.047844283,-0.09797715,-0.2571976,-0.22376533,0.15212834,0.005259982,-0.014508948,0.15393361,0.2949703,0.022126304,0.09945651,0.19153658,-0.10112878,-0.3603455,0.027432865,-0.21880206,0.030638993,-0.022208864,-0.050231345,-0.07442715,0.16871342,0.030397784,-0.022191713,0.21532074,0.24408917,0.10064642,0.10155728,-0.17527544,-0.0016846961,0.055633675,-0.059864532,-0.18892601,-0.12892236,-0.015288159
Q8IW41,-0.036650114,-0.07056768,0.3195588,0.031171039,-0.08828984,-0.17253804,-0.064873815,-0.07247598,-0.061151505,-0.11665958,0.2011935,0.043306928,-0.14304788,0.024099272,-0.11589191,-0.047479454,-0.08693338,-0.012602511,-0.08073108,0.06451577,0.10495981,-0.0543227,0.24551332,0.0266367,0.021961797,0.27768657,-0.20456584,-0.052819878,-0.18851884,-0.25252604,-0.065988205,-0.13847098,-0.25536188,-0.10177376,0.11072771,0.07742965,0.081661806,0.093157,0.20782289,0.028956667,0.13975304,0.17788643,-0.118158564,-0.2607997,0.05516072,-0.19821374,0.010455002,-0.030958181,0.024232572,-0.19074482,0.13225172,0.017796885,-0.038838744,0.217784,0.25049058,0.08248323,0.09615466,-0.16692598,-0.08274105,0.12904577,0.06232357,-0.17638591,-0.04206339,0.10390087
Q8N4C8,-0.020175792,0.054721434,0.25608307,0.021543423,-0.116545334,-0.15285882,0.028338637,0.06264185,-0.023613147,-0.037837353,0.23668301,0.14457248,-0.06730307,0.016417788,-0.03784334,0.047578745,-0.05168019,0.04874688,-0.04318998,0.21649823,0.08828491,-0.05741033,0.24967639,-0.040407863,0.032042403,0.20519345,-0.12432915,-0.033750415,-0.036335506,-0.16057652,-0.050324332,-0.098398134,-0.24465823,-0.154295,0.035785582,0.051288597,0.042667013,0.0941425,0.2222378,0.008844731,0.14419086,0.23305276,0.017201638,-0.24826363,-0.004127495,-0.10052683,-0.049805347,-0.08115591,-0.016392713,-0.15073816,0.22486944,-0.019684395,-0.006546789,0.21011463,0.22942798,0.10835763,0.048507787,-0.13632451,0.0416595,-0.06596133,0.04435128,-0.12933472,-0.07931762,0.051279843
Q8NE63,-0.017589916,0.003308481,0.31064507,0.022473294,-0.08980604,-0.16239364,-0.059311874,0.00923291,-0.015384888,-0.106263414,0.17453161,0.08373068,-0.13906153,0.077165864,-0.10082643,0.018391188,-0.083073236,0.010626612,-0.07009917,0.13304178,0.10955463,-0.073414855,0.2686807,0.013997233,0.024768274,0.25650558,-0.20697518,-0.038222857,-0.14202194,-0.17563275,-0.10288747,-0.10958765,-0.18513583,-0.14264181,0.13438722,0.005567155,0.07677617,0.12328565,0.24067333,-0.04529392,0.031017428,0.20665379,-0.053474378,-0.31406015,0.04697949,-0.17754498,-0.010651981,-0.0031305845,-0.026948873,-0.09261166,0.13497414,0.008552614,-0.040203907,0.20980282,0.27346724,0.13020289,0.11639458,-0.1552906,-0.01003196,0.014390001,-0.06367986,-0.1814824,-0.11545579,-0.037945118
Q8TDC3,-0.06552645,-0.04382947,0.18468313,-0.028177124,-0.01622169,-0.1872057,-0.033699386,-0.011113126,-0.052865736,-0.07291205,0.19016285,0.14074087,-0.065925,0.062383436,-0.09569757,-0.04830863,-0.13082193,0.11186962,0.03282148,0.12714025,0.09639063,-0.020694312,0.21349068,0.015664997,-0.012664584,0.28251502,-0.251838,-0.029639453,-0.068678215,-0.16027664,-0.08303476,-0.1283544,-0.1544665,-0.10678011,0.09603904,0.10325942,0.060399722,0.1202322,0.3117102,-0.017691774,0.1334235,0.123882234,-0.059424274,-0.29970872,0.021409525,-0.13237548,-0.032562047,-0.12552746,-0.011064915,-0.11434474,0.18011019,0.080220126,0.036112912,0.18702179,0.25243673,0.1350585,0.13083185,-0.22045986,0.048590932,-0.052994646,0.029449264,-0.20561416,-0.21670838,0.049371004
Q96GD4,-0.04873102,0.048732556,0.32402235,0.071820565,-0.058710404,-0.20172676,-0.029343754,-0.009793469,-0.04463222,-0.085587285,0.2944314,0.14971891,0.058430523,-0.046327893,-0.12492411,-0.051560223,-0.14572106,0.062328063,0.0119655505,0.15283135,0.07145194,-0.061210524,0.2828811,-0.052577298,0.025399264,0.25180286,-0.16523185,-0.0032758433,-0.11673474,-0.15551005,-0.0064686113,-0.13072439,-0.30382878,-0.15446399,0.15103056,0.067809604,-0.13879693,0.035874322,0.27777296,0.054118533,0.1592215,0.20503625,-0.12580606,-0.302789,-0.03548152,-0.1654304,-0.025060806,-0.10313805,-0.04198909,-0.11081735,0.24878803,0.045991104,0.004460222,0.18336853,0.23829684,0.040393766,0.024493093,-0.18470345,0.06357125,-0.00722562,0.061016105,-0.19840571,-0.08390978,0.06642743
Q96KB5,-0.01148515,-0.04188074,0.27687168,0.018044226,0.047340877,-0.16514882,-0.116843104,0.02143607,-0.015304839,-0.16313545,0.2037059,0.025804713,-0.028818374,0.019890338,-0.19802685,-0.06913911,-0.17867926,0.054278392,-0.014855191,0.21614718,0.090687685,-0.031885386,0.26279208,-0.054249823,-0.10660205,0.36707675,-0.25240344,-0.0038394884,-0.17073728,-0.12452094,-0.005727522,-0.112527385,-0.28359625,-0.1293525,0.19811931,0.103973106,0.024792932,0.10291471,0.300536,0.03670703,-0.022700919,0.12246561,-0.11900507,-0.27913374,0.08776327,-0.16821991,0.06966613,-0.11462448,-0.07820583,-0.0002857944,0.09252746,0.14157589,-0.009513203,0.25093576,0.22924569,0.05927174,0.14277774,-0.1387223,0.042267434,-0.023941254,-0.037364427,-0.25458747,-0.14509904,0.0049596694
Q96PF2,0.043849226,-0.015879963,0.39923748,0.07163737,-0.03115904,-0.109120175,-0.06171299,-0.10001806,-0.09145226,-0.2111443,0.20194829,0.007169311,-0.022260983,-0.013623427,-0.14069404,-0.086883366,-0.13651346,-0.049672462,0.024441306,0.11524664,0.02375472,-0.04001317,0.30060157,-0.0037252042,-0.0031755106,0.2936991,-0.14469774,-0.005980599,-0.16172665,-0.12616096,0.042726856,-0.08337411,-0.3454645,-0.13628036,0.18567005,-0.05642869,-0.08418403,0.09181014,0.25209242,0.081252396,0.15535238,0.09805675,-0.07259674,-0.24669841,-0.017672777,-0.2562706,0.08401723,-0.14583407,-0.0794363,-0.086222395,0.18032068,-0.0071032867,-0.10068772,0.22769913,0.20809007,0.014780492,0.059233643,-0.22239856,0.018568348,0.00888034,0.06928603,-0.23001587,-0.021222632,0.04488679
Q96SB4,-0.03771187,0.012271771,0.31109196,0.04715163,-0.07673095,-0.19100377,-0.055931173,-0.070465304,-0.045403026,-0.13466436,0.22163725,0.07392758,-0.103796944,-0.0029390322,-0.09105501,-0.045494873,-0.09038621,-0.011193582,-0.017486159,0.1324538,0.07612882,-0.029842636,0.17896445,0.08420686,-0.042502593,0.22525826,-0.20857108,-0.0054359725,-0.16665098,-0.15775207,-0.0601062,-0.14517877,-0.22929697,-0.058333427,0.14350012,0.008308096,0.02238252,0.015418291,0.27252287,0.074577644,0.0787815,0.15635301,0.0022061428,-0.2865215,-0.049596887,-0.20938854,0.0059800847,-0.013874616,0.01961964,-0.16864595,0.18840161,-0.0008439161,-0.02008157,0.1658913,0.26164237,0.12363815,0.12805054,-0.19953503,-0.028020073,0.053563975,0.03547722,-0.2044435,-0.07257542,0.029264152
Q9BXA7,-0.07883273,0.030780692,0.33960354,0.052716352,-0.14047082,-0.25184482,-0.055785846,0.035794877,-0.04120391,-0.159473,0.23925407,0.1669372,0.016312402,-0.015096189,-0.12303786,-0.13105802,-0.13500777,0.10198478,-0.009270234,0.06951959,0.038003974,-0.012128547,0.26747182,0.022803325,0.009991171,0.3160885,-0.23506436,0.028356653,-0.09286639,-0.13931014,-0.100862905,-0.06788203,-0.22358647,-0.16136077,0.14531077,0.010998101,-0.011437155,0.08330702,0.29725045,0.033650134,0.14016293,0.13660704,-0.08938165,-0.24592552,0.0003133004,-0.17875622,-0.05614683,-0.07232176,-0.0048642308,-0.10803084,0.21921599,0.053730614,-0.03195522,0.23233631,0.21762589,0.14719859,0.11318223,-0.23462534,0.007833989,0.018663323,0.016113425,-0.15949625,-0.17769893,0.026315507
Q9BZL6,-0.026134063,0.042130537,0.307763,-0.02616942,0.015815504,-0.132385,-0.13324144,-0.06999076,0.008729251,-0.115810856,0.14755204,0.09790971,-0.017685112,-0.008602885,-0.11863981,-0.04417302,-0.15992968,-0.0064132614,-0.032328725,0.15643238,0.051739324,-0.13832521,0.25321785,-0.06636374,-0.014391547,0.25055346,-0.23152062,-0.049028218,-0.121950105,-0.14225528,-0.050157767,-0.038601346,-0.25508493,-0.11516728,0.2204481,0.03349248,-0.051323045,0.15064515,0.1512501,0.08136035,0.13040562,0.14120767,-0.13171947,-0.27621982,0.04662054,-0.13085306,0.0584356,-0.07128775,-0.07019215,-0.06710262,0.108377315,0.0847593,-0.0028192839,0.14575604,0.18995436,0.1438543,0.08921331,-0.06670331,0.03682074,0.015637938,-0.048517432,-0.18802942,-0.053135224,0.0412947
Q9H2G2,0.008071607,0.06571417,0.33319432,0.02689535,-0.0581281,-0.1300422,-0.065932274,0.02235264,0.01991611,-0.1402043,0.2336574,0.058535002,-0.009960834,-0.040042944,-0.14571068,-0.062581226,-0.11441702,0.017324407,-0.028450642,0.21391995,0.068018965,-0.036263984,0.27614343,-0.06305665,-0.06438549,0.2802105,-0.18733081,0.0023132768,-0.08314466,-0.086298004,-0.030520618,-0.009819274,-0.29850385,-0.11901257,0.135475,0.011140641,-0.00047117035,0.13248385,0.24321404,0.082046755,0.097718015,0.13632132,-0.04796446,-0.24350348,0.02403963,-0.14112541,0.019891849,-0.096028455,-0.098183796,-0.0815068,0.14996684,0.051230766,-0.020658651,0.23189037,0.18517026,0.07430153,0.12033079,-0.11832728,0.037515193,-0.07435653,0.0079426095,-0.16678311,-0.032152586,0.028228205
Q9H2X6,-0.061391365,-0.014427704,0.31869859,0.015643131,-0.079883054,-0.19409823,-0.055707265,0.0041734576,0.00067396404,-0.05035398,0.18307252,0.13957267,0.043382622,-0.017294679,-0.13792527,-0.05436789,-0.09686239,0.07747527,-0.006596523,0.022384005,-0.026018426,-0.019342486,0.18309537,0.031287346,-0.00982587,0.28048268,-0.15069441,0.031392723,-0.12165402,-0.14338204,-0.014729017,-0.14731817,-0.27836186,-0.10270824,0.10281058,-0.025598273,-0.024093796,-0.013465034,0.25836113,-0.016432721,0.09160878,0.14531629,-0.07353808,-0.21205291,0.042498264,-0.15234457,0.014174886,-0.05689488,0.008831896,-0.13132796,0.21315725,-0.008494625,-0.14681602,0.177328,0.18470372,0.08133407,0.040225495,-0.18136938,-0.010948261,0.08008495,0.023651334,-0.14320616,-0.14816178,0.05165065
Q9H3Y6,-0.055445366,0.1029701,0.32105595,0.060215145,-0.0036766618,-0.16238292,-0.0075469776,-0.043036215,-0.006282118,-0.08238252,0.22691329,0.16977674,0.0016550453,-0.031687863,-0.13169858,-0.008269457,-0.18430534,0.033266153,-0.0013978591,0.158388,0.10266849,-0.085579485,0.3220166,-0.13963664,0.047138866,0.2236197,-0.21785672,0.018603176,-0.110102475,-0.053265244,-0.00032014056,0.007797281,-0.25088626,-0.120007776,0.17687443,0.014578989,-0.06943817,0.19557783,0.24547069,0.013454707,0.13125479,0.20341662,-0.121949255,-0.34011972,-0.024195679,-0.14509852,0.036427997,-0.058567964,-0.13360576,-0.043478608,0.20042196,0.0595374,0.01958896,0.15596421,0.22793119,0.055696417,0.10028954,-0.10814754,0.0062724785,-0.050687384,-0.043700315,-0.24826388,-0.0800655,-0.017205993
Q9H4B4,-0.044321485,-0.03921548,0.3227745,0.003233781,-0.05962357,-0.17828484,-0.067336254,-0.004017883,0.01315995,-0.10200753,0.25408465,0.06837674,-0.04307653,-0.011667443,-0.18829367,-0.089269,-0.07775671,0.051042043,0.016891636,0.095094725,0.09659006,-0.010587802,0.2396461,0.009509319,-0.04087404,0.27607805,-0.20931467,0.01368664,-0.09140432,-0.14409694,-0.069362834,-0.09247237,-0.24300274,-0.060052663,0.12799452,0.025690451,0.022386441,0.075353086,0.34449127,-0.008443567,0.10246712,0.13103919,-0.071312666,-0.2915541,0.054404736,-0.16922495,0.02129088,-0.072715774,-0.066383645,-0.123233125,0.15297608,0.014863169,-0.04695452,0.20743373,0.25169954,0.039951887,0.11517246,-0.21362181,0.028531233,-0.03956094,0.055887036,-0.18597901,-0.08097108,0.025226125
Q9HAZ1,-0.029668104,-0.01378265,0.3449791,0.03292408,-0.049878575,-0.23503764,-0.12418284,-0.032905295,-0.065591626,-0.15721495,0.19785574,0.11667062,0.023944274,-0.031155374,-0.08978727,-0.082772635,-0.17817266,0.0558528,-0.021076214,0.11663549,0.034870338,-0.022209076,0.22823815,0.030342242,-0.02301833,0.32340506,-0.22917977,0.018212738,-0.13562058,-0.11395381,-0.075650774,-0.12870052,-0.252585,-0.12357344,0.19511233,-0.032178972,-0.019341964,0.037359416,0.27465355,0.08532498,0.093836896,0.12334901,-0.04154479,-0.20948978,-0.022911396,-0.15412517,0.047874264,-0.10387852,0.0012304562,-0.13420406,0.2275031,0.0039908937,-0.0786241,0.21420026,0.19462197,0.14640908,0.067540415,-0.20965938,-0.012191581,0.05344236,0.010875651,-0.22673777,-0.13442636,0.019802243
F7AR06,-0.031287618,0.044056743,0.34031755,0.088649474,-0.18757287,-0.17375061,-0.052922945,0.10191578,0.0025967853,-0.1740538,0.2683118,0.08811144,0.02896129,-0.0005324377,-0.10435231,-0.104436204,-0.09588017,0.0609451,-0.08866815,0.15458563,0.01766657,-0.006365118,0.2976608,0.0024229968,-0.020566361,0.33417115,-0.16759944,-0.018112263,-0.108949184,-0.16390991,-0.07580531,-0.068975106,-0.2859175,-0.21531574,0.097122155,0.019226417,-0.015599944,0.07398124,0.24490461,0.08360716,0.13013947,0.14274976,-0.069548935,-0.17489436,0.00468679,-0.18102366,-0.054931164,-0.06373991,-0.02050086,-0.11820024,0.20321111,0.02778909,-0.02699841,0.2846623,0.15509954,0.15185067,0.10559021,-0.19390418,0.016766075,0.016368335,0.036065064,-0.06674343,-0.115115345,0.0572815
Q9HCP0,-0.004713949,0.028673967,0.26441136,0.055756092,-0.091220446,-0.10854949,0.0124808485,0.045252185,-0.08331714,-0.1257405,0.23495102,0.09006272,-0.06198402,0.093109965,-0.13471213,-0.07065071,-0.12459718,0.039315693,-0.062969536,0.132667,0.024443284,-0.05394423,0.29892462,-0.007254619,-0.027638238,0.31448886,-0.17811283,-0.047238898,-0.1774055,-0.20768265,0.016041951,-0.112584054,-0.27244443,-0.18592906,0.10076253,0.06545286,0.009651216,0.07067688,0.2266635,0.05646012,0.11654899,0.15270895,-0.095824465,-0.23230991,-0.047759913,-0.22423685,-0.027479973,-0.113094196,-0.032222122,-0.04222421,0.19531561,0.097250625,-0.0022609322,0.22908902,0.23016596,0.11939578,0.15814373,-0.23345454,0.04542753,0.015711997,0.08104478,-0.16917601,-0.16416444,0.09221299
Q9NR20,-0.025050897,0.06361268,0.34962928,-0.010844629,-0.09077977,-0.22518747,-0.12401599,0.006766667,0.008870402,-0.2039901,0.19954567,0.11043551,-0.0021320086,-0.07149224,-0.11066141,-0.09332009,-0.13787064,0.0625571,0.053450793,0.1764001,0.085138276,-0.08561985,0.2858126,-0.04805944,-0.01136433,0.29610065,-0.19377501,-0.00015932837,0.008817894,-0.113270484,-0.11652873,0.0037689842,-0.27091256,-0.12890811,0.17031035,0.041109566,-0.0031035696,0.17694233,0.21567766,0.040023763,0.1572001,0.16526707,-0.082310155,-0.26419482,0.10090997,-0.12303893,-0.037237108,-0.13367954,-0.052054454,-0.108501896,0.12723197,0.018453937,-0.015581426,0.2707019,0.22036478,0.107392356,0.06241662,-0.12024967,0.030548314,-0.10718449,-0.02148691,-0.17271398,-0.026951026,-0.013440522
Q9NWZ3,-0.04246363,0.06043031,0.30358034,0.029894885,-0.043517683,-0.15671015,-0.08339057,-0.01717738,0.0051918984,-0.15653847,0.16263421,0.1385158,-0.011233018,0.00869473,-0.05590261,0.009244178,-0.17358702,0.026672283,0.0058750394,0.21609285,0.038302876,-0.1463472,0.3089772,-0.07910335,0.031311918,0.3012871,-0.16795602,-0.064431794,-0.08492513,-0.14585271,-0.017158097,-0.06884814,-0.30797797,-0.17857033,0.18430616,0.054351546,-0.065994196,0.18811108,0.18262108,0.020501364,0.15205882,0.21492259,-0.08195717,-0.27017543,0.046830993,-0.17798433,0.031086024,-0.10135275,-0.06965925,-0.089753635,0.19113158,-0.004160604,0.0065515675,0.24335942,0.20250237,0.16005671,0.046350755,-0.09725537,0.015910367,-0.045121305,-0.05633471,-0.1819227,-0.09077571,-0.0056736236
Q9NYL2,-0.006307411,0.05216921,0.30684227,0.033401933,-0.024386358,-0.18362513,-0.08973862,0.020116953,0.008396787,-0.13303491,0.19177657,0.09122607,-0.011337885,0.03360215,-0.10192493,0.018331066,-0.14559016,0.031489227,-0.012058226,0.19273981,0.08715625,-0.07237553,0.25768888,-0.02995198,-0.019016165,0.24435568,-0.18600464,0.0018942232,-0.115681015,-0.09905885,-0.075475805,-0.11207731,-0.21034586,-0.13501963,0.18030167,-0.018972835,-0.009244002,0.067252144,0.23458588,0.011303809,0.0053394334,0.19013405,-0.046922695,-0.30198,0.016868217,-0.123961434,0.028198654,-0.05217108,-0.050382964,-0.038230397,0.12996028,0.00835589,-0.055142205,0.18977858,0.25085333,0.11840944,0.08443256,-0.14136645,0.04001406,-0.042890098,-0.076146975,-0.21672246,-0.11149754,-0.092346564
Q9P1W9,-0.032672226,0.07826963,0.3383995,0.056876373,-0.0799468,-0.16382569,-0.018176906,0.0009315917,-0.017130561,-0.1400863,0.2239768,0.14182211,-0.034288127,0.0017872804,-0.08741881,-0.022683779,-0.11554457,0.02590335,-0.00072253344,0.24857748,0.08211358,-0.05987404,0.30923098,-0.05244871,0.015618724,0.27288422,-0.22956416,-0.031683154,-0.08531297,-0.135203,-0.027147198,-0.052766472,-0.2861667,-0.18112688,0.15505973,0.039875396,-0.055666752,0.18522206,0.2983858,0.057926096,0.17831701,0.16364267,-0.013535653,-0.32981724,-0.02614383,-0.18908826,-0.016435161,-0.08668558,-0.086611226,-0.121109545,0.22914381,0.06856431,0.039064586,0.22892614,0.24217787,0.13652442,0.10609591,-0.15459163,0.071013786,-0.09642851,-0.016242769,-0.19137307,-0.121024705,0.031143421
Q9UEE5,0.027178517,-0.043343313,0.33707067,0.07204252,-0.0588111,-0.14100905,-0.094756536,-0.0043796683,-0.040171564,-0.11273762,0.196949,0.0117197065,-0.048565634,-0.0031325382,-0.146552,-0.022292048,-0.11090797,0.005175368,-0.07400261,0.17790839,0.10848558,-0.028237099,0.28167987,-0.02569924,-0.015389669,0.3418904,-0.18754253,-0.05608516,-0.19566508,-0.20285594,0.002811995,-0.1612947,-0.32435232,-0.15401675,0.14889137,0.08415558,-0.03457904,0.0890868,0.27432674,0.027188813,0.053402055,0.1635925,-0.08810133,-0.25501534,0.034272205,-0.20482683,0.013712818,-0.07643254,-0.053758435,-0.1501564,0.1819651,0.060538422,-0.022348708,0.27575052,0.21831675,0.010413024,0.043381184,-0.13272925,-0.0047022263,0.021345705,0.013904828,-0.20475022,-0.04767441,0.074558266
Q9UM73,-0.033727836,0.07854506,0.32637882,0.0133230565,-0.13009126,-0.11975537,-0.06030034,-0.008596955,-0.009746277,-0.12445301,0.21027192,0.097668275,0.015787946,-0.007152249,-0.1481677,-0.13564005,-0.08317913,0.011440592,-0.037624992,-0.011410678,-0.07400964,-0.09768465,0.2139245,0.046576157,-0.018584244,0.21982095,-0.10761104,0.0005143324,-0.12649418,-0.15790853,-0.042076975,-0.041324377,-0.2582888,-0.14027923,0.12395613,-0.040282644,-0.07012155,-0.010472244,0.10661137,0.060960103,0.118395306,0.14012665,-0.17583252,-0.19583014,0.02908128,-0.19849807,-0.051585186,-0.035067834,0.012987462,-0.027156964,0.12700784,0.036674894,-0.09721751,0.12847625,0.15421177,0.115977064,0.09269284,-0.16207236,0.02745477,0.119293846,0.03116084,-0.05138748,-0.05848045,0.07266122
Q9Y243,-0.024877379,0.069547996,0.3205957,0.04800452,-0.085094795,-0.18373504,-0.013590413,0.0071746623,-0.011140907,-0.11101021,0.24777314,0.10907155,-0.036250494,0.036902793,-0.15143031,-0.045325644,-0.12752089,0.05446599,-0.0259031,0.11791246,0.07231127,-0.009517254,0.2619147,0.0051577883,-0.03807995,0.26653558,-0.21643898,0.0219627,-0.14805342,-0.13141495,-0.060165424,-0.09388501,-0.23046263,-0.119120896,0.09798033,-0.0023594396,0.04516472,0.06360959,0.26894364,0.02948522,0.07896338,0.16947722,-0.07596643,-0.32653695,-0.019587275,-0.16557504,-0.04263907,-0.051338397,-0.026399752,-0.09400596,0.16549076,0.058232684,-0.056191742,0.19727933,0.26899928,0.10509054,0.17014948,-0.20867233,0.00027602335,-0.00037469776,0.0076889084,-0.19796318,-0.14127097,0.002308277
Q9Y4K4,-0.0027981207,0.059397597,0.33692145,0.04659154,-0.13984661,-0.14026172,-0.05848806,0.04832927,-0.05251258,-0.13603829,0.2154608,0.094730616,0.005927074,-0.018777296,-0.12207832,-0.12015803,-0.07969019,0.014429207,-0.07143812,0.106365785,0.0019332822,-0.061021827,0.2522718,0.0042474596,-0.017384054,0.2623784,-0.16121072,-0.016837504,-0.11867323,-0.17159767,-0.032520764,-0.052224517,-0.27449363,-0.16133206,0.151264,-0.00061894505,-0.06504214,0.033943795,0.1883137,0.11417954,0.13304038,0.116535306,-0.06464132,-0.15582505,-0.04380311,-0.17759094,-0.026077902,-0.0745786,-0.026651189,-0.078803435,0.19333635,0.06903164,-0.02900656,0.19717796,0.16502944,0.11588238,0.08080348,-0.17031077,0.057997573,0.026684757,0.06796716,-0.11113217,-0.0622815,0.094638355
Q9Y6M4,-0.011800479,0.03310664,0.32903424,0.047089614,-0.015914276,-0.106144965,-0.070960924,0.028191432,0.05237621,-0.20948382,0.21950503,0.011734004,0.050907522,0.055326603,-0.16846167,-0.069547705,-0.116239585,-0.0101336185,-0.013448631,0.22472458,0.009691864,-0.06322504,0.29269624,-0.06924224,-0.07866101,0.28199908,-0.1856004,-0.0319665,-0.14624482,-0.18225041,0.0092852935,-0.08383533,-0.33365127,-0.19663623,0.1638659,0.05103303,-0.05526515,0.08707729,0.19321504,0.12866497,0.13968071,0.086581245,-0.12383149,-0.27955458,0.073219374,-0.1593023,0.05707575,-0.094608255,-0.071089506,-0.009702014,0.027074104,0.1260635,-0.05239579,0.21354432,0.20465699,0.12803599,0.13727924,-0.13150005,0.10830406,-0.018884957,0.0031417254,-0.121698536,-0.108965434,0.03513212
P31749,-0.03651976,0.028554406,0.286054,0.020954344,-0.07517039,-0.15276305,-0.12044795,-0.012001408,0.04257069,-0.13696009,0.24172887,0.06998147,0.0060350504,0.05664032,-0.13627939,-0.0885336,-0.1662781,0.06327261,-0.061408818,0.10732065,0.05051387,-0.030439984,0.26555592,0.038694985,-0.06127254,0.32315922,-0.2454433,-0.042153616,-0.15866533,-0.14775403,-0.13493593,-0.10262044,-0.19350185,-0.13744757,0.13403074,0.0102427695,0.0035127862,0.08396525,0.24685815,0.05484683,0.08921412,0.12892118,-0.14809218,-0.29794708,0.011366552,-0.17347167,-0.03776488,-0.046373777,-0.029700002,-0.11029811,0.14278533,0.046501588,-0.008885701,0.20137028,0.19865581,0.18855795,0.18238442,-0.2086047,0.004629657,0.03655655,-0.024266176,-0.12810385,-0.15065527,0.010752758
P42336,-0.0015619636,-0.046171807,0.2782929,-0.031294756,-0.015971268,-0.15720269,-0.14224827,-0.02379032,-0.07553257,-0.13987862,0.14852948,0.067592055,-0.070231915,0.0047762687,-0.12296401,-0.08334483,-0.136049,0.021405855,-0.0016456516,0.07417123,0.08378631,-0.12193956,0.24848637,-0.011759163,0.0090073105,0.26893282,-0.17979151,-0.032285523,-0.08590585,-0.14610502,-0.08083309,-0.06820209,-0.18925545,-0.08669035,0.22584245,0.0207592,-0.0121601615,0.09698572,0.20181295,-0.0004980565,0.058657337,0.14373927,-0.10535145,-0.19476394,0.04588858,-0.15653834,0.058331102,-0.115441605,-0.056230355,-0.02903389,0.12698294,0.0069001145,-0.02059176,0.18888453,0.21429244,0.07334618,0.044318788,-0.1653029,0.03356966,-0.01428247,0.014610486,-0.22303157,-0.042919792,-0.007085356
