drug_id,0,1,2,3,4,5,6,7,8,9,10,11,12,13,14,15,16,17,18,19,20,21,22,23,24,25,26,27,28,29,30,31,32,33,34,35,36,37,38,39,40,41,42,43,44,45,46,47,48,49,50,51,52,53,54,55,56,57,58,59,60,61,62,63
CHEMBL1087421,-0.0007629208266735077,0.0010620630346238613,0.004586120136082172,0.0010643370915204287,-0.001230941852554679,-0.002045748056843877,-0.0006823419826105237,-0.0004317629209253937,-0.00029467264539562166,-0.001537127303890884,0.0030320058576762676,0.0010128082940354943,-0.00012208863336127251,-0.0001904805249068886,-0.0015966594219207764,-0.0003865346952807158,-0.0012031069491058588,0.0006297872168943286,-0.00013374727859627455,0.0028382905293256044,7.969859143486246e-05,-0.0004257256805431098,0.0031713831704109907,-0.00027170806424692273,-0.0009146608645096421,0.0037485177163034678,-0.003499506739899516,-0.0010815749410539865,-0.002503292402252555,-0.002259926637634635,-0.0010088483104482293,-0.0009776786901056767,-0.004503143485635519,-0.0020683887414634228,0.0030802320688962936,0.0005752657889388502,0.00036092635127715766,0.001575376489199698,0.003425158094614744,0.00014465382264461368,0.001469939248636365,0.002617120975628495,-0.0003176624304614961,-0.0034947909880429506,0.0005380964721553028,-0.0020014226902276278,-0.0004485237877815962,-0.0012904033064842224,-0.0007421614718623459,-0.0009396440582349896,0.0030569604132324457,0.0008004429400898516,0.00011540594277903438,0.002535918727517128,0.003745648078620434,0.0015483989845961332,0.0010362460743635893,-0.0015351041220128536,0.000349970709066838,-0.00028350501088425517,-0.000403732992708683,-0.003025928745046258,-0.00091990374494344,0.00047994768829084933
CHEMBL1088633,-0.00012877234257757664,0.0006599280750378966,0.004847908858209848,0.0003381402639206499,-0.0008751934510655701,-0.0021103767212480307,-0.0013225935399532318,-0.00013580251834355295,8.19144188426435e-05,-0.0017381688812747598,0.002976694144308567,0.0012641282519325614,-0.0006324572023004293,0.0003982192720286548,-0.001941407797858119,-0.00044446741230785847,-0.0019454534631222486,0.00019415505812503397,-0.0006726502906531096,0.002368516754359007,0.000825854018330574,-0.0011943019926548004,0.003936936613172293,-7.812502008164302e-05,-0.0005767588736489415,0.00432418379932642,-0.0030474714003503323,-0.0005276285228319466,-0.0022723383735865355,-0.0022734743542969227,-0.0006610220298171043,-0.001506385742686689,-0.0039846585132181644,-0.0017571315402165055,0.0024968739598989487,5.805827822769061e-05,-0.00022043492936063558,0.0013233142672106624,0.003556925104930997,0.0006186550599522889,0.0010733979288488626,0.0025424943305552006,-0.0009353751083835959,-0.004168919287621975,-5.509182665264234e-05,-0.0027781338430941105,0.00030187051743268967,-0.0008274561841972172,-0.0008833316969685256,-0.0014899680390954018,0.0026341532357037067,0.0004089645226486027,-0.0004773156833834946,0.0030632815323770046,0.003418584819883108,0.0019467547535896301,0.001795164542272687,-0.0023264498449862003,0.0002632539253681898,-8.173868991434574e-05,-0.00023004859394859523,-0.00284746615216136,-0.0013418190646916628,0.00016046004020608962
CHEMBL1090360,0.0017841249937191606,-0.0005503963329829276,0.002295698504894972,-8.522727512172423e-06,0.0004246569296810776,-0.0020048371516168118,0.0005475403158925474,0.0008741061901673675,-0.00076138018630445,0.0001136057180701755,0.001192557974718511,-0.0011089063482359052,0.0005396689521148801,0.00042965778266079724,0.0004987177671864629,0.0014781435020267963,-0.00031726559973321855,4.476035974221304e-05,-0.0004722595040220767,0.0010326234623789787,0.0013492117868736386,0.002151632681488991,0.002673999173566699,-0.00016134179895743728,0.0001736021222313866,0.002115188632160425,-0.0010012771235778928,2.060774204437621e-05,0.00019099650671705604,-0.0005767451366409659,-0.0019236807711422443,0.0008621235028840601,-0.0033848860766738653,-0.002037623431533575,-0.0004907974507659674,2.9822074793628417e-05,5.527230678126216e-05,0.0018821763806045055,0.0027910717763006687,0.0006160287884995341,-0.00039625432691536844,0.00014907983131706715,0.00092957669403404,-0.0024831269402056932,-0.00011008128785761073,0.0003248000575695187,3.433851361478446e-06,-0.0014409426366910338,0.0005112712970003486,0.0019138944335281849,-0.00011383048695279285,0.00012549615348689258,0.00039209050009958446,0.0023366750683635473,0.0012784490827471018,0.002188520273193717,0.0009345152066089213,-0.0008735174196772277,-0.0009118921589106321,-0.0003071855753660202,0.001243431237526238,-0.0022304353769868612,0.00016486752429045737,0.00030065124155953526
CHEMBL1688215,-0.00138730532489717,-0.00031519404728896916,0.0050737555138766766,0.0005314466543495655,-0.0005789200658909976,-0.0036569603253155947,-0.0009161611669696867,-0.0006519945454783738,-0.0009478394058533013,-0.002282232977449894,0.003803826402872801,0.0017016471829265356,-0.0009160768240690231,-0.0017563170986250043,-0.0024012678768485785,-0.0019190000602975488,-0.0017266813665628433,0.0005756146274507046,0.000135334805236198,0.0021613717544823885,0.0017955253133550286,-0.0007340192096307874,0.0037839491851627827,-0.0009939157171174884,0.00018365182040724903,0.0039727040566504,-0.00369075289927423,0.0004491138970479369,-0.0013705735327675939,-0.00205953954719007,-0.0005795801407657564,-0.000253385107498616,-0.004337839316576719,-0.0017576573882251978,0.0027752171736210585,0.0020759652834385633,-0.00025918707251548767,0.002271129749715328,0.004218496847897768,0.0008093644282780588,0.002082098973914981,0.0024107247591018677,-0.002284679561853409,-0.004325575660914183,0.001498896861448884,-0.0025244071148335934,6.741184188285843e-05,-0.0010205111466348171,-0.0005423649563454092,-0.0013170711463317275,0.0020925665739923716,0.0019789207726716995,0.0006605903618037701,0.0030786427669227123,0.0034113777801394463,0.00020428840070962906,0.0010095665929839015,-0.0014992308570072055,2.538040280342102e-05,0.0005237187724560499,0.0002539877314120531,-0.003122365567833185,-0.0005758442566730082,0.0014233626425266266
CHEMBL1765781,0.001644247560761869,-0.0002605529734864831,0.00284713227301836,0.0006145033403299749,-0.0002540552814025432,-0.0021255826577544212,-0.00012378294195514172,0.0019128314452245831,-0.0008455731440335512,0.00013773531827609986,0.0008410486625507474,-0.0016527763800695539,0.0009976316941902041,0.0005093924119137228,2.8989250495214947e-05,0.000929023779463023,-0.0011821085354313254,0.00026383926160633564,-0.0005080614355392754,0.0008516897214576602,0.0018837336683645844,0.0012199335033074021,0.0026958766393363476,0.0002610166557133198,-0.0003828239277936518,0.002246726769953966,-0.0012383554130792618,-0.000437908194726333,-1.5544464986305684e-05,-0.000695258320774883,-0.0009646631660871208,0.0005434136255644262,-0.004296900238841772,-0.0027434781659394503,0.0006839398411102593,0.000803880044259131,0.0014564177254214883,0.0025001466274261475,0.00348903751000762,0.0005665049538947642,0.000494248466566205,0.0010372500400990248,0.0004072581650689244,-0.002507974859327078,0.00032355418079532683,-0.00014193292008712888,-0.0005595164257101715,-0.0014127367176115513,0.000292465731035918,0.001080864924006164,0.0007516308105550706,0.0004646395391318947,0.0006028973730280995,0.0023401447106152773,0.00274206162430346,0.002963847480714321,0.0016771418740972877,-0.001187443151138723,-0.0010474385926499963,-0.0003165036323480308,0.0013646278530359268,-0.002027258276939392,-0.0006171457353048027,0.0014209774089977145
CHEMBL1788116,0.002219351241365075,-0.000287591596134007,0.0022409362718462944,5.122960283188149e-05,0.000521812355145812,-0.002142443088814616,0.0007101314840838313,0.001100919209420681,-0.0010625055292621255,-0.00029579136753454804,0.0011280677281320095,-0.0015433002263307571,0.0008488905150443316,0.00012072943354723975,0.0006296795327216387,0.0014121172716841102,-0.0009153170976787806,0.00014046138676349074,-0.000645365274976939,0.0013438202440738678,0.001183390966616571,0.002214116742834449,0.0023728515952825546,0.00045873955241404474,-0.00010232564090983942,0.0020997461397200823,-0.0009275151533074677,0.0001538781652925536,-3.147974712192081e-05,-0.00040985431405715644,-0.0017003255197778344,0.00041338970186188817,-0.0032917214557528496,-0.0023376590106636286,-0.00020757599850185215,0.0002444007550366223,0.00016085199604276568,0.0023998490069061518,0.003310498781502247,0.0008297133608721197,0.00010808475781232119,0.0002331027208128944,0.00044052620069123805,-0.0022285354789346457,0.00039827206637710333,0.00042106470209546387,0.0002699285978451371,-0.0009639091440476477,0.0006206500111147761,0.0016716482350602746,-0.0003043469041585922,0.0007119980291463435,0.0004302303132135421,0.0023946906439960003,0.0017903548432514071,0.002209933241829276,0.0011894465424120426,-0.0013047817628830671,-0.0006089431117288768,-0.000655411568004638,0.001218557939864695,-0.0023101193364709616,0.00042962655425071716,0.00032077584182843566
CHEMBL1929238,0.0018715908518061042,-0.0004254653467796743,0.0024008695036172867,0.00039264498627744615,-0.00041875283932313323,-0.002208615653216839,-8.479366078972816e-05,0.0018467993941158056,-0.0009571707923896611,-0.00012633317965082824,0.0012265630066394806,-0.0018119673477485776,0.0006547244265675545,0.0008287812815979123,0.00013745896285399795,0.00127762695774436,-0.0013430706458166242,-4.2639050661819056e-05,-0.00045120110735297203,0.0007771212258376181,0.0014235491398721933,0.0011164686875417829,0.002753395587205887,0.000538739375770092,-7.508741691708565e-05,0.0023235660046339035,-0.0013968069106340408,-0.0005055690417066216,-0.00018613081192597747,-0.0004253416555002332,-0.001213852665387094,0.0006195956375449896,-0.004235928878188133,-0.002919561229646206,0.00035043578827753663,0.00103556748945266,0.0010531924199312925,0.0024008695036172867,0.0035148379392921925,0.000886663154233247,0.00016376987332478166,0.0011518651153892279,0.0008216614369302988,-0.002741133561357856,0.0001611438929103315,8.481839176965877e-05,-0.00031661381945014,-0.0013030029367655516,0.0006303110858425498,0.0010869341203942895,0.0008119724807329476,0.0003820605925284326,0.00023171109205577523,0.002416538540273905,0.0027512391097843647,0.0025024297647178173,0.0016012574778869748,-0.0011511308839544654,-0.0010186018189415336,7.033213478280231e-05,0.0012178340693935752,-0.002227137330919504,-0.0002752052096184343,0.0010664132423698902
CHEMBL1933552,0.001073335879482329,-0.0007902252255007625,0.0028600399382412434,0.0008634569239802659,-0.00025873049162328243,-0.0016695092199370265,-5.776860052719712e-05,0.0014861030504107475,-0.0006831429782323539,0.0005533496732823551,0.001306787715293467,-0.0014921625843271613,0.0012584611540660262,-0.00036571791861206293,-0.00047864485532045364,0.0016381104942411184,-0.0011738792527467012,-4.1723193135112524e-05,-0.00039479287806898355,0.0014157297555357218,0.0017355455784127116,0.0015484425239264965,0.0028120889328420162,0.0005725062219426036,5.574722308665514e-05,0.00271056336350739,-0.0016906264936551452,-0.0011588941561058164,3.639300120994449e-05,-0.0007965383701957762,-0.0008913372294045985,0.0006067324429750443,-0.0038764323107898235,-0.0023866251576691866,0.001069015241228044,0.0015789000317454338,0.0020857059862464666,0.0021094370167702436,0.0029457914642989635,0.00012072379468008876,0.0015283375978469849,0.00047295301919803023,0.000640606100205332,-0.002525094896554947,0.00015731516759842634,-0.0008274009451270103,-0.00017372920410707593,-0.00154205784201622,-1.842115307226777e-05,0.0005014818161725998,0.0020538736134767532,-4.161312244832516e-05,0.0002938843099400401,0.002253063255921006,0.002355897566303611,0.0023082466796040535,0.002735140733420849,-0.0015382019337266684,-0.0012099056039005518,-0.0010027234675362706,0.001041152747347951,-0.002107593696564436,-0.0005089701735414565,0.0011246439535170794
CHEMBL202930,0.0007405866635963321,-0.0006572876591235399,0.003532129805535078,0.0003966173389926553,2.1379963072831742e-05,-0.002703680656850338,-0.001237273565493524,0.0007987813442014158,-0.0003453575191088021,-0.0007609616732224822,0.002402740763500333,-0.0003305017889942974,0.0011005490086972713,-0.0003383387520443648,-0.0013517376501113176,3.109037788817659e-05,-0.000734858273062855,0.0013381618773564696,0.0005266383523121476,0.0032444256357848644,0.001863217679783702,-0.0004218424728605896,0.003354358021169901,-1.6392767065553926e-05,-0.00029259544680826366,0.002924088854342699,-0.004108625464141369,-0.0013176340144127607,-0.0020149636548012495,-0.0013679054100066423,-0.0003574764123186469,0.0012356917141005397,-0.0034971737768501043,-0.00131180789321661,0.0023539382964372635,0.0006091248942539096,0.0008118205587379634,0.0016743764281272888,0.003293373854830861,0.00033726441324688494,0.0011622259626165032,0.0029924511909484863,4.541929956758395e-05,-0.0028526056557893753,-0.0002945935120806098,-0.002369438298046589,-2.1440164346131496e-06,-0.000632305396720767,-0.0005352545995265245,0.00015408553008455783,0.0014057696098461747,3.282323450548574e-05,0.000314144795993343,0.0020362576469779015,0.0025988020934164524,0.0030750418081879616,0.0012406540336087346,-0.0014268883969634771,-0.000443469500169158,-0.0009748804732225835,0.0007704965537413955,-0.0017916668439283967,-0.0006813433137722313,0.0011303168721497059
CHEMBL204420,0.001073335879482329,-0.0007902252255007625,0.0028600399382412434,0.0008634569239802659,-0.00025873049162328243,-0.0016695092199370265,-5.776860052719712e-05,0.0014861030504107475,-0.0006831429782323539,0.0005533496732823551,0.001306787715293467,-0.0014921625843271613,0.0012584611540660262,-0.00036571791861206293,-0.00047864485532045364,0.0016381104942411184,-0.0011738792527467012,-4.1723193135112524e-05,-0.00039479287806898355,0.0014157297555357218,0.0017355455784127116,0.0015484425239264965,0.0028120889328420162,0.0005725062219426036,5.574722308665514e-05,0.00271056336350739,-0.0016906264936551452,-0.0011588941561058164,3.639300120994449e-05,-0.0007965383701957762,-0.0008913372294045985,0.0006067324429750443,-0.0038764323107898235,-0.0023866251576691866,0.001069015241228044,0.0015789000317454338,0.0020857059862464666,0.0021094370167702436,0.0029457914642989635,0.00012072379468008876,0.0015283375978469849,0.00047295301919803023,0.000640606100205332,-0.002525094896554947,0.00015731516759842634,-0.0008274009451270103,-0.00017372920410707593,-0.00154205784201622,-1.842115307226777e-05,0.0005014818161725998,0.0020538736134767532,-4.161312244832516e-05,0.0002938843099400401,0.002253063255921006,0.002355897566303611,0.0023082466796040535,0.002735140733420849,-0.0015382019337266684,-0.0012099056039005518,-0.0010027234675362706,0.001041152747347951,-0.002107593696564436,-0.0005089701735414565,0.0011246439535170794
CHEMBL206783,0.0007373684202320874,-0.0006779455579817295,0.0029556220397353172,0.0011699208989739418,-0.00020810157002415508,-0.0013346564956009388,-1.1278797501290683e-05,0.0014680299209430814,-0.0002719770127441734,0.0001302428136114031,0.0018130482640117407,-0.0010551820741966367,0.001728069968521595,-0.0007461275672540069,-0.000769567268434912,0.001224749954417348,-0.001341291586868465,-8.573689410695806e-05,-0.0002795321343000978,0.0009897417621687055,0.0016525435494259,0.0013919583288952708,0.0029624251183122396,0.0005453842459246516,-0.0002763409574981779,0.002834618790075183,-0.001913585583679378,-0.0011624058242887259,-0.0002269692049594596,-0.0010056975297629833,-0.0010502578224986792,0.0008939401595853269,-0.003764175111427903,-0.0026807512622326612,0.0014012401225045323,0.001638915273360908,0.002184918150305748,0.0020014126785099506,0.0034663344267755747,-0.0003197989135514945,0.0016506602987647057,0.0007569055305793881,0.00045691250124946237,-0.002508994657546282,0.0005537952529266477,-0.0006274381303228438,-0.0001597906812094152,-0.0011408706195652485,-4.777360300067812e-05,0.0003945843782275915,0.0022826918866485357,-0.00017251195095013827,0.00017832423327490687,0.0018223044462502003,0.002359792124480009,0.0022808643989264965,0.0026832723524421453,-0.0014830899890512228,-0.0008104965090751648,-0.0014394632307812572,0.0011742694769054651,-0.0016870566178113222,-0.00019514639279805124,0.0013598068617284298
CHEMBL206955,0.0008817676571197808,-0.0009630991262383759,0.003477077931165695,0.0013564982218667865,0.00021191102860029787,-0.0016473591094836593,0.00012209855776745826,0.0019892093259841204,-0.0004931121366098523,-0.00033506800536997616,0.002031694632023573,-0.0007862642523832619,0.0016283864388242364,-0.0007482980727218091,-0.00027545721968635917,0.000827152980491519,-0.0010037675965577364,0.00016819723532535136,-0.00015046025509946048,0.0013067078543826938,0.001618226757273078,0.0009324811981059611,0.00282303337007761,0.00014228231157176197,-0.0002610492811072618,0.0028955163434147835,-0.0018383951392024755,-0.0007438838365487754,-0.00041324857738800347,-0.0011482506524771452,-0.0005945449229329824,0.0011825109831988811,-0.0033826634753495455,-0.0024722039233893156,0.001236253185197711,0.001243396895006299,0.00204360019415617,0.0019437273731455207,0.0031576715409755707,-0.00027216674061492085,0.0017784798983484507,0.001237699412740767,0.0004786945937667042,-0.0024588999804109335,0.0005521468701772392,-0.0010275017702952027,0.0002016256912611425,-0.0009733540355227888,0.0002977488038595766,0.0005923265125602484,0.0025314809754490852,-0.0002895707148127258,1.0926276445388794e-05,0.0021412346977740526,0.0026752378325909376,0.0022975862957537174,0.002488679252564907,-0.0018124039052054286,-0.0006829017656855285,-0.0012652304721996188,0.0015059453435242176,-0.0017149073537439108,-0.0003030248626600951,0.0013256887905299664
CHEMBL207037,0.0010947852861136198,-0.001098775421269238,0.003075371030718088,0.0013207532465457916,0.00016606657300144434,-0.002232309663668275,-0.00037452412652783096,0.0016424974892288446,-0.0001776522840373218,-0.0008845523116178811,0.0017866137204691768,-0.0013022058410570025,0.0017920376267284155,-0.0009545937064103782,-0.0006531430990435183,0.0010654684156179428,-0.0013962924713268876,3.591186396079138e-05,-0.000657465890981257,0.0015153338899835944,0.001841558376327157,0.0006297547952271998,0.0034095090813934803,0.0005380286602303386,8.016593346837908e-05,0.003035721369087696,-0.0017744700890034437,-0.0011367504484951496,-0.0009251597221009433,-0.0011388284619897604,-0.0006911684758961201,0.001114431768655777,-0.0033904816955327988,-0.0021245675161480904,0.0008779639611020684,0.001517840544693172,0.0018674895400181413,0.001521005411632359,0.0031025900971144438,-0.0004506676341407001,0.0016209583263844252,0.0014259184245020151,0.00028912536799907684,-0.0025618805084377527,0.0002680230827536434,-0.0013591274619102478,0.00011002657993230969,-0.0013166919816285372,0.0007912098662927747,0.00025933788856491446,0.00212168344296515,-7.287772314157337e-05,-7.531065784860402e-05,0.002497068140655756,0.002710471162572503,0.0022275582887232304,0.0021348006557673216,-0.0019042115891352296,-0.0008442226680926979,-0.0013787803472951055,0.0011051524197682738,-0.0014665150083601475,2.390910594840534e-05,0.001566850463859737
CHEMBL207130,0.0016277292743325233,-0.0004946033004671335,0.0026939758099615574,0.00021062670566607267,8.372365118702874e-05,-0.0019397707656025887,-0.00042472934001125395,0.001906799036078155,-0.0005665917997248471,0.00010114343604072928,0.0007427596719935536,-0.0015851726057007909,0.001254922361113131,0.00029437660123221576,-0.0004123374237678945,0.001294798101298511,-0.0012115766294300556,0.00038945121923461556,-0.00023048870207276195,0.0009400967392139137,0.0021804419811815023,0.0008394537726417184,0.003041286952793598,9.929679072229192e-05,-0.0003831696230918169,0.0021189108956605196,-0.0013719350099563599,-0.0009101546602323651,-4.4930013245902956e-05,-0.00046458456199616194,-0.000938821816816926,0.0004642432613763958,-0.0042682671919465065,-0.0024635635782033205,0.0009613747242838144,0.0011377288028597832,0.0012072809040546417,0.0023934156633913517,0.003214104101061821,0.00028354977257549763,0.0007903954829089344,0.0009429433848708868,2.9892331440350972e-05,-0.002655068412423134,0.0001920673093991354,-0.00041323123150505126,-0.0001697516709100455,-0.0018736235797405243,-1.2327697731961962e-05,0.0007215501391328871,0.0011517826933413744,0.00019450305262580514,0.00031598482746630907,0.002471364103257656,0.0031119505874812603,0.0028062271885573864,0.0020417075138539076,-0.0009777285158634186,-0.0012396285310387611,-0.000697180803399533,0.0010052835568785667,-0.0018844334408640862,-0.0002130190550815314,0.0010212408378720284
CHEMBL207235,0.001073335879482329,-0.0007902252255007625,0.0028600399382412434,0.0008634569239802659,-0.00025873049162328243,-0.0016695092199370265,-5.776860052719712e-05,0.0014861030504107475,-0.0006831429782323539,0.0005533496732823551,0.001306787715293467,-0.0014921625843271613,0.0012584611540660262,-0.00036571791861206293,-0.00047864485532045364,0.0016381104942411184,-0.0011738792527467012,-4.1723193135112524e-05,-0.00039479287806898355,0.0014157297555357218,0.0017355455784127116,0.0015484425239264965,0.0028120889328420162,0.0005725062219426036,5.574722308665514e-05,0.00271056336350739,-0.0016906264936551452,-0.0011588941561058164,3.639300120994449e-05,-0.0007965383701957762,-0.0008913372294045985,0.0006067324429750443,-0.0038764323107898235,-0.0023866251576691866,0.001069015241228044,0.0015789000317454338,0.0020857059862464666,0.0021094370167702436,0.0029457914642989635,0.00012072379468008876,0.0015283375978469849,0.00047295301919803023,0.000640606100205332,-0.002525094896554947,0.00015731516759842634,-0.0008274009451270103,-0.00017372920410707593,-0.00154205784201622,-1.842115307226777e-05,0.0005014818161725998,0.0020538736134767532,-4.161312244832516e-05,0.0002938843099400401,0.002253063255921006,0.002355897566303611,0.0023082466796040535,0.002735140733420849,-0.0015382019337266684,-0.0012099056039005518,-0.0010027234675362706,0.001041152747347951,-0.002107593696564436,-0.0005089701735414565,0.0011246439535170794
CHEMBL207246,0.0010947852861136198,-0.001098775421269238,0.003075371030718088,0.0013207532465457916,0.00016606657300144434,-0.002232309663668275,-0.00037452412652783096,0.0016424974892288446,-0.0001776522840373218,-0.0008845523116178811,0.0017866137204691768,-0.0013022058410570025,0.0017920376267284155,-0.0009545937064103782,-0.0006531430990435183,0.0010654684156179428,-0.0013962924713268876,3.591186396079138e-05,-0.000657465890981257,0.0015153338899835944,0.001841558376327157,0.0006297547952271998,0.0034095090813934803,0.0005380286602303386,8.016593346837908e-05,0.003035721369087696,-0.0017744700890034437,-0.0011367504484951496,-0.0009251597221009433,-0.0011388284619897604,-0.0006911684758961201,0.001114431768655777,-0.0033904816955327988,-0.0021245675161480904,0.0008779639611020684,0.001517840544693172,0.0018674895400181413,0.001521005411632359,0.0031025900971144438,-0.0004506676341407001,0.0016209583263844252,0.0014259184245020151,0.00028912536799907684,-0.0025618805084377527,0.0002680230827536434,-0.0013591274619102478,0.00011002657993230969,-0.0013166919816285372,0.0007912098662927747,0.00025933788856491446,0.00212168344296515,-7.287772314157337e-05,-7.531065784860402e-05,0.002497068140655756,0.002710471162572503,0.0022275582887232304,0.0021348006557673216,-0.0019042115891352296,-0.0008442226680926979,-0.0013787803472951055,0.0011051524197682738,-0.0014665150083601475,2.390910594840534e-05,0.001566850463859737
CHEMBL207445,0.001073335879482329,-0.0007902252255007625,0.0028600399382412434,0.0008634569239802659,-0.00025873049162328243,-0.0016695092199370265,-5.776860052719712e-05,0.0014861030504107475,-0.0006831429782323539,0.0005533496732823551,0.001306787715293467,-0.0014921625843271613,0.0012584611540660262,-0.00036571791861206293,-0.00047864485532045364,0.0016381104942411184,-0.0011738792527467012,-4.1723193135112524e-05,-0.00039479287806898355,0.0014157297555357218,0.0017355455784127116,0.0015484425239264965,0.0028120889328420162,0.0005725062219426036,5.574722308665514e-05,0.00271056336350739,-0.0016906264936551452,-0.0011588941561058164,3.639300120994449e-05,-0.0007965383701957762,-0.0008913372294045985,0.0006067324429750443,-0.0038764323107898235,-0.0023866251576691866,0.001069015241228044,0.0015789000317454338,0.0020857059862464666,0.0021094370167702436,0.0029457914642989635,0.00012072379468008876,0.0015283375978469849,0.00047295301919803023,0.000640606100205332,-0.002525094896554947,0.00015731516759842634,-0.0008274009451270103,-0.00017372920410707593,-0.00154205784201622,-1.842115307226777e-05,0.0005014818161725998,0.0020538736134767532,-4.161312244832516e-05,0.0002938843099400401,0.002253063255921006,0.002355897566303611,0.0023082466796040535,0.002735140733420849,-0.0015382019337266684,-0.0012099056039005518,-0.0010027234675362706,0.001041152747347951,-0.002107593696564436,-0.0005089701735414565,0.0011246439535170794
CHEMBL207584,0.0008817676571197808,-0.0009630991262383759,0.003477077931165695,0.0013564982218667865,0.00021191102860029787,-0.0016473591094836593,0.00012209855776745826,0.0019892093259841204,-0.0004931121366098523,-0.00033506800536997616,0.002031694632023573,-0.0007862642523832619,0.0016283864388242364,-0.0007482980727218091,-0.00027545721968635917,0.000827152980491519,-0.0010037675965577364,0.00016819723532535136,-0.00015046025509946048,0.0013067078543826938,0.001618226757273078,0.0009324811981059611,0.00282303337007761,0.00014228231157176197,-0.0002610492811072618,0.0028955163434147835,-0.0018383951392024755,-0.0007438838365487754,-0.00041324857738800347,-0.0011482506524771452,-0.0005945449229329824,0.0011825109831988811,-0.0033826634753495455,-0.0024722039233893156,0.001236253185197711,0.001243396895006299,0.00204360019415617,0.0019437273731455207,0.0031576715409755707,-0.00027216674061492085,0.0017784798983484507,0.001237699412740767,0.0004786945937667042,-0.0024588999804109335,0.0005521468701772392,-0.0010275017702952027,0.0002016256912611425,-0.0009733540355227888,0.0002977488038595766,0.0005923265125602484,0.0025314809754490852,-0.0002895707148127258,1.0926276445388794e-05,0.0021412346977740526,0.0026752378325909376,0.0022975862957537174,0.002488679252564907,-0.0018124039052054286,-0.0006829017656855285,-0.0012652304721996188,0.0015059453435242176,-0.0017149073537439108,-0.0003030248626600951,0.0013256887905299664
CHEMBL207674,0.0007373684202320874,-0.0006779455579817295,0.0029556220397353172,0.0011699208989739418,-0.00020810157002415508,-0.0013346564956009388,-1.1278797501290683e-05,0.0014680299209430814,-0.0002719770127441734,0.0001302428136114031,0.0018130482640117407,-0.0010551820741966367,0.001728069968521595,-0.0007461275672540069,-0.000769567268434912,0.001224749954417348,-0.001341291586868465,-8.573689410695806e-05,-0.0002795321343000978,0.0009897417621687055,0.0016525435494259,0.0013919583288952708,0.0029624251183122396,0.0005453842459246516,-0.0002763409574981779,0.002834618790075183,-0.001913585583679378,-0.0011624058242887259,-0.0002269692049594596,-0.0010056975297629833,-0.0010502578224986792,0.0008939401595853269,-0.003764175111427903,-0.0026807512622326612,0.0014012401225045323,0.001638915273360908,0.002184918150305748,0.0020014126785099506,0.0034663344267755747,-0.0003197989135514945,0.0016506602987647057,0.0007569055305793881,0.00045691250124946237,-0.002508994657546282,0.0005537952529266477,-0.0006274381303228438,-0.0001597906812094152,-0.0011408706195652485,-4.777360300067812e-05,0.0003945843782275915,0.0022826918866485357,-0.00017251195095013827,0.00017832423327490687,0.0018223044462502003,0.002359792124480009,0.0022808643989264965,0.0026832723524421453,-0.0014830899890512228,-0.0008104965090751648,-0.0014394632307812572,0.0011742694769054651,-0.0016870566178113222,-0.00019514639279805124,0.0013598068617284298
CHEMBL207687,0.0010947852861136198,-0.001098775421269238,0.003075371030718088,0.0013207532465457916,0.00016606657300144434,-0.002232309663668275,-0.00037452412652783096,0.0016424974892288446,-0.0001776522840373218,-0.0008845523116178811,0.0017866137204691768,-0.0013022058410570025,0.0017920376267284155,-0.0009545937064103782,-0.0006531430990435183,0.0010654684156179428,-0.0013962924713268876,3.591186396079138e-05,-0.000657465890981257,0.0015153338899835944,0.001841558376327157,0.0006297547952271998,0.0034095090813934803,0.0005380286602303386,8.016593346837908e-05,0.003035721369087696,-0.0017744700890034437,-0.0011367504484951496,-0.0009251597221009433,-0.0011388284619897604,-0.0006911684758961201,0.001114431768655777,-0.0033904816955327988,-0.0021245675161480904,0.0008779639611020684,0.001517840544693172,0.0018674895400181413,0.001521005411632359,0.0031025900971144438,-0.0004506676341407001,0.0016209583263844252,0.0014259184245020151,0.00028912536799907684,-0.0025618805084377527,0.0002680230827536434,-0.0013591274619102478,0.00011002657993230969,-0.0013166919816285372,0.0007912098662927747,0.00025933788856491446,0.00212168344296515,-7.287772314157337e-05,-7.531065784860402e-05,0.002497068140655756,0.002710471162572503,0.0022275582887232304,0.0021348006557673216,-0.0019042115891352296,-0.0008442226680926979,-0.0013787803472951055,0.0011051524197682738,-0.0014665150083601475,2.390910594840534e-05,0.001566850463859737
CHEMBL207718,0.001073335879482329,-0.0007902252255007625,0.0028600399382412434,0.0008634569239802659,-0.00025873049162328243,-0.0016695092199370265,-5.776860052719712e-05,0.0014861030504107475,-0.0006831429782323539,0.0005533496732823551,0.001306787715293467,-0.0014921625843271613,0.0012584611540660262,-0.00036571791861206293,-0.00047864485532045364,0.0016381104942411184,-0.0011738792527467012,-4.1723193135112524e-05,-0.00039479287806898355,0.0014157297555357218,0.0017355455784127116,0.0015484425239264965,0.0028120889328420162,0.0005725062219426036,5.574722308665514e-05,0.00271056336350739,-0.0016906264936551452,-0.0011588941561058164,3.639300120994449e-05,-0.0007965383701957762,-0.0008913372294045985,0.0006067324429750443,-0.0038764323107898235,-0.0023866251576691866,0.001069015241228044,0.0015789000317454338,0.0020857059862464666,0.0021094370167702436,0.0029457914642989635,0.00012072379468008876,0.0015283375978469849,0.00047295301919803023,0.000640606100205332,-0.002525094896554947,0.00015731516759842634,-0.0008274009451270103,-0.00017372920410707593,-0.00154205784201622,-1.842115307226777e-05,0.0005014818161725998,0.0020538736134767532,-4.161312244832516e-05,0.0002938843099400401,0.002253063255921006,0.002355897566303611,0.0023082466796040535,0.002735140733420849,-0.0015382019337266684,-0.0012099056039005518,-0.0010027234675362706,0.001041152747347951,-0.002107593696564436,-0.0005089701735414565,0.0011246439535170794
CHEMBL207815,0.001644247560761869,-0.0002605529734864831,0.00284713227301836,0.0006145033403299749,-0.0002540552814025432,-0.0021255826577544212,-0.00012378294195514172,0.0019128314452245831,-0.0008455731440335512,0.00013773531827609986,0.0008410486625507474,-0.0016527763800695539,0.0009976316941902041,0.0005093924119137228,2.8989250495214947e-05,0.000929023779463023,-0.0011821085354313254,0.00026383926160633564,-0.0005080614355392754,0.0008516897214576602,0.0018837336683645844,0.0012199335033074021,0.0026958766393363476,0.0002610166557133198,-0.0003828239277936518,0.002246726769953966,-0.0012383554130792618,-0.000437908194726333,-1.5544464986305684e-05,-0.000695258320774883,-0.0009646631660871208,0.0005434136255644262,-0.004296900238841772,-0.0027434781659394503,0.0006839398411102593,0.000803880044259131,0.0014564177254214883,0.0025001466274261475,0.00348903751000762,0.0005665049538947642,0.000494248466566205,0.0010372500400990248,0.0004072581650689244,-0.002507974859327078,0.00032355418079532683,-0.00014193292008712888,-0.0005595164257101715,-0.0014127367176115513,0.000292465731035918,0.001080864924006164,0.0007516308105550706,0.0004646395391318947,0.0006028973730280995,0.0023401447106152773,0.00274206162430346,0.002963847480714321,0.0016771418740972877,-0.001187443151138723,-0.0010474385926499963,-0.0003165036323480308,0.0013646278530359268,-0.002027258276939392,-0.0006171457353048027,0.0014209774089977145
CHEMBL208048,0.0007373684202320874,-0.0006779455579817295,0.0029556220397353172,0.0011699208989739418,-0.00020810157002415508,-0.0013346564956009388,-1.1278797501290683e-05,0.0014680299209430814,-0.0002719770127441734,0.0001302428136114031,0.0018130482640117407,-0.0010551820741966367,0.001728069968521595,-0.0007461275672540069,-0.000769567268434912,0.001224749954417348,-0.001341291586868465,-8.573689410695806e-05,-0.0002795321343000978,0.0009897417621687055,0.0016525435494259,0.0013919583288952708,0.0029624251183122396,0.0005453842459246516,-0.0002763409574981779,0.002834618790075183,-0.001913585583679378,-0.0011624058242887259,-0.0002269692049594596,-0.0010056975297629833,-0.0010502578224986792,0.0008939401595853269,-0.003764175111427903,-0.0026807512622326612,0.0014012401225045323,0.001638915273360908,0.002184918150305748,0.0020014126785099506,0.0034663344267755747,-0.0003197989135514945,0.0016506602987647057,0.0007569055305793881,0.00045691250124946237,-0.002508994657546282,0.0005537952529266477,-0.0006274381303228438,-0.0001597906812094152,-0.0011408706195652485,-4.777360300067812e-05,0.0003945843782275915,0.0022826918866485357,-0.00017251195095013827,0.00017832423327490687,0.0018223044462502003,0.002359792124480009,0.0022808643989264965,0.0026832723524421453,-0.0014830899890512228,-0.0008104965090751648,-0.0014394632307812572,0.0011742694769054651,-0.0016870566178113222,-0.00019514639279805124,0.0013598068617284298
CHEMBL208118,0.0010947852861136198,-0.001098775421269238,0.003075371030718088,0.0013207532465457916,0.00016606657300144434,-0.002232309663668275,-0.00037452412652783096,0.0016424974892288446,-0.0001776522840373218,-0.0008845523116178811,0.0017866137204691768,-0.0013022058410570025,0.0017920376267284155,-0.0009545937064103782,-0.0006531430990435183,0.0010654684156179428,-0.0013962924713268876,3.591186396079138e-05,-0.000657465890981257,0.0015153338899835944,0.001841558376327157,0.0006297547952271998,0.0034095090813934803,0.0005380286602303386,8.016593346837908e-05,0.003035721369087696,-0.0017744700890034437,-0.0011367504484951496,-0.0009251597221009433,-0.0011388284619897604,-0.0006911684758961201,0.001114431768655777,-0.0033904816955327988,-0.0021245675161480904,0.0008779639611020684,0.001517840544693172,0.0018674895400181413,0.001521005411632359,0.0031025900971144438,-0.0004506676341407001,0.0016209583263844252,0.0014259184245020151,0.00028912536799907684,-0.0025618805084377527,0.0002680230827536434,-0.0013591274619102478,0.00011002657993230969,-0.0013166919816285372,0.0007912098662927747,0.00025933788856491446,0.00212168344296515,-7.287772314157337e-05,-7.531065784860402e-05,0.002497068140655756,0.002710471162572503,0.0022275582887232304,0.0021348006557673216,-0.0019042115891352296,-0.0008442226680926979,-0.0013787803472951055,0.0011051524197682738,-0.0014665150083601475,2.390910594840534e-05,0.001566850463859737
CHEMBL208286,0.0008817676571197808,-0.0009630991262383759,0.003477077931165695,0.0013564982218667865,0.00021191102860029787,-0.0016473591094836593,0.00012209855776745826,0.0019892093259841204,-0.0004931121366098523,-0.00033506800536997616,0.002031694632023573,-0.0007862642523832619,0.0016283864388242364,-0.0007482980727218091,-0.00027545721968635917,0.000827152980491519,-0.0010037675965577364,0.00016819723532535136,-0.00015046025509946048,0.0013067078543826938,0.001618226757273078,0.0009324811981059611,0.00282303337007761,0.00014228231157176197,-0.0002610492811072618,0.0028955163434147835,-0.0018383951392024755,-0.0007438838365487754,-0.00041324857738800347,-0.0011482506524771452,-0.0005945449229329824,0.0011825109831988811,-0.0033826634753495455,-0.0024722039233893156,0.001236253185197711,0.001243396895006299,0.00204360019415617,0.0019437273731455207,0.0031576715409755707,-0.00027216674061492085,0.0017784798983484507,0.001237699412740767,0.0004786945937667042,-0.0024588999804109335,0.0005521468701772392,-0.0010275017702952027,0.0002016256912611425,-0.0009733540355227888,0.0002977488038595766,0.0005923265125602484,0.0025314809754490852,-0.0002895707148127258,1.0926276445388794e-05,0.0021412346977740526,0.0026752378325909376,0.0022975862957537174,0.002488679252564907,-0.0018124039052054286,-0.0006829017656855285,-0.0012652304721996188,0.0015059453435242176,-0.0017149073537439108,-0.0003030248626600951,0.0013256887905299664
CHEMBL208292,0.0008817676571197808,-0.0009630991262383759,0.003477077931165695,0.0013564982218667865,0.00021191102860029787,-0.0016473591094836593,0.00012209855776745826,0.0019892093259841204,-0.0004931121366098523,-0.00033506800536997616,0.002031694632023573,-0.0007862642523832619,0.0016283864388242364,-0.0007482980727218091,-0.00027545721968635917,0.000827152980491519,-0.0010037675965577364,0.00016819723532535136,-0.00015046025509946048,0.0013067078543826938,0.001618226757273078,0.0009324811981059611,0.00282303337007761,0.00014228231157176197,-0.0002610492811072618,0.0028955163434147835,-0.0018383951392024755,-0.0007438838365487754,-0.00041324857738800347,-0.0011482506524771452,-0.0005945449229329824,0.0011825109831988811,-0.0033826634753495455,-0.0024722039233893156,0.001236253185197711,0.001243396895006299,0.00204360019415617,0.0019437273731455207,0.0031576715409755707,-0.00027216674061492085,0.0017784798983484507,0.001237699412740767,0.0004786945937667042,-0.0024588999804109335,0.0005521468701772392,-0.0010275017702952027,0.0002016256912611425,-0.0009733540355227888,0.0002977488038595766,0.0005923265125602484,0.0025314809754490852,-0.0002895707148127258,1.0926276445388794e-05,0.0021412346977740526,0.0026752378325909376,0.0022975862957537174,0.002488679252564907,-0.0018124039052054286,-0.0006829017656855285,-0.0012652304721996188,0.0015059453435242176,-0.0017149073537439108,-0.0003030248626600951,0.0013256887905299664
CHEMBL208637,-0.0008274991414509714,-0.0007607947918586433,0.005435922183096409,0.0009172173449769616,-0.0012896029511466622,-0.004263118375092745,-0.0005909537430852652,-0.0007664354634471238,-0.0019025203073397279,-0.0031835257541388273,0.003418451640754938,0.0013496645260602236,-0.0012094986159354448,-0.0016837305156514049,-0.0019274429650977254,-0.002008581766858697,-0.0016790542285889387,0.0006664643296971917,0.0007548838621005416,0.0015692152082920074,0.002554527949541807,-7.165170973166823e-05,0.004290490876883268,-0.000907477515283972,0.0009433784289285541,0.0041511026211082935,-0.003399783978238702,0.0006008572527207434,-0.0007358231232501566,-0.0023815727327018976,-0.0009369220351800323,-0.0002671083784662187,-0.0040731788612902164,-0.0016993413446471095,0.002255039755254984,0.0018408717587590218,0.0005949228070676327,0.0027473156806081533,0.004251441918313503,0.0006496276473626494,0.0031365719623863697,0.002113992115482688,-0.0015794826904311776,-0.003872364293783903,0.0012515835696831346,-0.0023426718544214964,-0.0002776207111310214,-0.0019529659766703844,-0.00022665478172712028,-0.0023100313264876604,0.0020541565027087927,0.0011394257890060544,0.0001451253774575889,0.004166167229413986,0.003950811456888914,-0.0004223875585012138,0.0005245693610049784,-0.0024447254836559296,-0.0006498859729617834,-0.00023065228015184402,0.001230996218509972,-0.00373712251894176,-0.00011927646119147539,0.001167873153463006
CHEMBL210032,-0.00019960649660788476,0.00044895042083226144,0.004575673025101423,0.0005725655355490744,-0.0005548526532948017,-0.002323872409760952,-0.0014241799945011735,-0.0008104159496724606,7.15784408384934e-05,-0.002424277365207672,0.0038126895669847727,0.0006368121248669922,-0.0005101000424474478,-0.00029625443858094513,-0.0014173609670251608,-0.000615178607404232,-0.0021347699221223593,0.00020025759295094758,-0.000288648356217891,0.003254048526287079,0.0014668867224827409,-0.0006030050572007895,0.00398684898391366,-0.00012207654071971774,-0.0004582153633236885,0.003965991083532572,-0.0030044184532016516,-0.00044453630107454956,-0.0016604304546490312,-0.0015766819706186652,-0.0014313231222331524,-0.0011123187141492963,-0.0036703983787447214,-0.0022770704235881567,0.002079728990793228,0.0006227143458090723,-0.00031105466769076884,0.0018872246146202087,0.0036084249150007963,0.0010043629445135593,0.0014126950409263372,0.002496269764378667,-0.0016965668182820082,-0.004941750317811966,0.0007373016560450196,-0.002461763098835945,-0.00033010015613399446,-0.0010342716705054045,-0.0005802307859994471,-0.0016176799545064569,0.0019894989673048258,0.0005215800483711064,0.0002725612430367619,0.003092146245762706,0.0030859478283673525,0.0015323947882279754,0.001553480513393879,-0.001983767608180642,0.0003074644773732871,-8.177771815098822e-05,-0.0006183573859743774,-0.002336218487471342,-0.0007528690039180219,0.0001469372073188424
CHEMBL210618,0.0007897535106167197,-0.001221295678988099,0.00367202446796,0.0003496681747492403,0.00040190902655012906,-0.0024927635677158833,-0.0013777072308585048,0.0012345868162810802,-0.0002380171063123271,-0.0007285809842869639,0.002033922588452697,-0.0008263398776762187,0.0005917183007113636,0.00019516856991685927,-0.0018363918643444777,0.0005733114085160196,-0.0012641568901017308,0.0012699199141934514,0.0003912399406544864,0.002584620378911495,0.002310934942215681,2.4289608973049326e-06,0.0034068734385073185,0.0002742280485108495,-0.0002749442064668983,0.0033774760086089373,-0.0035292867105454206,-0.0018586290534585714,-0.002204573480412364,-0.0013916906900703907,-0.00016053837316576391,0.0009289917652495205,-0.0032755332067608833,-0.0017332236748188734,0.0024305356200784445,0.0008685303619131446,0.001077526481822133,0.0014191942755132914,0.0026609296910464764,-0.00022919020557310432,0.0010728684719651937,0.002437096554785967,-0.0003661137307062745,-0.002375847427174449,0.00014855078188702464,-0.0021507868077605963,-0.0004762776370625943,-0.0009490754455327988,-3.0916471587261185e-05,0.00038458488415926695,0.0010355246486142278,-0.0004117272619623691,0.0003490993403829634,0.0021656055469065905,0.002623314969241619,0.0031431163661181927,0.0008558723493479192,-0.001964891329407692,-0.0008482784614898264,-0.0009231466101482511,0.0010172200854867697,-0.0014504523715004325,-0.0005420485977083445,0.0013971725711598992
CHEMBL210928,0.0010947852861136198,-0.001098775421269238,0.003075371030718088,0.0013207532465457916,0.00016606657300144434,-0.002232309663668275,-0.00037452412652783096,0.0016424974892288446,-0.0001776522840373218,-0.0008845523116178811,0.0017866137204691768,-0.0013022058410570025,0.0017920376267284155,-0.0009545937064103782,-0.0006531430990435183,0.0010654684156179428,-0.0013962924713268876,3.591186396079138e-05,-0.000657465890981257,0.0015153338899835944,0.001841558376327157,0.0006297547952271998,0.0034095090813934803,0.0005380286602303386,8.016593346837908e-05,0.003035721369087696,-0.0017744700890034437,-0.0011367504484951496,-0.0009251597221009433,-0.0011388284619897604,-0.0006911684758961201,0.001114431768655777,-0.0033904816955327988,-0.0021245675161480904,0.0008779639611020684,0.001517840544693172,0.0018674895400181413,0.001521005411632359,0.0031025900971144438,-0.0004506676341407001,0.0016209583263844252,0.0014259184245020151,0.00028912536799907684,-0.0025618805084377527,0.0002680230827536434,-0.0013591274619102478,0.00011002657993230969,-0.0013166919816285372,0.0007912098662927747,0.00025933788856491446,0.00212168344296515,-7.287772314157337e-05,-7.531065784860402e-05,0.002497068140655756,0.002710471162572503,0.0022275582887232304,0.0021348006557673216,-0.0019042115891352296,-0.0008442226680926979,-0.0013787803472951055,0.0011051524197682738,-0.0014665150083601475,2.390910594840534e-05,0.001566850463859737
CHEMBL210963,0.0008817676571197808,-0.0009630991262383759,0.003477077931165695,0.0013564982218667865,0.00021191102860029787,-0.0016473591094836593,0.00012209855776745826,0.0019892093259841204,-0.0004931121366098523,-0.00033506800536997616,0.002031694632023573,-0.0007862642523832619,0.0016283864388242364,-0.0007482980727218091,-0.00027545721968635917,0.000827152980491519,-0.0010037675965577364,0.00016819723532535136,-0.00015046025509946048,0.0013067078543826938,0.001618226757273078,0.0009324811981059611,0.00282303337007761,0.00014228231157176197,-0.0002610492811072618,0.0028955163434147835,-0.0018383951392024755,-0.0007438838365487754,-0.00041324857738800347,-0.0011482506524771452,-0.0005945449229329824,0.0011825109831988811,-0.0033826634753495455,-0.0024722039233893156,0.001236253185197711,0.001243396895006299,0.00204360019415617,0.0019437273731455207,0.0031576715409755707,-0.00027216674061492085,0.0017784798983484507,0.001237699412740767,0.0004786945937667042,-0.0024588999804109335,0.0005521468701772392,-0.0010275017702952027,0.0002016256912611425,-0.0009733540355227888,0.0002977488038595766,0.0005923265125602484,0.0025314809754490852,-0.0002895707148127258,1.0926276445388794e-05,0.0021412346977740526,0.0026752378325909376,0.0022975862957537174,0.002488679252564907,-0.0018124039052054286,-0.0006829017656855285,-0.0012652304721996188,0.0015059453435242176,-0.0017149073537439108,-0.0003030248626600951,0.0013256887905299664
CHEMBL211003,0.0008817676571197808,-0.0009630991262383759,0.003477077931165695,0.0013564982218667865,0.00021191102860029787,-0.0016473591094836593,0.00012209855776745826,0.0019892093259841204,-0.0004931121366098523,-0.00033506800536997616,0.002031694632023573,-0.0007862642523832619,0.0016283864388242364,-0.0007482980727218091,-0.00027545721968635917,0.000827152980491519,-0.0010037675965577364,0.00016819723532535136,-0.00015046025509946048,0.0013067078543826938,0.001618226757273078,0.0009324811981059611,0.00282303337007761,0.00014228231157176197,-0.0002610492811072618,0.0028955163434147835,-0.0018383951392024755,-0.0007438838365487754,-0.00041324857738800347,-0.0011482506524771452,-0.0005945449229329824,0.0011825109831988811,-0.0033826634753495455,-0.0024722039233893156,0.001236253185197711,0.001243396895006299,0.00204360019415617,0.0019437273731455207,0.0031576715409755707,-0.00027216674061492085,0.0017784798983484507,0.001237699412740767,0.0004786945937667042,-0.0024588999804109335,0.0005521468701772392,-0.0010275017702952027,0.0002016256912611425,-0.0009733540355227888,0.0002977488038595766,0.0005923265125602484,0.0025314809754490852,-0.0002895707148127258,1.0926276445388794e-05,0.0021412346977740526,0.0026752378325909376,0.0022975862957537174,0.002488679252564907,-0.0018124039052054286,-0.0006829017656855285,-0.0012652304721996188,0.0015059453435242176,-0.0017149073537439108,-0.0003030248626600951,0.0013256887905299664
CHEMBL212382,0.0007906754035502672,-0.0012206709943711758,0.003671694314107299,0.000349422509316355,0.00040167864062823355,-0.002492132131010294,-0.0013775171246379614,0.0012339780805632472,-0.0002383255196036771,-0.0007286636391654611,0.002033074852079153,-0.0008266291115432978,0.0005917237722314894,0.0001956382766366005,-0.0018360554240643978,0.0005730538396164775,-0.0012646125396713614,0.0012696814956143498,0.0003918020229320973,0.002583430614322424,0.0023106331937015057,2.3922095806483412e-06,0.003406626172363758,0.0002741636708378792,-0.00027494769892655313,0.003377337474375963,-0.0035287076607346535,-0.001858808333054185,-0.002203916199505329,-0.0013920123456045985,-0.00016058584151323885,0.0009287688881158829,-0.003275145310908556,-0.0017328585963696241,0.002429941901937127,0.0008683320484124124,0.0010774543043226004,0.0014194987015798688,0.0026597087271511555,-0.0002292769349878654,0.0010738150449469686,0.002436446724459529,-0.00036615331191569567,-0.0023756632581353188,0.00014769908739253879,-0.002150370739400387,-0.00047699050628580153,-0.0009504028712399304,-3.098750312346965e-05,0.0003840996650978923,0.0010357171995565295,-0.0004119719669688493,0.0003485727938823402,0.0021657655015587807,0.002623643958941102,0.0031424781773239374,0.0008555017411708832,-0.0019657495431602,-0.0008484608260914683,-0.0009237442864105105,0.0010179005330428481,-0.001450754702091217,-0.0005417672218754888,0.00139719492290169
CHEMBL212968,0.0007549485890194774,-0.0009380713454447687,0.0030076520051807165,0.0007820060127414763,0.0007428430253639817,-0.0021038760896772146,-0.0009099430171772838,0.0016771311638876796,-0.0001864482619566843,-0.0008003926486708224,0.0019876749720424414,-0.0013352046953514218,0.0010565692791715264,-0.00018079279107041657,-0.0012805931037291884,0.000306053610984236,-0.0011804768582805991,0.0006927792564965785,-0.00017578958068042994,0.002034258795902133,0.0017780157504603267,2.438547380734235e-05,0.002862157067283988,-2.257220694446005e-05,-0.0005700222682207823,0.0030045281164348125,-0.0029927866999059916,-0.001510315341874957,-0.0016197136137634516,-0.0009299670928157866,-0.0004845514486078173,0.0013131513260304928,-0.0036914602387696505,-0.0018183214124292135,0.0018913536332547665,0.001079132198356092,0.001142059569247067,0.0017747392412275076,0.0027322927489876747,-0.0006250235601328313,0.001480010338127613,0.0019992897287011147,0.00016813619004096836,-0.0021163043566048145,-8.96049605216831e-05,-0.0023416713811457157,-0.000714543042704463,-0.0012708782451227307,0.0005128676421009004,0.00021655595628544688,0.0014468078734353185,-0.0009567171218805015,0.0004576804640237242,0.002014460973441601,0.0029631173238158226,0.0025022279005497694,0.0012542420299723744,-0.002188500016927719,-0.0011650539236143231,-0.0012166249798610806,0.0007844218635000288,-0.0015946204075589776,-0.0007072158623486757,0.0009115538559854031
CHEMBL213423,0.0007902908837422729,-0.0012211360735818744,0.0036716782487928867,0.00034936770680360496,0.0004019549232907593,-0.0024923058226704597,-0.0013775515835732222,0.001234309864230454,-0.0002379282668698579,-0.0007288088672794402,0.002033309545367956,-0.0008266856893897057,0.0005918630049563944,0.00019545394752640277,-0.0018362620612606406,0.0005729369004257023,-0.0012644061353057623,0.0012698267819359899,0.0003920630260836333,0.002583908848464489,0.00231060478836298,2.662902033989667e-06,0.00340645550750196,0.0002740472846198827,-0.00027526714256964624,0.0033774925395846367,-0.003528871573507786,-0.001858541276305914,-0.002203633077442646,-0.0013917223550379276,-0.00016047175449784845,0.0009288043947890401,-0.0032753434497863054,-0.0017327660461887717,0.002430064370855689,0.0008684828062541783,0.001077571650967002,0.001419554348103702,0.002660508966073394,-0.00022938234906177968,0.0010736030526459217,0.002436199691146612,-0.0003658061323221773,-0.0023756164591759443,0.00014821077638771385,-0.0021503125317394733,-0.00047642519348300993,-0.0009503620094619691,-3.1230647437041625e-05,0.00038431602297350764,0.001035576919093728,-0.0004119647783227265,0.0003485628985799849,0.002165893791243434,0.002623544307425618,0.0031424565240740776,0.0008555740350857377,-0.0019657218363136053,-0.0008481942932121456,-0.0009240497602149844,0.001017801114358008,-0.0014506821753457189,-0.0005420810775831342,0.0013970087748020887
CHEMBL213451,0.00021606520749628544,-0.00022475654259324074,0.0042570470832288265,-0.00020309188403189182,-0.0005220987368375063,-0.0025109548587352037,-0.0008508064784109592,0.0003213565796613693,-0.0006041066371835768,-0.0013202627887949347,0.002995901508256793,0.0002749125414993614,0.0010439170291647315,0.00028577205375768244,-0.0010898944456130266,0.0002577714913059026,-0.0013920058263465762,0.0008323887013830245,0.0007334376568906009,0.003001237055286765,0.001405285089276731,-0.00029094782075844705,0.002873257966712117,-0.00048373223398812115,-0.00043841777369379997,0.0032958779484033585,-0.0039493921212852,-0.0011732452549040318,-0.0026120685506612062,-0.0010207131272181869,-0.00018302824173588306,0.0006893165991641581,-0.003867148421704769,-0.0017616624245420098,0.002974496455863118,0.0006836945540271699,0.0004869184922426939,0.0020515623036772013,0.002943728817626834,-0.00025492222630418837,0.0012367008021101356,0.0032506410498172045,8.60078725963831e-05,-0.002595391357317567,0.00023961688566487283,-0.002368968678638339,0.00016426132060587406,-0.0009438308770768344,-0.0001105752307921648,-0.00019154899928253144,0.0019019568571820855,0.0005441047833301127,-0.00022405905474442989,0.0015402542194351554,0.0029335685539990664,0.002975420095026493,0.00167028047144413,-0.0009160582558251917,-0.00010293140076100826,-0.0014553475193679333,0.00038398438482545316,-0.00248072762042284,-0.0011690474348142743,0.0007368884980678558
CHEMBL214198,0.000740479095838964,-0.0006569058168679476,0.0035313733387738466,0.00039683026261627674,2.2553429516847245e-05,-0.002703527919948101,-0.001236889511346817,0.0007986442651599646,-0.0003445027396082878,-0.0007606472936458886,0.002403487917035818,-0.00033111165976151824,0.0011006226995959878,-0.00033861224073916674,-0.001351592130959034,3.1773837690707296e-05,-0.0007349276565946639,0.0013382830657064915,0.000526577525306493,0.0032465369440615177,0.0018640090711414814,-0.00042065128218382597,0.0033538579009473324,-1.7048418158083223e-05,-0.00029361751512624323,0.0029233733657747507,-0.004109586123377085,-0.0013172778999432921,-0.0020147496834397316,-0.0013665012083947659,-0.00035805170773528516,0.0012361863628029823,-0.0034966205712407827,-0.0013117850758135319,0.002353500807657838,0.0006095191347412765,0.0008128368644975126,0.0016750473296269774,0.003294103778898716,0.0003376857202965766,0.0011614080285653472,0.002992179710417986,4.5847136789234355e-05,-0.0028538862243294716,-0.0002942579158116132,-0.0023681391030550003,-2.164673105653492e-06,-0.0006320930551737547,-0.0005357039626687765,0.00015456277469638735,0.0014050380559638143,3.373432991793379e-05,0.0003149628173559904,0.002035709097981453,0.002598869614303112,0.0030749281868338585,0.0012414471711963415,-0.001426049042493105,-0.0004431772977113724,-0.0009755518985912204,0.000769376172684133,-0.0017918088706210256,-0.0006815846427343786,0.0011297729797661304
CHEMBL215652,0.0007404467323794961,-0.000657403317745775,0.003531570779159665,0.0003969481331296265,2.2686310330755077e-05,-0.0027038883417844772,-0.0012371656484901905,0.0007984556723386049,-0.00034481912734918296,-0.0007615866488777101,0.0024026604369282722,-0.000331239280058071,0.001100881490856409,-0.0003386313037481159,-0.0013517540646716952,3.1726918678032234e-05,-0.0007350740488618612,0.0013381188036873937,0.0005273677525110543,0.0032458568457514048,0.0018642887007445097,-0.00042114517418667674,0.00335433310829103,-1.7183572708745487e-05,-0.000292941287625581,0.002923437627032399,-0.004109023604542017,-0.0013172149192541838,-0.0020148297771811485,-0.0013667423045262694,-0.0003572763525880873,0.00123640988022089,-0.0034968245308846235,-0.0013113244203850627,0.0023539152462035418,0.0006094800774008036,0.0008124152664095163,0.001675026142038405,0.003293631598353386,0.00033772445749491453,0.0011618841672316194,0.0029920381493866444,4.5728087570751086e-05,-0.0028532231226563454,-0.00029397933394648135,-0.002368685556575656,-1.432560338798794e-06,-0.0006320130196399987,-0.0005356068722903728,0.00015446361794602126,0.0014040677342563868,3.3230186090804636e-05,0.0003147061506751925,0.00203608232550323,0.002598727121949196,0.0030747056007385254,0.001241224235855043,-0.0014257979346439242,-0.000443623517639935,-0.0009758538217283785,0.0007698768167756498,-0.001792163122445345,-0.0006809508777223527,0.0011294323485344648
CHEMBL215803,0.0008817696361802518,-0.0009630171698518097,0.003477595280855894,0.001356443390250206,0.0002117048279615119,-0.0016476630698889494,0.00012191654968773946,0.00198889197781682,-0.0004927227273583412,-0.0003354795335326344,0.002031607087701559,-0.0007861004560254514,0.001628697500564158,-0.0007486411486752331,-0.0002756480826064944,0.0008269156678579748,-0.0010040157940238714,0.00016820809105411172,-0.00015047869237605482,0.0013065027305856347,0.001617899746634066,0.0009328245650976896,0.0028230524621903896,0.00014270016981754452,-0.0002613677643239498,0.0028961151838302612,-0.001838582451455295,-0.0007436387240886688,-0.0004131744790356606,-0.001148455892689526,-0.0005948253674432635,0.001182482112199068,-0.0033828739542514086,-0.0024723177775740623,0.0012360637774690986,0.001243524020537734,0.0020439254585653543,0.0019436664879322052,0.0031579977367073298,-0.0002719336480367929,0.0017786006210371852,0.0012374547077342868,0.00047847602399997413,-0.002459327457472682,0.0005525611923076212,-0.0010275272652506828,0.000201498216483742,-0.0009735351777635515,0.0002979850978590548,0.0005920022958889604,0.002531619044020772,-0.0002889969327952713,1.0581376955087762e-05,0.0021414305083453655,0.0026751274708658457,0.0022979804780334234,0.0024893120862543583,-0.001812470960430801,-0.0006830224301666021,-0.0012650866992771626,0.0015057141426950693,-0.001714774640277028,-0.0003032109816558659,0.0013261978747323155
CHEMBL2205426,0.0007373684202320874,-0.0006779455579817295,0.0029556220397353172,0.0011699208989739418,-0.00020810157002415508,-0.0013346564956009388,-1.1278797501290683e-05,0.0014680299209430814,-0.0002719770127441734,0.0001302428136114031,0.0018130482640117407,-0.0010551820741966367,0.001728069968521595,-0.0007461275672540069,-0.000769567268434912,0.001224749954417348,-0.001341291586868465,-8.573689410695806e-05,-0.0002795321343000978,0.0009897417621687055,0.0016525435494259,0.0013919583288952708,0.0029624251183122396,0.0005453842459246516,-0.0002763409574981779,0.002834618790075183,-0.001913585583679378,-0.0011624058242887259,-0.0002269692049594596,-0.0010056975297629833,-0.0010502578224986792,0.0008939401595853269,-0.003764175111427903,-0.0026807512622326612,0.0014012401225045323,0.001638915273360908,0.002184918150305748,0.0020014126785099506,0.0034663344267755747,-0.0003197989135514945,0.0016506602987647057,0.0007569055305793881,0.00045691250124946237,-0.002508994657546282,0.0005537952529266477,-0.0006274381303228438,-0.0001597906812094152,-0.0011408706195652485,-4.777360300067812e-05,0.0003945843782275915,0.0022826918866485357,-0.00017251195095013827,0.00017832423327490687,0.0018223044462502003,0.002359792124480009,0.0022808643989264965,0.0026832723524421453,-0.0014830899890512228,-0.0008104965090751648,-0.0014394632307812572,0.0011742694769054651,-0.0016870566178113222,-0.00019514639279805124,0.0013598068617284298
CHEMBL223367,0.0008817676571197808,-0.0009630991262383759,0.003477077931165695,0.0013564982218667865,0.00021191102860029787,-0.0016473591094836593,0.00012209855776745826,0.0019892093259841204,-0.0004931121366098523,-0.00033506800536997616,0.002031694632023573,-0.0007862642523832619,0.0016283864388242364,-0.0007482980727218091,-0.00027545721968635917,0.000827152980491519,-0.0010037675965577364,0.00016819723532535136,-0.00015046025509946048,0.0013067078543826938,0.001618226757273078,0.0009324811981059611,0.00282303337007761,0.00014228231157176197,-0.0002610492811072618,0.0028955163434147835,-0.0018383951392024755,-0.0007438838365487754,-0.00041324857738800347,-0.0011482506524771452,-0.0005945449229329824,0.0011825109831988811,-0.0033826634753495455,-0.0024722039233893156,0.001236253185197711,0.001243396895006299,0.00204360019415617,0.0019437273731455207,0.0031576715409755707,-0.00027216674061492085,0.0017784798983484507,0.001237699412740767,0.0004786945937667042,-0.0024588999804109335,0.0005521468701772392,-0.0010275017702952027,0.0002016256912611425,-0.0009733540355227888,0.0002977488038595766,0.0005923265125602484,0.0025314809754490852,-0.0002895707148127258,1.0926276445388794e-05,0.0021412346977740526,0.0026752378325909376,0.0022975862957537174,0.002488679252564907,-0.0018124039052054286,-0.0006829017656855285,-0.0012652304721996188,0.0015059453435242176,-0.0017149073537439108,-0.0003030248626600951,0.0013256887905299664
CHEMBL223460,0.0007373684202320874,-0.0006779455579817295,0.0029556220397353172,0.0011699208989739418,-0.00020810157002415508,-0.0013346564956009388,-1.1278797501290683e-05,0.0014680299209430814,-0.0002719770127441734,0.0001302428136114031,0.0018130482640117407,-0.0010551820741966367,0.001728069968521595,-0.0007461275672540069,-0.000769567268434912,0.001224749954417348,-0.001341291586868465,-8.573689410695806e-05,-0.0002795321343000978,0.0009897417621687055,0.0016525435494259,0.0013919583288952708,0.0029624251183122396,0.0005453842459246516,-0.0002763409574981779,0.002834618790075183,-0.001913585583679378,-0.0011624058242887259,-0.0002269692049594596,-0.0010056975297629833,-0.0010502578224986792,0.0008939401595853269,-0.003764175111427903,-0.0026807512622326612,0.0014012401225045323,0.001638915273360908,0.002184918150305748,0.0020014126785099506,0.0034663344267755747,-0.0003197989135514945,0.0016506602987647057,0.0007569055305793881,0.00045691250124946237,-0.002508994657546282,0.0005537952529266477,-0.0006274381303228438,-0.0001597906812094152,-0.0011408706195652485,-4.777360300067812e-05,0.0003945843782275915,0.0022826918866485357,-0.00017251195095013827,0.00017832423327490687,0.0018223044462502003,0.002359792124480009,0.0022808643989264965,0.0026832723524421453,-0.0014830899890512228,-0.0008104965090751648,-0.0014394632307812572,0.0011742694769054651,-0.0016870566178113222,-0.00019514639279805124,0.0013598068617284298
CHEMBL2312290,0.0014423704706132412,-0.0004895403399132192,0.0019826265051960945,0.00039851132896728814,-0.00032526737777516246,-0.0022532090079039335,-0.0003547996748238802,0.0017833226593211293,-0.0009776909137144685,2.4604938516858965e-05,0.0015366141451522708,-0.0015157160814851522,0.0009934898698702455,0.00042765834950841963,0.0005324975354596972,0.0011431913590058684,-0.0009394972585141659,5.9215100918663666e-05,-0.0002876027429010719,0.00035148588358424604,0.0009844644227996469,0.0014656824059784412,0.002556649735197425,0.0006431154324673116,0.00019803331815637648,0.002248101169243455,-0.0009485023329034448,-0.0005355585017241538,-0.0005895831272937357,-0.0007117702043615282,-0.0012250979198142886,0.0002365111286053434,-0.003808038542047143,-0.0026878106873482466,-2.8416614441084675e-05,0.0013656754745170474,0.0014018240617588162,0.002582913963124156,0.0037116436287760735,0.0004585222341120243,0.0001801404432626441,0.0007313488749787211,0.0006446394836530089,-0.0026563575956970453,0.00014494717470370233,0.00014440449012909085,-0.00016964689712040126,-0.0011779670603573322,0.0008379313512705266,0.0013751459773629904,0.0005414762417785823,0.000707769941072911,0.000478468369692564,0.0027644820511341095,0.002872145501896739,0.0022942866198718548,0.0013997704954817891,-0.0011465869611129165,-0.0010609704768285155,0.0004853478749282658,0.0012323522241786122,-0.0019977190531790257,-0.00012340251123532653,0.000663803075440228
CHEMBL2312301,0.0016277292743325233,-0.0004946033004671335,0.0026939758099615574,0.00021062670566607267,8.372365118702874e-05,-0.0019397707656025887,-0.00042472934001125395,0.001906799036078155,-0.0005665917997248471,0.00010114343604072928,0.0007427596719935536,-0.0015851726057007909,0.001254922361113131,0.00029437660123221576,-0.0004123374237678945,0.001294798101298511,-0.0012115766294300556,0.00038945121923461556,-0.00023048870207276195,0.0009400967392139137,0.0021804419811815023,0.0008394537726417184,0.003041286952793598,9.929679072229192e-05,-0.0003831696230918169,0.0021189108956605196,-0.0013719350099563599,-0.0009101546602323651,-4.4930013245902956e-05,-0.00046458456199616194,-0.000938821816816926,0.0004642432613763958,-0.0042682671919465065,-0.0024635635782033205,0.0009613747242838144,0.0011377288028597832,0.0012072809040546417,0.0023934156633913517,0.003214104101061821,0.00028354977257549763,0.0007903954829089344,0.0009429433848708868,2.9892331440350972e-05,-0.002655068412423134,0.0001920673093991354,-0.00041323123150505126,-0.0001697516709100455,-0.0018736235797405243,-1.2327697731961962e-05,0.0007215501391328871,0.0011517826933413744,0.00019450305262580514,0.00031598482746630907,0.002471364103257656,0.0031119505874812603,0.0028062271885573864,0.0020417075138539076,-0.0009777285158634186,-0.0012396285310387611,-0.000697180803399533,0.0010052835568785667,-0.0018844334408640862,-0.0002130190550815314,0.0010212408378720284
CHEMBL2312303,0.0016277292743325233,-0.0004946033004671335,0.0026939758099615574,0.00021062670566607267,8.372365118702874e-05,-0.0019397707656025887,-0.00042472934001125395,0.001906799036078155,-0.0005665917997248471,0.00010114343604072928,0.0007427596719935536,-0.0015851726057007909,0.001254922361113131,0.00029437660123221576,-0.0004123374237678945,0.001294798101298511,-0.0012115766294300556,0.00038945121923461556,-0.00023048870207276195,0.0009400967392139137,0.0021804419811815023,0.0008394537726417184,0.003041286952793598,9.929679072229192e-05,-0.0003831696230918169,0.0021189108956605196,-0.0013719350099563599,-0.0009101546602323651,-4.4930013245902956e-05,-0.00046458456199616194,-0.000938821816816926,0.0004642432613763958,-0.0042682671919465065,-0.0024635635782033205,0.0009613747242838144,0.0011377288028597832,0.0012072809040546417,0.0023934156633913517,0.003214104101061821,0.00028354977257549763,0.0007903954829089344,0.0009429433848708868,2.9892331440350972e-05,-0.002655068412423134,0.0001920673093991354,-0.00041323123150505126,-0.0001697516709100455,-0.0018736235797405243,-1.2327697731961962e-05,0.0007215501391328871,0.0011517826933413744,0.00019450305262580514,0.00031598482746630907,0.002471364103257656,0.0031119505874812603,0.0028062271885573864,0.0020417075138539076,-0.0009777285158634186,-0.0012396285310387611,-0.000697180803399533,0.0010052835568785667,-0.0018844334408640862,-0.0002130190550815314,0.0010212408378720284
CHEMBL2312304,0.0016277292743325233,-0.0004946033004671335,0.0026939758099615574,0.00021062670566607267,8.372365118702874e-05,-0.0019397707656025887,-0.00042472934001125395,0.001906799036078155,-0.0005665917997248471,0.00010114343604072928,0.0007427596719935536,-0.0015851726057007909,0.001254922361113131,0.00029437660123221576,-0.0004123374237678945,0.001294798101298511,-0.0012115766294300556,0.00038945121923461556,-0.00023048870207276195,0.0009400967392139137,0.0021804419811815023,0.0008394537726417184,0.003041286952793598,9.929679072229192e-05,-0.0003831696230918169,0.0021189108956605196,-0.0013719350099563599,-0.0009101546602323651,-4.4930013245902956e-05,-0.00046458456199616194,-0.000938821816816926,0.0004642432613763958,-0.0042682671919465065,-0.0024635635782033205,0.0009613747242838144,0.0011377288028597832,0.0012072809040546417,0.0023934156633913517,0.003214104101061821,0.00028354977257549763,0.0007903954829089344,0.0009429433848708868,2.9892331440350972e-05,-0.002655068412423134,0.0001920673093991354,-0.00041323123150505126,-0.0001697516709100455,-0.0018736235797405243,-1.2327697731961962e-05,0.0007215501391328871,0.0011517826933413744,0.00019450305262580514,0.00031598482746630907,0.002471364103257656,0.0031119505874812603,0.0028062271885573864,0.0020417075138539076,-0.0009777285158634186,-0.0012396285310387611,-0.000697180803399533,0.0010052835568785667,-0.0018844334408640862,-0.0002130190550815314,0.0010212408378720284
CHEMBL2333365,0.001073335879482329,-0.0007902252255007625,0.0028600399382412434,0.0008634569239802659,-0.00025873049162328243,-0.0016695092199370265,-5.776860052719712e-05,0.0014861030504107475,-0.0006831429782323539,0.0005533496732823551,0.001306787715293467,-0.0014921625843271613,0.0012584611540660262,-0.00036571791861206293,-0.00047864485532045364,0.0016381104942411184,-0.0011738792527467012,-4.1723193135112524e-05,-0.00039479287806898355,0.0014157297555357218,0.0017355455784127116,0.0015484425239264965,0.0028120889328420162,0.0005725062219426036,5.574722308665514e-05,0.00271056336350739,-0.0016906264936551452,-0.0011588941561058164,3.639300120994449e-05,-0.0007965383701957762,-0.0008913372294045985,0.0006067324429750443,-0.0038764323107898235,-0.0023866251576691866,0.001069015241228044,0.0015789000317454338,0.0020857059862464666,0.0021094370167702436,0.0029457914642989635,0.00012072379468008876,0.0015283375978469849,0.00047295301919803023,0.000640606100205332,-0.002525094896554947,0.00015731516759842634,-0.0008274009451270103,-0.00017372920410707593,-0.00154205784201622,-1.842115307226777e-05,0.0005014818161725998,0.0020538736134767532,-4.161312244832516e-05,0.0002938843099400401,0.002253063255921006,0.002355897566303611,0.0023082466796040535,0.002735140733420849,-0.0015382019337266684,-0.0012099056039005518,-0.0010027234675362706,0.001041152747347951,-0.002107593696564436,-0.0005089701735414565,0.0011246439535170794
CHEMBL235157,0.0007404402713291347,-0.0006581597262993455,0.00353159848600626,0.0003964535135310143,2.2852793335914612e-05,-0.0027042310684919357,-0.0012371259508654475,0.00079895876115188,-0.0003449096402619034,-0.0007608789019286633,0.002403711201623082,-0.00033133706892840564,0.0011000762460753322,-0.00033819812233559787,-0.0013523832894861698,3.1459814636036754e-05,-0.0007348048966377974,0.0013383275363594294,0.000526810938026756,0.003246011445298791,0.001865292084403336,-0.00042085134191438556,0.0033543678000569344,-1.7413571185898036e-05,-0.0002933077630586922,0.0029235740657895803,-0.0041099549271166325,-0.0013171728933230042,-0.0020146933384239674,-0.0013676610542461276,-0.00035822339123114944,0.001235570409335196,-0.0034963807556778193,-0.0013112506130710244,0.0023538442328572273,0.0006103062769398093,0.000813385471701622,0.0016749106580391526,0.0032947517465800047,0.00033748478745110333,0.0011617308482527733,0.0029921215027570724,4.550678204395808e-05,-0.0028540941420942545,-0.00029388433904387057,-0.002367939567193389,-1.471433733968297e-06,-0.0006324404384940863,-0.0005357713089324534,0.00015439014532603323,0.0014041665708646178,3.3947078918572515e-05,0.000314841017825529,0.002036140765994787,0.0025999790523201227,0.003074251813814044,0.0012414581142365932,-0.0014267914230003953,-0.0004429587279446423,-0.0009759402018971741,0.0007705004536546767,-0.0017927319277077913,-0.0006814671214669943,0.0011297869496047497
CHEMBL242753,0.001644247560761869,-0.0002605529734864831,0.00284713227301836,0.0006145033403299749,-0.0002540552814025432,-0.0021255826577544212,-0.00012378294195514172,0.0019128314452245831,-0.0008455731440335512,0.00013773531827609986,0.0008410486625507474,-0.0016527763800695539,0.0009976316941902041,0.0005093924119137228,2.8989250495214947e-05,0.000929023779463023,-0.0011821085354313254,0.00026383926160633564,-0.0005080614355392754,0.0008516897214576602,0.0018837336683645844,0.0012199335033074021,0.0026958766393363476,0.0002610166557133198,-0.0003828239277936518,0.002246726769953966,-0.0012383554130792618,-0.000437908194726333,-1.5544464986305684e-05,-0.000695258320774883,-0.0009646631660871208,0.0005434136255644262,-0.004296900238841772,-0.0027434781659394503,0.0006839398411102593,0.000803880044259131,0.0014564177254214883,0.0025001466274261475,0.00348903751000762,0.0005665049538947642,0.000494248466566205,0.0010372500400990248,0.0004072581650689244,-0.002507974859327078,0.00032355418079532683,-0.00014193292008712888,-0.0005595164257101715,-0.0014127367176115513,0.000292465731035918,0.001080864924006164,0.0007516308105550706,0.0004646395391318947,0.0006028973730280995,0.0023401447106152773,0.00274206162430346,0.002963847480714321,0.0016771418740972877,-0.001187443151138723,-0.0010474385926499963,-0.0003165036323480308,0.0013646278530359268,-0.002027258276939392,-0.0006171457353048027,0.0014209774089977145
CHEMBL248757,0.001073335879482329,-0.0007902252255007625,0.0028600399382412434,0.0008634569239802659,-0.00025873049162328243,-0.0016695092199370265,-5.776860052719712e-05,0.0014861030504107475,-0.0006831429782323539,0.0005533496732823551,0.001306787715293467,-0.0014921625843271613,0.0012584611540660262,-0.00036571791861206293,-0.00047864485532045364,0.0016381104942411184,-0.0011738792527467012,-4.1723193135112524e-05,-0.00039479287806898355,0.0014157297555357218,0.0017355455784127116,0.0015484425239264965,0.0028120889328420162,0.0005725062219426036,5.574722308665514e-05,0.00271056336350739,-0.0016906264936551452,-0.0011588941561058164,3.639300120994449e-05,-0.0007965383701957762,-0.0008913372294045985,0.0006067324429750443,-0.0038764323107898235,-0.0023866251576691866,0.001069015241228044,0.0015789000317454338,0.0020857059862464666,0.0021094370167702436,0.0029457914642989635,0.00012072379468008876,0.0015283375978469849,0.00047295301919803023,0.000640606100205332,-0.002525094896554947,0.00015731516759842634,-0.0008274009451270103,-0.00017372920410707593,-0.00154205784201622,-1.842115307226777e-05,0.0005014818161725998,0.0020538736134767532,-4.161312244832516e-05,0.0002938843099400401,0.002253063255921006,0.002355897566303611,0.0023082466796040535,0.002735140733420849,-0.0015382019337266684,-0.0012099056039005518,-0.0010027234675362706,0.001041152747347951,-0.002107593696564436,-0.0005089701735414565,0.0011246439535170794
CHEMBL281957,0.0012280428782105446,-0.0005277098389342427,0.0030615355353802443,0.0005167300114408135,-0.00021827475575264543,-0.0017503233393654227,-0.0003026656049769372,0.0017716223374009132,-0.0004753220418933779,0.0003894930996466428,0.0008752890862524509,-0.0016903539653867483,0.001189571456052363,1.52396542034694e-05,-0.0001779574522515759,0.0011882976396009326,-0.0015911260852590203,0.00029731745598837733,-0.0004930361756123602,0.0011980036506429315,0.0019551992882043123,0.001224800944328308,0.002968065207824111,0.0005436791107058525,-0.00027147066430188715,0.00261272257193923,-0.0013383066980168223,-0.0006837222026661038,0.0001404470531269908,-0.0005332865985110402,-0.0010998632060363889,0.0005505837616510689,-0.004010746721178293,-0.0022580076474696398,0.000951714813709259,0.0013590548187494278,0.001690382487140596,0.0025026374496519566,0.002997425850480795,9.052963832800742e-06,0.0012839140836149454,0.0008238572627305984,0.00031428778311237693,-0.0023007765412330627,0.0001898282062029466,-0.00040825241012498736,0.0001552179455757141,-0.0016330488724634051,0.00010217020462732762,0.0004073993768543005,0.0015439711278304458,-0.0001640955451875925,0.0003480717132333666,0.0024944881442934275,0.0027572624385356903,0.0026673933025449514,0.0022727425675839186,-0.0011842325329780579,-0.0014438258949667215,-0.001018340466544032,0.0010324635077267885,-0.0017320826882496476,-0.00028189230943098664,0.001308543374761939
CHEMBL373598,0.0007373684202320874,-0.0006779455579817295,0.0029556220397353172,0.0011699208989739418,-0.00020810157002415508,-0.0013346564956009388,-1.1278797501290683e-05,0.0014680299209430814,-0.0002719770127441734,0.0001302428136114031,0.0018130482640117407,-0.0010551820741966367,0.001728069968521595,-0.0007461275672540069,-0.000769567268434912,0.001224749954417348,-0.001341291586868465,-8.573689410695806e-05,-0.0002795321343000978,0.0009897417621687055,0.0016525435494259,0.0013919583288952708,0.0029624251183122396,0.0005453842459246516,-0.0002763409574981779,0.002834618790075183,-0.001913585583679378,-0.0011624058242887259,-0.0002269692049594596,-0.0010056975297629833,-0.0010502578224986792,0.0008939401595853269,-0.003764175111427903,-0.0026807512622326612,0.0014012401225045323,0.001638915273360908,0.002184918150305748,0.0020014126785099506,0.0034663344267755747,-0.0003197989135514945,0.0016506602987647057,0.0007569055305793881,0.00045691250124946237,-0.002508994657546282,0.0005537952529266477,-0.0006274381303228438,-0.0001597906812094152,-0.0011408706195652485,-4.777360300067812e-05,0.0003945843782275915,0.0022826918866485357,-0.00017251195095013827,0.00017832423327490687,0.0018223044462502003,0.002359792124480009,0.0022808643989264965,0.0026832723524421453,-0.0014830899890512228,-0.0008104965090751648,-0.0014394632307812572,0.0011742694769054651,-0.0016870566178113222,-0.00019514639279805124,0.0013598068617284298
CHEMBL376967,0.0012280428782105446,-0.0005277098389342427,0.0030615355353802443,0.0005167300114408135,-0.00021827475575264543,-0.0017503233393654227,-0.0003026656049769372,0.0017716223374009132,-0.0004753220418933779,0.0003894930996466428,0.0008752890862524509,-0.0016903539653867483,0.001189571456052363,1.52396542034694e-05,-0.0001779574522515759,0.0011882976396009326,-0.0015911260852590203,0.00029731745598837733,-0.0004930361756123602,0.0011980036506429315,0.0019551992882043123,0.001224800944328308,0.002968065207824111,0.0005436791107058525,-0.00027147066430188715,0.00261272257193923,-0.0013383066980168223,-0.0006837222026661038,0.0001404470531269908,-0.0005332865985110402,-0.0010998632060363889,0.0005505837616510689,-0.004010746721178293,-0.0022580076474696398,0.000951714813709259,0.0013590548187494278,0.001690382487140596,0.0025026374496519566,0.002997425850480795,9.052963832800742e-06,0.0012839140836149454,0.0008238572627305984,0.00031428778311237693,-0.0023007765412330627,0.0001898282062029466,-0.00040825241012498736,0.0001552179455757141,-0.0016330488724634051,0.00010217020462732762,0.0004073993768543005,0.0015439711278304458,-0.0001640955451875925,0.0003480717132333666,0.0024944881442934275,0.0027572624385356903,0.0026673933025449514,0.0022727425675839186,-0.0011842325329780579,-0.0014438258949667215,-0.001018340466544032,0.0010324635077267885,-0.0017320826882496476,-0.00028189230943098664,0.001308543374761939
CHEMBL377383,0.0007403928320854902,-0.0006573718856088817,0.0035314145497977734,0.0003969160607084632,2.2399202862288803e-05,-0.002703949576243758,-0.0012365810107439756,0.0007987660937942564,-0.00034510597470216453,-0.00076102843740955,0.00240330514498055,-0.00033105528564192355,0.00110033736564219,-0.00033827454899437726,-0.0013514816528186202,3.161452696076594e-05,-0.0007346839411184192,0.0013379913289099932,0.0005266131483949721,0.003245867555961013,0.0018644173396751285,-0.0004207312304060906,0.003353837179020047,-1.710258402454201e-05,-0.0002929714391939342,0.00292283296585083,-0.004109392408281565,-0.0013170185266062617,-0.0020147108007222414,-0.0013671249616891146,-0.0003579863114282489,0.0012358624953776598,-0.0034961102064698935,-0.0013118275674059987,0.00235348055139184,0.0006097275181673467,0.0008128638728521764,0.0016746658366173506,0.003293745219707489,0.0003379059489816427,0.0011618159478530288,0.002991914050653577,4.577502477332018e-05,-0.0028536515310406685,-0.0002944148436654359,-0.0023680042941123247,-1.972764721358544e-06,-0.0006319460808299482,-0.0005352133302949369,0.00015456639812327921,0.0014043664559721947,3.3977852581301704e-05,0.000314740085741505,0.002035538898780942,0.0025992265436798334,0.0030747216660529375,0.00124125846195966,-0.0014263701159507036,-0.00044310136581771076,-0.0009752291371114552,0.0007699747220613062,-0.0017919082893058658,-0.0006816525710746646,0.0011298018507659435
CHEMBL377772,0.0007373684202320874,-0.0006779455579817295,0.0029556220397353172,0.0011699208989739418,-0.00020810157002415508,-0.0013346564956009388,-1.1278797501290683e-05,0.0014680299209430814,-0.0002719770127441734,0.0001302428136114031,0.0018130482640117407,-0.0010551820741966367,0.001728069968521595,-0.0007461275672540069,-0.000769567268434912,0.001224749954417348,-0.001341291586868465,-8.573689410695806e-05,-0.0002795321343000978,0.0009897417621687055,0.0016525435494259,0.0013919583288952708,0.0029624251183122396,0.0005453842459246516,-0.0002763409574981779,0.002834618790075183,-0.001913585583679378,-0.0011624058242887259,-0.0002269692049594596,-0.0010056975297629833,-0.0010502578224986792,0.0008939401595853269,-0.003764175111427903,-0.0026807512622326612,0.0014012401225045323,0.001638915273360908,0.002184918150305748,0.0020014126785099506,0.0034663344267755747,-0.0003197989135514945,0.0016506602987647057,0.0007569055305793881,0.00045691250124946237,-0.002508994657546282,0.0005537952529266477,-0.0006274381303228438,-0.0001597906812094152,-0.0011408706195652485,-4.777360300067812e-05,0.0003945843782275915,0.0022826918866485357,-0.00017251195095013827,0.00017832423327490687,0.0018223044462502003,0.002359792124480009,0.0022808643989264965,0.0026832723524421453,-0.0014830899890512228,-0.0008104965090751648,-0.0014394632307812572,0.0011742694769054651,-0.0016870566178113222,-0.00019514639279805124,0.0013598068617284298
CHEMBL378370,0.0008817676571197808,-0.0009630991262383759,0.003477077931165695,0.0013564982218667865,0.00021191102860029787,-0.0016473591094836593,0.00012209855776745826,0.0019892093259841204,-0.0004931121366098523,-0.00033506800536997616,0.002031694632023573,-0.0007862642523832619,0.0016283864388242364,-0.0007482980727218091,-0.00027545721968635917,0.000827152980491519,-0.0010037675965577364,0.00016819723532535136,-0.00015046025509946048,0.0013067078543826938,0.001618226757273078,0.0009324811981059611,0.00282303337007761,0.00014228231157176197,-0.0002610492811072618,0.0028955163434147835,-0.0018383951392024755,-0.0007438838365487754,-0.00041324857738800347,-0.0011482506524771452,-0.0005945449229329824,0.0011825109831988811,-0.0033826634753495455,-0.0024722039233893156,0.001236253185197711,0.001243396895006299,0.00204360019415617,0.0019437273731455207,0.0031576715409755707,-0.00027216674061492085,0.0017784798983484507,0.001237699412740767,0.0004786945937667042,-0.0024588999804109335,0.0005521468701772392,-0.0010275017702952027,0.0002016256912611425,-0.0009733540355227888,0.0002977488038595766,0.0005923265125602484,0.0025314809754490852,-0.0002895707148127258,1.0926276445388794e-05,0.0021412346977740526,0.0026752378325909376,0.0022975862957537174,0.002488679252564907,-0.0018124039052054286,-0.0006829017656855285,-0.0012652304721996188,0.0015059453435242176,-0.0017149073537439108,-0.0003030248626600951,0.0013256887905299664
CHEMBL378627,0.0007373684202320874,-0.0006779455579817295,0.0029556220397353172,0.0011699208989739418,-0.00020810157002415508,-0.0013346564956009388,-1.1278797501290683e-05,0.0014680299209430814,-0.0002719770127441734,0.0001302428136114031,0.0018130482640117407,-0.0010551820741966367,0.001728069968521595,-0.0007461275672540069,-0.000769567268434912,0.001224749954417348,-0.001341291586868465,-8.573689410695806e-05,-0.0002795321343000978,0.0009897417621687055,0.0016525435494259,0.0013919583288952708,0.0029624251183122396,0.0005453842459246516,-0.0002763409574981779,0.002834618790075183,-0.001913585583679378,-0.0011624058242887259,-0.0002269692049594596,-0.0010056975297629833,-0.0010502578224986792,0.0008939401595853269,-0.003764175111427903,-0.0026807512622326612,0.0014012401225045323,0.001638915273360908,0.002184918150305748,0.0020014126785099506,0.0034663344267755747,-0.0003197989135514945,0.0016506602987647057,0.0007569055305793881,0.00045691250124946237,-0.002508994657546282,0.0005537952529266477,-0.0006274381303228438,-0.0001597906812094152,-0.0011408706195652485,-4.777360300067812e-05,0.0003945843782275915,0.0022826918866485357,-0.00017251195095013827,0.00017832423327490687,0.0018223044462502003,0.002359792124480009,0.0022808643989264965,0.0026832723524421453,-0.0014830899890512228,-0.0008104965090751648,-0.0014394632307812572,0.0011742694769054651,-0.0016870566178113222,-0.00019514639279805124,0.0013598068617284298
CHEMBL379601,0.0007675451342947781,-0.0009364921716041863,0.0028061370830982924,0.0009637057082727551,0.00029105227440595627,-0.002208265010267496,-0.0005894483183510602,0.0020938159432262182,-0.0007272754446603358,-0.0003703631809912622,0.002213116269558668,-0.0015040583675727248,0.0014971111668273807,-0.0006891680532135069,-0.0008300685440190136,0.0005945191369391978,-0.0010658352402970195,0.00037759129190817475,-0.00040250696474686265,0.0017746099038049579,0.001804107567295432,0.00011192056263098493,0.0031720262486487627,0.00053508480777964,-5.484871144290082e-05,0.0026731304824352264,-0.002347273752093315,-0.0014914532657712698,-0.0012900239089503884,-0.0007542394450865686,-0.000502255279570818,0.0014712157426401973,-0.0038565355353057384,-0.0020745268557220697,0.0013992435997352004,0.0011468747397884727,0.0014654534170404077,0.0017606081673875451,0.002704654587432742,-0.0004255597887095064,0.0018812223570421338,0.0014983111759647727,0.00028860155725851655,-0.002457790542393923,0.00012060640437994152,-0.0017274057026952505,-0.0002693591814022511,-0.0008668715017847717,0.0009418294066563249,0.0005745038506574929,0.0017777534667402506,-0.0004382987681310624,0.0001653435465414077,0.0024564038030803204,0.0031395091209560633,0.002293916651979089,0.0016830435488373041,-0.0018265806138515472,-0.0005848802975378931,-0.0010152317117899656,0.0013071189168840647,-0.0014706586953252554,-0.0001721042935969308,0.0010791771346703172
CHEMBL379905,0.0007373684202320874,-0.0006779455579817295,0.0029556220397353172,0.0011699208989739418,-0.00020810157002415508,-0.0013346564956009388,-1.1278797501290683e-05,0.0014680299209430814,-0.0002719770127441734,0.0001302428136114031,0.0018130482640117407,-0.0010551820741966367,0.001728069968521595,-0.0007461275672540069,-0.000769567268434912,0.001224749954417348,-0.001341291586868465,-8.573689410695806e-05,-0.0002795321343000978,0.0009897417621687055,0.0016525435494259,0.0013919583288952708,0.0029624251183122396,0.0005453842459246516,-0.0002763409574981779,0.002834618790075183,-0.001913585583679378,-0.0011624058242887259,-0.0002269692049594596,-0.0010056975297629833,-0.0010502578224986792,0.0008939401595853269,-0.003764175111427903,-0.0026807512622326612,0.0014012401225045323,0.001638915273360908,0.002184918150305748,0.0020014126785099506,0.0034663344267755747,-0.0003197989135514945,0.0016506602987647057,0.0007569055305793881,0.00045691250124946237,-0.002508994657546282,0.0005537952529266477,-0.0006274381303228438,-0.0001597906812094152,-0.0011408706195652485,-4.777360300067812e-05,0.0003945843782275915,0.0022826918866485357,-0.00017251195095013827,0.00017832423327490687,0.0018223044462502003,0.002359792124480009,0.0022808643989264965,0.0026832723524421453,-0.0014830899890512228,-0.0008104965090751648,-0.0014394632307812572,0.0011742694769054651,-0.0016870566178113222,-0.00019514639279805124,0.0013598068617284298
CHEMBL379929,-0.0002187661302741617,-0.00016013873391784728,0.0045708478428423405,0.0003185303939972073,-0.0011792629957199097,-0.0026794152799993753,-0.0010081459768116474,0.0001661607821006328,-0.00012882378359790891,-0.0014892672188580036,0.0029236883856356144,0.0008690108661539853,0.0007528963033109903,0.00013258136459626257,-0.0016464496729895473,-7.359752635238692e-05,-0.0012464966857805848,0.0013553067110478878,0.0002834652259480208,0.003003049409016967,0.0011131532955914736,-0.0007374100387096405,0.002868440467864275,-8.910598990041763e-05,-0.00045684806536883116,0.002877370920032263,-0.003707157215103507,-0.0018657991895452142,-0.0022370286751538515,-0.0013529099524021149,-0.000338223937433213,0.00021420726261567324,-0.003703491296619177,-0.0015285636764019728,0.003519020974636078,0.0004896721802651882,0.0008137524127960205,0.0015623115468770266,0.0033627168741077185,0.00035244383616372943,0.0016179606318473816,0.0029563698917627335,0.0005227361107245088,-0.0023505024146288633,0.0007466746610589325,-0.0028805939946323633,-5.6777960708132014e-05,-0.0011786899995058775,9.768934251042083e-05,-0.0006091397372074425,0.0024026245810091496,0.0007025670493021607,0.00017303309869021177,0.0016749270725995302,0.0031987798865884542,0.002528327750042081,0.0017369564156979322,-0.0003726535942405462,0.00026163170696236193,-0.0010519156930968165,0.00021742490935139358,-0.0032314443960785866,-0.0008244081982411444,0.0002072762872558087
CHEMBL380006,0.0007373684202320874,-0.0006779455579817295,0.0029556220397353172,0.0011699208989739418,-0.00020810157002415508,-0.0013346564956009388,-1.1278797501290683e-05,0.0014680299209430814,-0.0002719770127441734,0.0001302428136114031,0.0018130482640117407,-0.0010551820741966367,0.001728069968521595,-0.0007461275672540069,-0.000769567268434912,0.001224749954417348,-0.001341291586868465,-8.573689410695806e-05,-0.0002795321343000978,0.0009897417621687055,0.0016525435494259,0.0013919583288952708,0.0029624251183122396,0.0005453842459246516,-0.0002763409574981779,0.002834618790075183,-0.001913585583679378,-0.0011624058242887259,-0.0002269692049594596,-0.0010056975297629833,-0.0010502578224986792,0.0008939401595853269,-0.003764175111427903,-0.0026807512622326612,0.0014012401225045323,0.001638915273360908,0.002184918150305748,0.0020014126785099506,0.0034663344267755747,-0.0003197989135514945,0.0016506602987647057,0.0007569055305793881,0.00045691250124946237,-0.002508994657546282,0.0005537952529266477,-0.0006274381303228438,-0.0001597906812094152,-0.0011408706195652485,-4.777360300067812e-05,0.0003945843782275915,0.0022826918866485357,-0.00017251195095013827,0.00017832423327490687,0.0018223044462502003,0.002359792124480009,0.0022808643989264965,0.0026832723524421453,-0.0014830899890512228,-0.0008104965090751648,-0.0014394632307812572,0.0011742694769054651,-0.0016870566178113222,-0.00019514639279805124,0.0013598068617284298
CHEMBL380386,0.0007675451342947781,-0.0009364921716041863,0.0028061370830982924,0.0009637057082727551,0.00029105227440595627,-0.002208265010267496,-0.0005894483183510602,0.0020938159432262182,-0.0007272754446603358,-0.0003703631809912622,0.002213116269558668,-0.0015040583675727248,0.0014971111668273807,-0.0006891680532135069,-0.0008300685440190136,0.0005945191369391978,-0.0010658352402970195,0.00037759129190817475,-0.00040250696474686265,0.0017746099038049579,0.001804107567295432,0.00011192056263098493,0.0031720262486487627,0.00053508480777964,-5.484871144290082e-05,0.0026731304824352264,-0.002347273752093315,-0.0014914532657712698,-0.0012900239089503884,-0.0007542394450865686,-0.000502255279570818,0.0014712157426401973,-0.0038565355353057384,-0.0020745268557220697,0.0013992435997352004,0.0011468747397884727,0.0014654534170404077,0.0017606081673875451,0.002704654587432742,-0.0004255597887095064,0.0018812223570421338,0.0014983111759647727,0.00028860155725851655,-0.002457790542393923,0.00012060640437994152,-0.0017274057026952505,-0.0002693591814022511,-0.0008668715017847717,0.0009418294066563249,0.0005745038506574929,0.0017777534667402506,-0.0004382987681310624,0.0001653435465414077,0.0024564038030803204,0.0031395091209560633,0.002293916651979089,0.0016830435488373041,-0.0018265806138515472,-0.0005848802975378931,-0.0010152317117899656,0.0013071189168840647,-0.0014706586953252554,-0.0001721042935969308,0.0010791771346703172
CHEMBL380454,0.0008817676571197808,-0.0009630991262383759,0.003477077931165695,0.0013564982218667865,0.00021191102860029787,-0.0016473591094836593,0.00012209855776745826,0.0019892093259841204,-0.0004931121366098523,-0.00033506800536997616,0.002031694632023573,-0.0007862642523832619,0.0016283864388242364,-0.0007482980727218091,-0.00027545721968635917,0.000827152980491519,-0.0010037675965577364,0.00016819723532535136,-0.00015046025509946048,0.0013067078543826938,0.001618226757273078,0.0009324811981059611,0.00282303337007761,0.00014228231157176197,-0.0002610492811072618,0.0028955163434147835,-0.0018383951392024755,-0.0007438838365487754,-0.00041324857738800347,-0.0011482506524771452,-0.0005945449229329824,0.0011825109831988811,-0.0033826634753495455,-0.0024722039233893156,0.001236253185197711,0.001243396895006299,0.00204360019415617,0.0019437273731455207,0.0031576715409755707,-0.00027216674061492085,0.0017784798983484507,0.001237699412740767,0.0004786945937667042,-0.0024588999804109335,0.0005521468701772392,-0.0010275017702952027,0.0002016256912611425,-0.0009733540355227888,0.0002977488038595766,0.0005923265125602484,0.0025314809754490852,-0.0002895707148127258,1.0926276445388794e-05,0.0021412346977740526,0.0026752378325909376,0.0022975862957537174,0.002488679252564907,-0.0018124039052054286,-0.0006829017656855285,-0.0012652304721996188,0.0015059453435242176,-0.0017149073537439108,-0.0003030248626600951,0.0013256887905299664
CHEMBL380889,0.001073335879482329,-0.0007902252255007625,0.0028600399382412434,0.0008634569239802659,-0.00025873049162328243,-0.0016695092199370265,-5.776860052719712e-05,0.0014861030504107475,-0.0006831429782323539,0.0005533496732823551,0.001306787715293467,-0.0014921625843271613,0.0012584611540660262,-0.00036571791861206293,-0.00047864485532045364,0.0016381104942411184,-0.0011738792527467012,-4.1723193135112524e-05,-0.00039479287806898355,0.0014157297555357218,0.0017355455784127116,0.0015484425239264965,0.0028120889328420162,0.0005725062219426036,5.574722308665514e-05,0.00271056336350739,-0.0016906264936551452,-0.0011588941561058164,3.639300120994449e-05,-0.0007965383701957762,-0.0008913372294045985,0.0006067324429750443,-0.0038764323107898235,-0.0023866251576691866,0.001069015241228044,0.0015789000317454338,0.0020857059862464666,0.0021094370167702436,0.0029457914642989635,0.00012072379468008876,0.0015283375978469849,0.00047295301919803023,0.000640606100205332,-0.002525094896554947,0.00015731516759842634,-0.0008274009451270103,-0.00017372920410707593,-0.00154205784201622,-1.842115307226777e-05,0.0005014818161725998,0.0020538736134767532,-4.161312244832516e-05,0.0002938843099400401,0.002253063255921006,0.002355897566303611,0.0023082466796040535,0.002735140733420849,-0.0015382019337266684,-0.0012099056039005518,-0.0010027234675362706,0.001041152747347951,-0.002107593696564436,-0.0005089701735414565,0.0011246439535170794
CHEMBL382638,0.0008817676571197808,-0.0009630991262383759,0.003477077931165695,0.0013564982218667865,0.00021191102860029787,-0.0016473591094836593,0.00012209855776745826,0.0019892093259841204,-0.0004931121366098523,-0.00033506800536997616,0.002031694632023573,-0.0007862642523832619,0.0016283864388242364,-0.0007482980727218091,-0.00027545721968635917,0.000827152980491519,-0.0010037675965577364,0.00016819723532535136,-0.00015046025509946048,0.0013067078543826938,0.001618226757273078,0.0009324811981059611,0.00282303337007761,0.00014228231157176197,-0.0002610492811072618,0.0028955163434147835,-0.0018383951392024755,-0.0007438838365487754,-0.00041324857738800347,-0.0011482506524771452,-0.0005945449229329824,0.0011825109831988811,-0.0033826634753495455,-0.0024722039233893156,0.001236253185197711,0.001243396895006299,0.00204360019415617,0.0019437273731455207,0.0031576715409755707,-0.00027216674061492085,0.0017784798983484507,0.001237699412740767,0.0004786945937667042,-0.0024588999804109335,0.0005521468701772392,-0.0010275017702952027,0.0002016256912611425,-0.0009733540355227888,0.0002977488038595766,0.0005923265125602484,0.0025314809754490852,-0.0002895707148127258,1.0926276445388794e-05,0.0021412346977740526,0.0026752378325909376,0.0022975862957537174,0.002488679252564907,-0.0018124039052054286,-0.0006829017656855285,-0.0012652304721996188,0.0015059453435242176,-0.0017149073537439108,-0.0003030248626600951,0.0013256887905299664
CHEMBL382822,0.001073335879482329,-0.0007902252255007625,0.0028600399382412434,0.0008634569239802659,-0.00025873049162328243,-0.0016695092199370265,-5.776860052719712e-05,0.0014861030504107475,-0.0006831429782323539,0.0005533496732823551,0.001306787715293467,-0.0014921625843271613,0.0012584611540660262,-0.00036571791861206293,-0.00047864485532045364,0.0016381104942411184,-0.0011738792527467012,-4.1723193135112524e-05,-0.00039479287806898355,0.0014157297555357218,0.0017355455784127116,0.0015484425239264965,0.0028120889328420162,0.0005725062219426036,5.574722308665514e-05,0.00271056336350739,-0.0016906264936551452,-0.0011588941561058164,3.639300120994449e-05,-0.0007965383701957762,-0.0008913372294045985,0.0006067324429750443,-0.0038764323107898235,-0.0023866251576691866,0.001069015241228044,0.0015789000317454338,0.0020857059862464666,0.0021094370167702436,0.0029457914642989635,0.00012072379468008876,0.0015283375978469849,0.00047295301919803023,0.000640606100205332,-0.002525094896554947,0.00015731516759842634,-0.0008274009451270103,-0.00017372920410707593,-0.00154205784201622,-1.842115307226777e-05,0.0005014818161725998,0.0020538736134767532,-4.161312244832516e-05,0.0002938843099400401,0.002253063255921006,0.002355897566303611,0.0023082466796040535,0.002735140733420849,-0.0015382019337266684,-0.0012099056039005518,-0.0010027234675362706,0.001041152747347951,-0.002107593696564436,-0.0005089701735414565,0.0011246439535170794
CHEMBL382823,0.001073335879482329,-0.0007902252255007625,0.0028600399382412434,0.0008634569239802659,-0.00025873049162328243,-0.0016695092199370265,-5.776860052719712e-05,0.0014861030504107475,-0.0006831429782323539,0.0005533496732823551,0.001306787715293467,-0.0014921625843271613,0.0012584611540660262,-0.00036571791861206293,-0.00047864485532045364,0.0016381104942411184,-0.0011738792527467012,-4.1723193135112524e-05,-0.00039479287806898355,0.0014157297555357218,0.0017355455784127116,0.0015484425239264965,0.0028120889328420162,0.0005725062219426036,5.574722308665514e-05,0.00271056336350739,-0.0016906264936551452,-0.0011588941561058164,3.639300120994449e-05,-0.0007965383701957762,-0.0008913372294045985,0.0006067324429750443,-0.0038764323107898235,-0.0023866251576691866,0.001069015241228044,0.0015789000317454338,0.0020857059862464666,0.0021094370167702436,0.0029457914642989635,0.00012072379468008876,0.0015283375978469849,0.00047295301919803023,0.000640606100205332,-0.002525094896554947,0.00015731516759842634,-0.0008274009451270103,-0.00017372920410707593,-0.00154205784201622,-1.842115307226777e-05,0.0005014818161725998,0.0020538736134767532,-4.161312244832516e-05,0.0002938843099400401,0.002253063255921006,0.002355897566303611,0.0023082466796040535,0.002735140733420849,-0.0015382019337266684,-0.0012099056039005518,-0.0010027234675362706,0.001041152747347951,-0.002107593696564436,-0.0005089701735414565,0.0011246439535170794
CHEMBL383246,0.0018715908518061042,-0.0004254653467796743,0.0024008695036172867,0.00039264498627744615,-0.00041875283932313323,-0.002208615653216839,-8.479366078972816e-05,0.0018467993941158056,-0.0009571707923896611,-0.00012633317965082824,0.0012265630066394806,-0.0018119673477485776,0.0006547244265675545,0.0008287812815979123,0.00013745896285399795,0.00127762695774436,-0.0013430706458166242,-4.2639050661819056e-05,-0.00045120110735297203,0.0007771212258376181,0.0014235491398721933,0.0011164686875417829,0.002753395587205887,0.000538739375770092,-7.508741691708565e-05,0.0023235660046339035,-0.0013968069106340408,-0.0005055690417066216,-0.00018613081192597747,-0.0004253416555002332,-0.001213852665387094,0.0006195956375449896,-0.004235928878188133,-0.002919561229646206,0.00035043578827753663,0.00103556748945266,0.0010531924199312925,0.0024008695036172867,0.0035148379392921925,0.000886663154233247,0.00016376987332478166,0.0011518651153892279,0.0008216614369302988,-0.002741133561357856,0.0001611438929103315,8.481839176965877e-05,-0.00031661381945014,-0.0013030029367655516,0.0006303110858425498,0.0010869341203942895,0.0008119724807329476,0.0003820605925284326,0.00023171109205577523,0.002416538540273905,0.0027512391097843647,0.0025024297647178173,0.0016012574778869748,-0.0011511308839544654,-0.0010186018189415336,7.033213478280231e-05,0.0012178340693935752,-0.002227137330919504,-0.0002752052096184343,0.0010664132423698902
CHEMBL383760,0.0007373684202320874,-0.0006779455579817295,0.0029556220397353172,0.0011699208989739418,-0.00020810157002415508,-0.0013346564956009388,-1.1278797501290683e-05,0.0014680299209430814,-0.0002719770127441734,0.0001302428136114031,0.0018130482640117407,-0.0010551820741966367,0.001728069968521595,-0.0007461275672540069,-0.000769567268434912,0.001224749954417348,-0.001341291586868465,-8.573689410695806e-05,-0.0002795321343000978,0.0009897417621687055,0.0016525435494259,0.0013919583288952708,0.0029624251183122396,0.0005453842459246516,-0.0002763409574981779,0.002834618790075183,-0.001913585583679378,-0.0011624058242887259,-0.0002269692049594596,-0.0010056975297629833,-0.0010502578224986792,0.0008939401595853269,-0.003764175111427903,-0.0026807512622326612,0.0014012401225045323,0.001638915273360908,0.002184918150305748,0.0020014126785099506,0.0034663344267755747,-0.0003197989135514945,0.0016506602987647057,0.0007569055305793881,0.00045691250124946237,-0.002508994657546282,0.0005537952529266477,-0.0006274381303228438,-0.0001597906812094152,-0.0011408706195652485,-4.777360300067812e-05,0.0003945843782275915,0.0022826918866485357,-0.00017251195095013827,0.00017832423327490687,0.0018223044462502003,0.002359792124480009,0.0022808643989264965,0.0026832723524421453,-0.0014830899890512228,-0.0008104965090751648,-0.0014394632307812572,0.0011742694769054651,-0.0016870566178113222,-0.00019514639279805124,0.0013598068617284298
