drug_id,0,1,2,3,4,5,6,7,8,9,10,11,12,13,14,15,16,17,18,19,20,21,22,23,24,25,26,27,28,29,30,31,32,33,34,35,36,37,38,39,40,41,42,43,44,45,46,47,48,49,50,51,52,53,54,55,56,57,58,59,60,61,62,63,64,65,66,67,68,69,70,71,72,73,74,75,76,77,78,79,80,81,82,83,84,85,86,87,88,89,90,91,92,93,94,95,96,97,98,99,100,101,102,103,104,105,106,107,108,109,110,111,112,113,114,115,116,117,118,119,120,121,122,123,124,125,126,127
CHEMBL1087421,-0.0074850116,0.12647873,1.614671,-0.63289416,0.5372564,-2.3246593,-1.1397619,1.1173006,1.0193008,0.636904,2.931629,-0.44502917,0.8854954,-1.8882374,-0.976105,-1.3832533,-1.0563333,1.0621345,-1.3576821,0.23591849,1.7232965,0.79851633,1.5517349,-0.14517625,-1.1481673,1.4193872,-1.02663,1.1682494,0.39843026,-0.1643133,-2.818332,0.30010596,-1.3835905,0.88825405,-0.2485129,0.74884623,2.9404552,2.1079614,3.9031153,-0.13254778,-0.28009838,1.0625575,-0.6800601,-1.1237099,0.42107868,1.6799371,1.3253309,-1.0795873,-0.21242708,0.25721657,-0.067074224,0.57323635,0.76397574,1.6097592,2.1162567,0.7009795,1.6921276,-0.80435795,-1.0847931,-0.3672676,1.1547703,-1.4902387,1.0116605,-0.4042402,2.1562064,-0.4833062,1.5054362,0.8413757,0.38175762,-0.61842227,-0.033221334,0.037932888,-0.72991204,-0.4319315,-0.87647814,-1.1178706,0.7792717,0.89021623,0.1171592,2.2720165,-0.49283177,-0.7395754,0.12647729,1.8435452,0.27336505,1.5241684,2.0943747,-0.63707703,0.82006514,1.2911521,-0.49983963,-0.600369,-1.2102157,-0.02411775,1.2070807,-1.150995,-3.3640983,-3.0302768,0.47794625,-0.56300426,-3.715362,-0.11030157,1.530631,0.90449065,-0.5393517,-1.0732849,-0.11662898,-2.8411925,-0.4698764,-1.1364821,-0.56285095,-0.57767826,0.17181368,0.38256434,-0.24195582,0.24244027,-1.2283378,2.087471,0.49901074,0.357229,-1.3951509,-0.57183564,0.5625052,0.100310214,-0.7601993,-1.6814572,-0.41014025,0.5822802
CHEMBL1088633,-1.5355717,1.0231907,1.9385213,0.28494814,-2.35511,-3.4126904,0.49947664,1.505222,0.45685074,0.62426907,4.5264893,1.4205891,1.1868064,-2.1181076,-0.54084426,-1.4492399,0.010680722,1.925299,-0.96946377,-0.99856424,-0.0563469,1.7119288,1.1616212,-0.32807788,0.5789969,1.0965245,-0.78306824,1.1219621,0.76571804,-1.1264853,-3.2081559,0.9616792,-0.58355844,-1.4408201,-0.5743259,1.2437112,3.6308591,1.1403419,2.8810277,-1.6382407,-0.2399503,2.2732465,-1.1287827,-1.5305775,2.007376,1.4827471,-2.2578964,-0.38029242,1.0647655,2.3414967,0.8634236,1.7898878,0.45405984,0.54352665,1.507672,0.42612588,0.13307169,-1.002624,0.36278534,1.0721711,0.43675914,-0.7830018,-0.9792128,0.085392125,0.5874302,-0.1689272,0.8089467,1.2645758,0.1277901,-0.8254006,0.042406633,0.60376084,-0.047492698,-1.571961,0.010371748,0.029674593,1.2338779,1.5922968,0.47579575,1.6738529,-1.1781771,-0.06001942,0.5194482,2.0607135,-0.480433,0.3405968,2.5373242,-0.80621004,1.0501176,1.4838905,-1.6740911,-0.25247654,-0.6309639,-0.02126532,0.7249252,0.47493613,-1.7183642,-2.3926203,2.142362,0.028302375,-3.8114316,0.88633907,2.0402648,1.1840018,0.578688,-0.75000024,0.91053283,-1.2354871,-1.1289579,-0.83015686,1.2432387,0.4098397,-0.9185314,1.0731713,-0.15930234,-0.4795432,0.09127192,1.0724049,-0.28070208,1.1960791,-0.37248453,-0.95011574,1.3810843,-2.145029,-0.36158994,-1.6435165,-0.46622092,-0.69845396
CHEMBL1090360,1.6012925,2.9313552,2.5265484,0.5876156,-0.02760727,11.75721,-2.316178,-5.098506,-3.436084,4.8952355,-1.197476,3.9708447,2.0217254,1.5494485,-3.2966719,-1.4412763,-2.2972486,-4.938095,-7.969913,0.20991024,-8.92434,-3.104424,7.409721,5.266765,-4.7889724,3.3156285,9.072726,8.96342,-9.042334,-3.9181862,-0.20970497,-5.484866,-1.0974059,-2.8854105,-4.2132015,-7.218735,-5.312426,-4.2487493,-3.0540485,1.9899495,-2.4534936,-6.8610005,-5.545183,-2.8649561,1.7926526,0.56937987,8.479654,0.98480636,-0.15464452,-2.0845225,-2.3850439,-1.7739918,-0.27675933,-3.5523028,-5.357561,-2.5268245,5.335964,-3.5120804,-1.1826513,3.3439257,1.3739413,3.449022,-0.12497625,4.7620554,0.16301173,-3.0622585,-6.6292787,-0.80168927,-0.7758155,-2.0064087,9.805343,7.5900064,4.6457224,-1.6279911,4.8497167,-1.3916321,0.24565591,-2.883426,3.008473,-1.1232164,4.808336,0.22268206,2.4464862,-0.94913787,-8.841476,6.532322,-7.617477,1.194188,1.7299088,-5.382297,5.067534,2.6210933,10.159143,5.0139565,-8.098344,3.6023026,-2.6849554,-5.402458,3.3655128,-0.2910586,2.7020602,-3.5115106,1.2188951,7.2839093,-7.6228323,-3.3878863,1.9491653,0.8937671,-0.4203583,3.5102315,-7.652446,-3.1774402,5.061539,3.6215854,2.9696732,0.9464433,1.9233388,7.0868263,-0.14631434,-3.8857145,2.4599357,-1.3265109,0.34913713,7.3607235,-1.9373777,-2.3178446,-3.0943534,-5.7390113
CHEMBL1688215,0.68572193,-0.958846,0.5618033,0.31705397,1.2803996,-1.3178978,-0.9093808,1.3822165,1.5120306,0.808681,1.6613986,-0.9186209,0.8692507,-1.6189963,-0.98276633,-1.1447492,-0.19474109,0.614437,-1.4208707,0.40866822,0.9783449,-0.2999117,0.4945106,-0.06181263,-1.1628184,0.22673926,-1.2096477,0.2529934,0.83291537,-0.036999214,-1.235852,1.0303679,-0.79523844,0.9450011,-0.17739445,0.6080682,1.5564207,0.16937211,2.437332,0.69237673,0.14412022,0.885196,0.039806377,-1.0699388,-0.5270971,-0.28604576,0.6828812,-0.6464201,-0.18660106,0.06318495,1.0538183,-0.71656466,0.64841866,0.5806614,1.415307,0.6528586,1.3987848,-1.3380812,-1.0364199,0.2671014,0.98236364,-0.7111645,0.42571342,0.81649506,1.2172258,-0.95901114,1.9899259,1.0443854,0.7866906,0.16025108,-0.08939654,0.9700432,-0.87689996,-0.41439557,-0.05044987,-1.7510908,1.4295899,0.8219867,0.21370533,2.2786217,-0.8443922,-1.0217699,0.52797556,0.24941808,0.6797756,1.2500969,1.6545943,0.674474,0.7128018,1.8363923,0.9929562,-0.95550925,-1.7683207,-0.5670385,1.3533003,-1.4889793,-2.579043,-3.6214378,0.2104207,0.03296483,-1.1950634,0.09888468,-0.03446868,-0.5585885,0.4279944,-0.71474475,-0.9016598,-1.8585408,1.1914971,0.09302634,-0.17621659,0.10434689,0.99139,0.547278,-0.08436545,-0.008993339,-1.5246446,1.6533066,0.90500104,0.6217939,-0.6721578,-0.60776603,0.4100606,0.31599876,0.3433828,0.5186527,-0.08660969,0.6745621
CHEMBL1765781,-0.9874063,0.7200995,-3.663056,1.9357703,0.8689326,7.3761497,0.6933221,-1.7800453,0.62301373,2.3283489,-4.45139,0.92876613,0.6599617,0.40057114,-0.037564658,5.342987,-0.13963264,-0.44566694,0.6661096,3.6950939,-6.8421493,-0.5329711,-4.6497326,1.6472726,-0.09089438,-5.951181,0.7976688,-0.2055038,-2.552438,4.086607,7.1336274,-0.6521478,1.6733092,-3.4817138,0.111479774,-2.199721,-2.448888,-6.586188,-1.88168,-0.109650776,1.4598026,-6.148402,1.1272689,-0.480745,-1.322679,-1.8310179,2.2237294,2.009363,-1.8818299,-4.797085,1.850691,-2.6226883,-4.323836,-5.611308,-0.15518919,-1.73814,1.0393732,1.8092436,1.763684,1.0321921,-9.399182,4.5754266,-1.1601472,1.616446,-4.6992126,2.7052636,-0.3436936,-1.3457888,-0.75329155,4.3526335,0.5017931,5.2241464,1.3303154,5.6248636,0.97655505,-0.59844893,2.1935136,0.90502274,3.0117915,-5.5365596,2.1191063,3.554548,-1.6791269,-6.138432,-0.3312335,3.6174092,-4.5101514,5.2307944,-3.1257381,0.16868699,3.0393686,2.2406757,2.1582425,-1.2450105,-1.1510463,0.4495424,5.4139385,6.705174,3.405222,3.3396878,9.355578,2.0743968,-4.1680074,-1.8086149,-0.012225598,3.1689568,-0.68940055,6.046145,-2.0531936,0.6541598,1.0047053,1.8472364,-4.6203704,-0.034387007,4.4196115,-1.2860966,0.044312418,-4.9200997,-4.960792,-1.4836518,1.7429757,-0.16374102,-0.4703171,-2.3304503,4.2200627,5.220087,1.8441051,-0.6192108
CHEMBL1788116,-0.7489097,1.9571335,7.6248713,-2.8863904,4.6847076,-5.535465,3.889389,2.7075353,-2.1696734,3.7944245,8.906479,-3.7730772,-8.751369,-6.371174,2.5038538,-4.0826583,6.9653454,4.037052,-2.609653,4.1058636,0.18895301,6.50975,-0.475426,-0.36878783,-8.830737,-2.2700894,-4.0762377,1.6035758,-2.6613004,6.582226,-11.660694,4.641923,-5.190413,2.6758163,-2.5912173,-1.5029405,9.882905,3.342478,8.299755,-2.4627664,3.4781969,7.6296277,-2.725783,3.1694145,-3.046196,3.8694274,-2.1872797,-5.687522,-5.5473237,-1.5759282,7.969342,2.5060358,6.523717,2.9310522,3.0746686,1.5131123,5.968348,4.33554,-2.261775,-2.6765447,3.3209355,-9.031729,3.973937,-3.7145503,4.945526,-5.57405,-7.16561,4.4450045,-5.466785,-7.0098314,4.9991055,-6.7814465,-12.012818,-1.8910816,-8.60198,-7.223905,-7.594042,-9.099519,-6.2394276,7.1959915,8.103171,-1.9526839,3.6333253,8.309042,4.2815704,3.1930654,15.986819,-3.5711923,5.4754696,9.176224,-7.0047493,-5.1712084,-6.3334336,-0.9282103,8.619274,-5.325479,-7.6135745,-7.550045,1.4891112,-11.161669,-5.0751886,0.77552176,0.040488526,1.7236215,5.500626,-1.8152522,2.5193062,-7.2539515,1.2741386,-9.070215,5.9911084,0.8462819,1.9559642,-0.4941983,-0.23172049,-1.7832216,5.7913537,5.3305416,1.421688,3.6139126,-0.21914944,-6.1656528,6.417588,6.8934474,-4.16403,-7.1882873,1.8624068,1.3848577
CHEMBL1929238,0.17858377,-4.8927174,-4.1252775,5.1047797,0.78642166,1.9934696,-0.76823854,-2.2337484,1.6130956,-1.6991681,-2.5948958,0.5283946,5.3042026,-1.4159478,4.8089085,-2.1634755,-3.2572293,0.9515293,1.2939012,0.8229631,-1.614539,2.4582036,-2.6681578,-3.9757137,0.987979,-3.0003173,0.5613563,-0.11117401,-2.6562912,-0.68377995,8.974898,-4.7056847,1.9974385,3.6843338,1.0573397,-1.5095705,-3.7761166,-1.9917852,0.6453856,5.679091,0.65719116,-0.50843376,3.9706964,1.8498576,1.1238871,0.79097986,3.613257,2.8746774,5.0283947,0.4251609,-0.9185195,1.2108333,2.5664265,3.0301433,-5.580425,5.385043,-6.4135866,0.4968216,-1.1025552,5.0277863,4.696597,-3.6894,1.784353,8.052832,0.4499555,0.94252765,-0.93547356,-0.92484665,3.0885417,-0.578902,-2.51785,-7.540055,2.437881,2.6029608,4.344405,-4.5934696,-0.13048196,-0.12002326,4.6443205,5.4621916,1.6526318,-0.5274578,-4.492552,4.042963,-0.17070031,4.4518723,-0.12244102,3.7389286,2.8088243,-3.3133986,3.2880204,0.78217006,1.6705422,3.0604594,0.7937325,1.4676472,3.913814,0.59381175,-5.0362053,1.9075218,-1.7732669,-5.939196,2.5407515,-1.7440413,-8.179107,2.8082128,0.30883065,2.1212454,1.5043411,2.8981066,-0.78579223,1.3376288,1.5513461,2.4965167,-4.479931,-2.7816288,0.3400302,-5.951876,-0.5757143,-4.2875037,-8.19463,3.8686192,-2.4603276,2.9754965,0.59231085,0.035420135,2.5122516,-3.568004
CHEMBL1933552,-1.2982167,0.08676098,-0.014924053,3.250393,1.2816687,3.6092014,1.8159556,-4.1645947,-1.937169,1.848388,-3.276393,0.22780609,1.4133594,0.80107296,-1.0207995,0.96446705,2.0305402,-1.2960546,2.9619062,1.5927964,-1.1444192,0.09228753,-3.9738235,-2.1604652,-1.8426754,-2.7063866,-2.7198691,-1.0989184,-2.3657703,-0.3934335,4.6263094,0.8439138,-0.04457648,-0.85107565,1.7927318,-4.5165143,-7.318133,-6.744445,-4.1209373,1.701295,2.722741,-0.13254791,-0.84482175,1.3145633,-2.391746,-0.15957302,-0.74726176,2.1663854,-1.3594146,0.6003088,4.3155575,0.16332363,-1.8879423,-4.242861,-6.119543,-2.8013346,-4.2624207,1.2835431,1.1411622,4.09663,0.6434002,0.4143107,0.1094805,4.097421,-4.2465897,-5.008451,-2.4066167,1.752123,4.8784475,2.2898421,-4.3068743,1.2026333,0.6829978,-0.18698944,1.9008193,-1.6435643,-0.6667192,-1.8779751,-0.3237467,-0.41926593,-0.053816363,1.0949407,-0.115712546,-0.392475,2.2513752,-1.172129,-2.9901886,2.5612023,-1.6683999,-2.5536478,2.708585,0.013308959,-1.6991758,0.8411361,-2.5540266,-3.1861439,8.609632,2.120593,-3.2018204,2.2685723,7.388795,-0.6032136,-1.2709564,-3.8333397,-3.2860236,1.9516183,0.80407876,6.449982,6.36864,3.070855,1.3735087,-1.1669927,1.3178166,-1.7887588,-3.550747,-0.16122115,2.152862,-1.6271935,-2.3645937,-2.881355,-0.82444906,4.696949,0.09587139,0.9108288,-0.32708308,4.959994,-0.38607758,-1.8977624
CHEMBL202930,0.65114063,1.786897,2.845434,-2.501697,1.253498,-0.74239784,-0.7106454,-3.3496382,-0.712223,-1.4224033,0.79418546,-0.64006937,0.16878033,-1.1356763,2.3214662,-0.9566909,-1.5022417,-2.559153,1.4233569,-0.20952787,-0.92223096,-0.7937363,0.976796,0.27707177,-0.4557946,3.0558488,2.48715,1.7605311,-0.35768396,-1.1021736,0.08909774,-1.0022112,-0.8852619,-0.55810994,0.7864171,-0.8035916,-4.6586876,1.4736547,-4.415665,-0.03904093,-0.7564773,-1.1430917,-1.5934664,1.462084,1.4708475,-0.034399852,2.7030878,0.46427184,0.09537627,3.3682864,-0.13429129,3.2135515,1.4932861,-0.46760634,-4.719448,1.9991567,0.9736095,3.6524556,0.73541397,-0.41742593,-0.9335386,0.90462774,2.618807,-2.2058692,1.9865912,0.4654014,2.2197716,-2.8063,1.8660262,0.1263175,0.4516363,-2.1041977,1.0656222,-0.5821058,0.061392985,2.689691,-0.5340691,-0.030786544,-0.4176203,2.6614552,2.4150882,-1.5904791,-1.2287632,1.2917396,-1.8857121,-2.150315,-0.7505267,-2.7842143,-0.70404905,-4.613719,-2.5784295,-1.71495,2.5149431,-0.13029745,-4.155588,1.0766664,0.037994757,-0.65431845,-1.259963,-3.6112406,-3.3253617,-2.3423123,1.4001253,4.3900933,0.8945036,-1.4607182,2.4071298,-3.9876764,-1.495654,1.0347216,-1.2774915,-1.1828309,0.32362232,-1.876139,-2.6617045,-1.4918324,-0.19609757,-0.7939091,1.8008883,1.5125163,-0.68081915,0.9255531,0.3749111,1.057637,-0.9526746,-1.4644556,-2.0185523,-0.8961648
CHEMBL204420,-4.0678997,-1.5550741,-4.655398,1.6521598,0.21457574,0.52511775,2.0931375,1.5403721,-0.7995207,3.909475,0.6297658,0.80171514,0.8899454,-2.8099272,-2.8700233,-0.66911846,-0.31125823,0.34353542,2.7908213,-3.589252,-5.6006627,-0.8187614,-3.7271607,2.0567381,6.1082172,-5.2437525,4.94535,4.202007,1.12786,1.4320027,6.518284,-2.1652272,-0.010267592,-0.44512075,-1.4806464,1.9332844,0.9287749,-3.5048792,3.8236167,0.6690547,4.684091,-3.8275476,0.11851622,-0.7548964,-0.86266696,0.3641817,1.1499704,0.7818277,-0.40111205,-6.878085,-0.46476674,-2.1774263,-5.325999,-2.0847726,4.3182187,-5.593163,-1.8771416,-6.994495,3.076389,0.1232727,1.3573017,1.3165824,0.33990577,3.2303345,-2.7856283,2.3631852,-3.4163868,1.111057,-2.2119203,0.82091826,0.30480903,0.8475981,0.08830401,3.8623111,0.3487253,-2.4399576,0.3731684,2.3190656,4.455838,-1.7955287,-4.184459,3.4154356,-2.643286,-5.920861,1.2578013,4.517787,-0.18033051,1.6950473,0.70171607,2.4796557,3.2164025,3.0096068,3.330853,0.84146523,-0.7703748,-0.6298853,-0.7358867,-2.151344,0.35202283,6.7607565,3.3049247,5.0112414,-4.504122,-2.3196642,1.1966382,1.3650846,-5.3502183,-1.7956246,0.40148616,2.2267568,2.3295636,0.059694726,0.25278845,2.5870667,4.869823,1.8034482,1.653494,-0.43284333,-4.465005,-3.1863158,0.85053265,0.8703328,-2.026121,2.5410986,-0.07508482,-1.4672236,2.5000646,-0.822222
CHEMBL206783,0.6988195,1.1600981,-2.1554892,-2.5656283,-1.7988175,3.3625073,2.7285907,-2.3932133,-2.103761,0.87606865,1.6463057,-0.9600882,-3.8150268,3.2992854,-1.5068092,5.8093534,-0.04497365,-3.1361678,1.0349783,3.5158324,-0.26119906,-1.384323,-2.5383096,2.3189259,-3.282053,-2.927596,-3.9952161,-4.154762,-5.6770973,2.8620732,0.38131592,-3.2419152,1.8685791,-5.276557,4.168836,-0.49404383,-2.8396468,1.0408229,-4.9116945,-3.8286138,0.1965928,-0.39185134,-0.8490332,0.46078748,1.7601557,-2.8816702,-1.1161149,1.7389916,-2.1779113,3.6308577,0.6440737,1.5140946,1.311464,-7.6359425,-0.46753734,-0.6671403,5.722447,3.825989,2.856811,0.08724154,-4.5144424,0.3387277,-3.7077415,-3.766614,-3.3706224,0.25877643,-1.954576,-2.3359714,-3.7109873,0.33960196,0.4915646,-0.7529163,3.97537,0.62957233,-2.7196321,0.123693585,2.1877525,-1.3933761,-1.4981511,-1.6147606,3.9030077,0.990672,-2.588289,1.5464798,-1.3017913,-1.3486105,-0.027796485,-0.6639619,1.5325607,0.44645625,-2.1732373,-0.62578124,-0.42225343,-2.2117836,-2.2875483,0.5325324,1.6836065,7.1615586,-2.924099,-0.98962593,1.6947156,-1.3689761,-3.9487493,-0.19669892,2.6390743,2.2955556,1.3569525,4.7171655,-3.694888,-3.8630416,0.20887536,0.6937532,-2.6661873,-4.520145,-0.57473505,-0.8015639,3.0535245,-0.08153148,-1.577295,3.6047378,2.4984272,-0.37995023,-3.3860042,-1.7003837,0.19888756,2.875093,-2.1344397,-0.57457155
CHEMBL206955,-0.76054114,2.5230384,3.4479187,4.0187607,0.08208841,2.8414867,2.6497686,-4.7558813,-1.9787858,-3.6066482,-1.8370693,-2.011045,-0.109113336,2.2590492,-0.06913287,1.0575219,0.9578867,-3.329483,-1.2664965,-0.24328123,-4.2992077,3.137958,-2.1293561,1.0740343,0.06294535,3.0135188,2.0022578,-0.059271425,-7.903343,1.5799729,5.587473,-1.7194942,-0.78194654,0.98787934,2.138802,-3.3566628,-5.28679,-3.9660735,-5.363404,2.798301,-2.726965,-2.590333,0.98595905,3.7209241,-3.3441339,-1.4180762,1.2145821,3.4592357,-1.7220395,-2.35938,0.17982377,0.43643296,-2.6955535,-2.296945,-4.100164,-2.9065547,0.17861977,-0.34603643,-0.14887209,1.0587053,-1.0324665,-0.086307295,-0.51770675,-1.6720703,-1.5437227,-1.0227547,-3.139968,-1.1893352,0.465836,1.3454027,-0.5582149,-1.1779739,-1.0998704,-1.1686369,2.1583126,2.5199203,1.3225607,-2.0803566,-3.4291108,-6.388093,0.5950445,2.742191,2.531563,-1.6578144,-4.413702,-1.6472758,-4.9031157,1.8585364,-4.371088,-0.9033173,0.6005691,1.8927919,0.6033624,0.7367598,-0.6887609,-0.3663062,2.2740624,3.8932092,0.19330725,-1.61984,3.8563576,-5.398377,-0.14478394,1.8219713,0.53223556,-0.11864212,0.48219264,3.8149412,1.9506488,0.78903294,2.183354,-0.7628512,2.0765283,-0.7308791,0.40095174,0.6536513,-1.0606254,-4.187052,-1.5424974,-2.4430444,2.7668064,0.8829228,2.5704257,0.5056777,0.66055113,0.33723035,-1.0198106,0.10926375
CHEMBL207037,1.1863271,0.7292299,-1.9357653,-0.44228667,-0.2873133,3.5341094,-3.5633357,-3.0855243,1.5961522,-1.0605114,-1.7097142,0.6346264,-0.45075026,-1.6171194,-1.01677,3.0523207,-2.2502327,-1.6488125,-0.30616632,-4.1442995,0.16791302,0.6104489,-0.33170024,0.858249,2.904696,-3.8221183,0.046674535,0.0014558639,0.0327017,1.9860519,2.4208868,-1.834696,3.8321242,-1.6787858,-0.6172273,-0.8485673,2.274534,-2.952163,2.1354723,1.1001071,1.5045555,-5.7969947,1.0978193,-0.73698103,-4.294185,-0.41903746,2.4934857,-1.0786395,-0.90129507,-4.8745747,1.284124,-3.8795817,-6.5846977,-0.96172494,2.1487741,-1.8833336,0.9593593,-2.7442646,-1.9641688,0.4427333,-1.5902812,1.7951208,-2.644664,-0.98899984,-1.7167515,-0.25910133,1.0813738,0.8466009,-1.3904732,1.7860477,1.4237182,4.3209314,-0.17299454,3.0927343,-1.3781526,-0.7635484,-1.7765834,-0.30528903,2.7506397,-3.2057734,1.0050154,2.235727,-0.9888134,-2.9634428,0.6273803,6.7985473,-5.429394,0.90082127,-3.7238095,1.6633762,-0.61971265,5.2931724,3.6001062,0.18796,0.39451978,-1.178993,1.0650592,0.49668762,1.429912,1.7464614,2.9911447,4.2752867,-0.9782169,-2.610624,-2.5264194,-3.0130367,0.6411429,3.4122267,-0.7383942,-1.7684441,-0.88624793,-1.2569535,-3.4792385,3.8433306,4.9792275,-0.99971205,-0.38635603,2.9947443,-3.3014355,-0.91832775,0.33952278,-3.3788674,-2.754209,-2.7610683,1.5001333,2.7109845,-1.1391733,0.50883675
CHEMBL207130,-1.0829638,-3.603353,-3.1117852,2.5224385,-3.614064,0.76015335,-1.0870961,-2.7660515,-6.0606384,-2.7705002,-2.4945822,0.57944417,-0.29709357,-0.44901958,1.4705673,-3.4533434,-1.5749812,-0.43364617,-0.96990937,-6.118904,0.8895272,-2.1125128,-2.645551,1.0341141,5.1695685,-3.6983397,1.3513978,1.9684372,0.15099451,-1.4318136,2.8740845,0.4262888,5.0534577,-2.17986,-0.34742212,-3.4805555,-2.6948507,-1.9919413,-3.6197045,5.29175,3.1711648,-4.443044,1.4304503,4.9285693,-6.128257,1.0736018,-0.6866431,1.4360172,5.3021827,-2.2788534,-0.7565675,-3.2770803,-7.5717735,-2.026557,-3.9883478,0.1310992,-5.9350204,-10.012393,-0.8187684,6.1053643,5.060307,2.8436153,-2.9312892,0.08102058,-4.1763697,-1.9877658,-0.66828406,-0.2605616,2.4962564,0.33459675,-1.359515,0.38386083,-1.3010845,-1.9476589,2.766441,1.9451298,-0.42847493,-1.2527571,3.6699374,-5.16462,-1.3231819,1.8526585,2.357915,-3.8180213,-1.9419755,1.8870661,-5.5480733,2.3973718,-2.5547802,-4.023006,1.1940074,5.3025556,2.2416832,3.8595898,-2.2896814,0.42779392,3.7734876,3.161384,-4.5308113,3.9333448,4.686697,3.4064033,0.61774284,-2.3736982,-1.2576796,0.18509606,2.0882666,0.5083103,2.3424337,2.1175022,0.2677825,-1.7368273,2.9504411,-1.0611507,1.454206,-0.83051276,-1.8870023,0.032382786,-3.1280282,-2.1504402,1.5996938,2.3717718,-1.549768,0.5468439,-0.83230376,4.534341,0.9959945,-0.27321413
CHEMBL207235,-6.277455,3.932139,1.5151805,0.78133637,-0.2207954,-2.8671646,3.5169392,-2.3192403,-3.522621,1.8560343,-0.24737738,1.5054955,3.7109208,-2.8462055,-2.8681548,-0.21454749,5.9802494,5.9256554,6.770835,0.8770696,-2.2683685,2.696261,0.13260475,-0.37815446,4.471378,-1.4595609,2.652019,2.8591123,1.7672112,-1.2804075,-0.24100974,3.0642912,-3.562324,1.2088956,-1.2397146,-0.43406075,-1.7447575,-1.8661356,-4.8119903,-1.3670455,1.8223362,-1.2412227,1.2095666,1.1853261,0.03798665,3.4344313,-2.5677595,-3.8736458,0.3932095,0.5625752,1.9936237,2.043472,-3.1954699,-0.13678098,-2.8114142,-3.9210873,-6.213151,1.7212859,1.1695217,-1.4259907,0.91116816,1.9143888,5.028654,-4.0305715,-0.43235394,-4.6963224,-1.3992162,-0.6554809,4.951019,1.1754122,-0.034016456,0.8409421,-5.188898,0.9977999,-0.75437564,-0.28044727,-0.6159866,-2.8188334,-2.5386899,0.5329004,-0.71433944,4.8074007,0.8823859,1.8075955,5.455681,-0.048557535,-1.4826585,-3.9387999,-1.6535764,-3.63449,-0.0673244,-2.8973384,1.0203387,3.5340753,0.44348192,2.8513725,3.621547,0.33148417,1.1674308,0.49680173,1.2174385,0.04113726,1.7226833,1.5243897,1.640792,-0.5566364,1.274337,-0.61896914,-0.23323074,0.006376814,2.484304,-2.368322,-0.17681062,0.098781034,-0.5169562,-2.3842697,7.4863367,-4.1758904,-4.857791,-3.102885,0.082309596,4.630364,0.4781252,-3.569775,0.23892154,-1.6735678,-3.6155453,0.9248916
CHEMBL207246,2.4115021,-1.0148185,-0.7942352,0.28623277,3.638645,-1.3079612,0.1382823,1.5500379,0.26696947,1.5237015,2.687157,2.8991268,-0.21686485,-2.4031074,2.9456134,1.806609,1.7318511,-0.32690907,0.55589426,2.3799143,0.4388871,0.63272035,4.960677,0.50788176,2.8260398,0.5066284,0.90670204,3.7598143,-1.5602767,-1.3170518,1.9717677,-1.4444082,6.338458,0.81268036,-2.0397766,-1.4517968,-0.34300172,-1.6408527,-1.1056724,1.6477726,-3.114299,0.669348,-3.9632065,-1.6558022,0.8194512,-0.3936525,2.7699878,3.373109,-0.9839724,3.2344513,-1.867722,3.1428258,0.98169357,1.5859222,-2.5074635,3.074203,0.62862414,1.632122,1.4905267,2.29714,-3.7535176,2.543773,1.7450981,-0.21221486,-1.848568,2.7363734,3.0508943,-0.05340801,-1.6647613,3.3601263,-0.28022644,0.7213916,6.5809865,0.53171647,1.0050737,2.1242118,0.30293977,-0.5187877,-1.598942,-5.545028,1.466598,0.33946878,-3.6791356,-1.1887177,-2.395536,-0.85093105,-0.9920084,-1.1997694,-3.0069442,-1.51894,-0.38681406,0.58462787,4.752876,-2.0673437,-2.7051668,1.6068121,3.2274728,0.76390123,4.4782796,-2.6702898,-0.7593605,-2.5054917,1.8438672,-1.4116256,-1.3487582,-0.7646206,-0.28570944,3.6424184,-0.33913898,1.1073402,-2.1061292,0.9872416,-5.8220816,1.2624587,-1.1346273,-3.4685035,2.4822154,-4.1033807,-0.7747515,3.5775213,-3.2926216,-4.762203,3.3210766,-3.5107794,0.26082158,1.685509,-1.2816185,-1.0650121
CHEMBL207445,2.484938,2.586264,-0.6805784,0.11309247,-0.5240522,-1.2253149,0.57724196,6.703671,2.0962532,3.376859,-2.013959,3.1764376,-0.6398459,2.883002,1.4466194,3.405631,2.4910297,3.9484553,-0.420473,4.6509504,-0.6438861,-1.1271701,0.63407415,-1.0396097,1.5379766,-6.690486,-1.4096925,1.6894875,-1.8869811,4.3866982,4.091192,0.070721835,5.7295103,-0.9623236,-0.11328545,-2.9199321,-3.5980752,-7.837877,-6.6214404,4.719289,-1.767933,0.52184033,1.4013772,-0.73050237,-5.4020424,-0.26188275,-0.24235573,5.169093,-1.7862953,-0.8175348,1.8431561,0.7319596,-0.43657532,-3.9789295,2.5780258,2.400235,0.42829478,3.9174793,2.4622474,1.5398953,-6.62727,3.6978745,-2.8387911,0.18952848,-0.32153946,-0.09013617,0.62210923,-1.965004,-2.2317283,1.3999224,-1.1450114,4.0294538,2.6222427,0.424219,1.1043941,-2.2532327,3.1129198,-1.3968838,-2.4441538,-5.110495,3.0013347,1.3027052,-1.7709682,-2.6514137,1.6234523,1.0524275,1.1133074,0.5445495,-1.2673745,2.568723,-0.20994417,-1.0435939,2.04087,-1.1565845,-0.23317483,1.8872644,3.0981593,-0.08762771,4.4858503,-0.99447477,3.444921,-0.17389372,1.9671944,-2.6372774,-0.9184107,0.15525183,-1.9322643,5.3222356,-0.7392412,0.84284496,0.4949934,1.448992,-5.6294713,3.4964564,2.1696281,0.11397173,3.0663645,-3.8613026,-1.9927573,-0.43054768,-1.0845037,-3.2447667,2.0538793,-4.6058583,2.230454,4.2844515,0.6217721,-1.3572009
CHEMBL207584,1.6602938,-1.6576458,-0.4067655,4.04736,1.4769139,2.7958827,4.4752445,2.3666322,1.2765491,-1.7881124,3.9106488,-0.038871102,0.95168227,-0.97076213,2.442858,1.7855988,-1.3337266,-1.4415517,-2.252624,-0.19199547,-3.977483,3.691195,-1.7249385,-0.90363175,-1.619102,-1.3395565,1.8625143,-1.1540241,-3.4949975,4.3527656,2.1992006,-1.049356,4.850728,-2.8517241,-1.6991528,-4.044618,-2.3326645,-1.7221891,-2.736758,-2.1915472,-1.7124686,-2.2546043,-0.46402252,-0.89228725,-0.56483996,-2.7687287,-0.3942674,1.201728,-0.37906343,0.4943033,2.1527023,0.92181826,3.1625576,1.1001499,-3.0580072,-2.6834946,3.5056412,2.7439508,-0.2116295,-1.5852147,-4.0484524,-3.3230703,-1.1652243,-1.6397619,-3.2519958,0.29158258,-2.8917062,3.3125193,-5.312486,0.56063074,2.4742162,1.8890457,2.5710204,5.2645955,1.3507904,0.8383696,-1.1086822,-2.9527395,-0.4480868,-2.327742,3.5415616,-1.5215573,-2.4543104,1.0145707,-2.010734,0.71736264,1.7079856,1.6745459,1.1678268,2.861922,0.65654606,4.390367,3.1063719,-0.7292653,0.5004112,2.2072806,0.9117425,0.6043275,1.9168918,-5.144903,1.2737819,-4.2413344,-0.9346364,-2.0827339,-2.7261224,-0.2998247,2.3123977,6.4329243,-0.90335816,0.79217035,5.4485674,3.527074,-0.26206195,5.8597145,1.1871989,-3.3916519,1.7050012,1.8714364,2.4498506,4.028822,1.2686856,-3.4516747,5.4026904,-0.83335716,1.6687384,-2.4257376,1.1445898,0.4346226
CHEMBL207674,-0.9535378,-2.4549427,-0.7099343,2.234935,0.44784936,1.5288656,-1.3423506,0.65808314,1.049651,0.3340621,-5.08512,-2.7527275,1.3159914,0.67902154,-4.421615,-2.9830246,-1.2185974,0.033575755,-2.0366433,-9.019039,0.5830469,1.394487,0.4035468,2.5494852,5.161532,-2.8647392,3.877414,1.3670422,1.0217526,-0.94522524,2.056152,0.31989443,0.80657357,1.8647883,-2.654732,0.6928827,0.7431451,-3.4315045,2.0120993,1.0162257,-0.42028123,-3.2713048,-2.5005774,0.87528497,-3.9291387,-0.16855979,1.4242321,1.1020547,-0.27748913,-5.5325727,-2.7421749,-1.0350388,-4.9315643,0.23022665,2.4260721,-3.5113056,-0.35291517,-5.321502,-1.9353467,0.90361315,3.240201,1.3151729,1.9222378,1.3866757,0.92234683,0.64431167,-3.0608494,1.078466,1.3947152,0.22479373,1.4613774,4.448308,-2.409344,1.4985276,0.78564566,-0.36494368,0.06139528,2.9766936,1.7047833,-4.726237,-2.6293964,2.2942913,1.2524598,-3.982763,-0.45484418,3.464097,-0.8404104,-1.3474753,-3.2196958,1.5069691,4.2509933,4.1823983,2.269115,0.72231746,2.9670916,-0.62503916,-3.3240778,-4.6934714,-1.908872,3.6569443,3.0776165,2.3297193,-1.9990933,-0.2255609,0.06276319,-1.9370078,-5.947799,-0.5768981,2.5971136,3.8036318,-0.36677536,-5.0480337,0.8393011,5.280753,0.18865654,4.2577014,-1.5044699,2.113604,-2.0900266,-2.5510073,1.1322385,0.31860292,1.2605838,1.2506866,2.0168495,-0.2239537,-0.68937176,2.6126585
CHEMBL207687,0.051738612,0.73662615,-0.33084428,-3.5149276,-2.1725724,-2.0534964,0.1276224,6.5329823,-0.60790664,-3.4895382,0.5497686,1.3405476,-0.9275491,1.4631453,0.23362026,0.27614635,0.16792327,-2.552867,-2.3625216,-3.5123572,-0.5665961,-3.3351514,3.3633232,1.1332611,2.4480472,-0.35875607,4.3037586,1.2802904,0.26226506,-0.69923,-0.96199137,-4.754142,-0.4665038,-2.0799448,-2.7604024,0.6499564,-0.3756231,0.11180095,0.29811528,-3.6532505,4.9076066,2.7565937,-0.31369746,0.4896346,-1.1829083,0.8723982,0.5164868,-0.3957845,3.6727793,-6.0257087,-0.908232,-1.0669503,-0.036332175,1.696148,3.7053351,-2.4225867,2.1489067,1.59492,1.5209571,-2.4000542,0.89851075,0.4017066,-1.8304617,-1.1033376,0.14220291,2.9500747,-3.1499562,0.588596,-3.3245432,-4.0503263,1.902423,-5.61931,0.85784775,-2.2067602,-1.4428747,0.26628074,0.38035116,-4.8039246,-0.42852035,-2.3246236,2.486531,0.40599358,1.3419714,-0.15049621,2.6388717,1.783139,-1.5140048,-1.7408912,-0.37035894,-0.22225547,-2.3014243,2.7342653,5.6991878,2.3804314,-3.670338,0.19128981,1.4283576,3.712794,2.8590167,0.21369728,-0.98629206,2.904208,0.64011925,0.9623377,2.8256624,-0.5505455,-3.8602667,0.14227605,0.50443625,-3.1014366,0.83592105,1.2301222,-3.3742106,0.2733067,6.0260134,3.43492,3.5101085,-2.2579198,2.2783284,-4.329392,-2.6831446,-0.28870863,0.37332457,-1.8515358,-2.8609595,-2.346917,2.204494,-6.7970376
CHEMBL207718,2.1754713,-1.324459,2.6030347,-0.77169174,0.11901927,3.8728082,0.4339475,-0.992974,-2.5416572,-1.9194932,1.6439619,2.4286072,-4.1683345,0.8326516,2.3800163,-2.03399,1.4602777,2.1174176,1.2424,-2.6745257,-1.954114,2.2721663,-2.1211221,0.6599055,0.1354037,-0.97900236,-1.1137078,-3.3516285,-2.9664497,2.7051048,3.17049,2.5336053,4.9553986,-0.3941794,-1.391228,-7.990992,2.7355838,1.764451,-1.160943,-0.41952324,-1.3388048,-3.2558756,-1.2337738,0.3628119,0.9548383,-4.9439936,0.023523051,1.5339609,-1.3237087,2.4946835,-3.1037862,-4.1789856,-1.1162885,3.3970208,1.2165715,-1.2621021,-2.669757,-2.2173367,-0.63403827,2.1967905,2.7947698,-2.4126887,-2.7496054,-3.030953,-2.7031512,-0.6945621,-4.484351,2.2766018,-4.525939,-2.652927,2.2586117,3.2135837,5.134756,1.2003745,-1.2061771,4.9237556,-2.513148,-0.6539215,-0.8507564,-4.935633,-1.1585644,-0.55507636,-4.7116075,-1.0940969,-5.8814964,1.1203434,0.9499124,0.5954064,-0.65487117,6.1293097,-4.458068,6.9455867,-0.9663425,-3.7429729,1.9222833,2.761406,3.8849375,4.429697,0.9995323,-1.6904652,1.796414,-4.3157387,1.6202471,-4.7829576,-8.171665,-0.8849552,2.0897713,7.5317063,-2.5252905,-0.4636384,1.3885021,-0.4250309,-0.36489764,3.7405303,-1.924215,-1.4957273,-3.4728637,1.9674276,-3.0560894,1.9412606,1.2954792,-3.7581732,2.3061826,-3.201738,-1.9300246,1.5684961,-0.09921147,4.664879
CHEMBL207815,-3.6476955,-1.8423955,-0.98013586,0.024184141,-1.8830363,4.550122,-2.83676,-1.8344681,-0.40319777,1.4106324,-4.953618,1.1813545,3.1350703,3.303842,-5.6235843,-2.481116,1.4952363,3.2801058,-3.044045,-5.3874474,1.2935024,-0.1893265,2.3872142,-4.2121906,1.3994502,-4.2220902,-0.22584456,-6.6704054,-2.8817883,-4.59515,5.1278114,-1.9656706,-4.83418,3.74682,-2.9548366,-0.71697617,-3.0077,-5.7567754,-2.5304465,-1.0950562,4.068642,-2.166853,-0.063111454,-2.5143654,-5.7617126,0.43589526,-0.55322313,-0.62181103,1.828787,-7.31462,-2.1456053,-0.9922843,-5.042492,1.8515699,-3.0399163,-2.876292,-6.047544,-3.094579,1.6961809,2.837945,6.128443,1.0935605,-2.8553839,3.6749432,-0.6766361,-0.21325412,-5.9752436,1.8580109,2.5108428,-5.3619676,-2.6724043,-0.23106255,-1.2023864,-1.0471616,1.743541,-0.6600255,-0.1836351,-0.6051307,0.19750625,-1.2634767,-1.6369268,5.7185473,3.8810785,-0.9837178,-1.3272644,0.77255434,-3.480983,0.9030416,-2.440623,-3.8398213,2.6011915,0.8613483,-2.890128,-0.382183,0.77852964,-2.7723064,3.9136453,2.0807896,-6.7802153,6.006033,5.563518,2.702868,2.2640738,-1.5137208,-1.1214038,0.98210084,-4.9733057,2.1643398,9.237223,3.3003402,-3.3398464,-1.0295078,5.2840037,2.8026073,-1.7727324,5.6950088,-1.9481696,0.50955737,1.3898864,-6.612429,-1.4367703,2.358801,0.34222674,0.5806426,-0.7852228,3.564523,-0.770928,-0.9226934
CHEMBL208048,-0.4976896,2.365477,1.9359585,-0.54572535,-1.7684674,-1.0977095,6.325523,0.46073192,-4.3632674,2.0967078,4.8203473,4.275736,-0.43339512,2.4529138,2.7997558,2.8551795,2.5656042,1.1300259,4.25431,2.410517,1.0773048,0.5464937,-2.4587998,-1.866746,-0.9144931,-3.9603095,-2.1588073,3.3527083,-0.15290713,2.483967,1.1347378,0.38816732,2.3017879,-2.6758258,-0.44476387,-3.974761,0.1688639,1.7072256,-1.855843,-4.896021,1.2276068,2.413204,-0.50529295,-1.0203176,2.0410764,0.46522468,-2.2441368,-2.8581266,0.6277205,4.4139,3.4360204,-0.78286403,-0.32844174,-1.615105,2.6046739,-2.7276044,-0.69548345,2.8315735,-0.13657951,-0.5853479,-1.0074577,-1.4444888,-3.002112,-3.0956702,-3.7409801,-3.3859644,-5.537605,2.1123986,-0.5174707,-0.59265506,0.053904764,3.3284893,1.3519422,0.20062234,0.009900813,2.2820082,0.5742016,-5.3275785,-1.2250596,-1.3374245,1.7509117,1.4888694,-3.8442762,1.1727304,2.6619232,-1.3252885,0.6993223,-4.1719203,2.437158,-0.14137246,-4.3151526,-0.71697605,0.9082847,0.569716,-1.4562875,3.3881428,6.2008147,2.863903,3.8751824,0.02096447,-0.9758618,1.3505232,3.5435157,-4.955225,-5.2542415,2.4904127,4.0399265,8.166875,-1.9812567,-2.0885067,2.5136037,2.389031,-2.9011784,-0.7460073,0.470844,-1.1763594,5.8534284,2.020509,-1.067385,0.92034674,0.6079472,0.8890779,0.21850976,-3.2835238,-1.9010979,0.38098985,-1.0682555,-1.1178226
CHEMBL208118,0.4214332,-1.081415,-0.3346397,0.82038397,-1.1241213,0.71432364,-0.2226261,4.257607,2.2428749,1.7908291,2.6795757,1.4754608,-0.63419855,1.3725533,-0.5561099,2.235279,1.2748716,-1.5344931,0.37994036,-1.0781888,-2.7296042,-0.22568734,-3.3047276,-3.4327157,-1.1409073,-4.500206,-2.8550346,-0.78046817,-1.6477479,2.6516304,2.6794393,0.71290207,-0.22088501,0.19341525,2.1203694,0.5972422,0.50441134,-5.3187113,1.9687307,0.28894553,0.3186172,-1.1431378,2.6131258,-1.9888254,-0.49524364,-3.1802223,-0.5685096,1.7781104,0.15893833,-0.4287545,1.2776458,-4.2263837,-1.5517427,-1.2173953,5.185224,-2.7833,-0.044399515,0.6080832,-0.8962405,2.448658,-0.7896514,-2.312735,-2.905296,0.9699219,1.0596142,0.40650827,-1.6519554,4.1936774,-3.9456067,-1.9453388,1.4872115,0.915068,-0.74661154,-2.7282486,2.2622926,-6.1072373,3.7247736,-5.125779,0.7117304,-1.0432167,-0.57236004,-1.1655366,-2.2144325,1.3847724,0.56705076,1.5257549,2.7327924,4.3184576,1.8834406,4.422048,2.4067142,0.07287807,-0.48554724,-0.19306727,3.9395506,0.3796109,-0.28073734,-2.2207084,0.17893729,4.1229753,1.3829808,0.16493493,0.43098786,-2.677388,-1.4924057,-0.13535169,-1.406577,6.452989,0.9042203,-1.5120808,-0.66726154,1.7664689,0.5047134,2.671952,2.655805,5.764351,0.26526675,2.0141494,-1.6522118,-5.7833147,-1.3983933,0.14441222,1.49381,-1.4984411,2.166843,3.8745694,6.148339,-0.11674099
CHEMBL208286,-0.76450884,-0.5787174,-2.9582522,1.019033,-2.7625895,2.141124,2.596705,0.7601098,-1.7981255,3.5628438,-2.6045516,-0.02949211,-2.2732022,5.3588886,-1.8446525,0.58373255,-2.8973608,1.8824091,1.3109175,1.1783003,5.5157876,-0.064986564,0.2068111,0.80795205,1.9061887,-5.1682715,-2.6230342,2.8840258,1.6480391,0.87268126,3.033242,0.2969789,4.288197,-0.93033725,-0.07043493,-1.754435,2.367621,-2.4295294,-1.5502431,2.2453797,0.32181072,0.13113202,2.4138236,-2.286084,-2.3530552,0.89341635,-1.7428452,3.7975125,3.266567,-1.4845129,-2.6476588,-0.035958644,-5.2022395,-3.7750273,1.428721,2.188041,-2.1948507,-2.0626714,2.0379102,1.4515413,-0.20356372,-2.182511,-2.4896142,-1.2837917,0.13515754,2.3544238,-1.8869584,-1.6362287,-0.86661476,0.73202175,-1.1590692,1.9520658,0.6724261,3.2874086,1.7693436,-4.1290913,2.0691428,-1.8563182,3.7439413,-2.0429237,0.31198433,1.5882335,-5.717189,-1.8543129,-0.41596523,2.3958037,1.41575,1.2432023,1.4885511,1.7817162,3.9347987,1.4917836,2.8769174,-0.50701374,1.6943142,0.99854165,-1.413046,-1.1481822,-4.5919714,7.4265604,-0.8925538,5.8288817,0.82786214,-2.7592254,-3.0674214,2.8738875,-1.1952155,1.389295,-2.1150029,1.0024039,-0.84420496,-2.9336658,-2.644763,-0.40404904,2.9449248,2.105513,4.993504,2.5487359,-3.1670182,-4.1084943,-1.5278076,0.07154851,-3.22697,-0.5361682,-0.5158975,3.6571324,-1.3409016,0.3894712
CHEMBL208292,-0.88103366,-2.984381,3.136549,-3.9215965,2.053433,1.8276135,-3.2670214,-3.5960264,-4.2397094,-0.96475613,0.21046177,2.2823699,-3.5848296,-0.7433471,-2.5620604,-3.862761,1.2533456,2.1901467,3.5482068,-5.097483,0.3335726,-4.260859,-0.41256028,-0.5341629,3.3799267,-2.4727423,0.073524095,2.2011905,0.33775443,-2.4459906,2.2853565,5.3236437,3.9970906,0.45593312,2.5591161,-2.963301,-0.5833708,0.3896917,-5.079548,1.3929238,1.6585023,-4.5564146,-4.566964,0.026351131,0.039781142,-2.9965158,3.7882395,-1.778701,-1.5495555,2.8513575,-2.7441134,0.032277547,-5.3394413,1.0729934,2.2094996,-4.6933703,-2.0297332,-3.505267,0.52716684,2.4472585,3.9413836,1.8747053,2.5679755,-2.20649,-4.299527,1.2915308,-0.96384704,3.300138,-0.918882,0.39297622,0.102413036,1.0445166,3.0498672,-1.7498173,1.4837778,1.109074,-2.193791,-2.5774708,-0.697046,-5.042294,-1.4821541,0.36119798,-0.52329624,-3.0838027,1.6662697,3.128237,-1.3752605,-1.6459272,-3.0106108,1.8101524,-1.7471553,3.3350506,2.845607,0.3895173,-1.8568199,3.2111776,3.955676,-1.9178112,-0.021056607,1.9000075,1.9728771,2.9258623,-2.4074547,-4.800188,-0.8041918,-1.5629381,-3.4019983,1.9721644,-0.4013679,-0.47288853,-3.1280417,-0.7930667,1.0340621,-0.2109001,1.2737985,-1.3086913,2.2626417,1.431083,-4.3922977,0.36497992,1.4986972,0.06163031,-0.95969254,-1.6760734,0.78664434,4.7464466,0.7933662,5.463311
CHEMBL208637,-1.335199,0.73175794,-0.20774359,1.8236307,0.618112,-0.47286496,0.14463125,0.99903667,0.0071079545,0.2728066,1.9817984,-0.38928333,0.5619023,-1.6818556,-0.14418417,-0.95353127,0.047497172,0.12664312,-2.3985748,0.5114849,-0.79219097,0.29870278,0.11415341,-0.09465559,-1.6153233,0.8303711,-0.927995,0.7695383,-1.1414715,0.1760611,-1.6908414,0.44470668,-1.8489562,-0.1596103,0.20111337,0.48816738,0.8848668,-0.6170103,2.2955735,-0.42896113,-0.81528157,1.2153558,-0.3305659,-0.6382476,-0.11724287,-0.23396304,-0.3203602,0.52056986,0.26391274,0.17732471,2.009405,-0.9954221,1.2567643,0.4486363,1.3757895,-0.47370327,0.9557346,-1.1090122,-1.041194,1.2482014,-0.49693903,-0.7162047,0.045570433,-0.19889346,0.24568865,-0.18841827,1.023481,1.6398607,0.20602065,-0.18441924,0.08473219,0.13250746,-1.0675378,-1.4680692,0.14014778,-0.574483,2.6552343,-0.30792254,0.18870774,1.4284472,-0.5273553,-0.45053095,0.7339722,1.1780517,-0.8226934,-0.32349837,1.8058906,1.6307311,0.76644176,0.17186056,1.7411003,-1.0740898,-0.9018009,-0.14570774,1.9550126,-1.3576822,-2.2139754,-1.8130249,0.98890543,-0.76547915,-1.586852,-1.5288823,0.81243134,1.3776506,1.2134252,-0.9197416,0.80319536,-1.0885692,0.49995592,-0.97572136,1.2449807,-0.24788025,0.87258136,0.7825587,0.27514887,0.16111058,-0.6494438,0.61173356,0.5042829,0.12243259,-0.009474852,0.37755933,1.9214119,-0.22989398,0.44333535,-0.61185086,0.61965483,-0.4235755
CHEMBL210032,1.1432171,-1.3356723,-0.2483521,-0.7311025,0.044187553,-1.3664435,-0.5528823,0.7564916,0.07426297,0.32201207,0.8085958,-0.042265896,-0.38496566,-0.066848055,0.59360796,0.31942612,-0.6284354,1.4848884,-0.8357733,2.299269,2.5823412,-0.0006034076,-0.0066941297,0.3090053,-0.5977561,0.044522196,-2.5228093,-1.7393807,1.9075637,-0.28272358,-2.4900012,0.79001254,1.4586879,0.14917186,0.22370891,1.6134065,3.7659383,1.1070099,1.7021959,0.5136572,0.5045148,1.4131778,1.8977482,-0.5630749,-0.50653917,0.12952456,-0.8375741,-2.3354042,0.8872457,-0.45853576,1.8656144,-0.06550365,1.0655171,0.37363553,1.5491401,2.1300042,1.4743786,-0.9976697,-0.30853793,-1.4605969,0.88001996,-1.5724809,-0.4233182,0.22866881,0.31289008,-0.1159214,2.9964721,0.6091544,0.15700644,0.101416305,1.0138384,0.50274146,-1.3042096,0.54864275,-0.60154593,-0.050812654,-0.5048377,0.32735515,0.92925245,2.4062245,0.12476686,-1.536816,0.8543883,0.6817545,0.8383933,0.98149085,1.294573,0.0014018007,1.1218221,2.1220207,-0.64022636,0.36504737,-1.9184403,-0.3170922,2.0822165,0.45532608,-2.372409,-1.3158522,0.59683126,-0.57328796,-0.3827648,1.7370856,0.6095991,-1.6642953,0.534239,0.97933996,1.2332422,-0.84224945,-0.6053843,-1.1600689,0.6801188,1.5811145,-0.5149306,-0.75466543,1.4391782,-1.5450635,-0.834963,0.8506826,0.5369214,1.7076429,-0.024068512,-0.71186066,-1.4775416,-0.9491066,0.380885,0.1080457,-0.53827286,1.2667814
CHEMBL210618,1.7489715,1.0349059,2.5396175,-1.4823368,0.07849708,-1.5464044,-0.8376295,0.48376507,1.0710199,-1.8826504,0.6045439,-1.1385939,-0.9577012,-1.6140025,2.0933468,-0.6333483,0.9507461,-0.5520046,-0.3652049,-0.2992039,1.8155462,1.9801426,3.1260645,-0.26591468,-0.80288225,2.2779992,0.27512208,0.43436095,2.7404559,-2.140007,-1.606184,1.1776109,-2.5517235,0.05189865,-2.7066345,0.56848055,4.562437,4.304144,4.1028686,-2.214936,0.93816286,-0.2851283,1.5280046,-0.857826,1.9931203,2.178105,1.0675443,-2.991322,0.84225285,1.2800359,-2.671956,-0.33252874,3.2681096,5.36323,2.8736844,1.3183744,0.67861897,1.7420776,-2.9767125,-2.3250499,1.9506706,-1.3418576,2.0637414,0.9940142,3.444407,-0.33439046,1.3766508,-0.74217623,-0.7563846,-1.2006764,2.5338113,0.4623634,-1.248897,0.812452,-1.1636,1.3543022,-2.4047246,0.4953836,-0.21677874,3.6557848,1.2513765,-2.177138,0.61863285,2.2162852,1.0993544,1.8318273,1.0771044,-1.9478422,0.803268,0.005229093,-3.64135,-2.0581183,-0.6618922,-0.06054464,0.93946534,0.6634095,-2.188985,-0.768003,0.1666204,-0.92918295,-3.0191681,0.78049016,1.9488536,3.4470398,0.1543654,-2.072929,1.6844712,-3.210237,-0.09916096,-1.55518,-1.9075583,0.21471763,-0.307275,0.810592,-0.77851725,-0.04436066,-1.3100735,2.5478272,2.8562832,0.832109,-0.7365875,-0.58669525,0.54009986,0.11572996,0.52617496,-3.095022,1.0018046,0.56323504
CHEMBL210928,3.0756228,-0.5330032,2.8489969,0.86227965,1.8021747,0.21788788,-0.62607414,-0.37914342,0.118788615,-0.0068273507,0.6044896,-1.6064368,-1.4002165,-3.80264,-2.7251174,-0.38940284,1.0172422,2.708943,-1.7053764,0.42582098,3.019524,3.5044053,3.460854,0.262486,-1.2042085,-1.2203387,-5.385655,-0.13501658,1.0677333,0.5004989,-2.8614419,5.422848,-0.35457832,0.1376491,0.4438675,-4.3417697,3.2000873,-0.8476951,1.333375,3.3526907,1.1595187,-3.324335,2.3727758,-1.5887626,-3.6110075,-0.40825903,1.8643047,-2.2976422,-3.2684648,0.83204687,1.1416838,-3.2120001,-0.43312293,1.0096959,0.6322993,-1.0465736,1.0744907,-1.5662878,-2.9811304,-0.41968706,3.0383513,-1.3732902,1.9584162,-0.8762526,-1.1146303,-5.8593245,1.1336384,1.9930693,0.88940144,1.5842867,-0.15304582,4.0240583,-0.005232418,1.8501886,-2.2296357,-2.1193204,-1.8114535,-0.3628517,-2.3760223,0.87558943,1.1466893,-1.5195835,-0.81683844,0.46301,2.9142559,5.83586,0.32660967,2.6870556,-0.5503162,6.3367705,-0.6121167,0.41926065,-1.3029331,-0.1982265,2.5810282,-0.8126457,1.2570629,-1.5080165,0.04750424,-1.3324465,2.443143,-1.5783151,-0.23953459,-1.7968645,-2.365386,-4.244918,1.3972814,2.7965038,0.08968572,-2.7128556,-0.8570798,-2.5710847,2.2004678,2.1192672,0.30223125,-2.4153092,-1.0732415,4.3951797,-0.032679528,-0.13836145,-1.246148,-1.9862068,-0.34527004,-0.9746826,1.5030427,0.66460085,-2.3254523,3.3565211
CHEMBL210963,4.088774,-1.603386,3.1246371,1.5884387,1.1210477,-3.0319917,4.2607784,2.0190217,-1.5951904,-1.4672725,1.5417074,-0.9682299,-0.8987129,-1.1360308,2.6288855,0.22298767,3.3687615,-0.8132077,1.3135467,2.9037962,5.102481,-0.48214415,-0.039743967,-1.8669316,-1.2953807,-1.7585555,-3.5160754,1.9464005,4.7428074,-1.8444315,-3.0957794,3.9961624,3.1027148,-1.1208537,-1.3998612,-0.3297692,1.139319,-0.35900515,-0.9342781,0.3065364,1.111225,0.9336961,0.19517066,-0.58129275,2.1487987,-0.86053544,-0.8865098,-1.0284158,0.28024265,5.061177,0.38311896,-0.032565072,0.76991427,-1.7665279,2.842414,-0.5373378,2.4035301,0.33532763,-1.4070452,-0.58664346,0.6164145,-0.5030139,-0.39271027,0.6240332,-0.15543634,-3.768031,3.2496006,2.034859,1.3694222,2.3447053,2.4267209,3.943704,-0.8527472,-0.98681957,2.235326,-0.21111274,0.07424271,-2.2806442,0.44775364,2.0453036,1.0209891,-3.9722419,-0.09537198,2.6219804,3.5426736,2.1682022,2.667783,-2.1536624,2.727081,3.268926,-1.319867,-2.8641758,-0.46270075,0.16232565,1.0811064,3.589184,-1.1763726,-6.1469426,0.10084954,0.8361243,-1.1015474,3.5068266,0.67120284,-2.565043,1.6060543,-2.3959682,2.3262317,0.3332584,1.1393652,-0.35188898,-0.92673045,1.6897603,-0.9457299,-0.20394884,-1.3056608,-1.1578001,1.3597045,6.5257607,2.0127637,3.4864342,0.8648527,-1.6980274,-1.0679667,-1.6525557,3.0112844,3.554593,-2.1206126,4.759085
CHEMBL211003,0.03297648,1.4716979,-1.1089499,-1.645884,-1.5250462,3.5060427,2.6191156,1.9143963,-0.26410577,0.88034606,1.361562,-1.0149498,0.896779,4.641461,-1.7559258,-0.62694836,-2.7507157,-2.4092891,-2.8436968,-2.470441,-1.2359061,-1.4075342,0.021175701,-1.1473576,2.6568775,-5.0566583,0.11025217,-0.53670055,-1.4919473,2.3291755,2.5895984,-0.10166043,2.0738318,-6.001432,2.2105477,-2.8775625,-3.726272,2.8977149,-4.6637588,-0.31183904,2.6544988,-0.74126685,-1.6296153,-0.76337487,0.4314099,2.361511,-3.0180478,2.411812,4.7267222,3.728306,-4.4676394,7.4210196,-0.51351345,-5.152701,-2.5236688,-0.14336663,2.7596083,4.2508316,5.3554134,1.3813906,0.60525006,-1.7550539,-4.3103094,-1.0867192,0.8907584,-0.86703086,-4.2811537,-1.2020144,-3.7251198,-1.3663365,-1.5705829,-1.177563,4.423487,0.311616,1.0586774,-6.685221,0.916134,0.14108303,-0.46609503,0.82226014,3.9878166,-0.7678962,-3.8597739,2.300007,2.688153,3.4810224,2.3287451,0.31689212,1.0630503,2.8244343,-2.5163167,2.4116178,2.7755783,0.99264127,-7.2105722,1.0243285,4.616357,2.5913775,-5.3031006,1.63537,-1.0993329,0.8225526,-0.90597856,0.34648824,-0.9955956,-0.33647165,-2.1788623,3.3085916,-1.2355999,0.6214847,1.2049464,1.1274843,-1.6211641,0.0869474,-1.1887952,0.8912525,2.1515565,0.93417174,-0.28341693,-0.3795439,-2.5433364,-1.506279,1.2330352,-1.254328,-1.7103904,3.1017451,0.62020075,-4.283238
CHEMBL212382,3.4788978,-3.8938046,2.7264395,-1.0035087,-3.0357993,-3.7400033,0.13444324,2.398941,0.39326894,-0.09273619,2.596314,0.8272499,-0.877772,1.1911556,0.18185,-0.10739912,1.480513,0.45463157,0.25879642,-1.1506839,4.2713547,0.22188121,0.34133208,-1.6249744,-0.21834876,-2.1569314,-4.8158903,-3.4041219,2.7226403,-0.5205598,-0.81490886,1.0946779,1.8090485,-0.115037054,0.39826968,1.0566494,3.197506,-2.105124,1.2789026,-0.20995829,2.5916474,1.9505423,0.5070029,-0.8064566,1.6124244,-1.5972588,-1.5900875,-2.0440106,1.8033936,1.4200323,1.8083872,-1.1794801,0.07802825,-1.0750996,2.899703,0.9975579,0.93721044,0.28800607,-1.1666776,0.655326,2.502686,-2.2587519,-1.7811478,2.991311,0.4893369,-3.386441,1.6967504,1.4055412,1.5683014,-2.512279,2.4697351,1.4569916,-2.7214093,-2.0540006,-0.0020893589,-2.5161264,0.3413158,-1.7477206,1.6089087,2.5266628,0.012361534,-2.864354,2.2362938,4.499519,1.990265,2.2085433,2.957058,-1.3521037,3.6121454,4.5100565,-2.4201903,-0.068064734,-2.106158,0.41110116,3.1565027,1.8827677,-1.222868,-3.026225,-0.23393427,2.1330483,-0.08739348,3.9956605,1.6239395,-2.498649,-0.34521517,0.20653294,0.33909482,1.731336,1.7412195,-0.43349907,-0.49637324,1.2470219,-0.737324,0.9757981,-2.3512948,1.2544742,0.65359807,2.8809414,1.685771,1.3591155,-1.2887778,-2.0227137,-2.5537572,-1.4378021,-0.15778098,2.2311895,-2.063897,0.47691795
CHEMBL212968,3.0827715,-2.5814235,4.385271,-1.032814,-0.59721327,-3.5681896,1.2376071,3.4832146,0.9614187,-1.3282623,1.693464,2.4253228,-1.5539705,1.8945233,-2.4381008,0.28636366,1.4202096,-3.1703107,-1.6239341,1.0370979,5.095447,-2.0278847,2.6637762,-2.9318693,-1.1482784,2.4149528,-2.313208,1.7766615,3.3182223,-3.3029017,-1.1273428,-0.29108554,0.36264738,1.290232,-0.8450257,-0.6440126,0.31886548,-3.9573774,0.84338677,2.5580032,1.7006023,2.681077,-0.5819878,-1.865326,0.84213895,-0.5977374,0.8853235,1.7921398,-0.5574852,0.48989877,-1.5390623,0.3218515,0.403467,1.0814168,1.7254679,-0.19635302,3.3950505,-0.034287825,0.5430109,-0.4619568,2.512187,-3.1850529,-1.304861,2.691064,1.1738499,-0.93195724,2.2488804,2.5609746,-1.5868396,-0.8122479,1.3051778,-1.9210448,-0.2157196,-3.4809408,2.1515381,-2.349854,0.14964435,-3.921935,1.4852377,-0.55038613,-1.4565141,-4.282956,1.1187634,3.7237601,0.09349438,1.3304173,0.82116926,-0.5498088,3.4757667,3.009613,-1.7480541,-1.9064046,0.75533825,0.4280747,-2.1354363,-0.82844895,0.2382344,-3.2685256,0.64636624,2.2810402,-3.0493388,3.3632886,0.322653,-1.0886072,1.2614719,-0.5403221,-1.1934171,-2.027852,1.7467552,-0.41415218,-3.2861996,0.6756475,-0.58110905,-2.3876987,1.4399219,2.2664099,1.4917667,1.9061517,2.368224,-3.9743466,-2.3926413,-1.647713,-0.80774796,0.82981426,-3.336048,1.3855473,-0.22141665,-1.7884876
CHEMBL213423,1.9406638,-1.2393047,0.8842393,-0.87177485,1.219388,-5.3110523,2.1219323,3.5811582,-0.038581494,-0.6338024,6.1471186,-0.56932217,1.1406682,1.108381,3.7295592,0.74811137,2.7931054,-0.09215726,1.7063537,2.0410247,2.0911841,0.74679726,-0.13320816,-0.27773157,-0.27945778,0.7088362,-0.75399435,-0.7309723,0.98809505,0.55450976,-2.3171036,-0.9606078,2.5345807,1.179287,-2.225972,0.56387335,1.0719076,1.1394243,0.9486097,-3.993624,-1.5044038,3.1934836,-0.64144737,-0.28794795,2.7188284,-2.0787709,-2.079726,0.24982826,2.2273924,2.9923453,0.5715477,-0.48140502,1.5074081,0.38221544,2.5665824,-1.0112791,2.2630804,0.9676367,-0.57162607,-0.8484493,-0.73381525,-0.70081156,-1.5060606,-4.0461774,1.0356416,-1.4858977,0.50069463,1.60197,1.5468243,0.5945345,1.95378,0.47880232,-0.54804146,-2.201286,-0.88262534,-0.101107664,1.4868097,-1.2805012,-1.479848,1.8439367,-1.8016131,-3.027355,-0.44030732,5.192525,1.067334,-1.0928129,2.9627545,-4.2730093,2.1768441,2.6290774,-1.4962655,-2.6844559,-3.0649042,-0.18336815,2.4353034,1.2530074,-2.0501182,-2.0666294,0.81174976,-0.19696128,-2.890499,-1.2354115,0.69398665,-1.6097627,0.71888524,0.038466588,0.56261474,0.8701016,-0.9650303,-1.2005948,0.87048507,1.2222395,-1.0889677,-0.48691642,-3.025492,0.16574344,-1.1120398,2.3416831,1.9030964,1.2388599,-2.9205325,-1.8904284,0.3842935,-1.945278,-0.3258206,-0.21220592,-1.4263691,2.4420836
CHEMBL213451,3.869269,-0.8479167,1.560967,-0.25492218,0.103698306,-0.73919183,-2.7747447,1.8121378,2.2932804,-0.5610654,-0.9332293,-3.2055357,-0.44720733,1.714155,-1.8040137,-0.10568775,-1.8338056,-0.54449856,-2.9721115,1.4478059,3.9841628,-1.570848,1.7513871,-2.345303,-4.3631616,1.0451404,-3.9713778,-2.0033996,0.41029233,0.48777968,-4.5013514,2.7613003,-0.54496557,1.1908021,2.7882073,1.995848,1.3235416,1.5739888,-1.1636786,1.2476201,-1.9780612,1.6006762,-0.3129071,-0.55497795,-0.12999219,-1.7545235,-0.0027837008,-1.9376341,-2.2331374,1.6043843,0.72862697,-0.70788276,0.17346315,0.013153538,1.7783681,0.75754404,3.6783168,0.1054039,-2.398353,-1.1729933,-1.6253201,-1.2349477,1.4137765,-1.0491942,0.3797658,0.7543459,2.4945674,0.24995609,-0.88671345,-0.84277076,-0.56754357,2.2033455,-1.6916943,-0.5878691,1.0933573,-1.4452387,2.2689972,-1.1219587,-1.4883542,-0.96970016,0.43885207,-0.91010475,2.04897,-1.1416517,0.2661024,-1.5838567,2.323177,1.2626092,0.64879483,1.551877,1.0147228,-1.1177756,-1.2600547,-1.0300587,1.8684837,1.4449611,-2.8303804,-2.5843985,-0.48921794,-0.6961763,0.14987434,0.4938599,0.47137618,-0.9094279,2.022221,-0.99597865,-1.088498,0.16233182,-0.2396538,0.30754602,-2.3920438,0.23090555,0.7860805,-0.16121425,-0.25230703,2.5635042,0.27986836,1.5350641,2.0603702,2.9749434,2.6427402,-1.248648,0.34464455,-0.28004506,3.1191585,2.0235066,-0.18998855,2.5010173
CHEMBL214198,0.2278539,1.667953,-1.0941224,0.013457045,3.3575764,1.4722247,-0.12297788,1.1926554,-0.25372896,-0.94738543,0.4899395,-1.8589618,-0.91366255,0.3776875,2.5591652,0.4050524,2.438342,-2.6944373,0.6206639,5.0285287,-0.6405043,-1.499138,-1.731856,-1.8369716,-3.0390034,1.3221922,-0.684267,-0.277768,-2.2526648,0.19122368,2.1633887,0.78112775,-1.3416336,1.6558621,0.2117379,-1.0098418,-1.3555723,3.280675,-2.9087646,-0.68852735,-1.6792674,-0.3979017,2.9782135,0.6092675,0.68392104,-2.54461,2.1864662,2.9860992,0.31576064,2.327589,-1.5279864,0.4526035,2.784441,0.9625636,-0.92708015,-0.046919875,1.863889,3.3125572,1.1329428,-1.4729748,-2.619397,-1.6133236,-0.040521722,-5.3657084,2.3741765,3.255467,0.63161856,-0.87773937,-3.6185951,0.9386386,0.075074315,-2.7190244,2.6939878,0.5721883,1.8251731,0.3387253,1.1501477,-3.978329,-1.6430866,0.3857146,0.47200787,-3.0725777,-4.267267,-0.4133182,-2.5560534,-2.2239335,1.889097,3.0130258,0.5044008,-1.8378773,0.4597116,-2.6173851,-0.21425354,-1.4028349,-2.4850826,1.8783573,-0.070488036,2.14852,-1.5708036,-1.1337677,-2.46236,-4.066551,0.5519105,1.0595322,1.5878414,0.07957129,0.90220845,-0.446717,-1.9181921,-0.12831166,-1.5289425,1.8756272,1.3702157,-3.8148048,0.4485662,-0.72150517,-1.1336049,-0.8364807,0.6222749,-1.3819575,-0.7878368,-0.33394998,1.8857524,-1.3654686,0.59300214,1.7379452,4.759517,2.6092887
CHEMBL215652,1.2215557,1.1510649,3.591172,-0.19437948,0.5717275,-3.9853747,0.1648804,1.49189,1.0869637,0.6782753,3.938648,0.11095773,2.4770565,-1.269011,1.2391491,-0.50530815,2.9449518,0.22131383,1.1994046,1.720263,1.0971404,0.5477832,-0.13518664,-3.885094,-2.0533192,0.22702369,-2.2321613,-1.3314412,1.5299343,-0.003097266,-1.2956829,2.8155434,-2.6426287,1.760899,-0.31471044,1.1498377,1.5194532,1.7625868,-0.6098954,-1.8535243,0.5511797,1.6271696,2.0982654,-0.92982197,0.86328375,-0.12127586,-1.9944754,-2.4431956,0.003935732,4.1096597,2.48626,-0.18804842,1.4080815,0.7499273,1.4752853,-1.0785837,0.7825587,1.554421,-1.9801775,-1.8088135,1.3568006,-2.247667,-0.19997755,-2.1713777,2.7755268,-3.0210223,1.4846177,1.238462,1.1818081,-1.4427904,-0.12819181,2.001704,-2.2785304,-2.0874681,0.67740333,-0.63756245,1.6549022,-1.3875678,-2.7141962,3.307735,-0.74980724,-2.175096,-0.03352186,3.0333781,1.8765051,-1.5416312,3.4204874,-0.9616283,1.4987148,0.7074185,-2.069438,-3.4622376,-3.3158634,-0.62262845,0.5356231,1.411137,0.3241218,-2.223115,0.24422307,-1.2819408,-1.8043889,-1.6150299,3.083472,0.13492067,0.44663617,-1.8729495,1.0839434,-0.20448898,0.873634,1.0199159,-0.9124142,1.7037662,1.7553661,-0.8576788,-3.078899,1.1451272,-1.4087312,2.8394854,2.1837652,0.7658191,-0.02321975,-0.1632689,1.3024389,-1.9352527,1.5018895,0.24938479,-0.31820196,3.0448496
CHEMBL215803,1.9699504,2.5152314,-4.303703,-2.3008833,0.45801437,2.097958,-0.74124205,4.3531437,-1.7083427,-0.096406564,-3.0847535,2.633579,-2.1801548,3.0906856,5.175225,-0.13886711,1.3690561,-0.8240099,-1.5384312,1.41157,-0.124180645,-1.3460258,2.9704044,0.64910275,-0.5295214,5.021558,0.7356662,-1.0035373,0.35266936,1.3894098,-3.456253,-1.352535,1.8494581,2.2692692,-1.98003,-1.0025303,-0.80818135,0.41248542,-2.6797645,0.13241638,-0.7216643,1.353457,-3.2918186,1.5438626,1.168199,-1.1779022,-3.2207928,1.6997395,-1.9453186,-2.73956,-2.4576607,-2.7893202,2.4676178,3.2346983,2.1827815,2.7004776,0.42088854,0.31364876,1.0635033,-0.9654883,-4.3998713,1.3357353,-0.2611153,0.8679209,-1.3526545,3.774936,0.9215145,-1.300677,-5.708622,-4.714843,-1.0601338,-1.0892737,3.252131,-1.7988942,-1.8641074,3.2609544,1.1754957,-1.5853595,-2.090138,-6.331836,-1.14552,0.062490597,-1.5188429,0.4718994,-3.6678786,-5.3881173,2.145791,1.309158,3.0319211,0.192851,-1.790684,-2.4709737,1.4160812,-1.8918918,-0.16610806,0.877455,-0.21270922,4.3860555,4.949309,-1.2152042,1.067458,-2.6327634,3.2443967,-0.37072712,1.4558978,-0.6718267,-0.656952,0.77736026,-1.0439253,0.014364591,-1.0439873,1.439136,-1.8524919,-1.1287439,-0.13314006,5.587509,-0.3339271,-2.2122374,3.4963627,1.3837707,0.25552002,-3.8349252,1.6189986,0.96643955,-2.82327,-4.190825,-0.4352632,-1.3694988
CHEMBL2205426,0.37335712,-0.37537578,5.610847,-5.3080497,-2.6933086,1.045737,-2.063618,0.34638816,-2.2268682,-0.86363965,0.044927076,1.8379928,-1.5496868,4.840169,-1.3159382,-2.1646302,1.6097559,2.1920831,2.464714,0.30554917,-2.6564174,-3.200852,-0.40957093,1.4287772,1.5453645,0.42785007,-0.50316876,-1.4893576,-4.0141797,4.244921,6.064786,1.3863006,2.610695,3.0647743,2.7369485,-6.7628794,-4.68679,-3.9382796,-9.717077,1.2247199,-1.1837215,1.2466555,-0.6850316,2.7462094,-1.5999477,-6.2801313,-0.010359054,3.8109503,0.6491622,-3.1078296,1.0330232,-2.858439,-3.490922,-0.25039983,-1.1239492,1.016579,-1.4140512,2.532153,0.25348347,1.7550367,-1.4102767,0.0709627,-1.1815352,-3.3701887,0.66766614,0.9951267,-2.7552989,-3.190399,0.71477336,-4.4911613,0.8912753,-3.9210327,0.6091973,-3.9403021,0.33849335,-0.015235841,3.2272806,-5.162148,-2.7970448,-5.33322,-1.3673067,1.6520561,1.0352962,-1.7400992,-2.5014863,0.23936218,-3.403958,-0.49554995,-3.188763,3.707895,-2.6467185,3.0098686,1.5422386,0.1933426,0.08645499,1.2384555,1.1948147,3.2689848,3.3171492,0.7127556,1.2644373,-2.3834252,-0.56314397,-3.2327888,-1.373996,2.206495,-5.071975,4.0075617,-0.5197591,0.056170985,1.5076708,-1.8248262,0.6934333,1.042654,0.23946309,1.3880285,1.3297845,-4.4935536,-1.6868693,-2.120303,0.055009395,-4.4741516,-1.2119626,-2.411312,-3.1352959,1.4533856,-5.058215,0.28983647
CHEMBL223367,-0.08159915,0.9519092,7.1360946,-2.2628996,-3.0702136,-3.8386226,0.91925687,0.65523577,2.7280302,-0.5020326,4.433309,3.475364,1.4753276,0.38829368,-0.5796635,1.769206,2.8456821,-0.4581137,2.6458595,1.8769499,-0.04619187,0.5608258,1.1238339,-0.47415885,-0.024813786,2.9262252,-2.3520887,0.84033525,2.1698341,-1.5605645,-0.45912707,2.1370664,-0.6390759,0.5806536,1.3641726,0.6365367,3.073741,-3.6625123,-0.41619077,-2.4607153,-2.299589,4.148643,-1.1400431,-2.5208783,4.9348097,-2.9315038,-0.10334571,-1.2617732,0.5156884,1.9051664,3.8800104,1.1961055,-1.8278369,-1.8133932,0.93012375,0.5738852,2.152413,5.202783,-0.705784,-0.20740281,-3.5968719,-1.3720975,-0.55637795,0.24857603,2.8454146,0.44092387,3.0447342,-0.7134015,3.4791827,0.81000185,2.0528078,0.7000248,-1.9701604,-2.2656026,2.4040887,-0.19775087,5.873741,-1.6986896,0.6113437,-1.3558377,-0.6185635,-1.0804048,1.9652488,3.7223296,-0.2354688,1.4750581,-0.74635524,-3.3472214,-1.6586474,4.1027346,-2.8648345,-0.747898,1.2326703,-1.2245525,2.5146282,1.4671874,-0.8180447,-2.772977,6.3860226,-0.0028473735,-3.428445,1.0231335,0.17122312,0.57109255,2.182557,1.0173314,-1.0899969,1.3125454,-0.017030086,-1.156677,2.3023665,0.26614943,-3.2235782,0.97530454,-1.1327506,-0.74431396,2.1458251,-1.2043622,1.1281881,1.1613787,-0.21514964,-3.992912,1.2840577,-4.068028,-0.9013717,0.24506094,-5.419501,-1.8154635
CHEMBL223460,3.1298852,-2.3704793,2.255698,-0.62857026,1.10782,-1.2507161,1.7316494,3.320492,-1.6364216,0.4793943,0.5506224,-1.7873752,-0.76200634,4.892143,2.8768704,-1.8839549,1.8169602,-1.0534887,-1.9627417,3.1195538,2.808356,-1.0327302,-1.9459264,1.8908602,-4.269925,3.3701313,0.40561542,1.6810545,0.8177259,-0.12024644,-3.563397,-0.27570352,3.6755888,2.9282389,-1.6700103,-0.82101727,-0.25357962,-0.43811548,-1.0675882,0.5303623,-5.3919964,2.8670733,-3.9425108,1.0174302,3.1387095,-4.391551,0.10748894,1.6250293,0.07267494,1.428711,-3.2014153,0.68038946,2.629538,1.6160619,-0.9545659,1.6746122,0.90654397,0.71957505,-0.61641204,1.4393871,-0.20433445,-1.0043004,0.060587287,0.9969317,1.9708358,2.0629787,-2.6707633,-0.5173048,-1.4780661,-3.135484,2.6471171,-0.9910974,-1.3601793,-3.128903,4.5285907,-1.3483056,0.8661023,-4.1485744,0.05073222,-1.5387121,-2.9687502,-3.828452,1.7206353,1.5994321,-4.4987235,-2.8104718,0.81803036,-2.4227057,2.586904,1.1000254,0.49750715,-0.9611661,1.2684076,2.0993857,0.7559915,3.3994966,-4.12918,-3.6802034,1.53967,-0.7335381,-3.9339442,-2.2988026,-1.8546109,-2.4034162,-1.8180988,3.1202726,-2.2230613,-0.86372775,0.38470805,3.1067834,-0.5972327,0.6711939,2.4813232,0.29263434,-2.0646994,1.0381067,0.5495448,-0.43034178,2.2407863,0.07312584,0.5417111,-4.4206796,0.483289,3.312026,-2.1383395,-0.54743767,-0.4161023,2.1075068
CHEMBL2312290,0.49265343,-4.9902043,1.1340023,5.445313,-3.4212537,-3.9184568,2.9483166,-1.3916786,-4.423087,-3.5263915,-2.9162161,5.0005116,-0.4852592,3.597245,1.7222525,-2.3579655,2.5566318,-2.5586803,4.628996,-10.391396,-2.2782001,4.8912964,-1.7266126,-1.0382097,11.144429,0.9170629,2.151083,-0.452657,-0.8966037,-2.307771,0.61710703,3.3279455,9.17549,5.1620817,3.9380114,0.51035595,0.98775196,-2.1627853,-3.555075,4.6141105,0.19697799,1.7750987,1.3575591,6.017573,0.117611915,-2.3298984,-7.376001,6.545857,4.577027,3.637943,-2.4438837,1.7998468,-4.375481,-4.1755466,-1.7309041,-2.8907025,-7.6551023,-3.5376866,1.800018,4.5167747,4.4050436,-0.09194952,0.30315545,1.2099049,-4.309262,-1.9848558,-2.7528727,0.9544844,1.2611673,0.11789131,0.7197504,-0.058118347,1.7777131,-6.9057865,2.0171282,3.130679,1.2827507,-0.7951939,-1.5578561,-8.766519,-2.9243507,0.5047606,-0.19801147,3.1562374,-2.648685,-3.1149392,2.754076,-3.1898077,-1.682614,4.9564586,0.6149434,3.645226,2.4942288,-5.7272613e-05,1.8560063,4.1993957,0.70370877,-4.1395435,0.701489,2.2830768,4.608038,-1.1398605,2.5131388,-2.1719985,-1.6496568,-1.5969093,-1.9601986,8.052568,5.4525313,6.5241213,-0.19425195,-1.1602154,-0.8386429,-2.61347,-8.810318,2.4601722,0.42799225,1.3983554,-4.7980127,-2.3939981,0.5206973,1.8724792,-1.7766778,-1.632732,-0.47821987,4.841477,-3.0333579,5.131245
CHEMBL2312301,0.4278512,0.46173584,-2.6892345,4.5067086,-2.7665238,-0.91179216,0.8990824,5.5149035,1.8894465,-0.46991605,-0.08592084,-1.2349803,2.3205357,-0.5336738,1.5309582,-3.4075503,-0.7197147,5.5835214,0.67016935,-2.9913795,-3.9345982,0.9018877,-1.7132548,-3.4080749,4.0758257,-3.0780063,1.6152568,1.0703558,3.3740218,5.7084026,3.2006783,3.9828122,-0.6441511,-3.3522997,-2.591344,-5.6679893,-4.389059,-3.98363,-3.931794,0.73840326,-0.038338684,3.4951165,3.1853952,-0.42852145,-2.4641044,-2.751713,-6.9718103,2.1335897,4.346008,-0.049898528,2.8342319,-4.381138,-1.6405352,1.3725542,1.0073764,0.23460343,-3.1707788,-4.229214,-0.7999946,1.5301256,1.3853332,-0.12742727,-4.843597,-2.2917948,0.6364366,-3.9623945,-3.5558887,-1.1242998,4.3464804,0.47744724,-5.361727,2.1029253,-2.6075392,0.17005882,1.9356929,-4.405997,3.6985748,5.9503245,-1.7765862,-0.49430314,-3.5693083,1.539996,-1.1755772,-5.2857733,4.008413,-1.0825096,3.1049786,3.4094815,1.1979839,4.36319,0.91321564,0.19355588,-6.143607,0.51611775,1.1828669,-0.9429904,6.521848,-0.33255544,-1.4404148,4.8681793,2.7551978,-1.5709473,2.0297012,-3.6303415,-2.254093,0.38691476,-2.5903912,0.87087554,-2.0202272,4.0825295,7.1647363,-1.1379001,2.0877042,7.7597675,4.024859,3.7290175,0.3383693,-3.567525,0.19925861,-3.7939851,-1.8607911,0.29769492,2.20177,0.34846053,2.0448256,-2.6903293,0.27956802,-4.483789
CHEMBL2312303,-0.5120147,-3.2461262,-6.888347,-2.6095152,4.0374117,1.2939109,-1.0142283,-5.0577736,-0.07805862,0.033721745,-4.737588,-1.3828743,-2.8862152,1.5275992,1.2512257,5.035565,3.7852476,-4.1709056,5.942334,1.3494977,0.8094139,0.9791078,-1.4307768,1.2242755,4.9047017,1.4930944,3.70358,-3.113642,1.3246919,-4.6859527,0.7142129,-4.519243,2.2764308,1.5195754,-0.36388117,5.4117136,-2.3516963,-0.9365871,-3.4083133,0.3644152,2.6347096,-4.6649065,1.4991393,2.3522995,-1.0116811,0.6452419,0.058491014,-0.49305713,-2.2350845,-0.7772259,0.490929,4.470887,1.1390934,-2.2815719,-2.9020221,-1.6857421,2.3767815,-0.541295,3.6329894,-2.9696755,-0.011313289,2.800613,4.2835236,-0.42769057,-2.066448,2.5174272,4.224931,-1.4989263,-3.0823462,4.9094667,3.840678,-2.1790683,1.2793342,4.6521244,-2.7317612,2.5780556,-8.812253,2.0247216,-0.82338095,1.909936,1.655646,-1.5570337,-3.6645234,0.94465303,0.99798703,-1.6035869,-0.42661026,-4.345132,-1.3693233,-3.060775,-1.766384,-0.67447966,0.763022,-1.377742,-1.6694498,1.8620832,0.061420657,0.7734938,-5.1057534,-1.0331644,6.380745,0.9324677,-4.678501,2.6288211,8.213809,-0.54594636,0.9399457,-2.501786,-0.4736742,1.4338636,-3.0938532,2.8634484,-0.973349,-5.3050494,-3.6388571,-2.473977,-0.8921455,-1.7175958,-1.5455655,3.40197,0.043201793,1.5332955,-4.217873,3.977014,3.254817,-1.145725,1.7257068,6.0716367
CHEMBL2312304,-4.853851,1.0861311,-7.094369,6.5355635,-5.526863,1.1303427,4.3292255,0.36846724,-0.5105523,-0.53836054,-3.574467,-2.215754,5.02557,-3.0401194,0.52765626,-1.1767291,3.2414625,0.4539572,-2.2844992,-7.547396,-1.53865,5.2343416,-2.5840824,-1.6211592,3.2632198,-5.351997,2.27328,-1.7290698,0.80978334,-1.4293796,1.2769735,-3.0558708,-4.339028,-2.2360592,-5.3613887,5.1006117,2.5358088,-1.7440559,4.074373,-1.7258847,2.5732114,-1.5567884,4.358124,0.55577517,-1.3699303,2.4458082,-4.398564,-0.030810948,3.7752712,-1.8395476,-1.4437885,-2.0844502,0.72705966,-1.3714001,2.092058,-1.843227,-3.2058384,-3.9215443,-1.0059024,0.49037957,2.9772043,0.9517992,-5.504765,0.8048082,2.6393273,-3.43524,-2.7252898,-1.3107815,-0.23047625,-3.284532,2.3780327,0.9955939,-6.77915,3.0293612,0.45397958,-2.4045537,1.0955535,2.735434,4.9479704,4.4362087,0.735699,1.8293489,0.20192991,2.6440792,1.6753402,2.399427,1.5819188,0.86466396,5.568102,-3.130414,3.0397224,0.34185463,-0.8839571,3.4378767,3.7119422,0.75268984,-1.9172997,-0.57197756,-7.738833,5.0960293,1.2251985,1.0540366,3.3095949,2.7342033,1.802388,-2.2745962,1.2942269,-2.75374,2.001188,1.3872383,2.016359,-0.810475,3.3557422,5.580146,-0.31726003,3.9013755,-1.5978974,1.6197207,-1.804979,-4.3822083,-0.09460257,3.046543,-0.53350323,0.5520574,1.9134923,-2.7932882,2.787856,-0.8865198
CHEMBL2333365,-0.5112919,0.6870904,4.3904533,-3.6213303,5.5798316,2.0399055,3.1686037,0.5064107,-0.97325015,0.301288,0.39393327,0.79667294,-0.46446848,-1.3459947,1.6923487,0.6387888,6.441759,-0.32309726,2.3741484,1.1672437,-2.091483,-1.1823179,-4.4257174,-2.4499383,-3.150362,-2.7517295,-0.5005107,-0.024280548,-0.5163083,1.3535163,5.452734,1.6551318,-0.66889924,0.45178238,-1.4608544,-3.2682948,-4.8824058,-6.932528,-3.8806787,-2.489536,3.2626343,-0.5585271,-1.9191954,-0.67027974,-1.1507401,-5.4397554,3.8980803,-1.1777484,-1.5888875,-0.5356027,6.1285267,-0.14428422,1.2156296,-4.686348,0.68184376,-6.2874866,2.8404691,6.4240937,3.260655,-1.2581716,0.7971321,-0.77845335,-1.9380659,-1.752786,-1.402761,-4.341491,-3.3753052,4.430647,0.95809436,3.182744,1.5919468,0.8546908,2.2988324,0.99413,0.83318186,-1.287268,0.7255347,-7.775925,0.3559009,-0.52361953,1.8564309,-5.022968,-1.8666103,2.7915363,2.79993,0.986908,1.4997638,-1.156535,0.8711448,1.613138,0.020703606,0.55958354,0.40955096,-0.8037579,-2.9050915,0.089797795,3.8000095,-2.7389636,-0.62838,-1.4509945,3.9642754,0.03573534,-3.9496472,-2.5262566,1.4708395,0.11464205,-3.0181916,1.5621158,4.1172915,2.0970654,3.7964902,0.90462273,-1.0541348,-1.1480083,-2.8964896,-1.6332927,1.9106121,-1.0842239,-0.5617315,-2.1609616,-2.2314467,1.1790718,2.6310265,-2.597538,-2.352147,5.0820446,2.0172634,1.2627699
CHEMBL235157,0.93773973,-1.0206734,0.1829361,0.9950688,1.2874815,-1.9405725,0.24086687,0.32392287,0.8278738,0.48457843,1.7452242,-2.3609276,1.8603961,-0.53109837,0.6478499,-0.44653934,-1.2676669,-0.39541835,-1.2743003,1.3205961,1.946633,1.5512707,-0.518206,-0.30810827,-2.8801444,1.4947408,-1.0085875,1.3239954,0.23237486,0.05264898,-3.7014823,-0.3551118,-0.32760772,1.5881699,0.10394995,1.4252698,1.0765393,1.2541592,1.9744009,0.514302,-0.6045409,0.87403953,0.4416511,0.40157712,0.14895773,0.62244225,1.1001949,-1.4287924,0.27002156,0.77981853,1.839499,0.9206773,1.4385109,-0.5469226,1.5003915,0.20138678,3.1963005,-1.2102128,-1.6996859,-0.9859761,1.1064314,-2.2938766,1.7175906,-0.25103843,2.3692708,-1.2942541,1.9583445,0.5217767,0.9260272,-0.4343303,1.0738847,0.58332944,-2.8769863,0.07687117,0.44803128,-1.8736074,1.8996722,-0.15165484,0.068973854,3.580099,0.043149315,-1.4556615,0.32851,1.8079478,0.17144683,0.80390036,3.0513093,-0.47380358,2.2956283,1.2096577,0.99324876,-1.3619889,-1.8345275,0.7846212,1.8370881,0.3684141,-5.0572557,-5.0644403,-1.0474994,-0.80422664,-2.000654,-1.0388147,1.5031997,0.17074434,0.06897262,-0.39673167,0.040034235,-2.831279,0.57209307,1.0129015,-0.24646911,0.8988288,2.1999824,-0.42431617,-1.431713,1.1016283,-2.0059884,3.1087687,1.600372,1.7226559,-0.48694044,0.51934165,-0.50924885,2.3793147,1.4757862,-2.2871695,-0.85143536,2.819795
CHEMBL242753,-1.190755,-0.83354187,-3.7691283,4.7336407,-1.4657809,1.5140917,3.858704,-1.2532755,-3.0733993,-5.0839624,-5.4190516,1.1004523,-0.6069431,0.089350045,4.274732,3.4773738,0.36299592,-0.9145968,4.8281274,0.85315716,-1.8349366,2.061127,-4.2781324,1.6371543,4.637989,-3.563942,5.0840583,2.408538,-0.62731844,-0.33942834,5.381116,-4.7569814,5.1639915,-2.623828,0.44405133,-0.72456706,-2.8801122,-0.28876704,-3.2964947,0.87643075,1.5697021,-3.6952736,5.17019,4.250161,0.30686146,3.4170046,1.0355113,3.5814257,4.067121,-2.3545954,-4.4657674,0.08750568,-0.8648481,1.3535696,-2.0336645,-1.6104943,-6.9929094,1.0850319,1.6030111,-1.780627,0.18567213,0.19955249,1.2261529,-0.77312285,-4.561006,2.4726849,-5.9891214,-1.605869,-1.2377204,2.689489,1.719551,-5.6698484,2.2659862,3.6059318,0.7422253,4.172107,-5.1230526,-4.091503,2.2032037,-4.55661,3.683895,3.6738067,-1.812502,-2.9431329,0.959288,1.1343824,-5.8326197,1.8255987,-0.6378853,-4.80107,1.5862551,3.6695192,7.376466,4.3518214,-2.4203615,4.918943,5.0398235,8.925946,1.1415905,0.61366224,2.326542,-0.07356042,0.36987057,-0.31651014,-3.7458174,2.5671244,3.058711,6.1907253,-2.4554756,-2.1208131,0.3292829,0.3960634,-2.3296022,-0.6421373,5.1444426,-3.890807,6.3562603,-4.996909,-4.703332,-4.6442885,-0.44143972,3.5909362,-1.5729741,-1.8261787,0.034158647,-0.79838,5.721657,-2.2920313
CHEMBL248757,-0.9373563,-2.155641,-4.3938785,1.4267604,0.52248883,1.977843,-0.43672693,-1.5533712,2.342721,0.27220887,-0.9590683,-1.4994506,6.373071,-4.3427415,2.1069815,-0.32903108,-1.9073566,-3.2451694,-1.3768203,-5.530887,-2.1175783,2.2075994,-5.128974,0.57815284,2.1958647,-1.3940331,2.5460758,-2.2357385,2.183525,1.522671,-0.8511931,-0.760522,0.73534197,-1.6653115,-1.1361991,3.969489,3.3563154,3.3081834,5.1790824,-2.2336073,2.7242486,-6.352934,-0.38988063,3.3089476,0.5446496,1.6619296,-1.8666906,-1.9703069,1.8910074,-1.3851336,-1.2069933,2.1367013,-1.4900216,-0.492465,1.1394408,-1.1118306,1.280038,-2.4468584,-1.294299,0.021553278,-2.4707124,-0.03929632,0.22934476,1.3237717,-1.3053353,0.4423383,1.239561,-0.5205364,-0.60987335,3.5245008,-1.1089432,4.8973017,-1.7087927,6.8204494,-0.607539,1.6944474,-0.9649549,4.27189,6.5347853,-0.7434366,-1.6805943,0.62634516,-0.1933116,1.3919628,-1.6210579,3.8033752,-1.1627346,2.116353,1.1194489,-3.3190737,1.3782346,3.3687587,-0.30015516,2.1810956,-0.21239696,-0.8049562,-2.792046,0.5238113,-3.7421255,0.39954478,1.6923468,1.0409805,-1.1055307,2.0701294,-0.3125952,-1.4855376,2.945539,-5.4252515,0.97919935,3.1303902,2.6823354,2.0100517,0.7105852,2.8537729,-2.2569852,-0.6698565,-6.210267,1.7135795,-2.8193643,3.5677865,2.5453398,-0.18089037,1.7028068,2.8092453,1.1164216,-1.746589,2.413028,3.7586884
CHEMBL281957,-3.2834263,-0.13333899,-6.6370726,1.9424525,-2.4427106,4.5694385,2.1533918,-0.2153525,-1.7398273,-0.5579827,-7.70012,3.258415,-1.2736517,1.2185602,1.8350612,2.1928184,-0.4411927,-1.6387742,1.0503188,-5.504032,-4.870561,0.87575155,-5.689706,1.7142726,5.7692857,-6.3218927,5.7822227,0.4461733,1.4384006,2.5004802,7.60493,-4.828685,1.2176018,-1.2511133,-1.9366246,0.31966114,-1.8707228,-3.562902,-0.53745747,1.8961735,0.65737116,-2.082256,3.2794092,1.2794851,-2.9871752,0.38145605,-1.5554513,0.7926233,1.6905841,-8.178617,-1.3329369,-2.4551516,-3.3384557,-2.0959623,1.56139,-2.1615083,-5.069941,-2.6856513,2.833785,-1.2408737,0.6125632,1.0214335,-4.13629,2.8957443,-1.3963442,1.1787608,-4.589426,0.022299722,-2.9787226,-1.990034,1.4049909,1.0436666,-2.632469,2.940614,1.315806,-0.29237643,-3.021576,-1.0459003,4.231384,-3.1036906,-0.062666744,1.2583723,-1.2183465,-2.4458208,-0.10197827,0.6233054,-3.5210166,1.7257731,1.2611306,-2.1779559,2.7831964,4.070504,3.210031,2.3165846,-0.41864356,-0.15467331,2.0520384,2.924004,-1.1731341,3.6520267,5.188252,3.6418066,-0.7898543,-2.4320073,-3.2154694,2.7561016,-0.05808543,1.189559,0.3841775,1.8472724,2.7713695,0.2172324,-2.0090742,2.407635,5.164976,2.0066657,1.7724595,-0.6311537,-2.7660778,-6.071367,0.8971769,2.0919323,-0.7775368,1.5110112,-2.0394456,-0.94158435,3.1539443,-3.1712906
CHEMBL373598,-1.3136541,1.8429434,0.712715,-1.9036534,-1.5877675,0.25092882,-1.6593356,0.72872555,1.1202434,3.1130147,0.5330518,0.3621348,0.6807834,1.5399643,-0.2732287,-1.1370819,-0.6776932,3.8247051,1.0896726,3.1528,-2.394503,0.32478863,-4.277801,0.7803843,-2.2141685,-0.7592804,-3.0660555,-1.7824643,-0.55792403,4.698353,0.64649606,4.2179923,-0.1361091,-0.2566198,4.811476,1.6331097,0.8109027,0.3710883,-1.768737,0.5630011,-4.660807,2.2373946,-0.5242377,1.2632244,3.370137,-2.500452,-3.1195414,-0.1386214,-0.8014158,3.531881,1.5038669,2.010612,1.7754984,-3.6267433,2.9626107,3.7009125,0.74892044,3.4997666,0.39384937,-0.59611195,-4.029921,-0.086629584,-0.06039579,-1.2011486,2.5239704,1.0140443,1.2133253,-2.140804,1.1928537,-1.1397629,-0.5276964,1.9413027,-1.1604412,-0.3316613,0.8507016,-2.2278185,3.5559328,0.81895685,0.33137354,0.40867049,-0.25318187,-1.5985435,0.16615419,1.2314705,-0.7475924,-1.504773,3.842285,0.05824185,1.4828444,2.2664645,0.72408396,-0.523426,-1.7325039,-0.07818234,4.2776294,4.1952996,-6.5625186,-5.2391624,2.47451,-3.630729,-3.4742157,-2.267021,-0.46930644,-0.46747193,-1.3557171,2.169143,-0.100938916,-2.3192697,-4.795956,1.0543795,1.4220312,0.6164166,0.08649753,1.8604814,-3.9010537,-1.4195957,-0.7188922,-0.6560701,-0.7250383,6.395003,2.6264794,-2.4903376,-0.41058558,-1.4689825,1.8827666,0.30005342,-2.248364,3.971953
CHEMBL376967,0.81170523,-1.5115509,-2.7564936,3.1441755,0.06674249,0.41351968,0.72760606,0.58059704,3.140254,0.6249416,-0.12809917,1.1772043,6.295023,-0.8941979,3.3882139,4.7194276,2.2061906,0.27570355,1.5433245,0.7740259,-1.0682162,2.0412576,-4.87497,-3.5953755,-5.3463078,-2.8060699,-1.9971541,-4.063816,-2.3686914,3.888703,-0.81165576,-2.6705234,2.6689513,1.976469,-1.6596085,3.252192,-0.07119879,-4.2476854,1.1324475,-4.0301366,1.3494221,-0.266711,1.4176697,0.7537645,-2.2124603,-2.974506,-0.97256166,-2.978078,-0.512266,-3.0661843,8.154992,-5.2139435,-2.1935782,-0.80776304,2.34995,-5.013594,0.09253435,1.6776055,-4.3560896,1.2749574,-5.112337,0.5444247,-2.7086318,-1.5318171,-2.1652238,-2.0352502,-2.314694,2.8703027,0.58552194,-1.880396,1.6893651,3.027178,-4.039843,2.020857,0.1474578,-1.0169235,3.8335893,-5.48926,-0.21745597,-1.2490515,0.23036095,2.730265,2.703421,1.6150852,2.7515519,-2.2052598,-0.92802495,-1.0498965,0.71296984,-2.2812414,0.42218217,1.734787,-1.6364712,1.5337018,4.7217045,1.7344073,2.664068,2.015377,3.5610144,-2.114705,5.0016537,-2.904808,3.0930939,-5.439846,-2.9488633,0.11934705,0.76761246,8.11162,3.181009,2.0540702,2.0171373,5.661353,-1.8684825,4.7607913,-0.8846246,2.874797,0.955622,-4.097975,-1.3568373,1.408616,1.9492354,0.25630358,0.91557556,-3.3065355,4.051823,-0.3287314,1.7121415,0.3294702
CHEMBL377383,-1.6449927,0.8154981,-0.6492941,1.8276141,-0.68534136,-4.4523926,-0.23438954,2.374904,-0.36896285,1.4939202,2.9233212,-0.24618071,2.1728826,-0.5330097,2.405421,-0.2535369,2.7149854,1.3431398,-0.015845507,1.6287405,0.48438555,1.6188935,-0.88636917,-1.0091872,-1.7076149,0.5250518,-1.2288479,-0.4244901,-0.50129133,-1.5156739,-4.3645015,-0.4084873,-1.3911381,1.3044091,0.30464366,2.8062925,1.1073114,0.1937051,1.8410358,-0.77925384,-1.2641964,1.735956,0.9683531,0.63220835,0.36991552,1.6071568,-2.424283,0.3141462,0.86818653,2.0750833,0.009706378,0.75555557,3.572646,1.2337943,2.9663315,-0.16525197,-2.258967,1.0654278,-1.001782,0.96257114,0.057088792,-0.13092485,0.29007944,0.08438814,2.8182764,-1.1159085,0.0024236664,1.1616902,1.0039994,-2.3200521,0.38968486,-0.648782,-2.7218685,-3.2950869,0.20530209,-1.1479568,0.19363773,-0.63534,-1.756572,3.7646434,-0.99386865,-1.1053001,1.7716889,4.2517953,0.8926807,-2.195138,3.199219,-0.58111864,1.7668538,-1.157891,0.07911996,-3.27344,-2.79734,1.9645373,3.0858955,1.6500375,-2.9829614,-2.027495,1.9595593,-1.9522511,-2.7567115,-2.9474475,2.7791817,0.8050228,-0.6701755,0.4960694,1.6147989,-0.0104734935,0.41058373,-1.404843,0.40959704,1.8096634,1.6522646,0.12684487,-2.5199323,0.48682037,-0.7999508,0.24412085,0.27899876,0.20491384,-1.0275011,0.68161976,0.6720843,-0.52242595,0.24936952,-1.6940135,2.5687392,1.0192496
CHEMBL377772,-3.0453815,-0.26936254,-1.4950799,-2.2113187,-0.41500732,-0.3693043,-2.264048,1.2451794,-2.2676606,4.6508102,2.4608717,-1.2519865,2.9871595,-1.4711114,-2.1763,-3.8255997,-0.82073253,1.2816397,-0.56401,-6.4697433,-4.629522,-0.87415767,-2.6350539,2.7192054,6.2919736,-6.0966773,2.0951557,-0.17420776,0.6094742,0.47083998,4.2876706,1.8415475,-0.05400039,-1.6490045,1.2712337,-0.6268929,-0.15976554,-1.2420478,-2.1530058,0.8899641,6.676108,-5.3317842,1.4589663,1.574973,-6.796136,1.3022448,0.29408774,-1.4002141,5.6302304,-4.710426,1.6720663,1.2933782,-2.6522791,-1.7600348,1.2419652,-0.60533893,-1.1059858,-1.3589743,-0.021841258,2.4694388,3.8174298,-0.34421548,0.9111734,-0.36264676,2.5408525,0.17283651,-1.38354,-0.2937775,2.1235695,-2.5070696,-1.7140195,-0.18435268,-0.3415293,1.6148797,-0.21144496,-4.0751295,0.0010300651,-0.6082587,2.791009,0.09587573,-0.28424355,1.134479,-2.7748363,-1.8055727,2.991388,7.951583,-1.7322867,1.7821444,-3.6166453,0.73870665,1.6961702,5.9252024,4.7400064,2.8234158,-1.9194777,-0.8946767,-0.9984807,-2.3071384,-2.854776,2.963796,1.8771945,3.2810402,-2.0783572,-0.59985155,-1.0724641,-2.2739635,-4.099938,-1.0917253,2.4069989,0.6452147,3.4644158,-2.968107,2.4716766,2.4959323,1.1466856,-0.08857515,-2.0185688,3.5135925,-3.675488,-2.1239498,-1.7259337,-0.55684,0.10306312,-1.613164,-1.7715609,2.6643133,0.122739345,-0.4211689
CHEMBL378370,1.8631746,-2.9126294,-4.212261,0.44096202,0.09219928,3.7576923,-0.80344146,0.8635456,1.4410832,-0.042456977,-6.0536833,-1.1636355,0.7346157,2.28254,-3.7888494,-0.8412647,-3.4703941,1.6252728,-4.413438,-4.4763927,4.0285897,-1.9226279,2.0152793,1.0564363,2.4584746,-6.79869,0.17634362,1.0698749,0.93753743,2.5909119,0.58796036,-0.74696636,3.603585,-0.7174133,-1.1460752,-2.1683,-1.6315696,-2.354853,0.4966641,3.3532207,2.5688713,-2.1470933,-0.49465215,-0.34317496,-5.681548,0.10878484,0.72235584,0.94692135,0.8562466,-4.8643847,-2.9120445,-2.361092,-5.1510844,-2.7205205,0.469442,0.628105,-0.6646586,-3.9861789,0.9051742,1.2880656,1.4137173,2.146695,-1.78837,1.5074148,-1.8304756,-2.0067072,-1.6287386,-1.1543828,-0.52588946,2.099575,-2.1262586,4.0712714,1.5402955,1.546067,-1.6436707,-4.024464,0.1831966,3.4263716,0.35282886,-3.8227952,0.91756475,3.1902354,-1.2165452,-5.0626664,2.338745,3.164224,-2.204523,2.4039633,-1.5884974,1.6147052,3.4687643,2.9383767,-0.31962153,-0.33211786,-1.0057428,-2.7970037,1.8537016,1.7442284,-4.903324,4.4426622,6.096742,2.7076392,-1.7622503,-3.3725524,-2.2381854,0.31521848,-3.7690458,0.96817386,1.1914307,2.403304,-1.0503494,-1.6499434,-0.23890862,1.6399996,1.0571293,2.1562443,-0.99811304,-0.17457327,-1.0981841,-1.4539756,-0.736054,-0.090249255,-1.4284668,2.463047,0.35150233,4.6874704,-0.077573925,0.633017
CHEMBL378627,1.887065,-0.20897478,1.1993121,-5.6354103,-1.1055057,0.51627344,1.5912625,-0.25730073,0.8864138,3.0666447,4.885713,4.1495194,-1.1230758,2.4947724,-1.2453716,1.5600386,0.94386715,1.4183166,-1.3063481,-2.879522,3.05988,1.7287765,4.0091963,0.49251258,1.2119787,0.7437515,-2.311258,-2.0266166,3.4684868,1.5659533,-4.996455,1.0305828,2.6414242,-0.5060322,-3.2037566,-3.1182783,2.640435,0.45409048,2.7305136,-2.129487,1.6161258,-0.763809,-3.753907,-5.3093214,0.65142673,-0.57276607,-4.0506654,-2.061686,-0.47932544,2.5274951,-2.054369,0.42176247,1.858427,4.3536835,0.5058546,1.8491213,3.750925,-1.1164811,-1.8849069,-0.63775134,0.37502408,-2.0977283,-0.9202989,0.030991018,-0.17064242,-1.7893822,1.5253679,1.9595704,-4.3542147,-1.6109039,2.5762742,3.4404697,0.9054114,0.29410648,-2.1871822,0.25238788,-2.074088,2.181559,-1.9547129,2.3758729,1.0698056,-1.0614958,-1.4657228,4.9570527,-0.34535983,1.3193812,2.0310535,-4.461621,2.3906603,5.095117,-5.6737285,-1.1728497,-1.6963861,-2.3030398,2.2022297,0.05056163,-3.4436438,-2.0531328,2.492748,-3.6285052,-3.3430018,0.3050694,1.3739015,0.34240553,-1.2953694,-1.9853106,4.1632085,0.185881,-2.096085,-3.4823692,0.92829466,2.5108387,-2.3634286,2.2063594,0.40670925,-0.31931505,-1.1747726,4.154275,2.2597356,3.9595633,1.119205,-3.8026886,1.0601442,1.5032892,-0.9762841,-3.5426455,-5.4313636,0.604652
CHEMBL379601,-0.9181663,0.90997076,-3.2416449,2.254305,0.49810734,4.637291,2.5098226,-1.5301003,1.0936526,3.007452,-2.4913006,4.2094316,0.36306083,-0.8496257,-0.42100453,3.6591303,1.7195318,-3.415388,1.635809,-0.836964,-4.9270062,0.93911964,-0.5180343,-2.773137,2.4083984,-1.1355557,1.569737,0.5794811,-1.9276067,1.2063032,4.606115,-2.8277078,2.2359788,0.087320074,0.18229015,-0.20662469,-3.8491752,-4.647597,-0.9105216,2.3102188,-0.8211028,-4.401433,-2.433039,-1.5645084,0.15987833,-0.112761974,0.031234987,3.1255982,-4.114031,-0.89079094,-1.684103,1.0506649,-0.6193994,-1.0721552,-1.9827694,-0.3374061,-0.9095891,0.5025327,2.2016804,2.1592915,-4.2301383,1.4151442,0.5916928,6.3993683,-2.8674445,2.360057,0.39153913,0.82558876,-4.668204,0.57418436,-1.3891735,1.1836903,3.5348504,1.5007793,1.9588398,0.41870728,-0.7101965,0.66956896,0.63901895,-6.3124647,1.2499723,2.2099545,-3.977292,-0.5765846,-2.264289,0.88883096,-1.7910918,3.294507,0.5196967,-0.010129869,1.3778824,-1.1285862,3.6404963,-3.026389,-1.7274576,-1.4386746,2.5369034,0.7368459,1.3716738,0.18016876,6.1629667,0.24554116,-2.4536772,0.4980715,-0.3361061,-0.24871498,0.043057546,3.0465958,2.8232753,1.9587255,-2.2428567,2.1437762,-1.6871502,-0.6463226,0.041424073,1.8578238,0.4873125,-2.292036,-1.5745975,-0.31064555,1.3296771,-0.46367362,1.435467,2.6104493,-0.5615703,0.22796586,1.0254828,-2.1997645
CHEMBL379905,0.41617095,2.0848022,0.8897247,0.5080611,-0.76570994,-0.020491548,2.6077101,0.35781702,-1.6944232,-0.78588337,-0.7255604,1.4280143,-2.7500267,1.163403,-3.345504,2.9029012,1.023833,-1.1038306,1.1977602,-3.614147,0.8801831,-0.62499917,3.9463596,-1.9276137,3.356706,-1.3621136,2.8673997,3.195909,0.78571844,0.6243342,0.79417664,1.3805442,2.2085612,-1.2321224,-2.7366552,-3.4142473,-2.5099742,-1.1886336,-4.9546733,-1.9332844,0.7777204,-2.4429846,-1.5000515,-1.9706831,-2.2568269,-0.24747837,-0.11552851,-1.0024605,-1.7364275,-0.030664481,0.08449408,-2.6685925,-7.8628073,0.29778117,0.001553148,-7.3353114,-0.23269877,-2.7795992,-1.062198,-1.2577201,0.42828,2.8171062,0.13519357,-5.3522167,-5.027529,-0.34702912,-2.2041848,2.0949495,-2.2883735,1.7389874,-0.1673267,2.728169,0.658835,-0.13331325,-0.42588735,4.0676994,-1.07804,-2.1961732,-5.350007,-6.8650265,-0.039815903,4.0316615,-0.60396516,-5.2042212,2.8115942,-0.109221,-3.3284173,-3.3662322,-3.8806183,0.69657636,-2.2089684,0.34731758,3.6019313,-0.77444184,-2.21995,1.2723217,7.090015,2.0571542,1.5702095,2.4071121,4.385326,2.6279118,-0.26991212,-2.2782354,2.0258937,-3.5700357,-1.2608031,5.450719,0.029308878,-0.21198808,-1.962297,-1.5954729,-1.2588899,-0.6055577,4.8292875,3.0698104,4.5520663,-0.036292493,-1.4923277,-3.4001865,3.8944395,1.0385848,-0.4067979,-2.1726756,2.796835,2.6796882,-3.5656953,0.8136748
CHEMBL379929,-0.30574602,0.4823058,0.7541481,-0.6815533,-3.745463,-0.19000638,0.56599313,-0.79653853,-1.8583112,-0.14303593,2.3715088,0.38254443,1.6019118,1.7701336,0.15838143,-1.0303072,0.24436663,-0.6390374,-0.46315324,-6.2943516,-1.7505797,1.064494,-1.1129054,0.19181529,1.4367677,-0.60137236,-0.20650771,-2.2678943,-0.20735584,2.1621132,-1.3278719,1.1300676,-0.18341884,-0.98161614,0.68973416,-1.2514695,0.031582028,-1.4691118,-2.107627,-2.7088847,1.5139058,-0.5631361,-1.2733542,1.776727,-1.068103,-3.2553043,-4.8854027,-1.5527315,1.9623965,-0.55110216,2.7416809,-2.8357887,-3.2672458,-2.2625263,-0.68192357,-2.256251,-0.39947927,-0.5217421,-1.7345442,2.098826,-0.82820916,0.71219075,-2.3055365,-1.8753669,-1.2331412,-2.290865,-2.595067,-0.81098235,2.0019844,-3.4124608,-0.23540305,1.7599455,-2.5716066,-1.8945606,-0.77036077,-0.05303002,2.9014776,-1.0401428,-0.526365,-2.300416,-1.9211898,1.7797751,2.3251154,1.6485676,-0.58169454,0.045198068,-1.0339041,-0.37722442,-0.49583098,1.624765,-1.4851623,1.8776559,-0.36168325,0.98228085,1.6873432,0.097161725,1.555363,1.6273751,-0.031136073,1.495967,3.7629964,-0.4251682,0.4729024,-0.53856575,0.22804989,-2.0444837,-0.1918565,3.3835871,1.5070765,1.4398901,3.1806183,-1.1263598,0.8749341,2.5709324,-2.350877,3.9225135,-1.6576816,0.4254635,-0.32414994,0.2209274,2.072366,-1.0016221,0.6569061,-1.0313579,0.51801264,0.7730852,-4.555862,-0.15485632
CHEMBL380006,-1.3879769,-0.40416428,-2.5383997,2.605912,-1.9787511,2.0283775,-0.5798691,1.2056408,2.105186,2.1092703,-1.2866201,1.7447212,-2.1766133,1.4771994,-4.1255555,1.8613802,-0.63555646,-1.5605923,0.50927544,-1.0038337,-2.325174,-1.6291734,0.4935144,0.7469173,3.201377,-2.0278533,1.6898539,2.0621173,-1.8865333,1.3458722,9.151302,-3.0932326,0.5434373,-0.18740064,0.68241626,-2.1729176,-4.7926908,-6.1564074,-1.779793,2.657523,-0.16808538,-1.3472831,1.2867365,-1.6756141,-2.6810956,-3.297437,0.53818685,6.7362227,-0.49533927,-4.2622104,-1.0589496,-3.6999514,-3.9559383,-1.9280173,-3.2754776,-0.9955441,-2.8305962,-0.75414026,2.3444695,3.4023974,-2.6550772,1.8116548,-3.0727046,0.18933631,-1.09467,2.3776476,-2.5596077,-0.9012341,-0.99186534,0.94500136,-3.0616565,-2.441198,3.0753405,1.4292665,0.7854712,-3.6372194,-0.18597627,-0.24180242,1.6167461,-3.41707,-1.6203184,0.5733193,-3.1688952,-3.9031482,-0.83729863,0.014125656,-3.0021856,4.8640695,-0.76113504,0.70455056,3.8353987,1.1323016,2.6310127,-0.27829105,-2.2850862,-3.253596,6.515614,4.734003,-1.0893759,4.580597,3.11088,-0.0014164951,-4.205529,-2.4412518,-2.3058438,1.5522665,-3.6842983,3.9710064,-0.66076314,1.7562429,-0.2603277,-1.3083224,-1.0546056,1.0003854,3.3018095,2.0847518,1.944874,-3.614557,-1.5273259,-6.4821243,-2.765013,-1.122227,-1.0053912,0.0016273856,-1.5789181,3.2162285,2.8970745,-5.0289283
CHEMBL380386,-1.7531092,-3.2822995,-2.4587922,2.3797965,-0.92981714,-2.7530265,3.1128616,3.7385027,-1.2072737,-0.5993751,4.046702,4.538228,0.24668741,-1.8563304,1.089031,3.4015384,3.3841918,-0.62483025,1.0660056,-1.8172781,-0.63409024,0.062573925,0.04817751,-1.5722337,1.9576148,-3.5512662,0.6045107,1.4820882,-1.1101837,-1.3918412,0.49264085,-4.409115,3.3450618,-1.39387,-1.1857495,1.781247,-1.9268211,-5.8869557,0.4275438,-2.900835,4.9897895,1.4846537,-1.4173069,-1.0042686,0.4378508,-0.85300726,0.40194595,0.48574758,1.93388,-0.33721885,2.8452685,-0.9972309,-0.10326606,-1.0451139,3.2262144,-4.909141,-0.58508915,0.009741405,1.3855408,1.7414503,0.7654039,1.1204306,-1.1760676,0.4672157,-3.6344833,-1.2935594,-1.567087,4.864931,0.074014775,0.5866802,1.9887049,-2.1736014,2.3530462,-2.0228984,-0.7223673,-0.57480156,1.7745872,-3.978553,0.108244814,-1.1278436,0.6867225,0.7392668,0.5974895,3.827178,4.1753125,2.465481,1.3888158,-1.8214133,1.2260215,1.0209763,-0.030893527,1.1461908,2.739092,1.2512248,0.018504128,1.3621948,5.1511397,1.4850603,3.5885723,1.5875864,1.7414106,1.5954131,0.5460582,-3.4777052,1.1254971,-0.41425133,-1.9825805,6.301907,3.0295362,-1.4868786,0.62855905,2.3423805,-2.7101312,2.652255,0.28874186,-0.09996936,4.5708957,-0.17628363,-0.3074533,-0.87315565,-3.776382,0.5908283,0.5859945,-3.6961896,-0.22519799,-0.15470189,2.9702122,-2.7327566
CHEMBL380454,-0.48803025,1.9701617,0.029426336,-1.8641059,2.6192093,4.8612924,-1.3290532,-3.8589272,-4.282479,-0.07145962,-5.6098228,-0.3181088,-4.1360803,2.1233327,-0.6569772,1.1517179,1.9248873,-0.9263976,2.2580955,3.482142,-1.812356,-1.4420577,-0.91659856,1.5191032,-2.9576595,2.530063,-1.1416644,-2.1849763,-3.9945555,-1.7662001,1.4313864,1.1499946,0.48361987,1.5392345,3.9243512,-3.4027088,-4.163149,-0.073206134,-7.2079353,2.5665224,-1.6623225,-2.7460494,-1.2360257,2.1859868,-0.44755098,-1.3119322,2.9659512,0.20521101,-3.7791443,1.2100946,-1.4244851,1.4563991,2.4350047,0.93550146,-3.3530579,0.29620785,-1.2118958,3.3043408,0.7973012,0.30842584,-0.17324017,0.38366964,4.150827,0.97065353,-2.0906663,2.004068,-0.6827528,-1.5778022,-1.671413,-1.6394451,0.08807208,-3.6190252,2.73684,-0.8036487,1.2590923,3.7481709,-2.9348722,-4.3721595,-4.0571356,-4.187452,2.1334028,0.5007268,0.037221685,-2.3544087,-2.4934464,-2.3911936,-3.5360491,1.0793386,-3.290272,-2.0884864,-1.6701726,0.53088534,2.1311278,-0.37608618,-2.190965,2.9212992,3.6864984,5.878836,1.321141,-3.8366437,3.5177274,-5.041989,-2.227707,-0.018466339,0.19720198,1.5281126,0.23170987,4.0317326,0.42976815,-1.676467,-3.002145,0.01235573,2.6732187,-4.967837,-1.0708457,-2.8133552,2.593457,-3.856899,-1.4622952,1.6301019,2.9990804,-0.14462239,-1.4408532,1.3667963,-0.34595057,1.2782751,1.0374146,2.7360115
CHEMBL380889,-1.2623484,1.0896751,0.6593402,-3.5570228,1.9479913,2.317596,0.19459271,0.90199244,3.0995576,1.959005,-0.06879672,0.6258026,6.1620607,-0.28515184,1.0370088,1.0216041,-3.3660493,2.2702034,4.1112356,3.159872,-2.1844645,-1.3051195,-5.0356903,-2.4762251,-2.4210138,-3.979291,0.9005254,0.79651165,0.8403702,8.131914,5.549634,-0.009955592,-2.5430968,1.6324544,-0.78910285,-1.7545913,1.2325016,2.5414662,2.0172243,-3.8349328,4.640191,0.599556,2.6323948,0.40507108,-2.269715,1.1544425,3.9812117,-5.4390583,3.050052,-8.061233,4.5642147,-1.4894223,-3.3343096,0.7189269,2.6551204,-0.22938794,-0.54420614,5.3273168,-1.0904909,-3.9903092,-2.1613655,-3.5777173,1.0285141,-1.4001588,2.531629,0.7698789,-4.163332,-3.3823717,1.3971847,0.200667,-0.66297656,-1.9197965,-2.9766238,8.377667,-1.4063901,-2.148828,3.9209676,-4.245202,1.6243782,2.4762738,2.043917,1.5523653,-1.7784566,-1.0972476,4.272438,3.8711748,-0.17491505,-0.57372546,0.08095659,-0.93815374,-1.7984543,1.9686048,-1.5958827,1.790962,-0.48285535,-1.6849053,-1.7079946,2.0782437,-0.66946834,-0.44353706,-1.9001151,-0.7531277,1.3815578,-1.078113,-4.8381824,4.204448,-2.0971339,-1.9013984,-0.56205404,0.761677,4.7157707,4.384251,-2.5257103,2.3800147,2.3617077,0.6448045,0.8580808,-4.341614,-1.8585007,-2.4026783,-1.6145331,1.0036724,1.6249216,-0.6072044,-0.74914056,-1.9433897,1.1245376,-0.9199979
CHEMBL382638,3.9702094,-2.4715183,2.9882338,-1.2936608,3.730207,-4.0063057,-1.4792999,4.28001,1.659885,2.4923081,1.3553958,0.9347075,-2.17225,0.5860447,-0.6769471,-1.4983875,2.0923507,2.7418232,1.0878683,-1.1749537,2.690998,-3.296032,0.8234456,-1.9752082,1.3653413,-5.7519817,1.2384967,5.986439,-0.21078445,1.1683902,5.5840554,1.4383433,4.4292145,2.3248684,-2.3186412,-2.3504102,-1.7002643,-0.27654463,0.47914374,2.1976845,-2.4430137,-1.4293205,-4.209012,-2.643382,-0.5099134,-1.2694337,5.461747,2.3022065,-3.637617,4.482575,-4.8301353,0.107525796,-2.3341157,0.9286276,3.2774808,-1.2812428,-0.6619815,-2.0097,-0.26700908,2.4641602,1.697514,3.833572,0.7347959,-1.0128357,0.26628223,-0.17255041,-1.2821308,1.2361448,-0.806902,3.418524,-1.2249213,4.4893236,4.2402425,-0.8948203,1.9054048,-2.3503664,-1.0329264,1.3574934,-1.9809484,-2.871265,-1.9867312,-0.5615732,-3.0890837,-5.5640326,2.2771754,1.7631915,-0.34351677,-3.6880813,-2.0714216,1.8482994,-0.34608403,-0.9379716,-0.3045826,-1.2232913,-2.2812905,0.9552548,0.83007765,-6.185664,0.9320847,0.86944777,-1.5544682,0.17200637,-1.8559042,-4.5651298,-3.98087,-0.908984,-4.7414293,0.44045484,0.3163811,2.339757,-6.0841093,-0.68493766,0.23063977,0.7427842,-2.3561795,-0.5944338,-0.24180175,2.227791,-0.984765,1.1064676,-1.5794035,-2.0491207,-0.7579114,0.59071887,0.83542365,4.23612,1.8967427,4.3668203
CHEMBL382822,-3.6197875,-0.5779015,2.124973,0.530792,-0.83708507,2.7882116,-0.6980469,-3.7535772,-2.6788244,1.864189,-1.0575857,2.1532035,-2.1568844,2.6339455,-3.6422887,-4.453035,-2.8805985,0.37529758,3.4459546,-5.196912,-3.4653478,-1.5299668,-1.3835464,0.017049829,5.986872,-2.5565016,3.2421722,3.5174766,-0.30666575,-2.5215821,8.378053,1.8889924,3.0952666,-1.7258681,1.4950119,-0.66903234,-2.296241,-5.903975,-3.5293133,2.4188623,0.9913708,0.7938378,-1.4630864,-0.5413479,-2.103136,0.30845052,1.2430627,0.8100481,1.5826184,-0.56013,3.547508,1.7331303,-7.594675,-5.309186,-0.46369883,-1.8230886,-2.9174182,-4.1072235,2.3134592,1.5881755,3.818645,0.09539936,1.6375622,2.2503307,-0.8030503,2.397358,2.270088,2.7800045,3.5255644,1.8592558,-0.88311094,3.118585,1.8799787,-0.18207702,3.7273686,1.562945,0.98891354,1.2729566,2.377062,-3.868758,-0.7152999,1.5217317,-2.5597758,-6.3008394,-0.5971623,1.2734258,0.24747118,-0.6885668,-5.1644135,0.67166144,4.14528,4.91244,5.166953,-1.5796183,0.18359634,1.1988021,-0.3708797,-7.678672,0.87497956,2.9029782,2.3184533,3.9393132,0.21641351,-2.0957801,0.5862103,-0.810398,-4.4080625,0.61385334,1.9754268,3.3785007,0.5847175,-4.871694,-0.47980154,0.60235476,1.3940653,0.6874911,0.9371803,1.2770914,-2.6913714,-1.0506173,1.0588062,3.0388236,1.1148173,-2.1107485,0.947336,3.8342652,-2.7323172,0.36440313
CHEMBL382823,-2.6117687,0.5316601,-0.8365438,-0.2758178,-4.735277,-1.3450308,-1.2304329,0.6539602,2.4060237,1.0072182,1.1039411,4.6460524,1.8640842,0.82539874,-5.2176914,1.9632838,-2.5767086,0.17810987,-0.14875233,-6.498495,-3.7650847,-0.88492805,-0.96638036,-3.2284722,4.4747763,-5.2744784,1.8295726,3.1610644,-0.46196526,3.2463129,1.6817226,-1.3229289,0.57147974,-1.8210747,2.624959,2.999252,-0.6217261,-3.6989563,1.6478868,1.8224984,-0.54494023,-3.4117248,-0.23594174,-3.4538083,-1.4670362,-0.029492095,-0.74393076,-0.4495203,-0.27434182,-1.6976471,-1.0432901,-2.8065534,-9.204914,-1.3119195,3.0371091,-4.141424,-1.5573577,-3.9663208,-1.4486347,2.4099212,-1.051867,3.6961894,-3.4239283,-0.25382137,-2.5603933,2.2977715,-2.4645643,1.4691175,-2.6005862,0.15115309,-1.8006862,0.4636771,-0.716945,-2.314055,2.3833268,-4.252969,1.8785214,1.033833,2.032964,-5.722665,-1.9300935,4.2810316,3.6115336,-2.4697273,2.726957,3.3219151,-5.286063,-1.361336,-2.9117362,0.45107073,-0.43314052,4.1331773,3.4536018,2.5946138,0.039368212,0.53220874,4.2969656,-0.29468584,3.5389163,3.2633045,2.091628,5.834829,-1.9919512,-2.3681526,-1.6889151,-1.6130848,-3.1519861,2.1289828,-1.0692841,-0.054387704,-1.7451295,0.89829886,-0.35864663,5.150351,6.1674547,2.9772165,0.1786644,-0.93448377,-3.862907,-4.6995416,2.5153072,0.19441369,-1.431477,0.47438714,1.7940359,1.6108866,1.0612828,-3.008279
CHEMBL383246,2.088486,-0.7211178,-1.8172549,1.6705154,4.4752336,4.7166505,-1.1288878,-3.8314142,-0.55637234,-1.9337713,-2.6923985,-3.1263437,-1.3059354,4.6374154,-1.1792636,3.8390303,1.2518576,-7.073727,1.5572432,4.4784756,2.5874388,-4.857103,-3.9562776,-1.5373737,-3.1061444,0.358385,-3.8037987,-2.575082,-8.159181,-0.09839018,7.0714498,-2.6404572,5.417528,3.4473424,5.08589,-3.4459472,-8.040459,-2.482405,-6.630075,4.116039,-4.040601,-1.769907,-2.2532837,2.2043977,-3.9613602,-2.9256477,6.4003854,5.7380905,-6.167756,-0.8197519,-1.2675768,1.5211042,-1.5631675,-1.5078979,-2.0542371,-1.374803,2.7804787,0.7315212,-0.47689682,1.8725252,-2.7526686,0.54782516,1.089572,0.8236871,-1.8624793,3.139972,2.0976608,-0.76358044,-1.8253462,4.342118,-4.991456,-2.0353987,5.703892,-0.58342105,2.3117104,3.285911,0.32169378,-1.1033634,-6.9310484,-8.526676,-0.5395169,2.2973704,-2.1817906,-5.5284452,-2.4772406,-1.2043425,-6.41619,-0.10180611,-7.1368093,-1.5295112,-1.0209973,-1.6303151,-1.084155,-2.9768095,-2.550849,-3.6391182,2.393404,3.669585,-1.5335966,-1.3748099,2.0570755,-7.63682,-3.9872274,-3.1844184,1.8924606,0.07147221,-3.6559627,3.5143583,6.233864,-0.97855806,-4.334168,-0.085480995,1.4647496,-8.80718,-0.6553196,2.512988,-2.0835242,-3.4047508,-0.32219186,1.3226408,3.3173447,0.51275,0.15355016,3.211919,0.022475664,5.533518,0.7981375,2.8242385
CHEMBL383760,2.460669,1.5599527,1.4564508,2.0557404,1.5344512,2.532124,5.680373,0.19701278,-0.35905775,1.0523652,-2.252084,-0.89552444,1.6023052,1.3794156,-0.0038306862,4.28065,-0.29427537,1.5008615,0.9891366,6.182702,2.4073756,-1.5093113,-5.413771,-0.80783844,-5.3045535,-5.785442,-1.7538401,2.9060178,-2.3726594,3.7313287,2.4917426,1.5067656,4.728177,-1.5524579,-1.8931606,-2.4402144,0.93694896,3.1442013,-1.2593074,-2.411562,-1.9447446,2.922498,-0.79475784,0.25393,1.3293946,-0.51140755,2.6957548,-1.2438481,-2.9098046,3.7810462,4.589624,0.35444188,-1.6757227,-4.757373,0.118320376,-0.9456234,4.026589,-0.14893104,-0.57077354,-1.8697312,-3.436843,0.35346305,-2.4570982,-4.4772534,-3.374697,-0.9879909,-3.141435,-0.5087504,-0.19328068,3.3259957,1.2792782,5.7266893,0.31513494,3.5718575,2.1865845,0.98109037,4.9067426,-3.411459,0.48040193,-1.4709367,1.3900965,2.4285753,-0.44895133,-7.1973314,-0.54582566,-0.3540581,0.2216498,-2.1962163,0.04376335,-0.76811296,0.7336844,0.2707054,0.17757511,-1.120396,-1.5097462,2.760066,1.1369685,-0.56931674,0.41052186,0.13558534,0.23893335,0.51623416,-0.16152687,-7.0517097,-2.3764288,3.0645256,-1.0268339,4.8411694,-0.3489628,2.670456,0.0831623,2.570978,-1.579141,0.21769263,2.2957768,-3.1247973,4.656464,0.24862546,-2.7983325,3.5703392,4.336508,-1.0489466,0.24111545,-3.234066,2.3084993,4.6075063,-1.1186808,3.81444
CHEMBL389745,-0.33890232,2.293688,3.7023647,-3.308882,0.98646724,5.0519357,-0.6009269,1.0200243,-7.418068,-2.1195688,-5.0635304,4.657815,-4.8475556,5.1652026,-1.8089919,-1.3376278,5.5877533,-5.2975235,5.276766,2.852652,-4.335403,-7.179454,0.80710906,-1.4334882,4.1348896,5.007296,4.625609,-2.1690972,-4.99168,-6.184097,10.56661,-2.3444164,-1.4994335,0.2563031,2.608915,-4.446289,-9.147795,-6.4415765,-13.967,-1.8278785,0.09671831,-2.3148096,-0.4440711,4.7962475,4.1899943,-4.8012915,2.6341693,3.14315,-2.1574435,-4.402518,-3.037816,2.04193,-1.7459551,-1.7487032,-0.7176766,-5.898757,-3.2631655,3.403417,9.981064,-2.5309281,0.17803615,1.0106592,-0.036033038,2.3328738,-4.6352296,1.7414455,-1.4220712,1.4456449,-1.400272,4.528928,0.5763147,-1.1788805,7.976205,0.43483734,1.8956348,7.5206304,-2.1153076,-7.060099,0.3244081,-9.2513895,-2.8483236,-0.968948,0.16089368,-3.6534035,-2.0035548,-6.304775,-7.492631,1.9853083,-4.099742,-6.501354,0.4834398,1.9962488,6.447542,0.12080026,-8.497341,6.1434135,8.795764,9.260552,2.1206071,3.2602177,6.1247416,0.23371792,-3.057515,2.951404,1.1416146,4.516774,-1.7774155,2.7192018,-2.242199,1.6863517,-3.098932,1.1617305,-5.1062436,-5.940792,1.2084051,1.3854412,7.672651,-5.348582,-0.1177509,-4.3148823,1.9690695,3.1284964,0.6371927,-5.744703,-2.1913745,0.6739503,4.210928,-0.058923285
CHEMBL395080,0.90828896,1.89813,-4.5927033,-1.6813847,-4.8006487,6.7554646,-0.3007836,-4.8787556,-3.151281,0.3083002,-8.948814,6.377728,-1.3803868,2.5406866,0.066836715,2.4388754,2.1196165,-4.4048862,3.2944489,-0.32110733,-4.3761435,-3.3716817,4.942061,1.7700702,4.980121,5.359054,9.069664,1.2925295,1.4224626,-7.6289086,4.8480124,-7.0938644,0.14641485,-2.6404948,-4.7738276,-2.2428997,-6.8588614,-2.8830101,-5.5681396,-2.44396,1.0934281,-5.6203203,-3.9800558,-0.83012927,8.452919,2.9630132,1.4790199,2.7679133,-2.9635637,-1.4231799,-7.06442,-3.4788811,-1.6707665,-2.6540577,-0.33048317,-0.05753984,-2.975431,-0.86282754,2.068175,-5.1261907,-0.6272758,7.936008,0.5662996,1.5799849,-1.5885681,-1.1034882,-1.5471675,-3.7721229,1.8396885,-0.973047,3.0973685,4.8869176,4.600488,2.6643536,-4.2392406,8.461118,-1.8910732,6.585897,3.4313867,-5.4147425,-1.2502824,6.3846803,-3.831786,-9.906765,0.37910745,-3.1974516,-9.637759,-1.9020921,0.32593974,-9.39834,3.7910392,-0.33335096,2.6212554,-0.4318018,-7.519306,4.840591,5.0225873,6.139563,3.989342,7.2154193,6.2862983,1.9034991,1.2660503,1.3143369,-2.3045516,1.5640793,-2.6680853,2.3688498,-3.5152218,2.3168812,-9.483918,-1.9901168,-4.1623163,-2.74606,-2.4248543,2.2160878,2.0801253,0.20683822,-4.0031247,-2.5518303,0.86008275,1.0374056,-8.331659,-1.2273059,-2.3966246,-1.4815032,-0.27087966,-2.7259865
CHEMBL398606,0.49687046,0.26160944,1.8102796,1.8880624,-3.7515025,4.395294,0.6261208,1.2159195,-1.2777909,-2.6948237,-2.534034,1.7506672,-4.413086,1.0886312,-1.6415946,-0.63970363,-3.468735,0.023465097,-4.2753158,0.93728113,-3.1516118,-4.728188,0.18791711,1.4533966,-2.534333,-1.5169429,-1.8474855,0.64175117,-0.46337578,1.6802676,3.3718379,2.7652502,0.9212477,-5.303276,2.854131,-2.9856832,-0.6881701,-4.219521,-2.8363404,2.3281252,-0.22670275,1.1234021,0.32123405,-0.32330856,0.008261234,-3.6870737,-1.5507996,1.2714502,1.9557961,-2.5011964,2.8319466,-2.9192543,-1.2667295,-0.30000675,-2.06102,2.4512424,-1.5178866,-0.6142664,0.56767863,2.4507563,-2.2229984,-1.0923727,-2.5326593,4.8495975,-5.3865957,3.0881567,-1.6268264,0.12456771,-2.0541623,-0.4720366,-0.1647621,-1.1347735,0.39014304,0.34636,4.022846,-0.18585643,2.2280304,-3.6194239,4.5994253,-4.518199,1.7238073,0.08295964,3.6716568,-4.0090275,-2.6284206,0.34797543,-2.7728646,6.7915697,0.004509546,0.49462906,1.950602,4.3080177,4.5549445,0.6376522,-1.6700774,-0.16787282,4.714826,5.797744,1.8181977,0.70764035,1.5590042,2.3361907,-1.7311192,-0.3235533,0.76424265,2.6915379,2.6125998,3.26002,-1.3175776,-1.832739,4.6286407,0.39103854,-1.1322104,2.8261442,8.024902,-1.7644564,4.6005006,-3.2713482,0.8359036,-0.5265881,3.6240523,-1.2671084,3.2702308,-1.2276324,-0.029082574,2.1995475,1.3107986,-6.9585276
CHEMBL425601,-0.9725642,-2.9989696,-2.5105758,5.0642567,-1.8970028,5.6078224,-1.6684097,-1.0080805,-1.4330165,-1.1006345,-6.1637,3.1384625,-1.873255,1.7351261,-3.319746,-0.74495804,-1.6411719,3.9568648,1.5130334,-4.02521,-3.1790974,0.14200725,-1.530006,0.55032134,1.9656031,-6.086144,-1.1004404,-2.7331052,-4.1449475,-0.021840394,7.457177,0.5684187,3.7451036,-1.5171294,3.0553064,-3.2884715,-4.4762006,-6.3032985,-3.5731692,2.9719357,-1.659539,-0.7967632,-1.1313007,-0.54057604,-2.0892756,-2.6648283,0.15809847,4.285004,0.25369462,-1.3979915,0.029599681,-3.3769653,-3.4380748,-0.8057891,-2.2295678,-1.051814,-6.3037076,-2.4841344,0.34691632,4.842161,2.280814,1.0646541,-1.3666433,2.4241042,-4.4268074,2.4189131,-4.3903255,3.844915,1.4268423,-0.065550745,-2.5600686,0.89977956,5.4155746,-0.072895855,1.7132846,0.7440518,-0.33062652,0.5790891,2.3548293,-5.5588865,-0.67383146,2.8465137,-0.19130021,-4.2604175,-2.5055585,0.23870778,-1.0154055,3.5371008,-2.3044262,0.23810682,5.680808,6.2826014,3.2878184,-1.0529954,1.8682622,-0.14593597,5.3243117,2.6703336,1.2489862,1.2681142,3.284032,-1.3347768,-0.81776774,-4.9662848,-6.8179903,1.6927735,-1.5309415,8.46066,-0.10359974,0.71838117,1.1768548,-2.752846,-0.27046305,4.294021,1.7922102,-1.0862937,1.3833176,-1.2901373,-1.7345277,-2.5188463,-1.051154,0.7197403,1.2446573,-3.0645192,0.23412256,3.4902065,1.6929657,-2.5542696
